{"version": "0.5.4", "metadata": {"date": {"year": 2026, "month": 4, "day": 26, "hour": 18, "minute": 9, "second": 51}, "loudness": -19.532495498657227, "gain": 0.905107368406716, "name": "Octobass", "modeled_by": "October PRoduction Co.", "gear_type": "pedal", "gear_make": "", "gear_model": "", "tone_type": "crunch", "input_level_dbu": null, "output_level_dbu": null, "training": {"settings": {"ignore_checks": false}, "data": {"latency": {"manual": null, "calibration": {"algorithm_version": 1, "delays": [61], "safety_factor": 1, "recommended": 60, "warnings": {"matches_lookahead": false, "disagreement_too_high": false, "not_detected": false}}}, "checks": {"version": 3, "passed": true}}, "validation_esr": 0.008199723368307172}}, "architecture": "WaveNet", "config": {"layers": [{"input_size": 1, "condition_size": 1, "head_size": 8, "channels": 16, "kernel_size": 3, "dilations": [1, 2, 4, 8, 16, 32, 64, 128, 256, 512], "activation": "Tanh", "gated": false, "head_bias": false}, {"input_size": 16, "condition_size": 1, "head_size": 1, "channels": 8, "kernel_size": 3, "dilations": [1, 2, 4, 8, 16, 32, 64, 128, 256, 512], "activation": "Tanh", "gated": false, "head_bias": true}], "head": null, "head_scale": 0.02}, "weights": [0.006965564098209143, 0.4362535774707794, -0.7816892862319946, -0.8345158696174622, -0.2828100919723511, 0.3796732723712921, -0.11226069182157516, 0.8546419739723206, -0.20495039224624634, 0.33800938725471497, -0.3843458592891693, -0.13328544795513153, -1.0160831212997437, -0.6937962770462036, -0.4973508417606354, -0.008425009436905384, 0.22863706946372986, 0.15346145629882812, -0.1996961534023285, -0.27237221598625183, -0.05547994002699852, 0.1311834454536438, 0.18464572727680206, 0.22286653518676758, -0.03129642829298973, 0.23334664106369019, 0.2495597004890442, -0.1438015103340149, 0.1144736185669899, 0.07126841694116592, -0.07595159113407135, -0.07810028642416, -0.19614621996879578, -0.04087291285395622, 0.059445519000291824, -0.06499431282281876, -0.1744256615638733, -0.0931592807173729, -0.05373965576291084, 0.07898955792188644, 0.1910945028066635, 0.01599482074379921, -0.028077414259314537, -0.33901479840278625, -0.21227295696735382, -0.04803726449608803, 0.29710856080055237, 0.19070197641849518, -0.08651996403932571, 0.18257251381874084, 0.18505023419857025, 0.10453721135854721, 0.27592137455940247, 0.13888655602931976, 0.08930499851703644, 0.12968580424785614, 0.14303377270698547, -0.12277816236019135, 0.11323167383670807, 0.03963090106844902, 0.04785124585032463, -0.14081501960754395, -0.2214936912059784, -0.003346130019053817, 0.045726124197244644, 0.06438049674034119, -0.10104793310165405, 0.01977478712797165, -0.0689220055937767, 0.18672455847263336, -0.09296804666519165, 0.11228586733341217, 0.01283340435475111, 0.13842374086380005, 0.2924240827560425, 0.08267722278833389, 0.03776010498404503, 0.029269788414239883, -0.04178960248827934, -0.09637881815433502, -0.2892761826515198, 0.18601427972316742, 0.07458751648664474, -0.024071335792541504, -0.07997587323188782, -0.04332329332828522, -0.19043318927288055, -0.021937627345323563, 0.04320383071899414, 0.05428513512015343, -0.02700868621468544, 0.06624865531921387, -0.05257729813456535, 0.11232724040746689, -0.13466106355190277, 0.06292162090539932, 0.01640300452709198, 0.02158093824982643, 0.02483365498483181, -0.15644413232803345, 0.15599912405014038, 0.2650966942310333, -0.10578877478837967, -0.019022835418581963, 0.02749956212937832, -0.04838553071022034, -0.09582988172769547, 0.05016684532165527, -0.05969332903623581, 0.046308521181344986, -0.11867055296897888, 0.16264685988426208, -0.03693748638033867, 0.04532676190137863, 0.22160083055496216, -0.1226954236626625, 0.10776686668395996, -0.0449751652777195, 0.017442727461457253, -0.11730869859457016, 0.10397721827030182, 0.005623197183012962, -0.22333236038684845, 0.11835823208093643, -0.13114066421985626, -0.2268688827753067, 0.026295948773622513, -0.08058368414640427, 0.08925555646419525, -0.1812644749879837, 0.017177166417241096, -0.08531726151704788, 0.019199145957827568, -0.004158602096140385, 0.25589701533317566, -0.06410181522369385, 0.03412285074591637, -0.1403736174106598, 0.11812034994363785, 0.0823092833161354, 0.28009718656539917, 0.02658805251121521, 0.1443459689617157, -0.1531146913766861, -0.06950142979621887, -0.047700341790914536, -0.03084636852145195, 0.0761856734752655, -0.07639031857252121, -0.26452919840812683, -0.08730640262365341, -0.1235843375325203, -0.18059615790843964, 0.1298827826976776, 0.08146359771490097, -0.2870848476886749, 0.1481545865535736, -0.15097038447856903, 0.03394992649555206, -0.16975794732570648, 0.0010292797815054655, 0.015994295477867126, -0.25817781686782837, -0.2057921141386032, -0.08118610829114914, 0.07455321401357651, 0.021119823679327965, 0.11981218308210373, -0.1980469673871994, 0.07805665582418442, 0.1953248232603073, -0.1290132701396942, 0.2034101039171219, 0.1095324158668518, -0.21409639716148376, 0.015099693089723587, -0.0710257813334465, 0.01751445047557354, 0.16375313699245453, -0.07713957875967026, -0.10753781348466873, -0.1177913099527359, 0.035369742661714554, 0.1097308099269867, 0.12824547290802002, 0.09609752893447876, -0.13999590277671814, -0.10584750026464462, -0.17825879156589508, 0.16260360181331635, 0.1930100917816162, 0.15634487569332123, -0.18130254745483398, 0.06541283428668976, -0.05641535297036171, -0.17741659283638, 0.004648515023291111, 0.11820407956838608, -0.1541784703731537, 0.08261577785015106, 0.07228545844554901, 0.02207743190228939, -0.02781938761472702, -0.035910602658987045, -0.16203998029232025, 0.10770735889673233, -0.09911543875932693, 0.2203187197446823, -0.03805355727672577, -0.07661299407482147, 0.13242989778518677, 0.12182755768299103, 0.16619986295700073, -0.10144144296646118, -0.15446896851062775, -0.1357327252626419, -0.0472862645983696, -0.2312556952238083, -0.03973572701215744, -0.049460966140031815, -0.15447822213172913, -0.002421208657324314, 0.1307418793439865, 0.14548370242118835, 0.016996920108795166, -0.010467940010130405, -0.2015942484140396, -0.14855948090553284, 0.09349001199007034, 0.13381129503250122, 0.15758682787418365, 0.05230601504445076, -0.10241033136844635, 0.0025803695898503065, 0.19746138155460358, 0.050244856625795364, 0.20954878628253937, -0.1858414262533188, -0.20522214472293854, -0.10238878428936005, 0.12710224092006683, -0.018038522452116013, -0.17598795890808105, 0.09725294262170792, -0.08223316073417664, -0.29684126377105713, 0.1697033941745758, -0.2721748948097229, -0.15213674306869507, 0.04404659941792488, -0.22590380907058716, -0.13192175328731537, 0.19538408517837524, 0.016827957704663277, -0.008565648458898067, -0.15327419340610504, -0.10678856074810028, -0.020118633285164833, 0.05782416835427284, -0.07381206750869751, 0.051385313272476196, 0.036938562989234924, 0.04908975213766098, -0.03173024207353592, 0.09431277960538864, -0.07531755417585373, -0.18448209762573242, 0.08704550564289093, 0.10231596976518631, -0.09289126843214035, -0.01205357164144516, -0.05357043817639351, -0.004898397251963615, -0.026072829961776733, -0.054887402802705765, -0.23369060456752777, 0.237450510263443, -0.06635677069425583, 0.12745214998722076, -0.002178012626245618, 0.00989220105111599, -0.21665117144584656, -0.03357580676674843, 0.12964117527008057, 0.15796688199043274, 0.06031758710741997, -0.0651031956076622, -0.09152591973543167, 0.02185400389134884, -0.007200498133897781, -0.20592376589775085, 0.12184236943721771, 0.016959745436906815, -0.14808233082294464, 0.009663931094110012, -0.11480198800563812, -0.04269557073712349, -0.06239582598209381, 0.03843853995203972, -0.18766780197620392, -0.017213216051459312, -0.03163140267133713, -0.03609011322259903, -0.10411001741886139, 0.05101720616221428, -0.16257505118846893, 0.16980193555355072, 0.10012194514274597, 0.16726653277873993, -0.09680970758199692, -0.1617932766675949, -0.13911432027816772, 0.12358256429433823, -0.09553393721580505, -0.06282858550548553, 0.1731444001197815, -0.10618200153112411, -0.10539096593856812, 0.15030764043331146, 0.040181178599596024, 0.11435049027204514, -0.0722259059548378, -0.10084289312362671, -0.059198569506406784, 0.24331597983837128, 0.1730257123708725, 0.20220749080181122, -0.056710224598646164, 0.06069215387105942, -0.1568293273448944, -0.0020777457393705845, -0.0953139141201973, 0.25001925230026245, -0.001244924496859312, -0.13178814947605133, -0.04939267784357071, 0.19616131484508514, 0.12848758697509766, 0.03312439098954201, 0.21777549386024475, -0.07764770835638046, -0.1696266084909439, 0.1929178088903427, 0.03953682258725166, -0.20290552079677582, 0.20715689659118652, 0.03375517204403877, -0.033010952174663544, -0.004862723406404257, 0.06032881140708923, 0.05327509343624115, 0.04377814382314682, -0.18212200701236725, -0.027206357568502426, 0.3073435127735138, 0.33325499296188354, 0.1216031163930893, -0.2489965856075287, -0.3786056637763977, -0.14050422608852386, 0.22960680723190308, -0.4193672835826874, -0.2887789309024811, 0.444094181060791, -0.17746558785438538, -0.03243648260831833, 0.43128401041030884, 0.15162932872772217, 0.07175595313310623, -0.3624110817909241, -0.34900328516960144, -0.059378836303949356, 0.24873366951942444, 0.20666064321994781, 0.033728133887052536, -0.41088607907295227, -0.1491321176290512, -0.04797767102718353, 0.45060086250305176, 0.37984251976013184, 0.2976193130016327, -0.3703274726867676, -0.2148858904838562, -0.04268880560994148, 0.3828607499599457, -0.10650166124105453, -0.09295978397130966, 0.3998238444328308, -0.32803210616111755, -0.10432561486959457, 0.3452357053756714, -0.31084442138671875, -0.2543964385986328, 0.24786707758903503, -0.38501352071762085, -0.07483480125665665, 0.43415334820747375, 0.03526754677295685, 0.043540894985198975, 0.17517323791980743, 0.13959303498268127, -0.049658339470624924, -0.024179020896553993, 0.11329622566699982, 0.1549917608499527, -0.10513260960578918, 0.15221212804317474, 0.004922251682728529, -0.06257060915231705, 0.0964120402932167, -0.18691055476665497, -0.029364949092268944, 0.1493249088525772, -0.08636240661144257, -0.09300833195447922, -0.07678506523370743, 0.052580367773771286, -0.032720670104026794, 0.07724419981241226, 0.06428350508213043, 0.059733614325523376, -0.1042095199227333, 0.11210176348686218, 0.076588936150074, 0.12079858034849167, -0.2104680985212326, 0.006401424761861563, -0.13521523773670197, 0.03352619707584381, 0.04333645477890968, -0.07733677327632904, -0.041581813246011734, 0.12430833280086517, 0.049837417900562286, -0.1761399209499359, -0.027969319373369217, 0.04494988173246384, -0.2163749486207962, 0.06253078579902649, -0.11456571519374847, -0.24235166609287262, -0.14615364372730255, -0.007133144419640303, -0.002260729670524597, -0.1351882368326187, 0.22424562275409698, 0.13110779225826263, 0.13702087104320526, -0.009316468611359596, -0.2317361831665039, 0.2629304528236389, 0.15808339416980743, 0.31777656078338623, 0.008056615479290485, -0.18018341064453125, -0.061759013682603836, 0.06880815327167511, -0.017677264288067818, -0.3000330328941345, 0.02130317874252796, -0.21728764474391937, -0.2278776615858078, 0.10384231060743332, -0.03969161957502365, 0.21880342066287994, 0.0013816850259900093, -0.01493808813393116, -0.24093219637870789, 0.018758105114102364, 0.04151536524295807, 0.24738925695419312, 0.08038970082998276, 0.027516953647136688, -0.17679943144321442, 0.15106305480003357, -0.06761971861124039, 0.0512920580804348, -0.009884330444037914, -0.1574430614709854, -0.1051214262843132, -0.027911758050322533, -0.12989597022533417, -0.27473142743110657, 0.16633838415145874, -0.10192633420228958, -0.07400722056627274, 0.15002122521400452, -0.004323265049606562, -0.1778164803981781, 0.018950331956148148, -0.11195362359285355, -0.16026905179023743, 0.1419471949338913, -0.09115205705165863, 0.19064278900623322, -0.11669596284627914, -0.1422315090894699, -0.10373255610466003, 0.18120470643043518, 0.25186583399772644, -0.059505946934223175, 0.12461534887552261, -0.054575011134147644, 0.00234355591237545, 0.09195837378501892, -0.20605622231960297, -0.04203725606203079, 0.02724987454712391, -0.1582118272781372, -0.02996743470430374, -0.062051136046648026, 0.20190444588661194, 0.028727194294333458, -0.03934517502784729, -0.03250288590788841, 0.007840677164494991, -0.044442493468523026, 0.14052803814411163, 0.16997100412845612, 0.016987256705760956, -0.049028266221284866, -0.09419716894626617, 0.05329466238617897, 0.009997655637562275, -0.0069785770028829575, -0.05426719784736633, 0.0169175174087286, -0.11186670511960983, -0.01862417906522751, -0.16757909953594208, 0.08067964762449265, 0.13719625771045685, -0.23848524689674377, -0.20513243973255157, -0.142614483833313, -0.12677964568138123, -0.12163520604372025, -0.1243060752749443, -0.1744455248117447, -0.056630875915288925, -0.10177505016326904, 0.04957451671361923, 0.031968455761671066, -0.06541793793439865, 0.052618417888879776, 0.06723371148109436, -0.03480985015630722, -0.10332769900560379, 0.0466284304857254, 0.04584059864282608, -0.023483943194150925, -0.2339322417974472, 0.24147598445415497, 0.02140416018664837, -0.06877870857715607, 0.08595988154411316, 0.07095794379711151, -0.13346266746520996, 0.17534807324409485, -0.09448713064193726, -0.03097919188439846, -0.17352619767189026, 0.02854412980377674, -0.04846663028001785, -0.03213677182793617, 0.023793360218405724, 0.06448138505220413, -0.12385958433151245, 0.19588634371757507, -0.04785501956939697, 0.18967106938362122, -0.01770378090441227, 0.060015637427568436, -0.18152420222759247, 0.09385635703802109, 0.014345957897603512, 0.04276784881949425, -0.04092827066779137, -0.045696377754211426, 0.2160542905330658, 0.07285245507955551, -0.21470391750335693, -0.03140543773770332, 0.14717653393745422, -0.10815221816301346, 0.023544199764728546, 0.13673435151576996, -0.045787785202264786, 0.20768576860427856, 0.03615368902683258, -0.10207774490118027, -0.22307991981506348, -0.1678546965122223, 0.027443649247288704, 0.23485741019248962, 0.1722315102815628, 0.07143578678369522, 0.04346850514411926, 0.022757094353437424, -0.07262301445007324, -0.036753468215465546, -0.1703854352235794, -0.30495816469192505, 0.22257322072982788, -0.1668424755334854, -0.2599530518054962, 0.17193184792995453, 0.034570641815662384, 0.11936237663030624, -0.11336534470319748, -0.07508108764886856, -0.2673584222793579, 0.26887068152427673, 0.05173793062567711, 0.25621891021728516, 0.04003174230456352, -0.008637028746306896, -0.1538258194923401, 0.2459888458251953, 0.12151305377483368, 0.1264382153749466, 0.03600825369358063, -0.06997023522853851, -0.334079772233963, 0.05684209242463112, -0.18474304676055908, -0.04929644986987114, 0.09078838676214218, -0.24843436479568481, -0.21554285287857056, 0.1746227890253067, -0.07569367438554764, -0.157328262925148, 0.10060488432645798, -0.05684548616409302, -0.2359279841184616, 0.03526629880070686, -0.10853329300880432, -0.026713155210018158, -0.06751466542482376, -0.32176923751831055, 0.17107416689395905, 0.041826341301202774, 0.23497161269187927, -0.3078625500202179, 0.09396228939294815, -0.3025036156177521, 0.34210795164108276, -0.06594322621822357, -0.2597147226333618, 0.30201631784439087, -0.010082551278173923, -0.1132785826921463, 0.10538370162248611, -0.08925019949674606, 0.1652332842350006, -0.19561803340911865, 0.09002790600061417, -0.32013657689094543, 0.2655270993709564, -0.006235747132450342, 0.19182102382183075, -0.1170881986618042, -0.16030219197273254, -0.22933872044086456, 0.3464619815349579, 0.007317756302654743, 0.3440324068069458, -0.2614835798740387, 0.07657742500305176, -0.36785566806793213, 0.1996968537569046, 0.019855152815580368, -0.19557303190231323, 0.2507454454898834, 0.13388203084468842, -0.2434380203485489, 0.21877886354923248, 0.14870014786720276, -0.2617569863796234, 0.3490559160709381, -0.04892910271883011, -0.24842426180839539, 0.21035052835941315, 0.1077672466635704, 0.16080276668071747, -0.16454218327999115, -0.12333289533853531, 0.18509866297245026, 0.08735942840576172, -0.12351252883672714, -0.2787776291370392, -0.03203771263360977, 0.21290186047554016, 0.2053707391023636, -0.003874263260513544, 0.027561111375689507, 0.08870390802621841, 0.16725711524486542, -0.054090771824121475, 0.11751870065927505, 0.17477260529994965, -0.2118644416332245, -0.14706382155418396, -0.20922821760177612, 0.07607197761535645, 0.1483888477087021, 0.20103704929351807, -0.22407741844654083, -0.10245183855295181, -0.15176458656787872, 0.005978121887892485, 0.030797945335507393, -0.03095902130007744, 0.021506190299987793, -0.21644622087478638, -0.1149737685918808, 0.13070638477802277, 0.2808924913406372, 0.2440119981765747, 0.02827952429652214, 0.05868057906627655, 0.08491335809230804, -0.1874130517244339, 0.11408654600381851, 0.16907961666584015, 0.06265038251876831, 0.07679925858974457, 0.21887484192848206, -0.15116684138774872, 0.1627648025751114, 0.24386566877365112, -0.11473748832941055, -0.1405082643032074, -0.21175871789455414, 0.15576869249343872, 0.09457384049892426, -0.19938912987709045, 0.049122992902994156, -0.18841788172721863, 0.04291553050279617, 0.0733293741941452, 0.19470462203025818, -0.2052173912525177, -0.0022383984178304672, 0.20411166548728943, -0.07065467536449432, -0.14720521867275238, 0.07172619551420212, -0.19981753826141357, -0.1756921410560608, -0.09200678020715714, 0.26417529582977295, 0.18174010515213013, 0.14271382987499237, -0.08912204951047897, -0.08308739215135574, 0.029182005673646927, 0.10596950352191925, -0.028957320377230644, 0.12922438979148865, -0.05512194335460663, -0.17278754711151123, 0.04031271114945412, 0.20787999033927917, -0.041459690779447556, 0.059089262038469315, -0.03163057938218117, -0.17241270840168, 0.06369911879301071, -0.08719196915626526, -0.16625957190990448, 0.1576627492904663, -0.0921529084444046, 0.016911786049604416, -0.0110696479678154, -0.020659130066633224, -0.15512977540493011, 0.229302778840065, -0.30053460597991943, -0.19497235119342804, 0.06887075304985046, 0.13151168823242188, 0.04173886775970459, -0.01436916645616293, 0.016836926341056824, -0.17217236757278442, -0.10781063884496689, -0.04191194474697113, -0.0846870020031929, -0.02258593961596489, -0.028023770079016685, 0.0836399495601654, -0.026667743921279907, 0.025483395904302597, -0.09530610591173172, -0.1025421991944313, 0.17232023179531097, -0.040215227752923965, -0.09245786815881729, 0.4426596164703369, -0.39274078607559204, 0.7586140632629395, -0.6423988342285156, -0.0527833066880703, 0.8659713268280029, 0.9298714995384216, -0.9058101773262024, 0.19694246351718903, 0.06615690141916275, -0.42854905128479004, -0.4523615837097168, 0.19556905329227448, -0.7508851885795593, 0.22833020985126495, 0.5120344161987305, -0.022443927824497223, 0.2524915635585785, -0.15685372054576874, 0.18465563654899597, 0.13296911120414734, -0.09168297052383423, 0.012487920932471752, -0.4881003201007843, -0.09939884394407272, -0.1278240978717804, -0.09929661452770233, -0.14887574315071106, -0.13356523215770721, 0.13429519534111023, 0.23928947746753693, -0.13976158201694489, 0.29133522510528564, 0.07518911361694336, -0.2835334241390228, 0.27326837182044983, -0.282998263835907, -0.17884308099746704, -0.25354328751564026, 0.20414169132709503, -0.19780781865119934, -0.039645928889513016, -0.2850034534931183, 0.3224412202835083, 0.0029045683331787586, -0.6231914758682251, 0.3978872001171112, 0.2328125685453415, 0.0876714363694191, 0.07303981482982635, -0.10599008947610855, 0.1593589037656784, -0.20405711233615875, -0.1539284586906433, 0.0023625486064702272, -0.5057579278945923, -0.006779256742447615, -0.17652413249015808, 0.11076890677213669, -0.26363882422447205, 0.05159905180335045, 0.2210366427898407, 0.15380604565143585, -0.06717777252197266, 0.21205413341522217, 0.08455416560173035, -0.1326715648174286, -0.037382081151008606, -0.22033114731311798, -0.15418215095996857, -0.12101729214191437, 0.1770859956741333, -0.314751535654068, -0.16323071718215942, -0.10058131814002991, 0.10920447111129761, 0.13679833710193634, 0.21786199510097504, -0.032474495470523834, -0.13531143963336945, -0.26981106400489807, -0.38304731249809265, -0.01663043349981308, 0.07667654007673264, 0.3368642330169678, 0.21479396522045135, 0.33251670002937317, -0.10860483348369598, 0.1866828203201294, 0.4214671850204468, 0.005816474091261625, 0.15286509692668915, 0.2450292557477951, 0.044438574463129044, -0.2800745666027069, 0.2224119007587433, -0.24292100965976715, -0.16773425042629242, 0.2635168731212616, -0.021156705915927887, 0.3674202859401703, 0.3744606673717499, 0.37623023986816406, -0.1493372768163681, 0.26733511686325073, 0.11931786686182022, -0.0827743262052536, -0.19241884350776672, 0.13614234328269958, -0.08165066689252853, -0.010526205413043499, 0.3209053575992584, 0.26656922698020935, 0.23112045228481293, 0.03636288270354271, 0.2473960816860199, -0.489930659532547, -0.3292616009712219, -0.12154342979192734, -0.3299037218093872, 0.018650392070412636, -0.4548097848892212, -0.4535612165927887, 0.3339288532733917, -0.04970803111791611, -0.6325975060462952, 0.33021295070648193, -0.27624309062957764, 0.23778893053531647, -0.014426752924919128, 0.30294445157051086, -0.24200375378131866, -0.1422804892063141, 0.2823903262615204, 0.2901715338230133, 0.16921956837177277, 0.15598741173744202, -0.1311885267496109, 0.16534548997879028, -0.30581414699554443, 0.052142612636089325, 0.11544795334339142, -0.11255788058042526, 0.07799970358610153, 0.0017699854215607047, 0.1570320874452591, -0.48307734727859497, -0.09623333811759949, -0.12858864665031433, -0.27762019634246826, -0.36994266510009766, 0.20970091223716736, -0.3471744954586029, -0.40793856978416443, -0.006836325395852327, 0.23923780024051666, -0.18996596336364746, 0.13155746459960938, 0.2729020118713379, -0.20577116310596466, -0.25171124935150146, -0.12230248749256134, 0.41513434052467346, -0.33750152587890625, -0.03478998690843582, 0.20765408873558044, 0.38951238989830017, -0.5646118521690369, 0.19157274067401886, 0.34939679503440857, 0.24250322580337524, -0.1353212147951126, 0.36616286635398865, 0.1287420094013214, -0.3199612498283386, 0.1810159832239151, 0.21890562772750854, 0.3493077754974365, -0.4448408782482147, 0.21399915218353271, -0.25371381640434265, -0.35951054096221924, -0.11595290899276733, -0.12740574777126312, -0.036927539855241776, -0.31368306279182434, -0.3027465045452118, 0.0546882227063179, -0.2699750065803528, -0.062348201870918274, 0.17417198419570923, 0.07504107803106308, -0.05654539167881012, -0.19224072992801666, 0.08868904411792755, -0.09773389250040054, 0.15227048099040985, -0.054689690470695496, 0.008660905994474888, -0.22928322851657867, 0.057851098477840424, -0.09854128956794739, 0.06832582503557205, -0.2950649857521057, -0.12422437965869904, 0.2591168284416199, -0.30456337332725525, -0.2058783918619156, -0.06360411643981934, -0.024394849315285683, 0.02106565795838833, 0.0707273930311203, 0.03551807627081871, -0.19713489711284637, -0.08345478028059006, 0.2080564945936203, 0.19836640357971191, -0.05328921973705292, -0.1986091285943985, 0.18904009461402893, 0.17572681605815887, -0.3187492787837982, -0.08113303780555725, 0.10603725165128708, 0.06886894255876541, -0.0478072464466095, -0.28320080041885376, 0.2584284543991089, -0.3084874153137207, 0.045415252447128296, 0.025860067456960678, 0.5742181539535522, -0.16567032039165497, -0.27010223269462585, -0.17083938419818878, 0.19110767543315887, -0.2865564525127411, 0.12842658162117004, -0.009155542589724064, 0.05125197023153305, -0.6088059544563293, 0.3064160645008087, -0.26041075587272644, -0.1814570128917694, 0.3640372157096863, -0.21159058809280396, 0.11018971353769302, 0.900322675704956, -0.4009449779987335, 0.17271867394447327, 0.1389855146408081, 0.09476005285978317, 0.27205178141593933, 1.396742582321167, -0.4813823997974396, -0.6133603453636169, 0.6034494042396545, 0.2776884138584137, 0.07143858820199966, 0.1313762217760086, -0.4639222323894501, 0.11840564757585526, -0.10382603108882904, -0.6625857949256897, -0.20700795948505402, -0.419074147939682, -0.19331443309783936, -0.35227909684181213, -0.1910455822944641, 0.06625614315271378, 0.3688305914402008, -0.05730774253606796, 0.1420096606016159, -0.36187267303466797, 0.29737815260887146, -0.34812378883361816, -0.16665083169937134, 0.015093700960278511, 0.1874205321073532, 0.13545532524585724, 0.047926802188158035, -0.09858114272356033, 0.10040228813886642, 0.14515362679958344, 0.019437145441770554, 0.012849194929003716, 0.24847345054149628, -0.032730236649513245, -0.02889275923371315, -0.27897289395332336, -0.014462816528975964, 0.2504745125770569, -0.07106306403875351, 0.3092935085296631, -0.17291386425495148, -0.2687869668006897, -0.03665343299508095, -0.0783255472779274, 0.08843455463647842, 0.26843002438545227, 0.005705125629901886, 0.11456453800201416, 0.05266958847641945, 0.12714022397994995, 0.04857894405722618, -0.14037585258483887, -0.15305398404598236, -0.24803519248962402, 0.14725589752197266, -0.0235169418156147, 0.01595870964229107, -0.5006737112998962, -0.10568440705537796, -0.10166354477405548, 8.953929500421509e-05, -0.11798058450222015, 0.15652385354042053, -0.21145044267177582, -0.17190536856651306, -0.2698693871498108, 0.066931813955307, -0.24846979975700378, -0.06668521463871002, -0.09224434196949005, -0.27330976724624634, 0.03692867234349251, 0.19222965836524963, -0.11179274320602417, 0.013742687180638313, 0.07375965267419815, -0.5104075074195862, 0.5786977410316467, 0.5089572072029114, 0.2925580143928528, -0.4533716142177582, -0.16131161153316498, 0.03230053931474686, 0.050859034061431885, 0.0879027470946312, -0.010847058147192001, 0.0648994967341423, -0.004060858394950628, 0.004118348006159067, -0.06339006870985031, 0.12614977359771729, -0.10068552941083908, -0.018706534057855606, -0.047252971678972244, 0.06561790406703949, -0.17382024228572845, 0.20957714319229126, -0.2343810647726059, -0.014363007619976997, 0.027346016839146614, 0.21386750042438507, -0.09704938530921936, -0.1269541084766388, -0.0885392427444458, 0.1086953654885292, -0.08690570294857025, -0.05645686388015747, -0.08388262987136841, -0.09601189196109772, 0.008770770393311977, 0.024433614686131477, -0.08026453852653503, 0.16071736812591553, -0.021395714953541756, -0.12130413949489594, -0.23662839829921722, -0.09315318614244461, 0.3229009807109833, 0.12273881584405899, -0.18452036380767822, 0.21419024467468262, 0.05122273042798042, 0.021410919725894928, -0.00813739001750946, -0.1268121302127838, -0.6797015070915222, 0.501044511795044, -0.08030534535646439, 0.3930998742580414, -0.3769913911819458, -0.17907054722309113, -0.2456992119550705, -0.03714413195848465, 0.23176103830337524, 0.2443915158510208, -0.08830542117357254, -0.11356329172849655, -0.14598751068115234, -0.02834334410727024, 0.1916903257369995, -0.04575608670711517, -0.07212547957897186, 0.17709313333034515, 0.00783461146056652, 0.16033445298671722, -0.0861782506108284, 0.19373194873332977, 0.16224269568920135, 0.17843462526798248, -0.12703914940357208, -0.14890405535697937, -0.13208256661891937, 0.02950066514313221, 0.1436343640089035, 0.016244444996118546, -0.24316821992397308, -0.13770878314971924, -0.08903335779905319, 0.14970654249191284, -0.026994680985808372, -0.11616070568561554, -0.279390811920166, -0.04292067885398865, 0.005120833404362202, -0.1917792409658432, 0.12738896906375885, 0.2834758162498474, -0.04900505766272545, 0.0014321357011795044, 0.036220304667949677, -0.10070208460092545, 0.007526738103479147, 0.020754214376211166, -0.6393040418624878, 0.05311096832156181, -0.24363534152507782, 0.31675249338150024, 0.1177983209490776, -0.116401307284832, -0.10523224622011185, 0.11100292950868607, -0.1749311089515686, 0.000513921957463026, 0.0503384992480278, 0.11195961385965347, -0.07294832915067673, -0.022104013711214066, 0.05701124295592308, 0.07154823839664459, -0.1020750030875206, -0.049329668283462524, -0.07652173936367035, -0.19560682773590088, -0.04538692533969879, 0.08303546160459518, -0.07146104425191879, 0.05918363854289055, 0.13701865077018738, 0.1395830512046814, -0.10940078645944595, -0.021601196378469467, 0.07434079796075821, 0.1283525973558426, -0.09759488701820374, 0.19136157631874084, 0.10077440738677979, -0.1648249626159668, -0.10256540775299072, 0.11902230232954025, -0.07013358175754547, 0.13475191593170166, 0.09511057287454605, 0.04781494289636612, 0.08893906325101852, 0.16769537329673767, 0.28372079133987427, -0.02742949314415455, 0.1260433942079544, -0.11215347051620483, 0.022866971790790558, 0.1514623612165451, 0.29587793350219727, 0.09464500844478607, 0.00489511713385582, -0.07755856215953827, 0.21645228564739227, -0.17074602842330933, 0.02172868326306343, 0.03080602176487446, 0.007319477386772633, 0.15788590908050537, -0.05938514694571495, -0.13656829297542572, 0.09663291275501251, -0.08192287385463715, -0.1836715042591095, 0.10291147232055664, 0.07367248833179474, 0.022463323548436165, -0.09647568315267563, -0.10370296239852905, -0.06276950985193253, 0.05173036828637123, 0.012248651124536991, 0.07010111212730408, -0.052557844668626785, -0.01264987699687481, 0.08106277883052826, 0.1266586184501648, 0.17608486115932465, 0.014153765514492989, 0.0897790938615799, -0.12003105133771896, -0.014691437594592571, -0.17662055790424347, 0.0595584399998188, 0.03830350190401077, -0.04207203537225723, -0.12469353526830673, -0.10028094798326492, 0.0025318183470517397, 0.1446240097284317, -0.15194351971149445, -0.18676207959651947, 0.07905954867601395, -0.02674984745681286, 0.05120164528489113, 0.004879815503954887, 0.008119209669530392, -0.03221476450562477, 0.05367608740925789, -0.021261125802993774, 0.10021086782217026, -0.05046803876757622, 0.1672927290201187, 0.158335879445076, -0.12762050330638885, -0.24766187369823456, -0.03481347858905792, -0.04878883808851242, 0.2648347020149231, 0.4143349230289459, 0.1026332899928093, -0.1299867480993271, -0.006072323303669691, -0.09783709049224854, -0.22614526748657227, -0.026606321334838867, 0.024462254717946053, 0.10806971788406372, -0.12762387096881866, 0.03254198655486107, 0.09442424774169922, -0.11592918634414673, -0.04159824177622795, 0.1869880110025406, -0.15267908573150635, 0.21864071488380432, 0.20245611667633057, 0.24861252307891846, -0.031055709347128868, 0.07433494180440903, -0.13011471927165985, -0.049043815582990646, 0.11537624150514603, 0.14862088859081268, 0.06631171703338623, 0.2979212701320648, 0.06185871362686157, 0.050711534917354584, -0.09280553460121155, 0.12348446249961853, 0.07150696218013763, -0.005502784159034491, -0.07399537414312363, 0.10557271540164948, 0.18900997936725616, 0.6905876398086548, 0.030032336711883545, 0.055302493274211884, -0.17561011016368866, -0.1413150429725647, -0.27565518021583557, 0.03734121099114418, -0.0613512247800827, 0.18143829703330994, 0.38790738582611084, 0.0174674354493618, -0.3472246825695038, -0.2044106274843216, 0.0004504925454966724, 0.19792810082435608, 0.09220007807016373, 0.10801482200622559, 0.11703335493803024, 0.029169343411922455, 0.062375303357839584, 0.20689499378204346, 0.07096727937459946, 0.062404897063970566, 0.08798190951347351, -0.014640707522630692, 0.03976883739233017, -0.10881609469652176, 0.11818408221006393, -0.1290297657251358, -0.11995411664247513, -0.11734455078840256, -0.13742077350616455, 0.1740271896123886, 0.026318678632378578, 0.0654648095369339, -0.02037113346159458, -0.056795891374349594, 0.03853730857372284, -0.2400284856557846, -0.08991119265556335, 0.03843312710523605, 0.30544063448905945, 0.029464950785040855, 0.21951279044151306, -0.1122162789106369, 0.061246324330568314, -0.194002166390419, -0.527465283870697, -0.7636282444000244, 0.07656502723693848, -0.2261492908000946, 0.34492573142051697, -0.0033269142732024193, -0.16704238951206207, 0.1460086703300476, 0.09382464736700058, 0.10378050059080124, 0.05580985173583031, -0.14419153332710266, -0.15910117328166962, 0.02901502139866352, 0.07068756967782974, -0.16516432166099548, -0.07246105372905731, -0.12760572135448456, 0.009528810158371925, -0.3253539204597473, -0.12294953316450119, 0.196245014667511, -0.1750890016555786, -0.03752823919057846, 0.015703624114394188, 0.0024952345993369818, -0.038386017084121704, 0.11636451631784439, -0.033353403210639954, 0.0017781461356207728, -0.0447155125439167, -0.026994796469807625, 0.10747605562210083, 0.15950486063957214, -0.004720347002148628, 0.01243431493639946, 0.05631299689412117, -0.040065888315439224, -0.07300081849098206, -0.16904877126216888, -0.1598253846168518, 0.03866561874747276, -0.032444290816783905, -0.15483032166957855, 0.0526186004281044, -0.19111713767051697, 0.08532045781612396, -0.1329420506954193, -0.17329727113246918, 0.024220189079642296, 0.08590207248926163, -0.1532921940088272, 0.07460939884185791, -0.04699508473277092, 0.15079925954341888, 0.015211675316095352, -0.07726318389177322, -0.10291925817728043, -0.210610494017601, -0.04923391714692116, 0.18353895843029022, 0.03429426997900009, 0.1937999576330185, 0.21208186447620392, -0.0019381335005164146, 0.0005576691473834217, 0.12648485600948334, 0.24453021585941315, 0.04293540492653847, -0.20907792448997498, 0.1421329379081726, -0.12237691879272461, 0.0679149180650711, -0.04857099801301956, 0.04978904873132706, -0.2301766276359558, -0.1142522394657135, -0.026079274713993073, 0.03914125636219978, -0.21036480367183685, 0.20605258643627167, -0.04611275717616081, 0.2195661962032318, -0.16458357870578766, 0.17031118273735046, -0.07858069986104965, 0.055978305637836456, 0.08186067640781403, 0.05242164433002472, 0.16614310443401337, 0.010213566944003105, 0.2749127447605133, 0.0948873981833458, 0.0027757142670452595, -0.19626423716545105, -0.08678704500198364, 0.017604660242795944, -0.07025475800037384, 0.08376086503267288, 0.054068583995103836, -0.22277498245239258, -0.101511150598526, 0.07087519019842148, 0.13758446276187897, -0.07684455066919327, -0.04365722835063934, 0.15558522939682007, 0.1446017622947693, -0.17679378390312195, -0.011550924740731716, -0.03380679339170456, 0.032821688801050186, 0.18800880014896393, 0.1013602539896965, 0.12597176432609558, -0.03995372727513313, -0.018872229382395744, -0.06982062011957169, -0.10243494808673859, -0.0073159364983439445, 0.09929931908845901, 0.07847045361995697, 0.15933874249458313, -0.11676761507987976, -0.025631139054894447, 0.057782962918281555, -0.023945709690451622, 0.1755611151456833, 0.06467456370592117, -0.1147395595908165, -0.138412207365036, -0.0029063161928206682, -0.09981169551610947, 0.097744420170784, 0.16296690702438354, -0.03966115042567253, -0.15777587890625, -0.11068357527256012, 0.011109797284007072, -0.12329655140638351, -0.021770643070340157, -0.10381203889846802, 0.04775216057896614, 0.09493214637041092, -0.09216570854187012, -0.400982528924942, 0.1984616070985794, 0.017735555768013, 0.250036358833313, -0.13108383119106293, -0.21156029403209686, -0.01754552498459816, -0.20083922147750854, -0.0626775324344635, 0.14732927083969116, 0.025954941287636757, -0.13975688815116882, -0.04662799462676048, 0.03348521888256073, -0.03201127052307129, 0.12773899734020233, 0.14870353043079376, 0.0969303548336029, 0.12027622014284134, -0.09560265392065048, 0.16824807226657867, 0.010466814041137695, -0.04782511293888092, -0.23874470591545105, -0.005244832020252943, 0.08038190007209778, 0.0015087529318407178, -0.10605064779520035, 0.002533965278416872, -0.16087321937084198, -0.006805324461311102, 0.15301252901554108, 0.05684879049658775, -0.12069195508956909, -0.06766271591186523, -0.04152630642056465, -0.024662408977746964, -0.023056671023368835, 0.03404715284705162, -0.059182099997997284, -0.2590909004211426, -0.01499379612505436, 0.10037389397621155, 0.043959613889455795, -0.01201258972287178, -0.05037965625524521, 0.10412312299013138, 0.14504341781139374, 0.18254631757736206, -0.2779054343700409, -0.1696060746908188, -0.38108590245246887, 0.04617171362042427, 0.16441915929317474, -0.02498658001422882, -0.038522522896528244, -0.07575038820505142, -0.2309367060661316, -0.10091863572597504, -0.07458816468715668, 0.10228244215250015, 0.15307378768920898, 0.05858622118830681, -0.13711810111999512, -0.03114190511405468, -0.01547344122081995, 0.152921661734581, -0.12041528522968292, 0.048714056611061096, 0.3708009719848633, 0.02402487024664879, -0.0961519405245781, -0.15832984447479248, 0.14997822046279907, 0.19202645123004913, 0.29835477471351624, 0.0540907122194767, 0.1101076528429985, -0.3004734516143799, -0.05909716337919235, -0.18134331703186035, 0.24614477157592773, -0.08560742437839508, -0.1097516268491745, -0.13485568761825562, -0.03800193592905998, 0.0723995566368103, 0.21939966082572937, -0.010272030718624592, -0.20895884931087494, -0.04072817042469978, 0.14126254618167877, 0.18782567977905273, -0.11311133205890656, 0.030727241188287735, 0.26094117760658264, 0.4419606924057007, -0.030279293656349182, -0.18915489315986633, -0.5907610058784485, 0.04243658483028412, 0.0066442424431443214, 0.10686778277158737, -0.10894244909286499, 0.08063734322786331, 0.025567222386598587, 0.017292572185397148, 0.11894229054450989, 0.20906662940979004, -0.0259434524923563, -0.06483983993530273, 0.07600437104701996, -0.03800799325108528, 0.0770932286977768, -0.03671853616833687, -0.1879451721906662, -0.027434416115283966, -0.2612825036048889, 0.0710388571023941, -0.03342350199818611, -0.06800185143947601, 0.09148047864437103, -0.07527661323547363, -0.22909551858901978, 0.02635033428668976, -0.12204357236623764, 0.21078087389469147, 0.19932246208190918, -0.005870943423360586, -0.01281378697603941, -0.20037676393985748, 0.1278293877840042, 0.2815215587615967, 0.15736621618270874, 0.12123849987983704, -0.10989850014448166, -0.15155290067195892, -0.02763868123292923, 0.05411306023597717, 0.16489163041114807, -0.08997616171836853, 0.01133232656866312, -0.034810975193977356, -0.2004089504480362, 0.4574887454509735, -0.17002619802951813, 0.22338949143886566, -0.10229890048503876, 0.084847092628479, -0.0399344339966774, -0.11641711741685867, 0.08527297526597977, -0.025193285197019577, 0.02306770347058773, 0.04042614623904228, 0.13809256255626678, -0.10558544099330902, 0.16495932638645172, -0.060615114867687225, -0.06862466782331467, 0.026529252529144287, -0.046468041837215424, 0.11488660424947739, 0.09494858980178833, -0.06800269335508347, 0.08581225574016571, -0.14499898254871368, 0.021101631224155426, 0.07634894549846649, 0.11566688120365143, 0.12644167244434357, 0.03844243288040161, -0.0446728840470314, 0.033644191920757294, -0.09667446464300156, 0.17416653037071228, 0.06226712837815285, -0.06622627377510071, 0.052263230085372925, -0.0020456116180866957, -0.023346545174717903, 0.02145390212535858, 0.010607005096971989, 0.039658211171627045, -0.12358710914850235, -0.10690999031066895, 0.0485503189265728, 0.014380814507603645, 0.12060078978538513, 0.059698715806007385, -0.02169770561158657, 0.013313462026417255, 0.05212836340069771, -0.16640688478946686, -0.011129824444651604, -0.26799601316452026, 0.06626063585281372, -0.003877997165545821, 0.12382079660892487, 0.053821589797735214, -0.22571730613708496, -0.054087258875370026, -0.23595179617404938, 0.08803446590900421, 0.24996542930603027, 0.19838063418865204, -0.2275773137807846, -0.2526812255382538, -0.2113466113805771, -0.10301625728607178, -0.026246102526783943, -0.10875992476940155, 0.18767744302749634, -0.0012358709936961532, -0.02232448011636734, 0.08764061331748962, 0.15871907770633698, 0.18534722924232483, 0.18201011419296265, 0.21988420188426971, 0.05907222256064415, 0.07881475985050201, -0.07551094889640808, -0.00263580190949142, -0.1051216721534729, -0.14082391560077667, 0.0665351003408432, -0.022808389738202095, 0.09676897525787354, 0.1281871795654297, 0.28168830275535583, 0.2727646231651306, 0.21597827970981598, 0.13790582120418549, 0.04384104534983635, 0.02651216648519039, -0.012911682948470116, 0.012028771452605724, -0.017197413370013237, 0.09860365092754364, 0.13264527916908264, 0.03917951136827469, -0.00570135610178113, -0.03806990012526512, -0.03109118901193142, -0.08922770619392395, 0.1704477220773697, -0.17715036869049072, 0.03176845610141754, -0.04945079982280731, 0.08154755085706711, 0.02644023671746254, 0.15743547677993774, 0.09553779661655426, 0.0039097340777516365, 0.05548004060983658, -0.09127774834632874, -0.031533192843198776, 0.006218422204256058, 0.0621449276804924, -0.04143117740750313, -0.20679432153701782, -0.045023806393146515, 0.012486555613577366, 0.09800766408443451, -0.16115760803222656, 0.09614279121160507, -0.20921194553375244, -0.17497439682483673, -0.08098172396421432, 0.06996580213308334, 0.06041740998625755, -0.11047086864709854, 0.06851635128259659, 0.10483966022729874, 0.027195632457733154, 0.19425201416015625, -0.044112954288721085, -0.08466459810733795, 0.09525026381015778, -0.07867605984210968, -0.14103522896766663, -0.1276998072862625, 0.12277103960514069, 0.017880205065011978, 0.15995246171951294, -0.05716944858431816, -0.281643807888031, 0.12631751596927643, 0.23988746106624603, 0.130918949842453, 0.11288430541753769, -0.014579067006707191, -0.024108728393912315, 0.09338835626840591, -0.0831034779548645, 0.1809263527393341, -0.07760568708181381, 0.38512521982192993, -0.08158565312623978, 0.18659165501594543, -0.0924481600522995, -0.09216096997261047, -0.06977914273738861, 0.11096595227718353, 0.10950221866369247, 0.09776146709918976, 0.36256465315818787, -0.018842153251171112, -0.7212926745414734, -0.03883352130651474, 0.29682469367980957, -0.5938524007797241, 0.2702530026435852, -0.727163553237915, -0.41916438937187195, -0.31568798422813416, 0.5456969141960144, -1.0068637132644653, -0.6882006525993347, -0.9258283972740173, 0.1752910017967224, -0.8718512654304504, 0.6139412522315979, -0.7621487975120544, 0.02074536681175232, -0.008417286910116673, -0.025448797270655632, 0.2071676403284073, 0.007509399205446243, 0.0842633843421936, -0.3025718629360199, -0.10107197612524033, 0.17711475491523743, -0.1196284219622612, 0.14613810181617737, 0.24798302352428436, 0.04337374493479729, 0.1194571927189827, -0.10689185559749603, -0.08847662806510925, -0.015303029678761959, -0.10812104493379593, -0.21928805112838745, 0.01854424923658371, -0.1596362441778183, 0.3466776907444, -0.21536976099014282, -0.2671470046043396, 0.14224188029766083, -0.09935568273067474, 0.16452227532863617, 0.2350771576166153, 0.2086382508277893, 0.13784782588481903, -0.11400090157985687, 0.371011346578598, -0.058657288551330566, -0.23480910062789917, -0.07841110974550247, 0.1726570874452591, -0.03517424687743187, 0.207701176404953, -0.0663752406835556, 0.07212705910205841, -0.23713749647140503, 0.12869437038898468, 0.1687098890542984, -0.27247077226638794, 0.10211976617574692, 0.1580783724784851, 0.18609288334846497, 0.005803148727864027, -0.13479755818843842, 0.08279532194137573, -0.21312156319618225, -0.1683104783296585, -0.04223271459341049, 0.06090928986668587, -0.1386640965938568, 0.08385255932807922, -0.22546876966953278, 0.190578892827034, -0.04069250449538231, 0.2761565148830414, 0.15811586380004883, -0.11824087798595428, -0.07066398859024048, 0.1789228469133377, 0.3003053069114685, -0.13256016373634338, -0.07714992761611938, -0.13547642529010773, 0.3014427125453949, -0.08251029998064041, -0.1164669394493103, 0.21559655666351318, 0.20304667949676514, -0.03136534243822098, -0.3076162338256836, 0.056887395679950714, -0.055706582963466644, -0.07484985142946243, -0.02988164685666561, -0.07891304045915604, -0.17395174503326416, -0.2814245820045471, -0.3196827471256256, -0.00010480308264959604, -0.24502795934677124, -0.1937008500099182, -0.11222275346517563, -0.19547222554683685, 0.2760677933692932, 0.291694700717926, 0.16751815378665924, -0.2579977214336395, -0.06920452415943146, 0.13451234996318817, 0.15953630208969116, 0.1442754864692688, 0.10613679140806198, -0.20712974667549133, 0.10113648325204849, -0.20868408679962158, -0.13232922554016113, 0.29243719577789307, -0.2947843074798584, -0.36532923579216003, 0.3346840739250183, -0.0026811917778104544, 0.13516280055046082, 0.019139837473630905, -0.05171907693147659, 0.10892429947853088, -0.17529070377349854, 0.1800030767917633, 0.361839234828949, 0.08180937170982361, 0.19781097769737244, 0.03262043744325638, 0.01645737886428833, -0.2865270972251892, 0.14449162781238556, -0.07554326951503754, 0.09839380532503128, 0.14724747836589813, -0.143727108836174, 0.04770384728908539, -0.3255610167980194, -0.009100129827857018, 0.20917850732803345, -0.07195687294006348, -0.23898787796497345, 0.47565093636512756, -0.18250712752342224, -0.06313403695821762, -0.16726550459861755, -0.005301785189658403, -0.0915738046169281, -0.20913396775722504, 0.08980357646942139, 0.20322434604167938, -0.016834992915391922, -0.2511337101459503, -0.0625864714384079, 0.1307820826768875, -0.17641426622867584, 0.2857130765914917, 0.04967740550637245, -0.07149006426334381, 0.07267972081899643, 0.06431148946285248, 0.17658933997154236, -0.27745455503463745, 0.25970906019210815, 0.04927439987659454, -0.21032308042049408, -0.059833358973264694, 0.006876050028949976, 0.2226976901292801, 0.11368090659379959, -0.06945621222257614, 0.2464686781167984, -0.1604318469762802, -0.07618622481822968, -0.13201484084129333, -0.3083522319793701, 0.13255347311496735, -0.045189131051301956, 0.10119909793138504, -0.17505209147930145, 0.039768774062395096, 0.1073102280497551, 0.23326759040355682, 0.05440952256321907, 0.17971545457839966, 0.11747081577777863, 0.09581324458122253, -0.10720112174749374, 0.06311861425638199, 0.08154390007257462, 0.07159043848514557, -0.3266577422618866, -0.04464389383792877, -0.0933978483080864, -0.16426843404769897, 0.15240459144115448, 0.43359774351119995, -0.6856907606124878, 0.17619289457798004, 0.23861169815063477, -0.24574440717697144, 0.15596264600753784, -0.09048880636692047, 0.259316086769104, -0.15093322098255157, -0.14942196011543274, -0.11645925045013428, -0.26184576749801636, 0.15167108178138733, -0.06697195768356323, 0.07582569122314453, -0.28135809302330017, -0.02113158628344536, 0.20538008213043213, 0.005491588264703751, -0.2267981767654419, -0.23982024192810059, 0.3309934437274933, -0.05828484147787094, -0.18798963725566864, 0.11192759871482849, -0.046714574098587036, 0.3242660164833069, -0.2615625858306885, 0.28352925181388855, -0.17466245591640472, 0.13501740992069244, -0.11630743741989136, -0.1527378410100937, 0.2258731573820114, 0.31699588894844055, 0.08962845802307129, -0.15673333406448364, 0.2861548662185669, 0.1914747953414917, -0.08563916385173798, 0.14559681713581085, 0.15714119374752045, 0.1236429363489151, 0.21806710958480835, -0.15932217240333557, -0.21756181120872498, -0.21538367867469788, 0.27630043029785156, 0.13015209138393402, -0.25752073526382446, 0.2391500324010849, 0.02922210842370987, -0.27754276990890503, -0.2836648225784302, 0.11540506780147552, 0.5264822244644165, 0.10920670628547668, 0.3309718668460846, -0.4061490595340729, -0.1384139209985733, 0.037669893354177475, -0.3159414529800415, 0.21797071397304535, -0.28025728464126587, 0.0029035452753305435, 0.10471800714731216, -0.17366892099380493, 0.3362695574760437, 0.1892806440591812, -0.28869912028312683, 0.3511008620262146, -0.1862286776304245, -0.32566970586776733, -0.08044423907995224, -0.2590467929840088, 0.10468799620866776, -0.21169507503509521, -0.1501864641904831, 0.12461734563112259, 0.1306018829345703, 0.3413386344909668, -0.03496647998690605, 0.15159600973129272, 0.00034898455487564206, -0.012322969734668732, -0.06929968297481537, -0.40537095069885254, 0.28252264857292175, -0.1636175960302353, 0.03478367254137993, -0.06752707064151764, -0.14750199019908905, -0.010618602856993675, -0.007494726218283176, 0.1448233276605606, -0.06125180050730705, -0.04773211479187012, -0.04140514135360718, 0.04331308603286743, -0.0985834151506424, -0.04797446355223656, 0.17269153892993927, 0.0011959689436480403, -0.02787267602980137, 0.11483576893806458, 0.044260669499635696, -0.008666270412504673, -0.16622211039066315, -0.04568810015916824, 0.08277706801891327, 0.0024095061235129833, 0.03345288336277008, -0.1309412717819214, -0.11190915107727051, 0.18300692737102509, 0.18198394775390625, 0.1625453233718872, 0.01809919811785221, -0.17768141627311707, -0.1570321023464203, 0.028254434466362, -0.04135880991816521, -0.19721397757530212, -0.10103002935647964, -0.5916423797607422, -0.03345125541090965, -0.05935513228178024, 0.07813140749931335, -0.09974990785121918, 0.17536930739879608, 0.07334170490503311, -0.045164741575717926, -0.04782268777489662, -0.44797441363334656, 0.2708591818809509, -0.12030920386314392, 0.047410883009433746, -0.008079832419753075, 0.018915317952632904, 0.1292499601840973, -0.07151668518781662, 0.1366688311100006, -0.3841567635536194, 0.19951944053173065, 0.21525615453720093, 0.13643915951251984, -0.024201862514019012, -0.06671631336212158, -0.27551770210266113, 0.08695875108242035, -0.07190170884132385, -0.004757302347570658, -0.165320485830307, -0.17945596575737, 0.008970709517598152, 0.22322165966033936, 0.007362344767898321, 0.09371467679738998, -0.07923881709575653, -0.12407281249761581, 0.03778515383601189, 0.1742650717496872, 0.006521203089505434, -0.4085638225078583, -0.13102595508098602, -0.0954478532075882, 0.2192985713481903, 0.2660761773586273, 0.20836086571216583, -0.09905660897493362, -0.41175273060798645, -0.050090327858924866, 0.016164056956768036, 0.06142302602529526, 0.16506138443946838, -0.24435439705848694, 0.05567337945103645, 0.05320568010210991, -0.428859144449234, -0.051002707332372665, 0.27406734228134155, 0.020592577755451202, -0.20199012756347656, 0.26467087864875793, 0.41163134574890137, 0.13674433529376984, -0.07260556519031525, -0.07176154106855392, 0.2994753122329712, 0.03187386691570282, 0.01607317477464676, 0.08948351442813873, -0.04696062579751015, 0.09353666007518768, -0.029135990887880325, 0.005636801943182945, 0.1256658285856247, 0.0002770588034763932, -0.037240732461214066, 0.12000724673271179, -0.09111226350069046, 0.1454174667596817, 0.41302943229675293, 0.05041257292032242, 0.04950679466128349, -0.03892214223742485, -0.1047714352607727, 0.17227165400981903, -0.03860129415988922, 0.03847488760948181, -0.09653601795434952, 0.002743503777310252, 0.06227121129631996, 0.21219633519649506, -0.07275400310754776, -0.1271779090166092, -0.028370892629027367, -0.07960643619298935, -0.5203742384910583, 0.08891825377941132, 0.7590472102165222, 0.13429352641105652, -0.0160965733230114, 0.10093685984611511, -0.002992351073771715, -0.05547612905502319, 0.10306230932474136, -0.18706907331943512, -0.09536992758512497, 0.42348769307136536, 0.004104672931134701, -0.1052807942032814, 0.15381716191768646, -0.20779992640018463, -0.2281329482793808, -0.04378868639469147, -0.05692097544670105, 0.22974435985088348, 0.0932169035077095, -0.07281073182821274, 0.0008138184784911573, -0.2475263476371765, 0.31926625967025757, 0.3565271198749542, 0.191191628575325, 0.16634595394134521, 0.19669246673583984, 0.10394888371229172, -0.07502517849206924, -0.13872353732585907, 0.12701533734798431, -0.02363763190805912, -0.1385742425918579, -0.30132099986076355, -0.18839165568351746, -0.2201904058456421, -0.14826776087284088, -0.09557004272937775, -0.07404029369354248, -0.04512372985482216, -0.08772248774766922, -0.1088644489645958, -0.15371404588222504, -0.07218717038631439, -0.045714009553194046, -0.1331235021352768, -0.026970384642481804, 0.028981391340494156, 0.21558520197868347, -0.12241922318935394, -0.08456456661224365, -0.12728846073150635, 0.08256559818983078, -0.04229510948061943, 0.0580558255314827, -0.37768062949180603, -0.0071315704844892025, 0.16192415356636047, 0.1623949557542801, 0.18613243103027344, 0.06519101560115814, 0.10439890623092651, -0.019377222284674644, 0.13051089644432068, -0.20485296845436096, 0.010446273721754551, 0.05150850862264633, 0.13216561079025269, 0.20784476399421692, 0.025602202862501144, -0.15143761038780212, 0.06685971468687057, -0.14061063528060913, -0.19702991843223572, -0.02152642421424389, -0.09687307476997375, 0.010515844449400902, -0.3082091212272644, -0.47317805886268616, -0.12485604733228683, -0.024163296446204185, 0.24489744007587433, 0.04755167290568352, -0.02825336903333664, 0.11512839049100876, 0.04045754671096802, -0.09985080361366272, 0.15605394542217255, 0.060209546238183975, 0.055974412709474564, -0.015113466419279575, -0.012848478741943836, 0.06807290017604828, 0.15607525408267975, 0.23052455484867096, 0.2395368218421936, -0.8679383993148804, -0.11431317031383514, 0.07771158963441849, 0.0030613725539296865, -0.10350868105888367, -0.11666106432676315, 0.10443858057260513, 0.011739237233996391, 0.14617423713207245, 0.1705179512500763, 0.23131504654884338, -0.24716465175151825, 0.09249162673950195, 0.22581160068511963, 0.06139947474002838, -0.055251896381378174, 0.08057189732789993, 0.003407713957130909, 0.04597191885113716, -0.047664642333984375, -0.05902448296546936, -0.028220070526003838, 0.10505002737045288, 0.09752096980810165, 0.231678307056427, 0.04555097967386246, -0.01866094581782818, 0.06431230157613754, -0.37799617648124695, 0.1474887728691101, 0.26024821400642395, -0.17482097446918488, -0.01806003600358963, -0.012306028045713902, -0.08227524906396866, -0.23385265469551086, -0.033465445041656494, -0.08334759622812271, -0.09806806594133377, -0.1405693143606186, 0.05371084064245224, 0.10110564529895782, -0.011137054301798344, 0.07666688412427902, 0.052383918315172195, 0.015619348734617233, -0.1549127846956253, 0.2539657950401306, -0.1142125055193901, 0.11860479414463043, 0.07515628635883331, 0.003992782440036535, -0.048304565250873566, 0.056853003799915314, 0.04709076136350632, -0.09150579571723938, -0.06426022201776505, -0.04648339003324509, 0.021324053406715393, -0.35741910338401794, 0.09895197302103043, -0.22348889708518982, -0.1724267601966858, -0.06272289901971817, 0.05964188277721405, -0.06422628462314606, 0.06978609412908554, -0.002541766967624426, -0.19183121621608734, -0.1847129613161087, -0.04089850187301636, 0.13204149901866913, 0.09020604938268661, 0.046055134385824203, -0.08963374048471451, 0.04065266251564026, -0.0200795941054821, 0.07335870712995529, -0.027015579864382744, -0.038644321262836456, -0.02121667005121708, -0.042234987020492554, 0.16511312127113342, 0.12166280299425125, -0.10595912486314774, -0.11820724606513977, 0.008645189926028252, 0.3017371594905853, 0.024550627917051315, 0.20566299557685852, -0.15056955814361572, -0.2642887830734253, -0.007843813858926296, -0.062960185110569, 0.2837255597114563, -0.02437652461230755, -0.13947808742523193, -0.09949527680873871, -0.13273301720619202, 0.20795488357543945, 0.008513214997947216, -0.035818275064229965, 0.20634645223617554, -0.17840486764907837, -0.21032723784446716, -0.10447981208562851, 0.10887864232063293, -0.09633444249629974, -0.10469145327806473, 0.02383498102426529, 0.1222628578543663, -0.16060078144073486, 0.12500128149986267, 0.19148752093315125, 0.09544941782951355, -0.12454822659492493, 0.10357943922281265, -0.08813624829053879, 0.09065573662519455, 0.25516751408576965, 0.20575180649757385, -0.027506917715072632, 0.1646144539117813, 0.04721696674823761, -0.16213339567184448, -0.09047900140285492, 0.1263040006160736, -0.20008273422718048, -0.13382688164710999, -0.09515223652124405, -0.18029166758060455, -0.08551233261823654, -0.1908244639635086, -0.0870174914598465, -0.020921150222420692, -0.23152205348014832, -0.07811480015516281, 0.039087213575839996, -0.13305364549160004, 0.1028054878115654, -0.08107750862836838, -0.06690749526023865, -0.10354888439178467, 0.13089142739772797, -0.18208853900432587, 0.06204589083790779, 0.10688482969999313, 0.0912204161286354, -0.0680094063282013, -0.03588836267590523, -0.049309223890304565, -0.05221904441714287, -0.09152178466320038, -0.12969353795051575, -0.3210088610649109, -0.15610750019550323, 0.030050884932279587, -0.0732516422867775, 0.020556790754199028, 0.045313529670238495, -0.16752444207668304, 0.2059132307767868, 0.1319170892238617, -0.062714122235775, 0.18565259873867035, 0.013860896229743958, -0.2307594269514084, 0.2694936692714691, 0.10488591343164444, -0.10684546828269958, -0.11482080072164536, -0.13201622664928436, -0.05759396776556969, -0.2626310884952545, 0.09790024906396866, -0.06940748542547226, 0.11500226706266403, 0.08027946949005127, 0.15494757890701294, -0.2538740634918213, -0.09855826199054718, -0.19405841827392578, 0.012873475439846516, 0.17010369896888733, 0.2616134285926819, -0.0784524530172348, -0.056717511266469955, -0.11582204699516296, 0.2053355574607849, -0.014993686228990555, 0.668331503868103, 0.16969971358776093, 0.17518450319766998, -0.4422592222690582, 0.20087291300296783, 0.06541850417852402, -0.2931709885597229, 0.1071275994181633, 0.206949383020401, 0.27495720982551575, 0.167025625705719, -0.2569904625415802, 0.4470118284225464, 0.7685226202011108, -0.28649717569351196, -0.23359055817127228, -0.12847544252872467, -0.07962089031934738, -0.13810326159000397, 0.05155813694000244, 0.30071935057640076, -0.13074277341365814, -0.09109493345022202, 0.19745711982250214, -0.2437397539615631, -0.007899366319179535, 0.13022857904434204, 0.10783956199884415, 0.10152660310268402, -0.04470396041870117, -0.21624703705310822, -0.4228109121322632, -0.5775145292282104, -0.2570904791355133, -0.019501548260450363, 0.005290616303682327, 0.2585282027721405, -0.03464837744832039, -0.2751927971839905, -0.2238859236240387, -0.1686525195837021, 0.29331132769584656, 0.29486772418022156, -0.05774093046784401, -0.21810081601142883, -0.10624628514051437, -0.00676323426887393, 0.15744554996490479, 0.1743309050798416, -0.11369741708040237, -0.07073478400707245, -0.23780907690525055, -0.09261281043291092, 0.09833000600337982, -0.23529928922653198, -0.1545633226633072, 0.2429153174161911, -0.04408182203769684, 0.1946241855621338, -0.3598075211048126, 0.42107564210891724, 0.01615063101053238, -0.027558140456676483, -0.09645695984363556, -0.10222691297531128, 0.0025280192494392395, -0.22195221483707428, -0.11705751717090607, 0.2580357789993286, -0.06601453572511673, -0.016714582219719887, 0.1268315464258194, -0.09771540760993958, -0.039697401225566864, 0.027419893071055412, 0.18740442395210266, -0.10777987539768219, 0.005092174746096134, 0.0774800255894661, 0.04377511888742447, 0.0634259507060051, 0.003928077407181263, 0.05733368173241615, -0.053204845637083054, 0.28761428594589233, 0.2626371383666992, 0.023674266412854195, -0.15097282826900482, 0.03762100264430046, 0.05549965426325798, 0.1995539367198944, 0.12029272317886353, -0.028754033148288727, -0.10618159919977188, -0.12572169303894043, 0.08721144497394562, 0.1381889432668686, 0.16970163583755493, 0.1302165389060974, 0.029781678691506386, -0.014751553535461426, 0.09204226732254028, -0.05056653171777725, -0.2365434318780899, 0.02340586856007576, 0.14614596962928772, 0.31223800778388977, -0.16361111402511597, -0.11920367926359177, -0.4934331774711609, -0.09736792743206024, -0.10556896775960922, -0.16649413108825684, 0.02180607244372368, -0.028584761545062065, -0.08282570540904999, 0.09133053570985794, -0.11111225187778473, -0.14189472794532776, 0.050858866423368454, -0.11002901196479797, 0.0778401717543602, 0.10827777534723282, 0.16391521692276, -0.04542454704642296, 0.01490339171141386, -0.10096733272075653, -0.09227380156517029, 0.04001461714506149, -0.09553471207618713, 0.07527074962854385, 0.12529058754444122, 0.1420370191335678, -0.0583241730928421, -0.0893394872546196, -0.2913173735141754, 0.048552557826042175, 0.0218815915286541, 0.04249167814850807, 0.02784297615289688, -0.15772365033626556, -0.2958846986293793, -0.18814408779144287, -0.11270175129175186, 0.1471034437417984, -0.16321980953216553, -0.343437522649765, -0.10503282397985458, -0.014206220395863056, 0.06797561049461365, -0.24154187738895416, -0.12120635062456131, 0.2398526966571808, 0.012321698479354382, -0.3643103241920471, -0.029761767014861107, 0.44558730721473694, -0.1314830482006073, -0.362600713968277, -0.11043816804885864, -0.14377553761005402, 0.1234554573893547, 0.19802482426166534, -0.018526066094636917, -0.15337567031383514, -0.057797227054834366, -0.21912197768688202, -0.04186798632144928, 0.18941131234169006, 0.06931957602500916, 0.21643443405628204, 0.07116510719060898, 0.13016313314437866, 0.10197612643241882, -0.11092846840620041, -0.001877066446468234, -0.35910284519195557, -0.14149713516235352, 0.06809324771165848, -0.1437193602323532, -0.2008180171251297, -0.246299609541893, -0.1037120670080185, 0.22443939745426178, -0.04156726598739624, 0.14839161932468414, -0.22471806406974792, 0.06176808848977089, 0.038681760430336, 0.14938466250896454, 0.11734776198863983, 0.02932748571038246, 0.2830069959163666, -0.054219551384449005, 0.46069392561912537, -0.06011702120304108, 0.016431858763098717, -0.16141289472579956, 0.23112405836582184, 0.14707769453525543, 0.08874229341745377, 0.10743654519319534, -0.3469487130641937, 0.5612102746963501, 0.020115604624152184, -0.13421373069286346, 0.17334742844104767, 0.10907179862260818, 0.0468367338180542, -0.04941544309258461, 0.2839367985725403, -0.072487011551857, -0.31603193283081055, 0.17759789526462555, 0.05116816982626915, -0.183217853307724, 0.004003215115517378, -0.04847552627325058, 0.025335177779197693, -0.1639528125524521, 0.079095758497715, 0.22885018587112427, -0.321378618478775, -0.11033817380666733, -0.23789598047733307, 0.15860424935817719, 0.01633342169225216, -0.130785271525383, -0.17029166221618652, -0.09439294785261154, 0.006053953897207975, 0.17826350033283234, 0.011920918710529804, -0.2261967957019806, -0.2620929777622223, -0.16239149868488312, 0.288494348526001, 0.1796785593032837, 0.04849027469754219, -0.23926909267902374, -0.37337827682495117, 0.03979387879371643, 0.07744836062192917, 0.022291122004389763, 0.049610745161771774, -0.19749990105628967, 0.19400998950004578, 0.071693055331707, -0.3787795901298523, -0.2264789342880249, -0.23840117454528809, 0.25307905673980713, 0.13078927993774414, 0.4178163409233093, -0.26695308089256287, 0.10011005401611328, 0.16293063759803772, 0.09102576971054077, 0.04184887558221817, 0.03629548102617264, -0.1648193895816803, 0.045254867523908615, 0.057229358702898026, -0.037450991570949554, -0.2044784426689148, -0.33340123295783997, -0.3043675422668457, -0.0630754828453064, -0.12472527474164963, -0.05649319291114807, 0.3144015371799469, 0.3824208378791809, -0.05856953561306, -0.06460165232419968, 0.043257128447294235, -0.12097647041082382, 0.07375158369541168, 0.031513337045907974, 0.5690613389015198, -0.035270530730485916, -0.13822948932647705, -0.30036190152168274, 0.1417085975408554, -0.02640019729733467, 0.33301928639411926, -0.09341943264007568, -0.01688857562839985, -0.1888430416584015, -0.12775203585624695, 0.8144715428352356, -0.5939274430274963, -0.020840484648942947, -0.0011293322313576937, -0.29213395714759827, -0.12130552530288696, -0.12804988026618958, -0.33268386125564575, 0.007866255939006805, -0.5135942101478577, 0.7210742235183716, -0.2871510684490204, -0.059740692377090454, 0.21417322754859924, -0.08089088648557663, -0.02115018106997013, 0.13219580054283142, -0.1468784213066101, -0.0658843144774437, 0.28271374106407166, -0.09821204841136932, 0.059423282742500305, 0.20025081932544708, -0.23904669284820557, 0.01742112822830677, 0.2545742988586426, -0.017766227945685387, 0.12325916439294815, -0.04798319563269615, 0.22597217559814453, -0.026533905416727066, -0.20104831457138062, 0.05979682505130768, -0.007643028628081083, 0.16593202948570251, 0.131278857588768, 0.139039546251297, -0.06483420729637146, -0.025782005861401558, -0.022751713171601295, 0.16356141865253448, -0.03557024151086807, 0.010809515602886677, -0.21585248410701752, -0.04493678733706474, -0.11749844998121262, 0.2198992520570755, 0.2867639362812042, -0.022077402099967003, 0.11712481826543808, -0.2027456909418106, 0.10896605253219604, 0.03802511468529701, -0.09330198913812637, 0.06532042473554611, 0.1067756712436676, 0.10257278382778168, 0.07927989214658737, -0.44222328066825867, 0.0317964069545269, -0.37439513206481934, 0.03944907709956169, 0.1022689938545227, 0.04039008915424347, -0.04252135008573532, -0.3340342938899994, 0.38547858595848083, -0.03984963148832321, -0.08703258633613586, -0.20142118632793427, 0.173209547996521, 0.04728243499994278, 0.12103863060474396, -0.026264294981956482, -0.2560540735721588, 0.0326697863638401, 0.08343931287527084, 0.07993867993354797, -0.09751350432634354, -0.6064837574958801, 0.8932344913482666, 0.08963537961244583, -0.5751512050628662, 0.21176525950431824, -0.10487940162420273, -0.3801032304763794, 0.6150920987129211, -1.1095365285873413, 1.0862075090408325, 0.7711216807365417, -0.4032801389694214, -0.5285636186599731, 0.4885602295398712, -0.8644194006919861, 0.12836581468582153, -0.19425173103809357, 0.21363331377506256, -0.2914253771305084, 0.16343247890472412, 0.16243620216846466, 0.19144095480442047, 0.0713362842798233, 0.05972210317850113, 0.31319156289100647, 0.13597117364406586, 0.11819786578416824, -0.2998591959476471, -0.08080661296844482, -0.07783369719982147, 0.051274947822093964, -0.03392311930656433, 0.22276610136032104, -0.05871811881661415, 0.3965972065925598, 0.3857683539390564, 0.20262180268764496, -0.10124003887176514, 0.10170826315879822, -0.08575195074081421, -0.004904645960777998, -0.15700501203536987, -0.19192956387996674, 0.3046703636646271, 0.2490561157464981, -0.17840459942817688, 0.04818321764469147, 0.05176398530602455, -0.1678675413131714, -0.02497432380914688, -0.3297029137611389, 0.15568861365318298, -0.08358868956565857, -0.016552843153476715, -0.2008301168680191, -0.12440139055252075, 0.03924395143985748, -0.06651723384857178, 0.25012606382369995, 0.13896991312503815, -0.13634054362773895, -0.10530366748571396, 0.21018660068511963, 0.306747704744339, 0.010196330957114697, 0.05743943527340889, 0.14079241454601288, -0.0294891856610775, 0.029268011450767517, -0.14951464533805847, 0.25334998965263367, 0.27137038111686707, 0.11800211668014526, 0.16809263825416565, 0.38177525997161865, 0.061341091990470886, -0.14730890095233917, 0.0962386280298233, 0.04710953310132027, 0.09410856664180756, -0.100873202085495, 0.17725352942943573, -0.19058850407600403, 0.061754897236824036, -0.30746379494667053, 0.17279355227947235, -0.2208702564239502, 0.1311456859111786, -0.03446529060602188, -0.15945173799991608, 0.18368348479270935, -0.00013637384108733386, -0.36701807379722595, 0.09366077184677124, -0.09356828033924103, 0.03015839494764805, -0.24432550370693207, 0.06291801482439041, -0.2725880444049835, -0.12576106190681458, -0.17214539647102356, 0.30968785285949707, -0.13642016053199768, -0.2724812924861908, -0.0886918380856514, 0.1383647322654724, 0.2453417032957077, 0.014044353738427162, -0.018749002367258072, 0.254442423582077, 0.03083537332713604, -0.0048211789689958096, 0.10356970876455307, 0.1072760671377182, 0.11969412118196487, 0.17727845907211304, -0.08840243518352509, 0.04176465421915054, -0.020912375301122665, -0.22269810736179352, 0.21023111045360565, 0.17168445885181427, -0.12978601455688477, 0.045986078679561615, 0.19847749173641205, 0.11840717494487762, 0.21059414744377136, 0.11404721438884735, 0.21344192326068878, -0.07092766463756561, -0.22992637753486633, -0.007096329238265753, -0.16565409302711487, -0.019222531467676163, -0.14078688621520996, 0.12055214494466782, -0.14103296399116516, -0.02899465337395668, 0.09243642538785934, -0.04878592863678932, 0.4104742109775543, -0.054982081055641174, -0.22851219773292542, -0.27152523398399353, 0.4149980843067169, -0.04511456936597824, 0.2683604955673218, 0.15192978084087372, -0.008384013548493385, -0.25657132267951965, 0.16315923631191254, -0.10402730107307434, 0.009296447038650513, -0.20067057013511658, 0.12530462443828583, -0.17387939989566803, 0.3372823894023895, 0.14868955314159393, -0.05259234085679054, 0.337288498878479, -0.22755102813243866, -0.11144819110631943, 0.1077100858092308, -0.13107594847679138, 0.13923980295658112, -0.17005260288715363, -0.20257306098937988, 0.16267047822475433, 0.01646861992776394, 0.12021879851818085, -0.22888313233852386, -0.04652244597673416, -0.09241174906492233, 0.3834657371044159, -0.28117382526397705, 0.22242285311222076, -0.21247178316116333, -0.06445703655481339, -0.17331528663635254, 0.27566903829574585, -0.08250652253627777, 0.12887969613075256, 0.002914966316893697, 0.211654394865036, 0.22974258661270142, -0.18853169679641724, 0.0636344626545906, -0.09328451007604599, -0.18699900805950165, 0.07305680215358734, 0.3061835467815399, 0.2028696984052658, -0.20334698259830475, -0.4589681327342987, -0.17052000761032104, -0.18178196251392365, -0.022497430443763733, 0.2739434838294983, -0.0779738649725914, -0.20481589436531067, -0.15412437915802002, -0.199057936668396, 0.24568653106689453, -0.2545863389968872, 0.10358187556266785, 0.03872983530163765, -0.03517911583185196, -0.19791752099990845, -0.11938048899173737, -0.3707200288772583, 0.08697622269392014, 0.2676655650138855, 0.016450073570013046, -0.1066560223698616, -0.08923162519931793, 0.11868789047002792, 0.33491045236587524, -0.003068699035793543, 0.21273259818553925, -0.12137719243764877, 0.08115269988775253, -0.0973007008433342, 0.05811193585395813, -0.2135045975446701, 0.22772285342216492, -0.003254642942920327, 0.09050551801919937, 0.04099220409989357, -0.022091008722782135, 0.11445026844739914, -0.01695440709590912, 0.00705213425680995, 0.13524627685546875, 0.11593204736709595, -0.23529347777366638, 0.011613693088293076, 0.14130592346191406, -0.0263931043446064, 0.0410439670085907, 0.21438124775886536, -0.0821642279624939, -0.1908898800611496, -0.39362236857414246, -0.1660795509815216, -0.22348159551620483, 0.2524867355823517, -0.4535684287548065, 0.09974787384271622, 0.5134657025337219, 0.109867163002491, 0.3968324363231659, 0.05354825779795647, -0.035490140318870544, -0.013056321069598198, -0.21370625495910645, -0.02531755529344082, -0.3428112864494324, -0.16431260108947754, -0.27498283982276917, -0.16189636290073395, -0.06091440096497536, 0.06843874603509903, -0.1608818769454956, -0.09334990382194519, 0.41903752088546753, 0.23761136829853058, 0.32699257135391235, -0.17626793682575226, 0.27364233136177063, -0.041483309119939804, -0.05192195996642113, 0.15002445876598358, -0.2547260522842407, 0.23728929460048676, -0.06529200077056885, -0.08098756521940231, 0.3841000199317932, 0.13163067400455475, 0.19075237214565277, -0.3802754580974579, -0.03827720880508423, 0.0808773934841156, 0.30254238843917847, 0.16243213415145874, -0.030838605016469955, 0.3715054392814636, -0.026914387941360474, 0.15006358921527863, -0.07079552859067917, -0.016776466742157936, -0.1848585605621338, -0.06747029721736908, 0.1278371810913086, -0.04141445830464363, -0.006820343434810638, -0.07349736988544464, -0.07335354387760162, 0.07163268327713013, 0.09050082415342331, 0.06046473979949951, -0.2649726867675781, -0.35159385204315186, 0.014279389753937721, -0.005434061400592327, -0.008319335989654064, 0.04498431459069252, -0.018159015104174614, -0.10198856890201569, -0.16705697774887085, 0.08609922230243683, 0.10763359069824219, -0.11538882553577423, -0.20341627299785614, -0.04808209091424942, 0.051118940114974976, 0.11645150929689407, -0.03183547034859657, -0.034136950969696045, -0.13906599581241608, 0.04465248063206673, -0.12522614002227783, -0.045208245515823364, -0.15247400104999542, -0.0007262436556629837, -0.18116921186447144, -0.07136502116918564, -0.028717679902911186, -0.10384305566549301, -0.08610174804925919, 0.06953489035367966, -0.06529143452644348, -0.13935086131095886, 0.10005665570497513, 0.269462913274765, -0.0062790256924927235, 0.015221543610095978, 0.243598073720932, -0.0151332076638937, -0.09564147889614105, -0.11533043533563614, -0.00539263803511858, 0.01805662363767624, 0.05081331357359886, 0.10344510525465012, -0.20003938674926758, 0.16671951115131378, 0.11397937685251236, 0.03231601044535637, 0.016938913613557816, 0.1267928183078766, 0.20356358587741852, -0.21525683999061584, 0.016964180395007133, -0.19720476865768433, 0.13611924648284912, 0.054435715079307556, 0.005237087141722441, -0.11977078765630722, -0.0976700559258461, -0.15326166152954102, 0.07517572492361069, -0.23910677433013916, 0.08044488728046417, -0.004912551026791334, 0.026017267256975174, -0.13130305707454681, 0.33115410804748535, 0.14140655100345612, 0.17233139276504517, -0.055684272199869156, -0.2952442765235901, -0.10195901989936829, 0.16231893002986908, 0.09563156962394714, -0.2613985240459442, 0.18223485350608826, -0.13228973746299744, 0.24955596029758453, 0.42385634779930115, 0.09405624866485596, -0.12847355008125305, 0.15122546255588531, -0.215658500790596, -0.209736630320549, -0.16128994524478912, -0.19180364906787872, 0.2149127870798111, 0.09812979400157928, -0.2793669104576111, -0.08804558962583542, -0.015317235141992569, -0.06383215636014938, 0.10602248460054398, 0.21498587727546692, -0.1903233826160431, -0.07260975986719131, -0.09710654616355896, 0.14469067752361298, 0.005970704834908247, -0.03348974883556366, 0.12375634908676147, 0.20912721753120422, 0.3178471326828003, -0.4009067118167877, -0.2500998377799988, -0.10500676929950714, 0.11368779838085175, 0.13968253135681152, 0.2396329641342163, -0.10639448463916779, -0.01957322657108307, -0.10198897868394852, 0.3649490177631378, -0.0518810860812664, -0.08159312605857849, -0.24205593764781952, -0.24562032520771027, 0.0178004689514637, 0.04264911636710167, -0.031018350273370743, -0.02597241848707199, -0.015416976995766163, -0.016844574362039566, 0.004986447282135487, -0.17985938489437103, -0.2530328929424286, -0.10596784204244614, -0.12702912092208862, -0.14440292119979858, 0.0828879252076149, -0.26194047927856445, 0.004795458633452654, 0.21230849623680115, -0.059086091816425323, 0.13218200206756592, 0.02408764138817787, -0.1589042991399765, 0.1579882800579071, 0.05948677659034729, -0.11117289960384369, 0.02960389293730259, 0.11182758957147598, -0.24633391201496124, 0.005178155843168497, 0.11452731490135193, -0.007375761400908232, -0.19058676064014435, -0.22297589480876923, 0.25556817650794983, 0.14172589778900146, -0.006956365425139666, -0.050094932317733765, -0.0290029626339674, -0.042574185878038406, 0.23701710999011993, 0.2843111753463745, -0.12715058028697968, -0.31618210673332214, -0.255776971578598, -0.00591677101328969, 0.2797396779060364, 0.07207407802343369, 0.2558020055294037, -0.1385495960712433, -0.09254156798124313, 0.06248565763235092, 0.2810506224632263, 0.041378963738679886, 0.25616931915283203, -0.21039815247058868, 0.13630898296833038, 0.11573921144008636, -0.31967008113861084, -0.27762162685394287, 0.143459290266037, 0.14021354913711548, -0.3066365718841553, 0.1163325235247612, 0.06921733915805817, 0.1150536760687828, 0.12323014438152313, 0.07976751774549484, 0.24181067943572998, 0.07802601158618927, -0.23949702084064484, 0.011688508093357086, 0.2375861406326294, -0.022799095138907433, -0.0012033706298097968, -0.020841367542743683, -0.05979330837726593, 0.07478474825620651, -0.11778534203767776, -0.0033462545834481716, -0.16290216147899628, 0.01520231831818819, 0.4506281018257141, 0.017406510189175606, -0.046431999653577805, 0.07186916470527649, 0.06653670966625214, 0.04236171394586563, -0.05778900533914566, 0.07108131051063538, 0.29577019810676575, -0.41645240783691406, -0.28264081478118896, -0.06440740823745728, 0.2734435200691223, 0.1116662323474884, 0.2519204616546631, -0.029531186446547508, -0.18337136507034302, -0.05212456360459328, 0.0028106828685849905, -0.10009173303842545, 0.17046205699443817, -0.13060078024864197, -0.08286530524492264, -0.022417854517698288, -0.24464498460292816, -0.15210120379924774, -0.012405447661876678, 0.33701640367507935, -0.20975923538208008, -0.10102014243602753, 0.4122529923915863, -0.042733579874038696, 0.009516706690192223, 0.07482384145259857, 0.1340027153491974, 0.003052996937185526, -0.18667161464691162, 0.1530998945236206, 0.07042578607797623, 0.22292697429656982, -0.11081958562135696, 0.009047074243426323, -0.10244011133909225, 0.1765119731426239, -0.11080052703619003, -0.053425177931785583, -0.19212360680103302, -0.22062061727046967, 0.03197815641760826, 0.03236859291791916, 0.02446606755256653, 0.002423526719212532, -0.0705852210521698, -0.020363042131066322, -0.10926148295402527, -0.041957154870033264, 0.15100325644016266, -0.14813977479934692, -0.11470293998718262, 0.27248549461364746, 0.07978807389736176, 0.14724178612232208, -0.008020826615393162, 0.09449206292629242, -0.01771600916981697, -0.1070040687918663, 0.18079064786434174, 0.04766577482223511, 0.08343576639890671, -0.06027575582265854, 0.019750963896512985, -0.029030943289399147, -0.06319187581539154, -0.20404984056949615, -0.03380865231156349, 0.1142534539103508, -0.3593795895576477, -0.18662990629673004, 0.15333227813243866, 0.2312271147966385, -0.003092465689405799, -0.20284013450145721, -0.13320857286453247, 0.01771787740290165, 0.01083110086619854, -0.024761784821748734, 0.12914450466632843, 0.08647270500659943, -0.14148427546024323, -0.08382043242454529, -0.20305252075195312, 0.020702047273516655, 0.09133681654930115, 0.03364167362451553, -0.2300521582365036, -0.1614861935377121, 0.13658645749092102, -0.20985962450504303, -0.10695904493331909, -0.11470149457454681, 0.05534915253520012, -0.10297788679599762, -0.006457491312175989, -0.36775606870651245, 0.10483282804489136, 0.17273569107055664, 0.17041783034801483, 0.05946805700659752, 0.029543792828917503, 0.15623585879802704, 0.005164010915905237, 0.035640668123960495, 0.013636715710163116, -0.22528444230556488, -0.16500139236450195, 0.12374205142259598, -0.1259370744228363, -0.0720190778374672, -0.17504973709583282, 0.05512188747525215, -0.07791591435670853, -0.10460582375526428, 0.055907320231199265, 0.256012886762619, 0.0058639454655349255, -0.04834514856338501, -0.2520529627799988, -0.02339034341275692, -0.13253355026245117, -0.28035783767700195, 0.004139786586165428, -0.14888572692871094, -0.05986636504530907, -0.16391266882419586, -0.13732627034187317, 0.06587406992912292, 0.08466493338346481, 0.18788844347000122, -0.06128218397498131, -0.264835923910141, 0.1395653784275055, 0.13133394718170166, -0.07022099941968918, 0.0010966171976178885, 0.12321564555168152, 0.2993922233581543, -0.1381349116563797, -0.6542342901229858, -0.17627166211605072, 0.028870807960629463, -0.0960293784737587, 0.29654422402381897, 0.029101122170686722, -0.3083919584751129, -0.01687120646238327, -0.060845475643873215, 0.2641136646270752, -0.10941971093416214, -0.06198575347661972, -0.420145720243454, -0.3708384037017822, -0.08811179548501968, 0.5794634222984314, 0.21979014575481415, 0.14009223878383636, -0.05064922943711281, 0.11534540355205536, -0.180052250623703, -0.2538832724094391, 0.0033101532608270645, -0.032618261873722076, 0.1392565369606018, 0.01295947190374136, -0.039272062480449677, -0.13769730925559998, -0.32804572582244873, -0.10570129752159119, -0.1554800420999527, 0.24153906106948853, 0.12037999927997589, 0.06893248111009598, -0.008577768690884113, -0.18537309765815735, -0.192117840051651, -0.015141288749873638, 0.03664911165833473, -0.057586971670389175, -0.2156241536140442, 0.030680811032652855, 0.09113650023937225, -0.12896712124347687, 0.008614071644842625, 0.1622907817363739, -0.06386329233646393, -0.0030759775545448065, -0.6319265365600586, -0.17675848305225372, -0.19273366034030914, -0.14745798707008362, -0.030489567667245865, 0.038894571363925934, -0.3265451490879059, -0.045005980879068375, 0.037403736263513565, 0.23168480396270752, -0.036187782883644104, -0.21051357686519623, -0.14245820045471191, 0.047333285212516785, 0.057445086538791656, -0.17497508227825165, 0.053294651210308075, -0.3444052040576935, 0.12160848081111908, -0.08315248042345047, 0.07493074983358383, -0.13655196130275726, -0.1182810589671135, -0.04723826050758362, -0.6352207064628601, 0.03237944841384888, 0.12810003757476807, -0.06830905377864838, 0.06914229691028595, -0.11432173103094101, 0.08881651610136032, 0.07697539776563644, -0.1393640786409378, 0.03759043663740158, 0.24786166846752167, -0.10408253222703934, 0.03554244339466095, 0.426277756690979, -0.20491079986095428, 0.14306795597076416, -0.02963528037071228, 0.0324929840862751, 0.10031064599752426, 0.04570788890123367, 0.2192947268486023, -0.0865120142698288, 0.14548785984516144, -0.0870760828256607, 0.14591778814792633, -0.08044110983610153, 0.13923482596874237, 0.09465037286281586, 0.0732625424861908, 0.011062762700021267, -0.015053375624120235, -0.2474895864725113, 0.0468762069940567, 0.0628100112080574, 0.11960568279027939, -0.13238829374313354, 0.001644163392484188, 0.03224986791610718, -0.012594779953360558, 0.003148876829072833, 0.18841373920440674, -0.1591608226299286, -0.042636629194021225, 0.01206666138023138, -0.01104458887130022, -0.11288519948720932, 0.49470239877700806, 0.0041658650152385235, -0.21181394159793854, 0.42292672395706177, -0.17982448637485504, 0.346757173538208, 0.029779324308037758, -0.04129810631275177, 0.07173413038253784, 0.20945003628730774, -0.06528894603252411, -0.13796529173851013, -0.07596392929553986, 0.056452106684446335, 0.20265835523605347, 0.06612741202116013, 0.07274249196052551, -0.24937230348587036, -0.36150452494621277, -0.21623986959457397, 0.026298031210899353, 0.029062515124678612, 0.16796401143074036, 0.3260359466075897, 0.10028474777936935, 0.30308663845062256, -0.04871588572859764, -0.06563928723335266, 0.05716552957892418, 0.12392911314964294, 0.2263374626636505, 0.15323558449745178, -0.20965324342250824, -0.16134078800678253, 0.10218045115470886, 0.2673552632331848, -0.006057215854525566, 0.2667050063610077, 0.017400508746504784, -0.215368390083313, 0.1325266808271408, 0.01723603345453739, 0.23515675961971283, 0.02601277455687523, 0.14941474795341492, 0.21249768137931824, 0.0385126955807209, -0.07696295529603958, -0.26607269048690796, 0.07035617530345917, 0.2752359211444855, -0.6290580630302429, 0.1831563413143158, 0.1764867752790451, -0.1572265774011612, 0.19421029090881348, -0.10503193736076355, 0.2350602149963379, 0.11826180666685104, -0.3633115589618683, -0.04035431146621704, 0.047706108540296555, -0.14862841367721558, -0.06212185323238373, 0.004969117231667042, -0.33001723885536194, -0.31013888120651245, -0.18140164017677307, 0.25876709818840027, -0.2759455740451813, -0.23143896460533142, 0.2380344420671463, 0.04391196370124817, -0.009757934138178825, -0.2429385930299759, 0.00845245085656643, -0.015417130663990974, 0.5482852458953857, 0.1880597025156021, -0.01489107497036457, -0.12439972162246704, -0.2491295039653778, 0.06851225346326828, 0.4736279249191284, 0.10687586665153503, -0.0026686645578593016, -0.28785496950149536, -0.19106362760066986, -0.20139819383621216, 0.21922653913497925, 0.13147194683551788, 0.20379726588726044, -0.4089772403240204, 0.30583587288856506, 0.003590479725971818, -0.26435771584510803, -0.39877641201019287, -0.20281830430030823, 0.08474292606115341, -0.315022349357605, -0.07908006012439728, 0.14215733110904694, 0.20614835619926453, 0.13692273199558258, 0.06347871571779251, -0.2233583927154541, -0.036397214978933334, 0.007904219441115856, 0.1968517154455185, 0.06797482073307037, 0.013883845880627632, -0.3620193600654602, -0.1207580640912056, -0.35682082176208496, -0.04984026402235031, 0.07284803688526154, -0.04340869188308716, 0.33522072434425354, 0.16552452743053436, 0.15398047864437103, -0.024645773693919182, 0.1279984563589096, -0.048642635345458984, 0.20374777913093567, 0.2804061770439148, 0.3222528398036957, -0.23395179212093353, 0.05406762287020683, -0.23485307395458221, -0.09559377282857895, 0.08316266536712646, 0.04223093017935753, -0.05242668837308884, -0.03688936308026314, -0.12666600942611694, -0.020752552896738052, 0.03958065062761307, 0.08665888756513596, 0.08048243075609207, 0.08506765216588974, -0.05100199580192566, 0.11079297959804535, -0.06788091361522675, -0.06557556986808777, 0.40672534704208374, -0.02092757448554039, 0.06159296631813049, 0.07840051501989365, 0.08018971979618073, -0.029799794778227806, 0.14635014533996582, -0.07924515753984451, 0.04607221111655235, -0.10929663479328156, 0.1530797928571701, 0.2267453372478485, -0.1704116314649582, 0.04972817748785019, 0.06305285543203354, 0.13544194400310516, 0.051599398255348206, 0.2247542440891266, 0.23297995328903198, 0.0832761600613594, 0.037966758012771606, 0.35873162746429443, 0.1859046220779419, -0.09698008000850677, -0.14230911433696747, -0.0036915303207933903, 0.14712287485599518, -0.0757434293627739, -0.07832196354866028, -0.21143949031829834, -0.3225252628326416, -0.17192155122756958, 0.25699254870414734, 0.15065982937812805, -0.10689247399568558, -0.10396303981542587, 0.010470118373632431, -0.022121936082839966, 0.147345170378685, 0.4079402685165405, -0.1403648853302002, -0.2618798613548279, -0.10675156116485596, -0.06757047027349472, 0.0284853745251894, -0.18697181344032288, -0.11282292008399963, 0.257696270942688, 0.26866990327835083, -0.046383101493120193, -0.2227364182472229, 0.658043384552002, 0.06843629479408264, -0.16987451910972595, 0.10196343809366226, 0.12040723860263824, 0.5479874014854431, -0.17809097468852997, -0.1317383497953415, -0.2821468412876129, -0.007527212146669626, -0.0026115800719708204, 0.3063657879829407, -0.18436075747013092, -0.13760972023010254, 0.18611343204975128, -0.11678643524646759, -0.23966974020004272, -0.16635912656784058, 0.28278082609176636, -0.26697346568107605, -0.2505771219730377, 0.12396285682916641, 0.1015704795718193, 0.36405131220817566, 0.07684817165136337, 0.1977163553237915, 0.2568616271018982, -0.08926351368427277, 0.22722865641117096, 0.26100102066993713, -0.06649267673492432, 0.036681294441223145, -0.16519105434417725, -0.003303342964500189, -0.08136515319347382, 0.3563985824584961, 0.26217594742774963, -0.014985134825110435, -0.21613110601902008, -0.0990578904747963, -0.10959036648273468, -0.02169542759656906, 0.005679150111973286, 0.1105828583240509, 0.027268728241324425, 0.10678200423717499, 0.03174269571900368, 0.6252536177635193, -0.06539545953273773, -0.025647448375821114, 0.24546636641025543, -0.26515358686447144, -0.35172024369239807, -0.42432281374931335, -0.0747857317328453, 0.17273424565792084, -0.06830712407827377, -0.4720402956008911, -0.10489999502897263, -0.7478978037834167, 0.35772329568862915, 0.2402086853981018, 0.02498936839401722, 0.046109359711408615, 0.2698972821235657, 0.6124747395515442, -0.12831991910934448, -0.01834668219089508, 0.1950749158859253, 0.3785744905471802, -0.17369471490383148, -0.9082891345024109, -0.26459917426109314, -0.10177536308765411, -0.22072814404964447, 0.22830556333065033, -0.09412563592195511, -0.38198086619377136, -0.1745302975177765, -0.22422276437282562, 0.4346579909324646, -0.18212376534938812, -0.05349912494421005, -0.48528164625167847, 0.13349910080432892, -0.016528531908988953, 0.06864726543426514, -0.3409174978733063, -0.01793581433594227, -0.3348410129547119, -0.0660061314702034, 0.020435066893696785, -0.2321651726961136, 0.15691454708576202, 0.03274112939834595, 0.012825002893805504, 0.45263153314590454, 0.12099944055080414, -0.03757432848215103, 0.025259101763367653, 0.010072614997625351, -0.05782967805862427, -0.14021191000938416, 0.13129863142967224, 0.09363535791635513, -0.14206747710704803, -0.20233671367168427, -0.16956964135169983, 0.15847858786582947, 0.11110279709100723, -0.04001457244157791, 0.17220035195350647, 0.030662305653095245, 0.2746896743774414, -0.2677629292011261, 0.8864902853965759, 0.06804864853620529, 1.1725085973739624, -0.6840171813964844, -0.6827094554901123, -0.11623310297727585, 0.5447470545768738, 0.11837929487228394, 1.317070722579956, 0.6239079833030701, -0.9427655339241028, 0.8940486311912537, 0.17752914130687714, -0.8843193650245667, -0.38769397139549255, 0.2038881778717041, -0.17320120334625244, -0.37322282791137695, 0.19492292404174805, -0.25116151571273804, 0.030205700546503067, 0.11367542296648026, -0.0019521816866472363, -0.20679689943790436, -0.3110105097293854, 0.22779503464698792, -0.13432401418685913, 0.10120617598295212, 0.035722967237234116, -0.014397135004401207, 0.191374272108078, -0.07045325636863708, -0.1600545346736908, -0.2031000256538391, -0.10337000340223312, 0.19291852414608002, 0.3173062801361084, 0.2074834406375885, 0.32776984572410583, -0.08878347277641296, -0.2415400743484497, -0.07351601868867874, -0.20792809128761292, 0.03810439258813858, -0.4447622001171112, -0.11377447098493576, 0.2609768807888031, 0.36159148812294006, 0.04021869972348213, 0.08126406371593475, -0.08966941386461258, -0.22952595353126526, -0.05310383811593056, -0.23274235427379608, -0.2312549203634262, 0.06458738446235657, 0.21411436796188354, -0.12348443269729614, -0.09221699833869934, -0.5836029648780823, -0.10439818352460861, 0.11463090777397156, -0.041576091200113297, 0.19591256976127625, -0.11137208342552185, 0.09744106978178024, -0.15758073329925537, 0.12381569296121597, 0.219488263130188, 0.19765403866767883, 0.09391386061906815, 0.1557054966688156, -0.19570733606815338, -0.1362970769405365, 0.12237992882728577, -0.13547581434249878, -0.008233875036239624, 0.057603176683187485, 0.06566259264945984, -0.14008454978466034, 0.18969447910785675, 0.09635838866233826, -0.1665990799665451, 0.23473314940929413, 0.08089134097099304, -0.13724936544895172, 0.016974691301584244, -0.1683427095413208, 0.3061559200286865, -0.055460166186094284, 0.10377298295497894, 0.0768936276435852, -0.21433208882808685, -0.08001893013715744, -0.30087634921073914, -0.1328134834766388, -0.16837629675865173, -0.014331175945699215, 0.21677151322364807, 0.08033879101276398, -0.16763509809970856, 0.20875272154808044, -0.11132453382015228, -0.12435776740312576, 0.18499261140823364, 0.01275317370891571, -0.2019461989402771, 0.1176847293972969, 0.16628685593605042, 0.04170938581228256, -0.29294002056121826, -0.14448456466197968, -0.012787416577339172, -0.1268792599439621, -0.10401231795549393, -0.025186479091644287, -0.18896937370300293, -0.31323444843292236, 0.04555458575487137, 0.07786422222852707, -0.24486128985881805, -0.02070346474647522, 0.0483226403594017, 0.020364467054605484, 0.06532711535692215, 0.11091580986976624, 0.08381005376577377, -0.1187242865562439, -0.2257494330406189, 0.17336419224739075, -0.20039723813533783, 0.2481422871351242, 0.24844859540462494, -0.14391279220581055, 0.007458243053406477, 0.15513010323047638, -0.062443193048238754, -0.03303811699151993, -0.06633217632770538, 0.01237653661519289, -0.12313096225261688, -0.1361267864704132, 0.1967536211013794, -0.06482409685850143, -0.3238493502140045, 0.14350418746471405, -0.13488590717315674, 0.044137343764305115, 0.24450409412384033, 0.015500168316066265, -0.28570106625556946, -0.1180078536272049, -0.15634046494960785, -0.11855236440896988, 0.019705047830939293, -0.12210649251937866, 0.08065129816532135, 0.24709893763065338, 0.18350793421268463, 0.09744568169116974, -0.02640160359442234, -0.042529862374067307, 0.15616948902606964, -0.23302091658115387, -0.26428696513175964, 0.1580803245306015, -0.1226332038640976, 0.14053720235824585, -0.11064013838768005, -0.1977323442697525, 0.06915651261806488, -0.04523305222392082, 0.335371732711792, 0.05405840277671814, 0.11228117346763611, 0.11478988081216812, -0.07286327332258224, 0.06531783193349838, -0.23160739243030548, -0.272832453250885, -0.17764605581760406, -0.06608852744102478, -0.045004718005657196, -0.27136898040771484, 0.1401958465576172, -0.04675207659602165, -0.16295742988586426, -0.20342545211315155, -0.044913507997989655, 0.2789211571216583, 0.1741986721754074, -0.1094064712524414, 0.2655138671398163, 0.13256427645683289, -0.1790015995502472, -0.30404430627822876, -0.22589057683944702, -0.44128739833831787, 0.0390811488032341, -0.2434203177690506, -0.26086801290512085, 0.037256836891174316, 0.09026940166950226, 0.10259786993265152, -0.09515953063964844, 0.4079776406288147, -0.18082988262176514, -0.30902498960494995, 0.12553811073303223, 0.13378114998340607, 0.21343256533145905, 0.22837737202644348, -0.059151049703359604, 0.176133930683136, -0.13964101672172546, 0.06170295923948288, 0.22019845247268677, 0.07134812325239182, -0.22006380558013916, -0.36009517312049866, -0.23079313337802887, 0.11990968137979507, -0.049547769129276276, -0.19475744664669037, -0.08420366048812866, 0.16661089658737183, 0.035145603120326996, 0.30105552077293396, 0.13967116177082062, 0.07458360493183136, -0.2082059383392334, 0.13026347756385803, -0.03009658306837082, 0.30195122957229614, 0.22236505150794983, -0.060066841542720795, -0.2844565808773041, -0.20707154273986816, 0.008675561286509037, 0.07314392924308777, -0.0006150039262138307, -0.21773356199264526, 0.21103455126285553, 0.10517632216215134, -0.16343539953231812, -0.10279189050197601, -0.047234807163476944, 0.15256844460964203, -0.19166907668113708, 0.34855741262435913, -0.3816288411617279, 0.0774315744638443, 0.11100993305444717, 0.007283978629857302, -0.06352955102920532, -0.08143915981054306, 0.0344213992357254, 0.05032645910978317, -0.15678223967552185, -0.2518228590488434, -0.2814609110355377, -0.4116531312465668, 0.21725159883499146, -0.01582394354045391, -0.22380484640598297, 0.022836854681372643, -0.07889333367347717, 0.2818387746810913, 0.2522278130054474, 0.13764885067939758, 0.12845000624656677, 0.028496218845248222, -0.09032637625932693, -0.2733467221260071, 0.259244441986084, -0.20950189232826233, 0.042458221316337585, 0.33115845918655396, 0.05636003240942955, 0.25839588046073914, -0.3895951807498932, 0.3036579191684723, 0.15105347335338593, 0.29865261912345886, 0.09847471117973328, -0.3483904302120209, 0.2709318697452545, -0.0610392801463604, 0.10794402658939362, 0.05019518733024597, 0.024831337854266167, 0.0817747637629509, 0.254526287317276, -0.16428180038928986, -0.14881524443626404, -0.009038278833031654, -0.011341060511767864, 0.20270343124866486, 0.31794843077659607, -0.1439705491065979, 0.03747177869081497, 0.09865988790988922, -0.06903919577598572, 0.12336601316928864, -0.04987238720059395, 0.23472249507904053, 0.08931434154510498, 0.04799121618270874, 0.05155085772275925, 0.12390290945768356, 0.12808336317539215, -0.07682738453149796, 0.17944766581058502, -0.020301084965467453, -0.05679589882493019, 0.03240545466542244, -0.230065256357193, 0.029958367347717285, 0.223206028342247, 0.2821308672428131, -0.08249980211257935, -0.08335058391094208, 0.05108265206217766, 0.05270262435078621, -0.19987723231315613, -0.0660383552312851, 0.2328808605670929, 0.06114042550325394, -0.01675187423825264, -0.16388100385665894, -0.11687465012073517, -0.19643135368824005, 0.24139057099819183, -0.28355586528778076, 0.11579784005880356, 0.02902844361960888, -0.13792064785957336, -0.006478027906268835, 0.1849847435951233, -0.10951846092939377, -0.19655171036720276, 0.15719738602638245, -0.09513042122125626, -0.3339554965496063, 0.1652728021144867, -0.16115745902061462, -0.0652080625295639, 0.1566738486289978, 0.1518215388059616, 0.0679747462272644, -0.09882128983736038, 0.03310874477028847, 0.10979851335287094, -0.2349831759929657, -0.1525586098432541, 0.10678967088460922, 0.18044528365135193, -0.10657323151826859, -0.02577979862689972, -0.17217837274074554, -0.11855842173099518, -0.1162075400352478, 0.21388889849185944, -0.013334396295249462, 0.13921678066253662, -0.10065309703350067, 0.030581410974264145, -0.22653959691524506, 0.1699272096157074, 0.174097940325737, -0.0685446485877037, -0.19433841109275818, -0.02672266587615013, -0.23387373983860016, 0.21389801800251007, -0.07838581502437592, -0.20537707209587097, 0.18953323364257812, 0.21770793199539185, 0.0912044569849968, -0.16829723119735718, 0.02381557784974575, -0.0014463216066360474, -0.18653324246406555, 0.03468954190611839, -0.09197128564119339, -0.029811205342411995, 0.47563767433166504, 0.12845493853092194, -0.23515993356704712, 0.12194598466157913, 0.20729193091392517, -0.018022025004029274, -0.08436434715986252, -0.188127800822258, -0.22711116075515747, -0.20600581169128418, -0.15434522926807404, -0.02680608443915844, -0.10628022998571396, 0.013174534775316715, 0.2718231678009033, 0.0799916535615921, -0.0750095471739769, -0.06527601182460785, -0.16042837500572205, 0.032710373401641846, 0.009888747707009315, 0.2548753321170807, 0.017649931833148003, 0.06799953430891037, -0.22343748807907104, -0.01993069425225258, 0.29022955894470215, 0.21495401859283447, 0.06595796346664429, -0.12204650789499283, -0.06258995831012726, -0.0075637903064489365, 0.4869653880596161, 0.08395451307296753, 0.013369191437959671, -0.26881298422813416, 0.2995454967021942, 0.060370951890945435, -0.05761612206697464, 0.029278043657541275, -0.026861030608415604, 0.18724267184734344, -0.102652907371521, -0.15285463631153107, 0.30670398473739624, 0.026275649666786194, -0.09148981422185898, 0.1395294964313507, 0.20746208727359772, 0.017725247889757156, -0.30463317036628723, -0.0796390101313591, 0.025013307109475136, -0.004036567639559507, 0.05278659984469414, -0.01076261606067419, 0.05226573348045349, -0.11751171201467514, -0.14372025430202484, 0.047766607254743576, 0.04528646543622017, -0.023584263399243355, 0.15300753712654114, 0.26308801770210266, -0.008066105656325817, 0.05799930542707443, 0.17574769258499146, 0.1403307020664215, 0.01636429876089096, 0.10102249681949615, 0.17225785553455353, -0.02063572034239769, -0.2541638910770416, 0.01390651986002922, 0.22553357481956482, 0.014904932118952274, 0.042926788330078125, -0.0252118818461895, -0.31317806243896484, 0.05943435803055763, 0.3000852167606354, 0.0513693206012249, 0.016725987195968628, -0.08319105952978134, 0.04752522334456444, 0.0884014368057251, -0.3077634572982788, 0.012020418420433998, -0.07858351618051529, -0.030215110629796982, -0.11782030016183853, 0.02632780559360981, 0.26674067974090576, -0.04303302615880966, 0.12272658199071884, 0.0030737866181880236, -0.012196947820484638, 0.19907762110233307, -0.16150519251823425, 0.23077337443828583, 0.4760758876800537, -0.1490582972764969, -0.10749772936105728, 0.24243111908435822, -0.15959633886814117, 0.04505165293812752, -0.0940050408244133, 0.18141460418701172, 0.09002012014389038, -0.16274802386760712, 0.1028025671839714, 0.10009270161390305, -0.02803712897002697, -0.1412907838821411, 0.09185907244682312, 0.09895564615726471, 0.13605785369873047, 0.009653397835791111, 0.2051805704832077, -0.014194775372743607, 0.09566506743431091, -0.09795600175857544, 0.11842774599790573, -0.024732958525419235, 0.14534108340740204, -0.29410520195961, -0.04279600828886032, -0.23880676925182343, -0.009834269061684608, -0.10507585853338242, 0.18018408119678497, -0.20663893222808838, 0.02823852002620697, 0.19740481674671173, -0.16352008283138275, -0.07664254307746887, -0.1189945712685585, 0.14058658480644226, -0.11143054813146591, -0.09345069527626038, 0.14556476473808289, -0.2089661806821823, -0.025393664836883545, -0.15271300077438354, -0.09441228955984116, -0.12333798408508301, 0.15455925464630127, -0.0733959898352623, 0.16497187316417694, -0.04924018308520317, -0.12210147082805634, -0.090358667075634, 0.03385039046406746, -0.11432705819606781, -0.028490034863352776, -0.06725633144378662, -0.04196866601705551, -0.044082239270210266, -0.06358668953180313, 0.11393016576766968, -0.09499510377645493, -0.10386001318693161, -0.08801956474781036, 0.013959730975329876, -0.04510805010795593, -0.09270608425140381, -0.27236926555633545, 0.10474049299955368, -0.07043323665857315, 0.07320648431777954, -0.23842573165893555, -0.023356564342975616, -0.03148850426077843, -0.012626645155251026, -0.21779075264930725, 0.1593904048204422, -0.2710549235343933, 0.16507616639137268, 0.01855355314910412, -0.09140294045209885, -0.13136877119541168, -0.06556849181652069, 0.02057875134050846, 0.10236835479736328, 0.22286944091320038, -0.22615447640419006, 0.3194553852081299, 0.25771763920783997, -0.07071226835250854, -0.12431501597166061, -0.0379011444747448, 0.11744695156812668, -0.17549902200698853, -0.0904436931014061, 0.2081017643213272, -0.200803741812706, -0.09240992367267609, 0.25527647137641907, -0.16819605231285095, -0.24199464917182922, 0.16272316873073578, 0.18690812587738037, 0.15457887947559357, -0.18628907203674316, 0.22291332483291626, 0.15537111461162567, -0.08369085192680359, 