{"version": "0.5.4", "metadata": {"date": {"year": 2026, "month": 4, "day": 26, "hour": 15, "minute": 5, "second": 14}, "loudness": -19.54964828491211, "gain": 0.8483572363750186, "name": "Octobass", "modeled_by": "October PRoduction Co.", "gear_type": "pedal", "gear_make": "", "gear_model": "", "tone_type": "crunch", "input_level_dbu": null, "output_level_dbu": null, "training": {"settings": {"ignore_checks": false}, "data": {"latency": {"manual": null, "calibration": {"algorithm_version": 1, "delays": [62], "safety_factor": 1, "recommended": 61, "warnings": {"matches_lookahead": false, "disagreement_too_high": false, "not_detected": false}}}, "checks": {"version": 3, "passed": true}}, "validation_esr": 0.005035772573858698}}, "architecture": "WaveNet", "config": {"layers": [{"input_size": 1, "condition_size": 1, "head_size": 8, "channels": 16, "kernel_size": 3, "dilations": [1, 2, 4, 8, 16, 32, 64, 128, 256, 512], "activation": "Tanh", "gated": false, "head_bias": false}, {"input_size": 16, "condition_size": 1, "head_size": 1, "channels": 8, "kernel_size": 3, "dilations": [1, 2, 4, 8, 16, 32, 64, 128, 256, 512], "activation": "Tanh", "gated": false, "head_bias": true}], "head": null, "head_scale": 0.02}, "weights": [-0.010578126646578312, 0.47848600149154663, -0.8067409992218018, -0.750095784664154, -0.21171781420707703, 0.2757105231285095, -0.03601602837443352, 0.8109142184257507, -0.10728716850280762, 0.2623036801815033, -0.30856308341026306, -0.006345415022224188, -0.9561732411384583, -0.6590246558189392, -0.41744521260261536, -0.007318647112697363, 0.20325995981693268, -0.003892791923135519, -0.17050977051258087, -0.2807179093360901, 0.1565183848142624, 0.12524090707302094, 0.1949726641178131, 0.00948933232575655, -0.02868059277534485, 0.24232420325279236, 0.03536023199558258, -0.14519290626049042, 0.12431143969297409, -0.12784673273563385, -0.06267096102237701, -0.08820421993732452, 0.017448145896196365, -0.03923693299293518, 0.05359603092074394, -0.2755478620529175, -0.19614283740520477, -0.10409116744995117, 0.15916681289672852, 0.0775768831372261, 0.21010491251945496, -0.18728114664554596, -0.031874217092990875, -0.347900390625, -0.001553359325043857, -0.04710057005286217, 0.30201470851898193, -0.023229114711284637, -0.08975204080343246, 0.23164114356040955, 0.023641154170036316, 0.13121473789215088, 0.2862696945667267, -0.07406128942966461, 0.08980244398117065, 0.14110063016414642, -0.06957058608531952, -0.12239927053451538, 0.12788605690002441, -0.17047081887722015, 0.05471967160701752, -0.04224074259400368, -0.16432206332683563, 0.029436586424708366, 0.07312078773975372, -0.012961293570697308, -0.12938375771045685, -0.05628766864538193, 0.0264385174959898, 0.22075366973876953, -0.01617511548101902, 0.01579345017671585, -0.021959135308861732, 0.21530191600322723, 0.19689516723155975, 0.04757815599441528, 0.11299944669008255, -0.06149923801422119, -0.07222142070531845, -0.17343716323375702, -0.19176062941551208, 0.221176877617836, 0.11438336223363876, -0.1555059850215912, -0.14314666390419006, -0.12076637893915176, -0.09513574838638306, 0.012509670108556747, 0.11948423087596893, -0.043511029332876205, -0.06226249784231186, -0.007346893660724163, 0.04580095037817955, 0.14916758239269257, -0.061772603541612625, -0.03701751306653023, -0.021465769037604332, 0.10246357321739197, -0.04968181997537613, -0.17578059434890747, 0.2328067570924759, 0.1693994402885437, -0.14093057811260223, 0.05816652998328209, -0.06806841492652893, -0.08308607339859009, -0.019820230081677437, -0.04713049530982971, -0.09480353444814682, -0.043483298271894455, -0.1987740397453308, 0.07563133537769318, -0.025546936318278313, 0.05284596234560013, 0.17285484075546265, -0.1662459373474121, 0.05885264649987221, -0.0729416161775589, 0.060281191021203995, -0.06703606247901917, 0.1328953206539154, 0.048836011439561844, -0.17223413288593292, 0.14677126705646515, -0.08735241740942001, -0.17503173649311066, 0.052750784903764725, -0.12193021178245544, 0.03796615079045296, -0.208130344748497, 0.06394954770803452, -0.019118158146739006, 0.04505987837910652, -0.04734361171722412, 0.20478937029838562, -0.09252586960792542, 0.0747026577591896, -0.08560234308242798, 0.14336779713630676, 0.03835843503475189, 0.22581236064434052, -0.0024688157718628645, 0.18684355914592743, -0.10158954560756683, -0.04104231297969818, -0.021584471687674522, 0.00480673648416996, 0.08043020963668823, -0.03328065201640129, -0.21380145847797394, -0.058644190430641174, -0.08050836622714996, -0.12932585179805756, 0.15839706361293793, 0.12535347044467926, -0.23431611061096191, 0.17534302175045013, -0.09239033609628677, 0.031186318024992943, -0.08163608610630035, -0.008301503956317902, 0.02104921080172062, -0.16653314232826233, -0.15042690932750702, -0.0625370517373085, 0.06958102434873581, -0.03292166814208031, 0.10033570230007172, -0.19301843643188477, 0.023478003218770027, 0.17605170607566833, -0.12266011536121368, 0.14359831809997559, 0.08827309310436249, -0.2088388055562973, 0.06691326200962067, -0.05245378240942955, 0.00954099278897047, 0.10478165745735168, -0.10805419832468033, -0.09448111057281494, -0.06372548639774323, 0.05463952198624611, 0.10342094302177429, 0.07986944168806076, 0.076651930809021, -0.12628324329853058, -0.049688465893268585, -0.155861034989357, 0.15682458877563477, 0.13765226304531097, 0.13690045475959778, -0.1758345067501068, 0.0351085290312767, -0.054620128124952316, -0.14169573783874512, -0.04970649629831314, 0.09912200272083282, -0.14817142486572266, 0.02887992560863495, 0.052784066647291183, 0.028285345062613487, -0.08253493160009384, -0.057210035622119904, -0.15403521060943604, 0.12188763916492462, -0.06414466351270676, 0.18392027914524078, -0.06502224504947662, -0.04681110754609108, 0.0944054126739502, 0.14597836136817932, 0.09010923653841019, -0.1268453598022461, -0.1802709549665451, -0.05974708870053291, -0.021951984614133835, -0.25647732615470886, 0.037060558795928955, -0.02339673414826393, -0.1802111566066742, 0.06791608035564423, 0.14980801939964294, 0.16968193650245667, -0.06232601776719093, -0.03589942678809166, -0.1948900818824768, -0.04326340928673744, 0.13363391160964966, 0.160318061709404, 0.08160638809204102, 0.027567368000745773, -0.1300969123840332, 0.07914063334465027, 0.21907657384872437, 0.07283104956150055, 0.1311812400817871, -0.21165283024311066, -0.22545552253723145, -0.022014616057276726, 0.15509945154190063, -0.062439486384391785, -0.12555019557476044, 0.09565123915672302, -0.10816231369972229, -0.22089718282222748, 0.1952107697725296, -0.298528790473938, -0.07593689113855362, 0.06921117007732391, -0.2527412474155426, -0.05603255331516266, 0.2176886349916458, 0.03121601790189743, -0.022039951756596565, -0.07802394032478333, -0.10948731750249863, -0.029552647843956947, 0.04512329772114754, -0.09537720680236816, 0.042247697710990906, -0.02380065806210041, 0.06989400088787079, -0.021534768864512444, 0.15555723011493683, -0.054810114204883575, -0.1739439219236374, 0.14791035652160645, 0.12301459908485413, -0.0828087255358696, 0.04510070011019707, -0.0733802393078804, -0.017010515555739403, -0.08618665486574173, -0.016917673870921135, -0.19407255947589874, 0.3078973889350891, -0.0867541953921318, 0.11705634742975235, -0.06281088292598724, 0.028966020792722702, -0.2014857679605484, 0.025218931958079338, 0.1073111817240715, 0.14355483651161194, -0.00151016132440418, -0.042939819395542145, -0.07819116115570068, 0.08398833870887756, -0.0001338927395408973, -0.20607422292232513, 0.16043825447559357, 0.037585724145174026, -0.13779059052467346, 0.07074432075023651, -0.09434369206428528, -0.031977374106645584, -0.0016348302597180009, 0.059893954545259476, -0.1750781387090683, 0.04296611621975899, 0.04665274918079376, -0.024233564734458923, -0.012278303503990173, 0.07039091736078262, -0.18776048719882965, 0.1253957599401474, 0.021281300112605095, 0.1451280415058136, -0.1626919060945511, -0.08396819233894348, -0.11651284992694855, 0.19065050780773163, -0.016927093267440796, -0.03868347778916359, 0.2390831708908081, -0.028734873980283737, -0.08108223974704742, 0.21028873324394226, -0.0369720496237278, 0.09038793295621872, -0.1368139088153839, -0.022819912061095238, -0.02479379065334797, 0.2975063920021057, 0.09485896676778793, 0.1785123646259308, -0.1225208044052124, 0.1347430944442749, -0.1308443546295166, 0.058135323226451874, -0.174059197306633, 0.22338488698005676, -0.06643702834844589, -0.053417157381772995, -0.025285901501774788, 0.26195868849754333, 0.18102183938026428, 0.03847246989607811, 0.24716974794864655, 0.0005470198811963201, -0.14619959890842438, 0.2590540051460266, 0.11755293607711792, -0.17897945642471313, 0.2731599807739258, 0.11134070158004761, -0.00914794858545065, 0.058295510709285736, -0.0046525332145392895, -0.07893621176481247, 0.018394771963357925, -0.006798704620450735, -0.05791749432682991, -0.04216628149151802, 0.046659525483846664, 0.0898299440741539, 0.10321393609046936, -0.09399621188640594, -0.11376295983791351, -0.13417382538318634, -0.13101507723331451, -0.2621114253997803, 0.07804356515407562, 0.1079796776175499, 0.0054876781068742275, 0.09186974167823792, -0.14473135769367218, 0.03733427822589874, 0.002338800113648176, -0.053590599447488785, -0.01189685519784689, -0.11345881968736649, -0.07981996238231659, 0.007413693703711033, -0.04547300189733505, 0.15159128606319427, -0.0038524228148162365, 0.09412963688373566, 0.08870462328195572, 0.2630186975002289, -0.014359679073095322, 0.08067921549081802, -0.008960457518696785, 0.021233059465885162, 0.1514824777841568, -0.057996176183223724, 0.040410201996564865, -0.04234397038817406, -0.07923200726509094, -0.021437954157590866, -0.024495473131537437, -0.22684158384799957, -0.11605332046747208, -0.0965975970029831, -0.04564978554844856, 0.06921039521694183, -0.09259261935949326, -0.0823029950261116, 0.11370749026536942, 0.13521794974803925, -0.03614488244056702, -0.04193073511123657, 0.11364453285932541, 0.10859400033950806, -0.1383906453847885, 0.15179528295993805, 0.05337505787611008, -0.027150634676218033, 0.09599819034337997, -0.1372801661491394, 0.004234594758599997, 0.1499207615852356, -0.03765558823943138, -0.06208598241209984, -0.07438942044973373, 0.0027199655305594206, -0.06545528769493103, 0.07384426891803741, 0.11858662962913513, 0.08175569027662277, -0.10364523530006409, 0.062463320791721344, 0.04285008832812309, 0.11833902448415756, -0.15672415494918823, 0.03592029958963394, -0.13530872762203217, -0.01800750382244587, 0.009626111947000027, -0.07867798209190369, 0.007753746118396521, 0.1590566188097, 0.035363491624593735, -0.14823018014431, -0.026096973568201065, 0.044378869235515594, -0.16730377078056335, 0.09658542275428772, -0.11498323082923889, -0.19244354963302612, -0.11233732104301453, -0.00751999206840992, 0.047917451709508896, -0.1037791296839714, 0.13430720567703247, -0.03756928816437721, 0.047150760889053345, -0.02378932200372219, -0.1852775514125824, 0.24301084876060486, 0.17545180022716522, 0.23594222962856293, -0.010658455081284046, -0.19851170480251312, 0.021034199744462967, 0.08812582492828369, -0.03597087413072586, -0.2180657684803009, 0.04085813835263252, -0.23487386107444763, -0.15061961114406586, 0.11899478733539581, -0.021936381235718727, 0.1338476538658142, -0.017856547608971596, 0.002513709245249629, -0.12137900292873383, 0.06604013592004776, 0.060502227395772934, 0.16575129330158234, 0.06169317662715912, 0.010087878443300724, -0.09084620326757431, 0.17210283875465393, -0.0526280403137207, -0.033716704696416855, -0.03188731521368027, -0.17110195755958557, -0.018346071243286133, -0.00526453647762537, -0.15576806664466858, -0.2068568915128708, 0.17142166197299957, -0.12043062597513199, 0.0077788629569113255, 0.16941839456558228, -0.02305515669286251, -0.0957091823220253, 0.03821230307221413, -0.12974898517131805, -0.07644008100032806, 0.1601376086473465, -0.026271488517522812, 0.23257528245449066, 0.00047973700566217303, -0.15817664563655853, -0.1591491401195526, 0.206290602684021, 0.23947954177856445, -0.01434650644659996, 0.026985226199030876, -0.04013614356517792, -0.039454616606235504, 0.19445374608039856, -0.19083072245121002, -0.08258996158838272, 0.13244177401065826, -0.14426571130752563, -0.07212374359369278, 0.035575006157159805, 0.18598352372646332, 0.06904364377260208, -0.14471323788166046, 0.019262753427028656, 0.01035219244658947, 0.09765227884054184, 0.12627750635147095, 0.21134302020072937, -0.08693497627973557, -0.029258569702506065, -0.12617774307727814, 0.16845376789569855, -0.010232576169073582, 0.026791807264089584, -0.16559192538261414, 0.03686685860157013, -0.14934249222278595, 0.08971650898456573, -0.16852763295173645, 0.021429140120744705, 0.21771366894245148, -0.22375908493995667, -0.2464500069618225, -0.03836151957511902, -0.11177259683609009, -0.1620476394891739, -0.019392820075154305, -0.1595938354730606, -0.09527426213026047, 0.002896362915635109, 0.07431900501251221, 0.06272713094949722, -0.08465498685836792, 0.06784910708665848, 0.34088194370269775, -0.06785739213228226, 0.05133705213665962, -0.21976928412914276, 0.254830926656723, -0.18031325936317444, 0.03236162289977074, 0.027551354840397835, -0.13590280711650848, 0.1961250603199005, -0.1272948533296585, -0.07790480554103851, 0.12742343544960022, -0.02304929681122303, 0.060466550290584564, -0.29769644141197205, 0.03629378229379654, -0.10552728921175003, 0.22369562089443207, -0.21528229117393494, 0.18093207478523254, -0.20022565126419067, 0.08945979177951813, 0.046635884791612625, 0.21807187795639038, -0.014938730746507645, 0.13644637167453766, -0.20470206439495087, 0.028402986004948616, -0.05911460518836975, 0.2831021249294281, -0.16682803630828857, -0.17023612558841705, 0.2146846055984497, 0.04985940083861351, -0.08408663421869278, 0.050957806408405304, -0.24471233785152435, -0.009680012241005898, 0.15627864003181458, -0.18905065953731537, -0.017943358048796654, 0.22109352052211761, -0.0018259488278999925, 0.2592029571533203, 0.17975930869579315, 0.05426723510026932, -0.10058499872684479, 0.051685914397239685, 0.19048507511615753, 0.044154711067676544, -0.009710099548101425, 0.011211907491087914, 0.15099570155143738, 0.01015606988221407, -0.0030869217589497566, -0.04219483211636543, -0.22254519164562225, 0.2559172511100769, -0.042026910930871964, -0.18125145137310028, 0.19982971251010895, -0.09310751408338547, 0.035609662532806396, -0.14535731077194214, 0.07557074725627899, -0.15172019600868225, 0.3252774775028229, -0.0761031061410904, 0.1740100234746933, 0.007100691087543964, 0.11733996123075485, -0.06832364201545715, 0.280179888010025, -0.008309073746204376, 0.0408831350505352, 0.0004892177530564368, 0.06100600212812424, -0.24824795126914978, 0.09214089065790176, -0.08051520586013794, 0.020495129749178886, 0.10805241018533707, -0.1202307939529419, -0.13314178586006165, 0.20812131464481354, 0.05213450640439987, -0.0747365728020668, 0.13407117128372192, 0.0725814700126648, -0.15147802233695984, 0.06852426379919052, -0.10259252786636353, -0.04212602227926254, 0.0031426837667822838, -0.22428344190120697, 0.11259646713733673, 0.0563075989484787, 0.14348986744880676, -0.168282151222229, 0.11409061402082443, -0.2121320366859436, 0.19888664782047272, -0.08765173703432083, -0.16576386988162994, 0.15914353728294373, -0.02742188423871994, -0.0253235325217247, -0.040666576474905014, -0.10880982875823975, 0.061698246747255325, -0.05975081026554108, 0.10154636949300766, -0.1948506236076355, 0.1394798755645752, 0.0008352924487553537, 0.09958034753799438, 0.026695329695940018, -0.14098356664180756, -0.12471433728933334, 0.2113044559955597, 0.004116249270737171, 0.24603627622127533, -0.12127156555652618, 0.090218685567379, -0.26688113808631897, 0.06062320992350578, 0.0048301126807928085, -0.12608455121517181, 0.10953432321548462, 0.12139280885457993, -0.15178798139095306, 0.07454425096511841, 0.12899163365364075, -0.16930478811264038, 0.2062705159187317, -0.06674224883317947, -0.15654729306697845, 0.0645073726773262, 0.08762430399656296, 0.15087451040744781, -0.02434038743376732, -0.14036862552165985, 0.1842840611934662, 0.08849076926708221, -0.08231167495250702, -0.2944357693195343, 0.008305265568196774, 0.25830700993537903, 0.22325511276721954, -0.04375152289867401, -0.018035246059298515, 0.10455124080181122, 0.12816736102104187, -0.10139372199773788, 0.12803567945957184, 0.13582395017147064, -0.2551172375679016, -0.16357377171516418, -0.16957511007785797, 0.12330299615859985, 0.13505753874778748, 0.14231954514980316, -0.28468355536460876, -0.11984798312187195, -0.11301545798778534, 0.05228521674871445, 0.047626908868551254, -0.06903104484081268, -0.026417141780257225, -0.227862149477005, -0.07288803160190582, 0.1802806556224823, 0.29207685589790344, 0.20230808854103088, -0.021084299311041832, 0.09150613099336624, 0.07227355241775513, -0.20897306501865387, 0.13088320195674896, 0.13022123277187347, 0.016011128202080727, 0.09418157488107681, 0.17977368831634521, -0.19806119799613953, 0.17918923497200012, 0.20359918475151062, -0.15912948548793793, -0.10563107579946518, -0.24021174013614655, 0.14838376641273499, 0.13379734754562378, -0.18385888636112213, 0.12639176845550537, -0.19632846117019653, 0.06489092111587524, 0.029876528307795525, 0.2057074010372162, -0.22443445026874542, 0.042820386588573456, 0.21190863847732544, -0.09150104969739914, -0.10366878658533096, 0.07484646141529083, -0.2199961245059967, -0.12797096371650696, -0.10002562403678894, 0.2840457558631897, 0.1417297124862671, 0.17755229771137238, -0.06738577783107758, -0.009864026680588722, 0.020003490149974823, 0.12627258896827698, -0.07278750091791153, 0.14051996171474457, -0.06977271288633347, -0.12981484830379486, 0.03133349120616913, 0.22509652376174927, -0.08833055198192596, 0.0678505077958107, -0.048643600195646286, -0.12684036791324615, 0.08140043914318085, -0.09516268223524094, -0.12263122946023941, 0.1672518104314804, -0.11179687827825546, 0.06184935197234154, -0.0013924229424446821, -0.04063309729099274, -0.11177588254213333, 0.24268431961536407, -0.31563711166381836, -0.14714616537094116, 0.1125701293349266, 0.09711945056915283, 0.025811461731791496, 0.06780710816383362, -0.01444055512547493, -0.09343881160020828, -0.0766431912779808, -0.061558421701192856, -0.022696033120155334, 0.02284742146730423, -0.0053562624379992485, 0.08075331151485443, 0.015512373298406601, -0.04385776072740555, -0.07262659817934036, -0.0053072739392519, -0.011883947998285294, 0.07222384959459305, -0.08472588658332825, 0.44100692868232727, -0.35859569907188416, 0.7295162081718445, -0.6480237245559692, -0.07785988599061966, 0.805054783821106, 0.8626633882522583, -0.5341023802757263, 0.1617199331521988, 0.0480622760951519, -0.5296916365623474, -0.2359958291053772, 0.1623995453119278, -0.7267351150512695, 0.27359864115715027, 0.46721556782722473, -0.02016313187777996, 0.24548079073429108, -0.03645507991313934, 0.142801433801651, 0.13426518440246582, -0.09493061900138855, 0.04826595261693001, -0.1690923273563385, -0.04244503378868103, -0.09864387661218643, 0.0030759212095290422, -0.18089304864406586, -0.061654772609472275, -0.031005065888166428, 0.11039628833532333, -0.02685125544667244, 0.06006773188710213, -0.07651152461767197, -0.24938438832759857, 0.046815790235996246, -0.11815392225980759, -0.01849556341767311, -0.243883416056633, -0.048900242894887924, -0.036396171897649765, 0.06458212435245514, -0.3764640986919403, 0.42983999848365784, -0.17545852065086365, -0.16628390550613403, 0.2845156788825989, 0.2518153488636017, 0.10339968651533127, 0.0609656386077404, -0.1199912279844284, 0.09084953367710114, -0.22957254946231842, -0.17223858833312988, 0.0022744282614439726, -0.17993664741516113, 0.03052029013633728, -0.1739799529314041, 0.05024176090955734, -0.2004745602607727, 0.02178005501627922, 0.11047761142253876, 0.1728745698928833, -0.06950020045042038, 0.44186925888061523, 0.1489032357931137, -0.09692394733428955, -0.011377561837434769, -0.3560614287853241, -0.11185750365257263, -0.08491498976945877, 0.0182855986058712, -0.2416153997182846, -0.2581389546394348, -0.14803485572338104, -0.13016892969608307, 0.2024092823266983, 0.11824049800634384, 0.09590062499046326, -0.052629027515649796, -0.15948253870010376, -0.21456566452980042, -0.27994292974472046, 0.14431501924991608, 0.1854986995458603, -0.026064356788992882, 0.12208767980337143, -0.13365760445594788, 0.0573127456009388, 0.21965987980365753, -0.029800137504935265, 0.1148982122540474, 0.003650552360340953, 0.17916442453861237, -0.13120658695697784, -0.19120901823043823, -0.026769578456878662, -0.07734087109565735, 0.14767321944236755, 0.026922080665826797, 0.23126187920570374, 0.27663007378578186, 0.2684456706047058, 0.04084312543272972, 0.23632961511611938, 0.03335118293762207, -0.15703630447387695, -0.1349124312400818, 0.019208572804927826, -0.2856941819190979, 0.11679571866989136, 0.2416297346353531, 0.13381002843379974, 0.1448001116514206, 0.08874046057462692, 0.17593756318092346, -0.3853399157524109, -0.21571645140647888, -0.05028267949819565, -0.05121864750981331, 0.03265610337257385, -0.364452987909317, -0.404095321893692, 0.300365686416626, -0.021913230419158936, -0.19380870461463928, 0.23657000064849854, -0.19097280502319336, 0.07572949677705765, -0.04999237507581711, 0.3562915325164795, -0.24774381518363953, -0.05512620881199837, 0.29535919427871704, 0.3230409026145935, 0.08036570250988007, 0.15220330655574799, -0.04347426816821098, 0.24613067507743835, -0.1407812237739563, 0.18466635048389435, -0.055940721184015274, -0.3125224709510803, 0.1269513964653015, -0.057180069386959076, 0.12782129645347595, -0.4035937190055847, -0.13003148138523102, -0.10569821298122406, -0.20843105018138885, -0.32081738114356995, -0.10815808922052383, -0.29135191440582275, -0.37862512469291687, -0.05366796255111694, 0.12613113224506378, -0.12453841418027878, -0.08641024678945541, 0.2609129548072815, -0.10244707018136978, -0.04071526229381561, 0.03727070987224579, 0.32515379786491394, -0.1930440217256546, -0.20015257596969604, 0.08186567574739456, 0.2548094689846039, -0.22794802486896515, 0.0825863853096962, 0.20622287690639496, 0.10643447935581207, 0.011212706565856934, 0.22427937388420105, 0.11504572629928589, -0.14354246854782104, 0.10692622512578964, 0.17491871118545532, 0.25371628999710083, -0.2929152846336365, 0.12386724352836609, -0.16524124145507812, -0.20874224603176117, 0.02165130525827408, -0.03278066962957382, 0.06090536713600159, -0.2059008777141571, -0.23614396154880524, -0.12774503231048584, -0.07228638976812363, -0.020314201712608337, 0.09969363361597061, 0.2733076810836792, -0.43598493933677673, -0.236794114112854, -0.09841055423021317, -0.05671912059187889, 0.3803449869155884, -0.2646166980266571, -0.18931978940963745, -0.08341112732887268, -0.1957940012216568, -0.05057244375348091, 0.08868367224931717, 0.38022100925445557, -0.19970792531967163, 0.8295033574104309, -0.3222905397415161, -0.6462184190750122, 0.005366565193980932, -0.02395744062960148, 0.04140079393982887, 0.054508790373802185, 0.05762138590216637, -0.1542726308107376, -0.0522947683930397, 0.11511921882629395, 0.17683565616607666, -0.07972913235425949, -0.18850873410701752, 0.10469119250774384, 0.13035368919372559, -0.19818329811096191, -0.013209941796958447, 0.11843869090080261, -0.17769663035869598, -0.12874335050582886, -0.1574040949344635, 0.1876797378063202, -0.16866491734981537, 0.13155098259449005, 0.14112935960292816, 0.10862989723682404, -0.11433760076761246, -0.18957485258579254, -0.007051796652376652, 0.1410035490989685, -0.11649070680141449, 0.08302946388721466, -0.18611787259578705, 0.11464252322912216, -0.35928866267204285, 0.18074841797351837, -0.2621305584907532, -0.17608195543289185, 0.26656585931777954, -0.16318124532699585, 0.05576815828680992, 0.14020627737045288, -0.37287700176239014, 0.17440593242645264, 0.10702134668827057, 0.056136954575777054, 0.1798330843448639, 0.5929960012435913, -0.2878398001194, -0.41803473234176636, 0.6311819553375244, 0.09923958778381348, 0.27410054206848145, -0.18689709901809692, -0.2964724898338318, 0.2455137073993683, 0.2388564944267273, 0.28666621446609497, 0.17779381573200226, -0.14271506667137146, 0.004350729286670685, -0.7644189596176147, 0.22960370779037476, -0.3000556528568268, 0.13135384023189545, 0.1333419531583786, 0.09223993867635727, -0.0892452597618103, 0.31663769483566284, -0.3431326746940613, -0.028598221018910408, 0.06752834469079971, 0.12479881197214127, 0.03881103917956352, 0.00863865576684475, -0.16203364729881287, 0.025704912841320038, 0.14536625146865845, 0.013540120795369148, 0.02058648318052292, 0.2876458764076233, 0.11005500704050064, 0.08026409149169922, -0.02301049418747425, 0.08557644486427307, 0.08937516808509827, 0.00020814180606976151, -0.0653926432132721, 0.033646002411842346, -0.038879550993442535, 0.1291225105524063, -0.17439307272434235, -0.0968877300620079, -0.02980889193713665, -0.21077188849449158, -0.2895257771015167, -0.06285431236028671, 0.011604700237512589, 0.023353571072220802, -0.008085723035037518, -0.0059032803401350975, -0.020514486357569695, 0.11358828842639923, -0.025908011943101883, 0.09758418053388596, -0.18174083530902863, 0.07901974767446518, 0.024389829486608505, -0.046892423182725906, -0.24863198399543762, 0.0030011271592229605, -0.1743096113204956, 0.014083320274949074, -0.09074139595031738, 0.08431866019964218, -0.03374045714735985, -0.12999585270881653, 0.02323334477841854, -0.04850911721587181, -0.11672773957252502, 0.09818285703659058, -0.01107637770473957, 0.0399259589612484, -0.007579905912280083, -0.06101584807038307, 0.012756089679896832, 0.06970226764678955, 0.06669879704713821, 0.13420560956001282, 0.13652312755584717, -0.023155538365244865, 0.006290866993367672, 0.10403140634298325, -0.1476399302482605, -0.32099810242652893, 0.022697877138853073, 0.009493747726082802, -0.08614054322242737, 0.23614341020584106, -0.06515779346227646, 0.01116027869284153, 0.042402446269989014, 0.06812064349651337, -0.1723501831293106, 0.08912788331508636, -0.22907143831253052, 0.011963296681642532, -0.17273609340190887, 0.19334617257118225, -0.18981428444385529, 0.026230163872241974, 0.010740155354142189, 0.09638846665620804, -0.21712003648281097, -0.05692893639206886, -0.19161182641983032, 0.1246584802865982, 0.022215675562620163, 0.13842087984085083, -0.24555444717407227, 0.17853997647762299, -0.060251716524362564, 0.15669195353984833, -0.4359797537326813, -0.2939189672470093, 0.5157055258750916, 0.0821041688323021, -0.07406245917081833, 0.25794336199760437, 0.10661900043487549, -0.007245146203786135, 0.16022631525993347, -0.2384433150291443, -0.23450466990470886, 0.15083476901054382, 0.0911170244216919, 0.49609115719795227, -0.10146968066692352, -0.08472349494695663, -0.1470475047826767, 0.012984121218323708, 0.2951418459415436, 0.1339588165283203, -0.23120161890983582, -0.0989493653178215, -0.03916275501251221, 0.08523621410131454, 0.06387662887573242, -0.06239495053887367, -0.06830199062824249, 0.06624854356050491, 0.06068940460681915, 0.1737627387046814, -0.035944487899541855, 0.18642814457416534, 0.05564779415726662, 0.157149076461792, -0.1799323558807373, -0.08767178654670715, -0.04178154096007347, 0.013700347393751144, 0.07284432649612427, 0.025727400556206703, -0.1760735809803009, -0.007366526406258345, -0.094605952501297, 0.13106746971607208, -0.14306335151195526, -0.09390557557344437, -0.27761170268058777, 0.08758581429719925, 0.10803937911987305, 0.1448855698108673, 0.3540319502353668, -0.010364326648414135, -0.13563401997089386, 0.037089526653289795, -0.04898791387677193, -0.08506335318088531, 0.12919726967811584, -0.1032649427652359, 0.12936237454414368, 0.22941608726978302, -0.18693535029888153, 0.030747314915060997, 0.024574656039476395, -0.014338823035359383, 0.009401419200003147, 0.031456656754016876, -0.3906519114971161, 0.4350111186504364, 0.05725754052400589, 0.3147739768028259, 0.03144838288426399, -0.18238848447799683, 0.14332842826843262, 0.12224896997213364, -0.2049044817686081, 0.13220460712909698, -0.48628076910972595, -0.15546977519989014, -0.1611316204071045, 0.05407912656664848, 0.15098950266838074, 0.08431998640298843, 0.46677282452583313, 0.053358130156993866, -0.27218663692474365, -0.05388026311993599, 0.19648043811321259, 0.16891741752624512, 0.0009506248752586544, -0.01898886077105999, 0.05467984825372696, -0.31955868005752563, 0.06723731011152267, 0.16060024499893188, 0.13183237612247467, -0.0846007838845253, 0.42556291818618774, -1.0039548873901367, 0.15996044874191284, 0.31158560514450073, 0.19049853086471558, -0.23176763951778412, 0.24154511094093323, -0.07097538560628891, -0.1916477084159851, 0.25361207127571106, -0.5446668267250061, 0.09172570705413818, 0.06118784472346306, 0.37883058190345764, 0.19390176236629486, -0.10052661597728729, -0.033971935510635376, 0.039249029010534286, 0.06651746481657028, -0.06788009405136108, -0.006166532635688782, -0.12820425629615784, -0.02042434923350811, -0.026197712868452072, -0.1769152134656906, -0.012889023870229721, 0.08814284950494766, -0.040080901235342026, -0.01613781601190567, -0.086263507604599, -0.14513660967350006, 0.22525499761104584, -0.12221816927194595, 0.08956330269575119, -0.2446092665195465, 0.019237447530031204, 0.05442500114440918, 0.28332769870758057, 0.12203799933195114, 0.1106220930814743, -0.11825823783874512, -0.0007317565032280982, -0.09271814674139023, 0.01890416070818901, -0.02918771468102932, 0.13831539452075958, -0.21096055209636688, 0.02158988080918789, 0.08704482764005661, 0.06616155058145523, 0.2307881861925125, -0.2691801190376282, -0.2575342059135437, 0.11378329992294312, 0.0037886020727455616, -0.09595221281051636, 0.09535273909568787, 0.10513611882925034, -0.07190997153520584, 0.008108514361083508, 0.00169082370121032, 0.1180618405342102, -0.15690167248249054, 0.06820935010910034, 0.04952184855937958, -0.01982915960252285, -0.377270370721817, 0.01196424849331379, 0.2095862329006195, -0.0030318601056933403, 0.24458816647529602, 0.08403582870960236, -0.15795400738716125, 0.08615513145923615, -0.06930233538150787, -0.10114209353923798, 0.06687996536493301, -0.13593117892742157, 0.21629606187343597, -0.24526503682136536, 0.07003398984670639, 0.07716929167509079, -0.04095829650759697, 0.11660044640302658, 0.2054138332605362, -0.2859170734882355, 0.22936606407165527, 0.06172714754939079, 0.3686709702014923, -0.02282119356095791, 0.15113793313503265, -0.2490667700767517, -0.11946262419223785, 0.0052071213722229, 0.21417221426963806, 0.0404449962079525, -0.41026732325553894, 0.5871849060058594, 0.1370691955089569, 0.05653756856918335, 0.3350292146205902, -0.10928275436162949, -0.06570757180452347, 0.05747184902429581, 0.1024072989821434, -0.12154190242290497, 0.7311379909515381, -0.0732310488820076, 0.041470468044281006, -0.2177400439977646, -0.05778834596276283, 0.0005424073897302151, 0.03877584636211395, 0.006592691410332918, 0.23157215118408203, 0.08660004287958145, -0.04256688803434372, -0.05802487954497337, -0.17166706919670105, 0.17502416670322418, 0.144593745470047, -0.06687542051076889, 0.00011236106365686283, -0.11240004748106003, 0.056256022304296494, -0.08636181056499481, 0.10359592735767365, 0.2857109010219574, 0.04480361565947533, 0.16402359306812286, -0.13124583661556244, 0.07999573647975922, -0.09596263617277145, 0.32247599959373474, -0.09166184812784195, 0.05964143946766853, -0.26402977108955383, -0.07920324057340622, 0.04195663705468178, 0.15663863718509674, 0.013725964352488518, 0.12443765252828598, -0.22422268986701965, 0.1347794085741043, 0.03669798746705055, -0.1153101995587349, -0.06263042241334915, 0.06833495199680328, -0.019647791981697083, 0.24298112094402313, -0.015511355362832546, -0.045953910797834396, -0.14895306527614594, -0.1107010543346405, -0.13656148314476013, -0.059882644563913345, -0.18748246133327484, 0.18421846628189087, 0.06172868609428406, -0.10442100465297699, 0.0016742751467972994, 0.12560172379016876, 0.16955696046352386, 0.18082337081432343, 0.06113182008266449, -0.14733295142650604, -0.11560583859682083, 0.15060314536094666, -0.05738551914691925, -0.1147448867559433, -0.04960089549422264, -0.10606943070888519, -0.29105624556541443, -0.25870248675346375, 0.1152082234621048, 0.004935679491609335, -0.13408701121807098, 0.024932747706770897, -0.07762083411216736, 0.05587312579154968, 0.040848471224308014, 0.023848414421081543, -0.07836049050092697, 0.04353591427206993, -0.1874009668827057, 0.22162915766239166, 0.08886197209358215, 0.1462317258119583, -0.09393647313117981, 0.11953409761190414, -0.17216815054416656, 0.09417622536420822, -0.08651987463235855, -0.12298668920993805, -0.1630089432001114, -0.1070132851600647, -0.1833198517560959, 0.03904125466942787, -0.1527957320213318, -0.12378746271133423, -0.1138753592967987, 0.05608831346035004, -0.0764082670211792, 0.010460791178047657, -0.0951770544052124, 0.10984046012163162, 0.02324741892516613, 0.09883175045251846, 0.09136679768562317, -0.08431223034858704, 0.11874432861804962, -0.44858676195144653, -0.38073837757110596, 0.15454015135765076, 0.05716852471232414, 0.1798214465379715, 0.2570936381816864, 0.08120176941156387, 0.015024002641439438, 0.17361804842948914, 0.20732064545154572, 0.034845463931560516, -0.24541398882865906, 0.09157362580299377, -0.00794864073395729, 0.1483684778213501, -0.08273625373840332, -0.004485998768359423, -0.27724871039390564, -0.10212185978889465, 0.0483006089925766, 0.1147780790925026, -0.2037721574306488, 0.0798318013548851, -0.08712130784988403, 0.18325185775756836, -0.07224885374307632, 0.17351359128952026, -0.10069012641906738, -0.04692107439041138, 0.1061694324016571, 0.30221137404441833, 0.1712934374809265, 0.04482894390821457, 0.22655567526817322, 0.1882300227880478, 0.04443996772170067, -0.09412127733230591, -0.12166810780763626, -0.040901072323322296, -0.05113096162676811, -0.012287743389606476, -0.15052105486392975, 0.0011765934759750962, 0.04437766224145889, 0.11474613845348358, 0.13695012032985687, -0.009265647269785404, -0.27233415842056274, -0.3198094069957733, 0.11351203918457031, -0.15297114849090576, 0.08414326608181, 0.030990516766905785, -0.09637653082609177, 0.1373005360364914, -0.016308510676026344, 0.033905088901519775, 0.1269395798444748, -0.13445447385311127, 0.09617634862661362, -0.1037699431180954, 0.0415344312787056, -0.027371523901820183, -0.09795525670051575, 0.2149220108985901, 0.053902752697467804, 0.008717311546206474, 0.1446898877620697, -0.21248698234558105, 0.08426886051893234, 0.04309099167585373, 0.047787316143512726, -0.05127827450633049, -0.004827181342989206, -0.2232421189546585, 0.02136889658868313, 0.2039313167333603, -0.3605497479438782, -0.10627009719610214, -0.5341428518295288, -0.06608804315328598, 0.09884427487850189, -0.04835440218448639, -0.19326576590538025, 0.09787151962518692, 0.07191666215658188, -0.1990712732076645, -0.0033277608454227448, -0.09595035016536713, 0.26587632298469543, 0.060953978449106216, 0.016729507595300674, -0.1570502370595932, 0.007825645618140697, -0.2324223667383194, 0.12104775011539459, 0.21909432113170624, -0.07365821301937103, -0.011044580489397049, -0.00867827981710434, -0.013218754902482033, 0.025103610008955002, 0.11112044751644135, 0.06803154945373535, 0.02310602366924286, 0.10134997963905334, 0.0428880900144577, 0.06605169922113419, -0.03592536225914955, 0.08890396356582642, -0.08009202033281326, 0.05442878231406212, 0.019612932577729225, -0.13890431821346283, -0.17648130655288696, 0.10384520143270493, -0.044896554201841354, 0.030946267768740654, 0.056875620037317276, -0.029350588098168373, -0.14354781806468964, 0.04739098995923996, 0.11562445759773254, 0.05954016000032425, -0.14436553418636322, -0.011235129088163376, -0.12021506577730179, -0.024718325585126877, 0.12531818449497223, 0.10651973634958267, -0.042196065187454224, 0.050975047051906586, -0.05496031418442726, -0.042074769735336304, -0.09275419265031815, -0.04191549867391586, -0.08375459909439087, 0.017037054523825645, -0.22994987666606903, -0.05402139201760292, 0.11364814639091492, 0.10462047904729843, -0.05719093233346939, -0.5166391730308533, 0.17609991133213043, -0.3513006567955017, -0.1438056379556656, 0.2569892406463623, 0.021510083228349686, -0.012007669545710087, 0.11965470016002655, -0.04713129997253418, 0.2852041721343994, -0.18039120733737946, 0.041307032108306885, 0.07684708386659622, -0.005432755220681429, 0.1539149284362793, -0.3984742760658264, 0.07164835929870605, -0.0347253680229187, 0.22772957384586334, 0.019224943593144417, 0.18359902501106262, -0.08284851163625717, 0.03656346723437309, -0.20297054946422577, 0.05998114496469498, -0.043734192848205566, 0.08250047266483307, -0.2611514627933502, 0.22929805517196655, -0.22037220001220703, 0.11665365844964981, -0.6458132863044739, -0.014661992900073528, -0.05022881180047989, 0.07381430268287659, 0.002916701603680849, 0.07744424045085907, 0.13911031186580658, -0.09038423746824265, 0.29945749044418335, -0.11399509012699127, -0.08267805725336075, -0.09237867593765259, 0.024705898016691208, 0.061825722455978394, 0.11539851874113083, 0.313542902469635, 0.08914625644683838, -0.2584199011325836, 0.01264128740876913, -0.20229032635688782, 0.4476076364517212, 0.6556928753852844, 0.3217408359050751, -0.13923867046833038, -0.03439862281084061, -0.17848889529705048, 0.29112720489501953, -0.13012383878231049, -0.24123556911945343, 0.047864485532045364, -0.24075888097286224, 0.28548669815063477, -0.1113995909690857, 0.2509743273258209, 0.16403260827064514, -0.019558528438210487, -0.14868520200252533, 0.18703199923038483, -0.20878033339977264, 0.2761693298816681, 0.04584674537181854, -0.004112060647457838, -0.29232344031333923, -0.22451558709144592, -0.006676212884485722, 0.3864407241344452, -0.03239735588431358, 0.530994176864624, -0.39855149388313293, 0.19809645414352417, 0.11743715405464172, 0.10755123198032379, 0.034403245896101, -0.0613473542034626, 0.09012145549058914, -0.14852915704250336, 0.5182814598083496, 0.02841048128902912, 0.21520134806632996, 0.23748643696308136, 0.16539888083934784, 0.33169373869895935, -0.16274498403072357, -0.133476123213768, -0.04110190272331238, 0.07429178804159164, 0.19685807824134827, -0.03969084471464157, 0.08456622809171677, -0.04066169634461403, 0.014245490543544292, -0.01663045957684517, 0.06051075458526611, -0.007372233085334301, 0.04447473958134651, 0.12033584713935852, 0.30914410948753357, -0.06250959634780884, -0.08192639797925949, -0.05311901867389679, -0.027941405773162842, 0.1402571201324463, 0.005735313054174185, 0.09040506184101105, -0.08410896360874176, 0.010726970620453358, 0.004735906608402729, 0.061823900789022446, 0.05223868787288666, 0.10544649511575699, -0.19520898163318634, 0.1636667400598526, -0.0333893783390522, 0.10641791671514511, -0.10826153308153152, -0.10620423406362534, -0.08707200735807419, -0.03507483750581741, -0.09878616780042648, 0.07545451819896698, -0.10022709518671036, 0.10742305219173431, 0.19469168782234192, -0.11652016639709473, -0.1133107990026474, -0.06489260494709015, -0.15107183158397675, -0.024156438186764717, -0.2676961123943329, -0.039672452956438065, -0.2370416522026062, -0.08237394690513611, -0.2606186866760254, -0.14609049260616302, 0.19683335721492767, 0.15663491189479828, -0.0689350888133049, 0.12526164948940277, -0.07266100496053696, 0.0346553809940815, 0.07086572051048279, 0.04384155198931694, 0.17073367536067963, 0.19258245825767517, 0.011348981410264969, 0.1328687220811844, -0.18774837255477905, -0.012808038853108883, -0.09025643020868301, 0.05684307590126991, 0.11070621758699417, -0.009353838860988617, -0.1671745628118515, -0.09933643043041229, 0.014862790703773499, -0.016985811293125153, -0.02300228364765644, -0.013296907767653465, -0.13068950176239014, 0.11433545500040054, -0.07206854224205017, 0.17688366770744324, 0.09173653274774551, 0.058885231614112854, -0.23766161501407623, -0.1249624490737915, 0.10215843468904495, 0.14138348400592804, -0.02981061488389969, -0.0068217371590435505, 0.05922403186559677, -0.05078421160578728, -0.19725048542022705, -0.10554048418998718, -0.30166685581207275, 0.09155301749706268, -0.13292624056339264, -0.0803096815943718, -0.01407729834318161, 0.21011106669902802, -0.08581307530403137, -0.03665711730718613, 0.1728518307209015, -0.008981716819107533, 0.1552559733390808, 0.22065019607543945, 0.06959298253059387, -0.027886133641004562, 0.023845532909035683, -0.25580930709838867, -0.13851545751094818, -0.16205279529094696, -0.036546286195516586, 0.015516568906605244, -0.18525207042694092, 0.15843607485294342, 0.08622533082962036, 0.23097050189971924, -0.19437634944915771, 0.11577565222978592, -0.21290616691112518, 0.020374810323119164, -0.09686952084302902, 0.1105276420712471, -0.06455247104167938, -0.16627156734466553, -0.041698187589645386, 0.15651835501194, 0.020316077396273613, 0.24320952594280243, -0.19591714441776276, -0.4266628324985504, -0.2702447474002838, 0.07872603833675385, -0.05742911994457245, -0.06750750541687012, -0.11106915771961212, 0.05383279547095299, 0.17724330723285675, -0.16577468812465668, -0.04559304937720299, -0.09729069471359253, 0.05986056849360466, 0.20245622098445892, 0.1704714596271515, 0.21339155733585358, 0.1931091845035553, 0.0664023756980896, 0.009389185346662998, 0.17555706202983856, -0.07744968682527542, 0.3300752639770508, 0.11139196902513504, 0.1328120231628418, -0.14436368644237518, -0.03912407532334328, -0.05435875803232193, 0.0726536363363266, 0.3169574737548828, 0.039938777685165405, 0.0358700230717659, 0.09682931751012802, -0.38142046332359314, -0.06437040865421295, 0.3011673092842102, -0.40022921562194824, 0.2569270730018616, -0.6674875617027283, -0.3406595289707184, -0.3193005323410034, 0.47028762102127075, -0.9240806102752686, -0.6398388743400574, -0.6676395535469055, 0.17595456540584564, -0.7913998365402222, 0.35477668046951294, -0.5903725028038025, -0.1843009889125824, -0.12844592332839966, 0.1007457748055458, 0.1712353676557541, 0.08271253854036331, -0.03395155072212219, -0.4521644711494446, -0.2995736300945282, 0.01925031468272209, -0.4118799865245819, 0.31194576621055603, 0.17772264778614044, 0.17951186001300812, 0.2265913486480713, 0.07516883313655853, 0.08152405172586441, -0.1054908037185669, -0.01135997287929058, -0.13145217299461365, 0.10323918610811234, -0.3721478581428528, 0.3524514436721802, -0.1681726574897766, -0.2754294276237488, -0.008501309901475906, -0.027321623638272285, 0.38929978013038635, 0.3389679491519928, 0.15632618963718414, 0.1975991427898407, 0.25139638781547546, 0.3490927815437317, -0.07839740812778473, -0.26937136054039, -0.0918930396437645, 0.20446687936782837, -0.024709876626729965, 0.20728032290935516, -0.07510652393102646, -0.07243070751428604, 2.1116871721460484e-05, -0.16673783957958221, -0.005324185360223055, -0.2204967737197876, 0.09883658587932587, 0.17808634042739868, 0.16967324912548065, 0.08181935548782349, 0.04349040612578392, 0.24158084392547607, -0.26357123255729675, -0.03736681491136551, -0.23327720165252686, 0.08512666821479797, -0.033758390694856644, -0.06191243976354599, 0.03374931961297989, 0.1296255737543106, 0.06653296947479248, 0.07298841327428818, 0.32730087637901306, -0.11677178740501404, 0.145643949508667, 0.2671009600162506, 0.39504343271255493, 0.136929452419281, -0.12025893479585648, -0.1584753394126892, 0.21682776510715485, -0.3998047113418579, 0.08381009846925735, 0.23776425421237946, 0.1844995766878128, 0.06506314873695374, -0.3105134665966034, 0.2247382253408432, -0.32605063915252686, -0.1820874959230423, -0.15061055123806, -0.1158212199807167, -0.1108349859714508, -0.19223672151565552, -0.31159061193466187, 0.01608680933713913, -0.013914274983108044, -0.24584080278873444, -0.09841836243867874, -0.11960545182228088, 0.03852348029613495, 0.22641679644584656, -0.10050401091575623, -0.0028042863123118877, -0.185438334941864, -0.11212007701396942, 0.08171772211790085, -0.03123038448393345, 0.051277488470077515, -0.09961431473493576, -0.037480585277080536, -0.15343929827213287, -0.15929359197616577, 0.3825267553329468, -0.3841991722583771, -0.2436210960149765, 0.1568877100944519, -0.0008881266694515944, 0.16843506693840027, 0.11067641526460648, 0.20592740178108215, 0.15854258835315704, 0.017320306971669197, 0.2972765266895294, 0.17212781310081482, -0.011525536887347698, -0.047589242458343506, 0.09340731799602509, -0.03394697979092598, -0.2125922590494156, -0.11420438438653946, 0.16451849043369293, -0.12792590260505676, 0.1952217072248459, -0.09739963710308075, 0.15861353278160095, -0.20057643949985504, 0.09527328610420227, 0.18685020506381989, -0.08645551651716232, -0.09016260504722595, 0.21124768257141113, -0.2532241642475128, 0.08049211651086807, -0.4046490788459778, 0.12836219370365143, 0.07838372886180878, -0.29670023918151855, 0.5835225582122803, 0.17497886717319489, 0.5119534730911255, -0.5714852213859558, 0.15069423615932465, 0.3385268449783325, 0.1581874042749405, 0.42321640253067017, -0.0065274848602712154, 0.19538231194019318, -0.20495806634426117, 0.17056603729724884, 0.02077299915254116, -0.24018433690071106, 0.1132165789604187, 0.047437507659196854, -0.06451790779829025, 0.1625375747680664, -0.17335103452205658, 0.35400623083114624, 0.22579114139080048, -0.13544541597366333, 0.2577960789203644, -0.14266489446163177, -0.16411903500556946, -0.11369636654853821, -0.17634187638759613, 0.2552202045917511, 0.008823138661682606, 0.36299848556518555, -0.09229888021945953, -0.029567474499344826, 0.037919919937849045, 0.3316539525985718, -0.050799064338207245, 0.18795183300971985, 0.41122519969940186, 0.15409955382347107, 0.059569187462329865, 0.18021070957183838, 0.2356664091348648, 0.28508278727531433, -0.5718886852264404, -0.3728645145893097, -0.6078894734382629, -0.07945166528224945, -0.1897546797990799, 0.1320347636938095, -0.43849366903305054, 0.547063946723938, 0.3771868348121643, 0.004648962523788214, -0.030573543161153793, 0.08373471349477768, 0.33631038665771484, -0.11535977572202682, -0.27685949206352234, -0.003949305508285761, -0.3022986948490143, 0.17911683022975922, -0.1274566799402237, -0.011954974383115768, -0.08375511318445206, 0.015327487140893936, -0.021643422544002533, -0.06800881028175354, 0.13474096357822418, -0.3030134439468384, 0.3897753357887268, -0.11681415140628815, 0.10824780911207199, 0.025838106870651245, 0.03836457058787346, 0.17202170193195343, -0.1424093097448349, 0.17806987464427948, -0.15818069875240326, 0.1092333048582077, 0.005702683236449957, 0.039972588419914246, 0.1682382971048355, 0.24137632548809052, 0.08065947890281677, -0.08374197036027908, 0.2286030501127243, 0.18441586196422577, 0.05090964958071709, 0.0443287156522274, 0.3174738883972168, 0.34334471821784973, -0.04009322449564934, -0.23116622865200043, -0.24634909629821777, -0.4856194257736206, 0.3916349709033966, 0.10972007364034653, -0.16679562628269196, 0.19253264367580414, -0.032364461570978165, 0.24802055954933167, -0.2427225261926651, 0.10494102537631989, 0.15278147161006927, 0.10521373897790909, 0.13527442514896393, -0.5641053915023804, 0.018944544717669487, 0.02016594633460045, -0.16411001980304718, 0.10716726630926132, -0.3226551115512848, 0.08003935217857361, 0.0626908466219902, -0.240260049700737, 0.05502786487340927, 0.16204671561717987, -0.19566509127616882, 0.22192586958408356, -0.24731074273586273, -0.23391380906105042, -0.06790583580732346, -0.07718835026025772, 0.08790343999862671, -0.2539970576763153, 0.02579452469944954, 0.1916397213935852, 0.1369066685438156, 0.2918950319290161, -0.18219703435897827, 0.1809202879667282, -0.23478661477565765, 0.11037129163742065, -0.07306928932666779, -0.4204467833042145, 0.17226320505142212, 0.008061413653194904, 0.049463193863630295, -0.04899650812149048, -0.07421029359102249, -0.050851404666900635, -0.054161205887794495, 0.03805242106318474, -0.007681780960410833, 0.0002793718012981117, 0.0070685469545423985, 0.03677135333418846, -0.14434726536273956, -0.10032018274068832, 0.17155791819095612, -0.01209007017314434, -0.0650186687707901, 0.10298670083284378, 0.15896084904670715, -0.00881921872496605, -0.10588749498128891, -0.029985511675477028, 0.058373868465423584, 0.030480340123176575, 0.06790478527545929, -0.16565987467765808, -0.07275128364562988, 0.1928928643465042, 0.1587946116924286, 0.03698365390300751, -0.0010498282499611378, -0.18594156205654144, -0.1568737030029297, 0.028042715042829514, -0.059637848287820816, 0.1457318365573883, -0.21126492321491241, -0.265931099653244, -0.015503141097724438, -0.03305933624505997, 0.0806889608502388, -0.13098688423633575, 0.11756695061922073, -0.00679131131619215, 0.2528730630874634, -0.1368395984172821, -0.3961639404296875, 0.2391330450773239, 0.047274570912122726, -0.12579740583896637, -0.1538669615983963, -0.29098957777023315, -0.26324936747550964, -0.05568709224462509, 0.2911939024925232, -0.38822248578071594, 0.21506114304065704, 0.22365626692771912, 0.1310655027627945, -0.033509761095047, -0.03219868242740631, -0.2231696993112564, 0.1303883194923401, -0.12665003538131714, 0.004067103378474712, -0.0769261047244072, -0.052277643233537674, -0.16874627768993378, 0.1827167272567749, 0.028811924159526825, 0.19538454711437225, 0.0011177882552146912, -0.02159256301820278, 0.0496721975505352, 0.07800743728876114, 0.04289291426539421, -0.39999035000801086, 0.18544664978981018, 0.14026692509651184, 0.07906175404787064, 0.31561797857284546, 0.2933378219604492, -0.0530080609023571, -0.3716893792152405, 0.2836274206638336, -0.16129206120967865, 0.16224420070648193, 0.25197866559028625, -0.09377077966928482, 0.03205855190753937, 0.08576039969921112, -0.27414625883102417, 0.07527659833431244, 0.31453976035118103, 0.048694148659706116, -0.29109299182891846, -0.7112810015678406, -0.12295781821012497, 0.026788000017404556, 0.07389499247074127, -0.17127209901809692, 0.09140592068433762, -0.0070509579963982105, -0.1835925132036209, 0.13000242412090302, -0.005066798534244299, -0.027033813297748566, -0.11438774317502975, 0.042791225016117096, 0.07514745742082596, -0.011271115392446518, -0.14921891689300537, 0.20935499668121338, 0.09488475322723389, 0.23824582993984222, 0.2573840022087097, -0.015920104458928108, 0.06406979262828827, -0.14273351430892944, -0.1492672860622406, 0.062388982623815536, 0.09611222892999649, 0.02642533741891384, -0.001783246174454689, -0.0424470491707325, -0.05411753058433533, 0.08654741942882538, 0.012370971031486988, -0.12283413112163544, 0.031842123717069626, -0.17637571692466736, -0.03832264617085457, 0.2041008621454239, 0.3373008966445923, 0.08108015358448029, 0.007073285058140755, -0.10718221217393875, -0.015080253593623638, 0.018336866050958633, -0.03467535600066185, -0.06374339759349823, -0.3876567780971527, 0.46195974946022034, -0.08367758989334106, 0.37881433963775635, 0.16978928446769714, -0.07254121452569962, -0.2588816285133362, 0.1185956820845604, -0.09357009828090668, 0.008571218699216843, 0.0020487122237682343, -0.0062905605882406235, 0.044511739164590836, -0.16478592157363892, 0.2036484330892563, 0.2947472929954529, 0.1958036571741104, 0.09052315354347229, 0.12331479042768478, 0.03912373259663582, -0.09878859668970108, -0.17149561643600464, 0.07592426240444183, 0.0507337711751461, -0.11090555042028427, -0.20004689693450928, -0.1594955027103424, -0.05882057175040245, -0.015496471896767616, -0.010447320528328419, -0.09965270012617111, -0.02587553672492504, -0.06738186627626419, 0.13453342020511627, 0.07498155534267426, -0.017983345314860344, 0.07586383819580078, 0.04071139544248581, -0.13809537887573242, 0.07850610464811325, 0.16720931231975555, -0.019170651212334633, -0.07109463959932327, -0.007660375442355871, 0.2362068146467209, 0.06621035933494568, 0.270288348197937, -0.10421615093946457, 0.0055307671427726746, 0.14304116368293762, -0.2555112838745117, -0.2313130795955658, 0.15227682888507843, 0.09313332289457321, -0.22107388079166412, 0.059308864176273346, -0.0801301896572113, 0.026868686079978943, 0.1351175457239151, 0.00905692484229803, 0.10283054411411285, 0.04002576321363449, -0.07675740122795105, 0.07088243961334229, -0.019363297149538994, -0.1266501247882843, 0.017375685274600983, -0.17513683438301086, 0.018623022362589836, 0.029210539534687996, -0.1990220695734024, -0.09378354251384735, -0.032255593687295914, 0.2563221752643585, -0.011474670842289925, -0.05826066434383392, -0.006426223088055849, 0.03349052742123604, -0.16207920014858246, 0.2053157389163971, 0.07215647399425507, 0.0912398099899292, -0.09166724979877472, -0.09266159683465958, -0.033192556351423264, 0.16061457991600037, 0.09461238235235214, -0.37991055846214294, 0.15811893343925476, -0.17026470601558685, -0.004666718188673258, 0.051713407039642334, -0.16313710808753967, -0.18189053237438202, 0.18726401031017303, -0.009991375729441643, -0.2504682242870331, 0.07766515016555786, 0.5101455450057983, 0.39866122603416443, -0.08342122286558151, 0.22477039694786072, -0.11072695255279541, -0.295891135931015, 0.03663923963904381, -0.08835542947053909, -0.14336666464805603, 0.051334187388420105, -0.012055102735757828, -0.007339620031416416, -0.03399861231446266, 0.010905500501394272, 0.07720871269702911, 0.06172344088554382, -0.019707420840859413, 0.08701200783252716, -0.32916808128356934, -0.15981459617614746, 0.05811668187379837, -0.007414455525577068, 0.17500552535057068, 0.08069929480552673, -0.24496285617351532, -0.13618513941764832, 0.11044976115226746, 0.0574367418885231, -0.1249435693025589, -0.2033495455980301, -0.287190318107605, 0.12054852396249771, -0.13598336279392242, 0.0635410025715828, 0.1255323886871338, -0.0067498330026865005, 0.03234926238656044, 0.06519002467393875, 0.0976337343454361, 0.10904188454151154, 0.054118622094392776, -0.06471898406744003, -0.06037978455424309, -0.018238360062241554, -0.06350135803222656, 0.1247292011976242, -0.07999519258737564, -0.043097205460071564, 0.2754046320915222, 0.013235473074018955, 0.37532225251197815, 0.0750570222735405, -0.20564621686935425, -0.2903377115726471, 0.07775861024856567, -0.15665243566036224, 0.08121661841869354, 0.08782217651605606, -0.2762468755245209, -0.08176862448453903, -0.05277855694293976, 0.17840708792209625, 0.2267015427350998, 0.043302569538354874, 0.12349279969930649, 0.08651486784219742, -0.20220385491847992, 0.35579895973205566, 0.07116618752479553, -0.07522425055503845, -0.20339922606945038, -0.06278439611196518, 0.006199703086167574, 0.14328497648239136, -0.2634032964706421, -0.11750183999538422, -0.08192314207553864, 0.5274849534034729, -0.1556546986103058, 0.7125797867774963, -0.6006191372871399, -0.1640777885913849, -0.07192005217075348, 0.026133714243769646, -0.5351369976997375, -0.43546152114868164, 0.29529139399528503, -0.10522419959306717, -0.17048268020153046, 0.2103077918291092, 0.06315236538648605, -0.08873168379068375, 0.21873150765895844, -0.32759907841682434, 0.07289072871208191, 0.06864514201879501, 0.4512271583080292, -0.2547033131122589, 0.34724682569503784, 0.10126015543937683, 0.1032041609287262, -0.1162358969449997, 0.07412674278020859, 0.0516471229493618, 0.03157311677932739, -0.059660740196704865, 0.1427645981311798, -0.054749540984630585, -0.05246710404753685, 0.1908094882965088, 0.15544749796390533, -0.06646032631397247, 0.13761664927005768, 0.044847261160612106, -0.10021035373210907, -0.0908772200345993, -0.08412615209817886, -0.12123653292655945, -0.04199893772602081, -0.003662112634629011, -0.19943533837795258, 0.007021952420473099, -0.025439441204071045, -0.07766435295343399, -0.07812654972076416, -0.2871486246585846, -0.09484516084194183, 0.21007923781871796, 0.05058174580335617, 0.1292761266231537, -0.022459357976913452, 0.013434762135148048, -0.15027213096618652, 0.027045665308833122, -0.08586712181568146, 0.02884533815085888, 0.1284121423959732, 0.11161906272172928, -0.039186254143714905, -0.002253216225653887, 0.05386010557413101, 0.04926321655511856, -0.0871913731098175, -0.09524063766002655, -0.26747608184814453, -0.2321978360414505, -0.14459258317947388, -0.018803153187036514, -0.016276037320494652, -0.04906018078327179, 0.10277770459651947, 0.05203422158956528, -0.19107921421527863, 0.14806532859802246, 0.19066700339317322, -0.12864366173744202, 0.0029579568654298782, 0.11664862930774689, -0.08761357516050339, -0.192767933011055, -0.12480148673057556, 0.0324847586452961, -0.12873446941375732, -0.005284000653773546, 0.1272639036178589, 0.19567584991455078, 0.03318243846297264, -0.00045434446656145155, 0.011629940010607243, -0.054907869547605515, 0.1566043198108673, 0.1548527032136917, -0.03234478831291199, -0.09546642005443573, -0.03498490899801254, 0.13984283804893494, 0.19980858266353607, 0.1989821046590805, 0.16733765602111816, -0.2753625810146332, -0.10173463076353073, 0.012689260765910149, 0.07417988032102585, -0.09273631125688553, 0.1625446230173111, -0.21886591613292694, 0.08125625550746918, 5.402803253673483e-07, -0.16624213755130768, 0.23009280860424042, -0.10559310019016266, 0.2910694479942322, -0.1679082065820694, -0.13180525600910187, 0.14567850530147552, -0.15617786347866058, -0.15047763288021088, -0.18036605417728424, 0.1052771806716919, 0.062239572405815125, 0.1299559623003006, -0.0708668902516365, -0.07240395992994308, 0.12905342876911163, -0.03217913210391998, -0.08721474558115005, -0.017568768933415413, -0.0027460611891001463, 0.07175960391759872, -0.019083533436059952, -0.014720764011144638, -0.11838680505752563, -0.2995831072330475, -0.12698233127593994, -0.027998708188533783, -0.09382987022399902, 0.05575887858867645, -0.15650327503681183, -0.2041754275560379, -0.033176351338624954, -0.20913583040237427, 0.13964208960533142, 0.20261196792125702, -0.041478611528873444, -0.034993112087249756, 0.024460626766085625, -0.0458843819797039, 0.060173407196998596, -0.09485691785812378, -0.3152936100959778, -0.05016384273767471, -0.09179683029651642, -0.07971275597810745, 0.009947829879820347, -0.07984717935323715, -0.1858295053243637, 0.12353463470935822, -0.2762032449245453, -0.048718810081481934, -0.49040019512176514, 0.24891825020313263, -0.10594722628593445, -0.05593832582235336, -0.16183891892433167, -0.06571231782436371, -0.02510393224656582, -0.09315294772386551, 0.03287522494792938, 0.24426743388175964, -0.03965110704302788, -0.0016819039592519403, 0.1466819941997528, -0.03393199294805527, -0.025913232937455177, 0.08509726077318192, 0.16882386803627014, -0.12458179146051407, 0.01736639253795147, 0.13206534087657928, 0.1814163774251938, -0.08753407001495361, 0.07401318848133087, 0.10405730456113815, -0.07536567747592926, 0.15528185665607452, 0.1896582394838333, -0.006128122564405203, -0.05682139843702316, 0.062832310795784, 0.09601861983537674, -0.04130904749035835, 0.0770033448934555, -0.06965018808841705, -0.07808144390583038, -0.12423769384622574, 0.0948461964726448, 0.25720804929733276, -0.18382593989372253, 0.00938502885401249, 0.07169054448604584, 0.03264235705137253, 0.1286606639623642, 0.0027527043130248785, -0.22838245332241058, 0.005592307075858116, 0.09707901626825333, -0.032552070915699005, -0.24928142130374908, 0.3520425856113434, -0.05324888229370117, -0.4249306619167328, -0.2245018631219864, -0.3097202181816101, 0.23991966247558594, -0.16671724617481232, -0.4237956702709198, 0.15027549862861633, -0.10278527438640594, -0.16798719763755798, 0.10568889230489731, -0.27183419466018677, -0.061208341270685196, 0.20796005427837372, 0.09730738401412964, 0.08977974951267242, -0.03140656650066376, 0.1699313521385193, -0.17674390971660614, -0.1605006754398346, -0.12630046904087067, 0.020490236580371857, 0.13252870738506317, 0.2622174620628357, -0.01974000781774521, -0.18043847382068634, -0.4116092026233673, -0.11646832525730133, -0.010996844619512558, 0.049190159887075424, -0.11030644178390503, -0.1733999401330948, -0.2852001488208771, -0.34130212664604187, -0.017744023352861404, 0.05191704258322716, 0.1802467554807663, 0.17683863639831543, -0.19215112924575806, -0.20664989948272705, 0.023379242047667503, -0.30430087447166443, -0.2273428589105606, 0.34290894865989685, -0.2812184691429138, 0.30088311433792114, 0.033889289945364, -0.4958913326263428, -0.45058107376098633, -0.32806092500686646, -0.3112974762916565, -0.00967321079224348, -0.01808888651430607, -0.05792176350951195, -0.0009451945079490542, -0.06609401106834412, -0.15600208938121796, -0.21443969011306763, 0.0631086602807045, 0.17728114128112793, 0.22925664484500885, 0.23219633102416992, 0.12123876810073853, 0.050022974610328674, 0.04881661385297775, -0.044482357800006866, -0.06963914632797241, -0.10446514934301376, -0.2290537804365158, 0.013351421803236008, -0.09046336263418198, 0.1596316546201706, -0.3043214976787567, -0.5103747248649597, 0.002778757829219103, 0.08218257129192352, 0.25447848439216614, 0.10890289396047592, 0.17334526777267456, -0.2606416940689087, 0.04934002459049225, 0.11540494114160538, 0.12619157135486603, 0.11850189417600632, 0.5980141758918762, 0.006410699337720871, -0.13033558428287506, 0.03171993046998978, -0.01745382323861122, 0.1937897503376007, 0.3365059792995453, 0.2872297763824463, 0.03392263501882553, 0.7551047801971436, -0.5822399854660034, -0.16997267305850983, -0.30133336782455444, -0.3642306625843048, -0.04391372203826904, -0.056755948811769485, -0.11031538993120193, -0.05282438173890114, -0.17989324033260345, -0.07062911987304688, 0.0498906709253788, -0.00378878484480083, -0.12191062420606613, -0.33489224314689636, -0.1483910083770752, 0.0962022915482521, -0.09535343945026398, 0.05718788132071495, 0.08761632442474365, -0.14946116507053375, -0.024822145700454712, -0.054468363523483276, 0.013451921753585339, -0.03472745046019554, 0.028616072610020638, 0.012461387552320957, 0.053997401148080826, -0.07546578347682953, 0.08338604122400284, 0.10370641201734543, 0.14400184154510498, -0.07169139385223389, 0.05302279070019722, 0.05936713144183159, -0.04737573862075806, 0.001785076572559774, -0.09661243855953217, -0.09956733137369156, -0.12064827233552933, 0.0685235857963562, -0.1451466828584671, 0.07149647176265717, -0.026871446520090103, -0.007123162504285574, 0.12924879789352417, -0.059168025851249695, 0.017545200884342194, -0.208298459649086, -0.09993888437747955, -0.26177164912223816, -0.04351246729493141, 0.14329536259174347, 0.016852136701345444, 0.10163459181785583, 0.19388781487941742, -0.08731977641582489, -0.014466815628111362, 0.0716504156589508, -0.06984209269285202, -0.027272965759038925, 0.03470802679657936, -0.23328904807567596, -0.19020114839076996, -0.09131396561861038, -0.07146365940570831, -0.0919986441731453, -0.18926750123500824, 0.2572198808193207, 0.022014465183019638, -0.11232035607099533, -0.09069354832172394, 0.029475023970007896, -0.12971030175685883, 0.1534673124551773, 0.08878260105848312, 0.08062824606895447, -0.16258454322814941, -0.16345250606536865, -0.010669111274182796, 0.2393428385257721, -0.006001574452966452, 0.08173569291830063, -0.18939687311649323, -0.01956273801624775, 0.0646752268075943, 0.12890219688415527, 0.07555650174617767, -0.5948805212974548, -0.16759535670280457, -0.04240215942263603, -0.028865469619631767, -0.2666287422180176, -0.13609370589256287, 0.038833316415548325, -0.3781057894229889, -0.31676429510116577, -0.4255637228488922, 0.6039530634880066, 0.06520415842533112, -0.3152334988117218, -0.18429753184318542, -0.14721885323524475, 0.19025878608226776, -0.17611542344093323, -0.06782916188240051, 0.33643606305122375, -0.25474613904953003, 0.035807378590106964, 0.26627418398857117, -0.17414000630378723, 0.06516724079847336, 0.317633718252182, 0.11930549889802933, 0.2151889204978943, -0.08436404913663864, 0.17254537343978882, -0.24461960792541504, -0.4248373508453369, -0.022913290187716484, -0.040430549532175064, 0.21940013766288757, 0.10042322427034378, -0.03997514769434929, -0.17477664351463318, -0.1077689528465271, 0.005675228778272867, 0.27468669414520264, 0.02013300731778145, -0.10148686915636063, -0.30385467410087585, -0.17717768251895905, -0.1713070422410965, 0.26867160201072693, 0.17773163318634033, 0.2458980530500412, 0.014295391738414764, -0.31485849618911743, 0.05382048711180687, 0.13793911039829254, -0.16713662445545197, 0.07312937825918198, 0.2681170403957367, 0.5456098914146423, 0.5545623898506165, -0.2371704876422882, 0.20275050401687622, -0.4250044524669647, -0.42053845524787903, 0.1470056176185608, 0.09237811714410782, -0.08827690780162811, -0.297691285610199, 0.19712314009666443, 0.01819189451634884, -0.10240020602941513, -0.1825726181268692, 0.18229350447654724, 0.05605129152536392, 0.14557935297489166, 0.032781656831502914, -0.21721956133842468, 0.12248171865940094, 0.05122919753193855, 0.052720338106155396, 0.09066949039697647, -0.5364615321159363, 0.7310323119163513, -0.1304364800453186, -0.4556736648082733, -0.13723698258399963, -0.37994876503944397, -0.3572823405265808, 0.6219137907028198, -0.8438031077384949, 1.0973037481307983, 0.6309121251106262, -0.2042689025402069, -0.22171401977539062, 0.5355956554412842, -0.8869725465774536, 0.06404447555541992, -0.1395094096660614, 0.19418080151081085, -0.16973282396793365, 0.052611179649829865, 0.22294707596302032, 0.17094674706459045, 0.015533051453530788, 0.06412728875875473, -0.049048855900764465, 0.024523520842194557, 0.06631381064653397, -0.22593127191066742, -0.008092811331152916, -0.1759280413389206, -0.21269860863685608, -0.031015321612358093, -0.015796830877661705, 0.05103346332907677, 0.23957210779190063, 0.15295089781284332, 0.23871633410453796, -0.026975145563483238, -0.1148950383067131, -0.2254403531551361, 0.017470484599471092, -0.04716338962316513, -0.04588937386870384, -0.186944380402565, 0.14487694203853607, 0.15858802199363708, -0.2160387486219406, 0.07203784584999084, -0.1891520768404007, 0.029324494302272797, -0.10571575164794922, 0.15904398262500763, -0.05604865774512291, -0.09007728099822998, -0.14456124603748322, 0.0438992865383625, -0.14011751115322113, -0.21741527318954468, 0.14503046870231628, 0.29380980134010315, -0.09116728603839874, -0.06871473789215088, 0.1641574501991272, 0.1333369016647339, 0.08845695108175278, -0.005499199498444796, 0.10629869997501373, -0.06347670406103134, 0.14231228828430176, -0.17613284289836884, 0.27565234899520874, -0.03737696632742882, 0.11653514951467514, 0.045911755412817, 0.31369057297706604, 0.11383352428674698, -0.002746663289144635, 0.1663353592157364, -0.09962386637926102, 0.056001320481300354, -0.17417316138744354, 0.1612914800643921, -0.17558272182941437, -0.01583120971918106, -0.06442520767450333, 0.21210242807865143, -0.13364164531230927, 0.2467714250087738, -0.20722596347332, -0.15754608809947968, 0.0642993301153183, 0.023695914074778557, -0.0018762333784252405, -0.01123031321913004, -0.20137439668178558, 0.13597188889980316, -0.18127208948135376, -0.06271539628505707, -0.14945998787879944, -0.11575406044721603, -0.15855343639850616, 0.2064296454191208, -0.05644310638308525, -0.14251475036144257, -0.10915695875883102, 0.13541562855243683, 0.15803341567516327, 0.10958296060562134, 0.21757207810878754, 0.2936681807041168, 0.1271328181028366, -0.07416675239801407, 0.15204325318336487, -0.15834654867649078, 0.12492324411869049, 0.24770429730415344, -0.05306956544518471, -0.11145240813493729, 0.1252714842557907, -0.219138503074646, 0.06745103746652603, 0.11419534683227539, -0.07154203951358795, 0.08187955617904663, -0.11303368210792542, 0.17506758868694305, 0.2351149022579193, 0.32019177079200745, 0.07729022204875946, -0.07655572891235352, -0.14260470867156982, 0.14650796353816986, -0.26089155673980713, -0.0001760551385814324, -0.11362968385219574, 0.04435300827026367, 0.10114946216344833, 0.12663161754608154, 0.13222481310367584, -0.0417293980717659, 0.088865265250206, 0.14235608279705048, 0.0341278500854969, -0.2499658465385437, 0.4830487072467804, -0.109002485871315, 0.24766714870929718, 0.19822785258293152, 0.1418595016002655, -0.40277761220932007, 0.2536269724369049, -0.04215548187494278, 0.010195164941251278, -0.3041767179965973, 0.08484984934329987, -0.3722728490829468, -0.06117616221308708, -0.006705085281282663, -0.19421254098415375, 0.4462674558162689, -0.3311920166015625, -0.0024365100543946028, -0.008699397556483746, 0.22619163990020752, -0.053830333054065704, -0.06498710066080093, -0.3197353482246399, -0.1744355410337448, -0.014112720265984535, 0.1544610559940338, -0.0790911614894867, 0.1408340334892273, 0.10194925963878632, 0.29511758685112, -0.020153477787971497, 0.311069130897522, -0.11598749458789825, -0.12005247920751572, -0.11361188441514969, 0.23926520347595215, -0.158462792634964, -0.05229029804468155, -0.04641316458582878, 0.12552334368228912, 0.20089030265808105, -0.02024604193866253, 0.09923910349607468, -0.2553950250148773, -0.12039805203676224, 0.19963319599628448, 0.3244110345840454, 0.02697678655385971, -0.15887224674224854, 0.03305339440703392, -0.15257886052131653, -0.03097454644739628, 0.2204405814409256, 0.17898133397102356, 0.01735202595591545, -0.19149520993232727, -0.16863149404525757, -0.11969798803329468, 0.34749308228492737, -0.07905352115631104, -0.07804808765649796, 0.15729542076587677, 0.3085460960865021, -0.15368962287902832, -0.18111762404441833, -0.12669004499912262, 0.17362993955612183, 0.27244967222213745, 0.20819216966629028, -0.24072466790676117, 0.08834145218133926, 0.12411389499902725, 0.26232293248176575, -0.02293415740132332, 0.02471601404249668, -0.1423286497592926, 0.28389957547187805, 0.13369517028331757, 0.07666321098804474, -0.235358327627182, 0.20265096426010132, -0.02620215341448784, 0.028000663965940475, 0.028306251391768456, -0.052584532648324966, 0.08783900737762451, -0.06152743473649025, -0.13950632512569427, 0.17358526587486267, 0.0964595302939415, -0.2640054225921631, -0.28135791420936584, 0.1507168710231781, -0.08860375732183456, 0.08621565997600555, 0.2522863447666168, -0.03982452303171158, 0.052886106073856354, -0.2504643201828003, -0.36191198229789734, 0.05797387659549713, 0.2614404559135437, -0.19327256083488464, 0.14532648026943207, 0.15147608518600464, -0.02698955312371254, 0.14778763055801392, 0.17564205825328827, 0.08684074133634567, -0.03920746594667435, -0.5029956698417664, -0.19991762936115265, -0.2058396190404892, -0.02553955838084221, -0.31393274664878845, -0.14245225489139557, -0.09593261778354645, 0.07160830497741699, -0.17215457558631897, -0.08611135184764862, 0.03671430051326752, 0.24582791328430176, 0.3623899221420288, -0.02111661247909069, -0.05091531202197075, -0.04652857780456543, 0.085306316614151, 0.18575716018676758, 0.06106949225068092, 0.25618231296539307, -0.1322632133960724, 0.057167526334524155, 0.35346218943595886, 0.1588306427001953, 0.20358695089817047, -0.4102908968925476, -0.2020362764596939, -0.16856253147125244, 0.46082448959350586, 0.19256769120693207, -0.07661964744329453, 0.5070096254348755, -0.007740540895611048, 0.22649069130420685, -0.31696459650993347, -0.16454216837882996, -0.09455761313438416, 0.004335619509220123, -0.13920247554779053, -0.007189145777374506, 0.028207926079630852, -0.10735554993152618, 0.03384878858923912, 0.30637845396995544, -0.17102345824241638, 0.02225349098443985, -0.09719135612249374, -0.029454704374074936, -0.012036304920911789, -0.10014437884092331, 0.12190395593643188, 0.02380966581404209, -0.059181079268455505, -0.21618418395519257, -0.10682130604982376, -0.13204647600650787, 0.13252755999565125, 0.0651041716337204, -0.08372559398412704, -0.2879152297973633, 0.021836649626493454, -0.00967868510633707, 0.3065693974494934, -0.024482809007167816, -0.03380328789353371, 0.06757500022649765, -0.01619707979261875, 0.0281630028039217, -0.8769305944442749, -0.15438301861286163, 0.006003429647535086, -0.1789771318435669, 0.08492515236139297, 0.17377811670303345, -0.29153698682785034, -0.1771996021270752, -0.12110451608896255, -0.567923367023468, 0.07580841332674026, -0.104697085916996, 0.07150452584028244, -0.6462380290031433, -0.02695501036942005, 0.05798133462667465, -0.10329112410545349, -0.394503653049469, 0.1372351050376892, -0.11882675439119339, -0.06606782227754593, -0.07116998732089996, 0.4608193039894104, 0.28932836651802063, 0.377542644739151, 0.3495672941207886, 0.12603124976158142, 0.05192912369966507, 0.06291665136814117, -0.5804774761199951, 0.11792459338903427, -0.3131856620311737, -0.01693461649119854, -0.04709527641534805, -0.3096519112586975, -0.4633003771305084, -0.20560550689697266, -0.1110641211271286, 0.40145784616470337, -0.2934513986110687, 0.006912761367857456, -0.13319672644138336, -0.13620838522911072, -0.013137860223650932, 0.05953230708837509, -0.03189021348953247, -0.3547307252883911, -0.6380932927131653, 0.7953081130981445, -0.14016081392765045, -0.2035333514213562, -0.30613836646080017, -0.03028704598546028, -0.08206289261579514, -0.20878086984157562, -0.35487252473831177, -0.16573190689086914, -0.506285548210144, 0.4156319499015808, 0.1938796192407608, 0.2268531173467636, -0.19033829867839813, -0.22702360153198242, 0.03152434900403023, 0.1319926679134369, 0.032822590321302414, -0.27648499608039856, -0.2507273852825165, 0.07792772352695465, -0.003260771743953228, -0.17588700354099274, 0.08377931267023087, -0.3208133578300476, 0.1035119816660881, -0.06286754459142685, 0.07732454687356949, -0.3664042353630066, -0.16020341217517853, 0.12721192836761475, 0.020593173801898956, 0.1770794540643692, -0.16193361580371857, -0.03307212144136429, 0.0296233668923378, 0.20868059992790222, 0.06696171313524246, 0.07878320664167404, -0.18562395870685577, -0.07533174008131027, 0.038407713174819946, 0.16973623633384705, -0.04783579707145691, 0.18617799878120422, -0.18480563163757324, -0.5071281790733337, -0.0642872154712677, -0.13594864308834076, -0.0504322312772274, 0.02797914855182171, -0.15870608389377594, 0.03172563016414642, 0.04691622406244278, -0.17441265285015106, 0.12365520000457764, -0.21576425433158875, 0.14081017673015594, -0.26719850301742554, 0.01904768869280815, 0.11456461250782013, 0.09119383990764618, 0.19117234647274017, 0.02703625150024891, 0.16627342998981476, 0.044744834303855896, -0.024441121146082878, 0.12895601987838745, 0.07772143185138702, -0.04568800330162048, -0.03975015506148338, -0.0019617213401943445, -0.233740895986557, 0.03935164958238602, 0.15013207495212555, 0.003892074804753065, -0.23033013939857483, -0.11089116334915161, 0.29187434911727905, 0.16158704459667206, 0.03425988554954529, 0.03356862813234329, 0.013488313183188438, 0.07172930985689163, 0.25631800293922424, 0.23644132912158966, -0.10321949422359467, -0.346544086933136, -0.28664925694465637, 0.07115321606397629, 0.2634609043598175, 0.07949195057153702, 0.23310230672359467, -0.07711047679185867, -0.42126384377479553, 0.06128273531794548, 0.3070875108242035, 0.0758068710565567, 0.1567346155643463, -0.1646457463502884, 0.15448008477687836, 0.034509651362895966, -0.2868920862674713, -0.14275605976581573, 0.11855325847864151, 0.3106899857521057, -0.308759868144989, 0.02101503685116768, 0.14819568395614624, 0.18332788348197937, 0.039175085723400116, 0.04571058973670006, 0.19067613780498505, 0.05696079134941101, -0.12158498913049698, 0.05297621339559555, 0.38016653060913086, -0.09945257753133774, 0.14562201499938965, 0.0028845553752034903, -0.1357584148645401, 0.05982562154531479, -0.10835882276296616, -0.017356349155306816, -0.18249446153640747, 0.017209265381097794, 0.29159802198410034, 0.0034091940615326166, 0.08645302802324295, -0.0001250817149411887, 0.04107993468642235, -0.009699362330138683, 0.03735370561480522, 0.04510542377829552, 0.2820107638835907, -0.21006456017494202, -0.2958042621612549, -0.10660604387521744, 0.1923488825559616, 0.10822510719299316, 0.3214995265007019, -0.21149642765522003, -0.10988632589578629, -0.18060418963432312, 0.0029868336860090494, 0.05147361382842064, 0.09039653837680817, -0.1251865178346634, -0.07384219020605087, 0.014391550794243813, -0.21708303689956665, -0.08763095736503601, 0.0404508039355278, 0.2833017110824585, -0.02511865645647049, -0.19137237966060638, 0.13484910130500793, -0.06675796955823898, -0.10853302478790283, 0.04066735878586769, -0.056574467569589615, 0.1361522376537323, -0.04918330907821655, 0.16592144966125488, 0.4643864929676056, 0.14121820032596588, -0.011416384018957615, 0.07052133232355118, -0.27126628160476685, 0.20014911890029907, -0.1607641726732254, -0.03995838388800621, -0.0735059380531311, -0.24263980984687805, 0.14940889179706573, 0.03969598934054375, 0.2174445390701294, 0.023958103731274605, -0.03400929272174835, -0.09971960633993149, -0.08956114947795868, -0.14014971256256104, 0.3091461658477783, -0.16707006096839905, -0.1153944730758667, 0.028933390974998474, -0.045379769057035446, 0.04447917640209198, 0.32118329405784607, -0.18876726925373077, 0.4500049650669098, -0.038148023188114166, 0.20357045531272888, 0.04332583025097847, 0.09886246919631958, -0.19669944047927856, 0.010691680014133453, 0.13763701915740967, -0.14554940164089203, 0.03657187893986702, -0.030642690137028694, 0.09596507251262665, 0.12292975187301636, -0.05943117290735245, 0.1551608294248581, 0.07204452902078629, 0.05473560094833374, -0.0009351558983325958, 0.04432738572359085, -0.06890157610177994, -0.042332831770181656, 0.09247095137834549, 0.08943788707256317, 0.04185238853096962, -0.012036915868520737, -0.09484907239675522, -0.1269085854291916, -0.15774166584014893, 0.06643582880496979, 0.024149654433131218, -0.3137112259864807, -0.1322823464870453, -0.009214458055794239, -0.06338750571012497, -0.17320802807807922, -0.15173164010047913, -0.027521463111042976, -0.06596013903617859, 3.43270439771004e-05, 0.30795177817344666, 0.1876920908689499, 0.0988520011305809, -0.13994210958480835, 0.07384095340967178, 0.23378923535346985, 0.20656366646289825, -0.12164713442325592, 0.004215545486658812, -0.16541451215744019, -0.27542805671691895, -0.3946663737297058, 0.18668320775032043, -0.15310630202293396, -0.10408057272434235, 0.10327619314193726, 0.024343417957425117, -0.17601528763771057, -0.3329474925994873, 0.19170059263706207, 0.23621660470962524, -0.11828146129846573, -0.03918798267841339, -0.13135071098804474, 0.035603515803813934, -0.0227105263620615, 0.06059432029724121, -0.0017365145031362772, -0.10154444724321365, 0.2422415316104889, -0.2709338068962097, -0.2996644973754883, 0.23011772334575653, -0.24369102716445923, -0.05231362581253052, 0.04028245806694031, -0.15881021320819855, 0.1338675171136856, -0.012129586189985275, -0.11483996361494064, -0.11130350828170776, -0.10068067908287048, 0.02359028533101082, -0.25331687927246094, 0.06291027367115021, 0.13534949719905853, 0.1800212264060974, -0.0165772195905447, 0.01157916896045208, -0.014928079210221767, 0.09071975946426392, -0.0035852447617799044, -0.03363228589296341, -0.045384835451841354, -0.04549844563007355, -0.25147539377212524, -0.020940488204360008, 0.20263798534870148, -0.3085784614086151, 0.26051345467567444, 0.07399771362543106, 0.03810879588127136, 0.1662866771221161, 0.05403902009129524, -0.2382657676935196, 0.01485024206340313, -0.08820110559463501, -0.1269255429506302, -0.045257460325956345, -0.05965300276875496, -0.18140769004821777, -0.12994815409183502, -0.08638807386159897, -0.2199024260044098, -1.383634090423584, 0.10680726915597916, 0.11916740238666534, -0.7145249247550964, -0.11850430816411972, -0.2466433346271515, 0.19862937927246094, 0.20556487143039703, 0.42099466919898987, -0.20561015605926514, -0.022007547318935394, 0.09391006082296371, 0.31565749645233154, -0.006418219301849604, 0.17812277376651764, -0.03194132074713707, -0.22576157748699188, -0.3300361931324005, -0.19566304981708527, -0.27758538722991943, -0.3666568696498871, -0.407733678817749, 0.1007542535662651, 0.04312026873230934, -0.36979907751083374, 0.17227253317832947, 0.1995566487312317, -0.05452772229909897, 0.014955054968595505, -0.04416074603796005, -0.15718698501586914, 0.12041141837835312, -0.03242866322398186, -0.2917827069759369, 0.0040307240560650826, -0.09682781249284744, -0.6915574073791504, 0.017922503873705864, 0.38872644305229187, -0.08920682221651077, -0.002120993798598647, -0.125308096408844, -0.4084930717945099, 0.07378529757261276, 0.04032687842845917, 0.44527101516723633, -0.23713494837284088, 0.10006824135780334, 0.2682306468486786, 0.1781257539987564, -0.045634202659130096, 0.048698581755161285, 0.1984344869852066, 0.028617816045880318, 0.045631200075149536, 0.5856453776359558, 0.2543250322341919, 0.2704450786113739, 0.050619594752788544, 0.048682428896427155, 0.15795369446277618, -0.0026197407860308886, 0.13402101397514343, 0.036281414330005646, 0.018685150891542435, -0.05902541056275368, 0.08946627378463745, -0.11408891528844833, 0.0009913856629282236, 0.1653624027967453, 0.2384858876466751, 0.005684865638613701, -0.07960627973079681, -0.2667292654514313, 0.028827784582972527, 0.1355864256620407, -0.06430717557668686, 0.0630793571472168, 0.006909595336765051, 0.19474300742149353, 0.04235373064875603, -0.270671010017395, 0.01448234636336565, -0.06881827116012573, -0.07772450894117355, -0.1268920600414276, 0.060630593448877335, -0.15183617174625397, 0.2128133922815323, 0.16259707510471344, -0.09229140728712082, 0.1422138661146164, 0.07926399260759354, 0.3455175459384918, 0.10023470968008041, -0.04947156831622124, 0.10172274708747864, 0.269756555557251, -0.05235562473535538, 0.12352310866117477, 0.031060904264450073, 0.1067226305603981, 0.29167312383651733, 0.06718616187572479, -0.13408342003822327, -0.17690928280353546, -0.06233697757124901, 0.06896302849054337, 0.07403591275215149, -0.10796710848808289, 0.052308619022369385, 0.3730371296405792, 0.18673750758171082, 0.16930702328681946, -0.017456965520977974, -0.07579779624938965, 0.05619027093052864, 0.14474456012248993, 0.23808468878269196, 0.06263279169797897, -0.046423133462667465, -0.6575286984443665, -0.16568391025066376, 0.1301957070827484, 0.05226467177271843, 0.07511892169713974, -0.08662790060043335, -0.39429420232772827, 0.025802064687013626, -0.1109490916132927, 0.37219271063804626, 0.0798053964972496, 0.16062690317630768, 0.17621198296546936, -0.07028193771839142, -0.2212357074022293, 0.03313642740249634, 0.2603759467601776, 0.31341177225112915, -0.28259050846099854, -0.10481516271829605, 0.20523424446582794, -0.23091019690036774, 0.016483869403600693, 0.1547737866640091, 0.04276440665125847, -0.022758280858397484, -0.3301968276500702, -0.05504428222775459, 0.0856284350156784, -0.09203070402145386, -0.194236621260643, -0.07780863344669342, -0.40915772318840027, -0.20540030300617218, -0.10556047409772873, 0.31330621242523193, -0.08334845304489136, -0.08618099987506866, 0.16280128061771393, 0.06370928883552551, -0.017901618033647537, -0.31362518668174744, 0.1847541332244873, 0.0699043795466423, 0.40772995352745056, -0.03367547690868378, -0.10502645373344421, -0.19686439633369446, -0.09220287203788757, 0.101782888174057, 0.2887006402015686, 0.14608146250247955, -0.16550050675868988, -0.250570684671402, 0.06056937575340271, -0.039603933691978455, -0.10849523544311523, 0.16047531366348267, 0.13296857476234436, -0.23287495970726013, 0.20467142760753632, -0.10766970366239548, -0.25179991126060486, -0.12879052758216858, 0.03995293378829956, 0.3538350462913513, -0.09938404709100723, -0.01378442533314228, 0.1678178757429123, -0.02207978256046772, 0.10393316298723221, 0.11806659400463104, 0.12642380595207214, 0.0039352052845060825, -0.15273097157478333, 0.22283844649791718, 0.08024749159812927, -0.0820547416806221, -0.14309749007225037, 0.039872393012046814, -0.31127238273620605, 0.008057107217609882, 0.17346502840518951, 0.11691997945308685, -0.0050948187708854675, 0.12968392670154572, 0.3027370870113373, -0.07085317373275757, 0.09025193750858307, -0.19427716732025146, 0.07788223028182983, 0.07681435346603394, 0.2972653806209564, -0.027542607858777046, 0.04140917956829071, -0.5491771101951599, -0.2795536518096924, -0.00040899505256675184, 0.012972592376172543, 0.021639389917254448, -0.015848195180296898, -0.27312296628952026, -0.3350575268268585, 0.15570394694805145, 0.35914087295532227, 0.16183671355247498, 0.10193686932325363, -0.10990254580974579, 0.15163788199424744, -0.16835443675518036, -0.32283785939216614, 0.014615959487855434, 0.22848618030548096, 0.6626586318016052, -0.17320947349071503, 0.15833206474781036, 0.2954683005809784, 0.013128950260579586, -0.05133286118507385, -0.07351621240377426, -0.03884299844503403, 0.04613809287548065, 0.0635458454489708, -0.1448519080877304, -0.24279190599918365, 0.20415952801704407, 0.06435398757457733, -0.0010851627448573709, 0.3664622902870178, 0.14698641002178192, 0.07167673856019974, -0.03218333050608635, 0.24733847379684448, 0.14915400743484497, -0.0929953083395958, -0.1748993843793869, -0.08854576200246811, 0.2499016523361206, -0.07232776284217834, -0.010558104142546654, -0.1790723353624344, -0.2176312953233719, -0.09064985066652298, 0.24944229423999786, 0.13061873614788055, -0.21354438364505768, 0.03206871822476387, 0.01940670609474182, -0.35387906432151794, 0.35765424370765686, 0.012806479819118977, -0.015572255477309227, -0.013834625482559204, -0.04429887235164642, -0.160870760679245, 0.09667151421308517, -0.13245134055614471, -0.1771072894334793, 0.2793087661266327, -0.1733105182647705, 0.14356794953346252, -0.2053406983613968, 0.24432027339935303, 0.17923389375209808, 0.08567158132791519, 0.03881160169839859, -0.04054679349064827, 0.6512424349784851, -0.045945558696985245, -0.20696941018104553, 0.5122970342636108, -0.04128843545913696, 0.05555608868598938, 0.08921661227941513, -0.14753951132297516, -0.2747017443180084, 0.2845964729785919, -0.007751563563942909, -0.10992885380983353, -0.20132794976234436, 0.1676214188337326, -0.07406765967607498, -0.1803528368473053, 0.09719391912221909, 0.03226734325289726, 0.1713188886642456, -0.08704999089241028, 0.08807586878538132, 0.04000655189156532, -0.1074351817369461, 0.010181226767599583, 0.27557647228240967, -0.058424871414899826, 0.034605491906404495, -0.13827469944953918, -0.0812452882528305, -0.09003215283155441, 0.06468062847852707, 0.22095541656017303, 0.037699632346630096, 0.055044613778591156, -0.13693353533744812, -0.07181781530380249, 0.10747421532869339, -0.07042087614536285, 0.04875900223851204, 0.16914744675159454, -0.060094017535448074, -0.009183053858578205, 0.0028976670000702143, -0.07460393756628036, 0.09175568073987961, -0.06856602430343628, -0.013754305429756641, 0.2950591742992401, 0.2596810758113861, -0.24034954607486725, 0.04835863038897514, 0.05658316612243652, 0.08545300364494324, -0.009303017519414425, -0.14694613218307495, 0.043676503002643585, 0.061369068920612335, -0.06451267004013062, -0.19370123744010925, 0.09072813391685486, 0.03857327252626419, 0.043379850685596466, -0.040608473122119904, -0.004248898010700941, 0.06026088818907738, -0.07014109939336777, -0.13657146692276, 0.04890340939164162, 0.1265769898891449, -0.11238732933998108, -0.11680193245410919, -0.12735572457313538, 0.01735880970954895, 0.10785165429115295, -0.2131424844264984, -0.20208553969860077, -0.14234702289104462, 0.1129884272813797, -0.08520260453224182, 0.16239415109157562, -0.13766954839229584, -0.05290503054857254, -0.12045016884803772, 0.017765428870916367, 0.09559652209281921, -0.1666991412639618, -0.011301812715828419, 0.12357927858829498, 0.20439665019512177, -0.004406615160405636, -0.042636021971702576, 0.042365964502096176, -0.03643405809998512, -0.07626044750213623, -0.1934671550989151, -0.29860472679138184, 0.11334935575723648, -0.12206120043992996, 0.15769946575164795, 0.06651832908391953, -0.1607009768486023, -0.04740716889500618, -0.5499945878982544, 0.09608841687440872, 0.09586621075868607, -0.007694242987781763, 0.14942659437656403, 0.06226213648915291, 0.1374548375606537, 0.14308692514896393, 1.1286888122558594, 0.34936052560806274, 0.6039401888847351, -1.0243592262268066, -0.5346907377243042, -0.09430690854787827, 0.1225937008857727, 0.12541644275188446, 0.4377448558807373, 0.3138018250465393, -0.891952633857727, 1.0388786792755127, 0.7932388186454773, -0.9523650407791138, -0.03643317148089409, -0.24562913179397583, -0.11021296679973602, -0.3535213768482208, 0.35512980818748474, -0.26350507140159607, 0.029031293466687202, 0.23484762012958527, -0.021971069276332855, -0.2101489156484604, -0.38495752215385437, -0.047819118946790695, -0.12921039760112762, -0.0830526351928711, 0.2704674303531647, 0.18567396700382233, 0.16427378356456757, -0.15052175521850586, -0.013051300309598446, -0.2668718993663788, -0.08493781089782715, -0.1187819242477417, -0.09061577171087265, -0.15063484013080597, 0.1624843180179596, -0.38320496678352356, -0.10776109248399734, -0.060990601778030396, -0.3843759000301361, 0.054184626787900925, -0.15310971438884735, 0.09993311017751694, 0.10672274976968765, 0.06664848327636719, -0.009447995573282242, 0.007179822772741318, -0.13871513307094574, -0.4120018482208252, -0.019326768815517426, -0.16173340380191803, -0.2170785665512085, -0.09653564542531967, 0.19477762281894684, -0.16888460516929626, -0.1414414346218109, -0.33318641781806946, -0.12075988948345184, 0.20477044582366943, -0.019277572631835938, 0.17145563662052155, -0.15255479514598846, 0.19040903449058533, -0.06434477120637894, 0.37866824865341187, 0.18713875114917755, 0.27933669090270996, 0.2764454185962677, 0.19867739081382751, -0.1655481457710266, 0.026818091049790382, 0.13929802179336548, -0.028161602094769478, 0.3093169629573822, 0.12851445376873016, 0.0028579793870449066, -0.26868903636932373, 0.24565520882606506, -0.1214207112789154, -0.09174398332834244, 0.16579438745975494, 0.13206543028354645, -0.08185026049613953, -0.02586308866739273, -0.03827856853604317, 0.49365925788879395, 0.10446017235517502, 0.056681886315345764, 0.09737948328256607, -0.10973165929317474, -0.23061595857143402, -0.352710098028183, -0.09868323057889938, -0.17551816999912262, -0.044377055019140244, -0.028331829234957695, 0.05593864619731903, -0.10657616704702377, 0.14899256825447083, -0.022479306906461716, 0.12123825401067734, 0.19703605771064758, 0.04513847082853317, -0.20269852876663208, 0.14795522391796112, 0.07640687376260757, 0.08478548377752304, -0.22133278846740723, 0.058475349098443985, -0.11318224668502808, -0.18787971138954163, -0.13262689113616943, -0.1256028115749359, -0.14427171647548676, -0.2628892660140991, 0.18162915110588074, 0.010579602792859077, -0.2920871078968048, 0.23633332550525665, 0.009623579680919647, 0.06077620014548302, 0.07164385914802551, 0.12003107368946075, 0.12865985929965973, -0.13748207688331604, -0.10761037468910217, 0.03148164600133896, -0.23230324685573578, -0.08766885101795197, 0.1689274162054062, -0.1644873321056366, -0.07614215463399887, -0.14147108793258667, -0.03969097509980202, -0.233080193400383, -0.0005071195773780346, -0.10277878493070602, -0.04529501870274544, 0.10200852155685425, 0.2549606263637543, -0.027901824563741684, -0.3575391471385956, 0.24327926337718964, -0.043383315205574036, 0.05783088877797127, 0.21012072265148163, 0.054147928953170776, -0.03574685752391815, -0.022464822977781296, -0.2429097592830658, 0.2200254201889038, 0.009679710492491722, -0.15283355116844177, 0.009889448061585426, 0.13977289199829102, 0.11308342218399048, 0.013609171845018864, 0.00955356378108263, 0.28066402673721313, 0.07085061818361282, -0.27008309960365295, -0.21133674681186676, 0.14217273890972137, -0.45164015889167786, -0.041270431131124496, -0.1242021694779396, -0.13559608161449432, 0.06747449189424515, -0.09606735408306122, 0.3734668791294098, -0.0024656953755766153, 0.2334648072719574, 0.40109115839004517, -0.2250470668077469, 0.21940134465694427, -0.1034134179353714, -0.2474115937948227, -0.24671681225299835, -0.14314599335193634, -0.06486652791500092, 0.032029300928115845, 0.06477858126163483, -0.1917070746421814, -0.20204544067382812, -0.05537386238574982, -0.24271032214164734, 0.1277046650648117, 0.242611825466156, -0.10076142847537994, 0.1076246052980423, -0.1541622132062912, -0.3255820572376251, -0.21906593441963196, -0.03225046768784523, -0.19443626701831818, 0.2550300359725952, -0.24511128664016724, -0.18226243555545807, 0.806398332118988, 0.24042987823486328, 0.3050523102283478, 0.152251735329628, 0.2726481258869171, -0.18579579889774323, -0.08346627652645111, 0.13491134345531464, 0.15849201381206512, 0.23052124679088593, 0.2549617886543274, -0.10162118822336197, 0.056550219655036926, 0.160456120967865, 0.14787861704826355, 0.16351455450057983, 0.3615013062953949, -0.16655710339546204, -0.04124340042471886, -0.19282609224319458, 0.1071648970246315, 0.08925033360719681, -0.33226245641708374, -0.09209289401769638, 0.24877199530601501, 0.06346576660871506, 0.3934892416000366, -0.04803195595741272, 0.09016959369182587, -0.06586749106645584, -0.08046843111515045, -0.026905613020062447, 0.0863296240568161, 0.16568921506404877, -0.07171827554702759, -0.2701362073421478, -0.1784462183713913, -0.05098588764667511, -0.023438114672899246, 0.34654152393341064, -0.3844069540500641, 0.05228203162550926, 0.052274659276008606, -0.18068212270736694, -0.1812530905008316, 0.15683317184448242, -0.11455278843641281, -0.07899630814790726, 0.16491755843162537, -0.5406937003135681, -0.03151034563779831, 0.11641795933246613, 0.09170624613761902, -0.07742396742105484, 0.07152558863162994, -0.1251659393310547, 0.17074522376060486, 0.03126777336001396, 0.016138503327965736, -0.22981835901737213, -0.3129761815071106, 0.43872714042663574, 0.20990025997161865, -0.23855645954608917, 0.08739614486694336, -0.1710904836654663, 0.08928816765546799, 0.12012115120887756, -0.04245096445083618, 0.12047284841537476, 0.07351220399141312, -0.0384448803961277, 0.14724217355251312, 0.2607435882091522, -0.2792012095451355, 0.12128955125808716, 0.2651112377643585, 0.05186045914888382, 0.2186903953552246, -0.41030341386795044, 0.12562662363052368, 0.0015325765125453472, 0.3450414538383484, 0.07927737385034561, -0.37109851837158203, 0.31015193462371826, -0.023330209776759148, 0.1247744932770729, 0.0368766225874424, -0.05029929801821709, 0.008074476383626461, 0.22349268198013306, -0.06765439361333847, -0.15402807295322418, 0.23017795383930206, -0.3206091523170471, 0.2215391844511032, 0.2285350263118744, -0.1017054095864296, -0.02634584531188011, 0.013439309783279896, -0.037713658064603806, 0.0448744036257267, -0.08405590802431107, 0.2508549094200134, 0.0645541325211525, -0.04723085090517998, -0.037105221301317215, 0.029536215588450432, 0.10450156033039093, -0.10924983769655228, 0.2152731567621231, 0.08593732863664627, -0.05665522441267967, 0.08306906372308731, -0.12134166061878204, 0.13009479641914368, 0.16275684535503387, 0.23309840261936188, -0.2185530960559845, 0.23986344039440155, 0.042760469019412994, -0.12129537016153336, 0.023488439619541168, 0.06516736000776291, 0.024201538413763046, -0.026466436684131622, -0.0185056421905756, -0.1596297025680542, -0.019256040453910828, -0.17230664193630219, 0.10869860649108887, -0.11231238394975662, -0.047671128064394, 0.07081720232963562, -0.18686524033546448, -0.12861309945583344, 0.11662515997886658, -0.05724170058965683, -0.10780490189790726, 0.11069915443658829, -0.026279162615537643, -0.08820265531539917, 0.01399183925241232, -0.2028350979089737, 0.0939401239156723, 0.1498248130083084, 0.11818976700305939, 0.002014742000028491, -0.07205334305763245, 0.19040857255458832, 0.04174555838108063, -0.19970324635505676, -0.19805201888084412, 0.10201440751552582, 0.165185809135437, -0.12110921740531921, -0.05180876702070236, -0.16462182998657227, -0.20573388040065765, 0.014935353770852089, 0.21469910442829132, 0.18149147927761078, 0.09166430681943893, -0.12170244753360748, 0.07709187269210815, -0.07178975641727448, 0.205316960811615, -0.10469749569892883, 0.2547115385532379, -0.18482531607151031, -0.08843994140625, -0.12116077542304993, 0.1453285962343216, -0.16014307737350464, -0.10817071050405502, 0.1570480316877365, 0.21947705745697021, 0.015882214531302452, -0.23477113246917725, -0.038805779069662094, 0.03138351812958717, -0.15043947100639343, -0.08919995278120041, 0.0528470054268837, 0.15579435229301453, -0.03119758889079094, 0.18959742784500122, 0.2839438021183014, -0.06910848617553711, -0.19926540553569794, 0.14429503679275513, 0.01964535005390644, 0.21908912062644958, -0.1924058198928833, -0.046321939677000046, -0.09748134762048721, -0.11353316903114319, -0.016986284404993057, 0.020747071132063866, 0.1788601130247116, -0.007516323588788509, -0.054722193628549576, -0.0684824213385582, -0.09410592913627625, -0.04227390140295029, 0.01573309302330017, 0.15587081015110016, 0.04483535513281822, -0.14912715554237366, -0.01875256933271885, -0.18586556613445282, 0.30055391788482666, 0.057430196553468704, 0.09584451466798782, 0.10760004073381424, 0.08744967728853226, 0.07533328980207443, 0.20936107635498047, 0.13596022129058838, 0.04731374233961105, -0.08672461658716202, 0.18789945542812347, 0.09422433376312256, -0.043099671602249146, 0.004203917924314737, 0.004359041340649128, 0.12658008933067322, -0.049753911793231964, -0.06783594191074371, 0.060746192932128906, -0.10631760954856873, -0.05519283562898636, -0.004852506332099438, -0.13147753477096558, -0.07349931448698044, -0.37570539116859436, -0.16739396750926971, 0.2729065716266632, 0.3567517399787903, 0.04777508229017258, -0.08876868337392807, 0.08761079609394073, 0.04323682561516762, 0.0674593448638916, 0.033224254846572876, -0.06698338687419891, -0.07254009693861008, 0.21590618789196014, 0.1415093094110489, -0.14033561944961548, 0.08300693333148956, 0.10419271886348724, 0.020228341221809387, -0.04037659242749214, 0.13143526017665863, 0.15384328365325928, 0.08173318952322006, -0.21505297720432281, -0.002499996218830347, 0.20981138944625854, -0.05714435875415802, 0.03464990109205246, 0.06596899032592773, -0.002073151059448719, 0.0002739746414590627, 0.0015655581373721361, 0.19251275062561035, 0.043793801218271255, 0.042309314012527466, 0.09964419156312943, -0.0037219759542495012, -0.19160301983356476, -0.15309447050094604, 0.04110775515437126, 0.11990205198526382, -0.005311910528689623, 0.02791503816843033, 0.04416562244296074, -0.016448574140667915, 0.1989285796880722, 0.013585910201072693, 0.07333545386791229, 0.2099122703075409, -0.10091843456029892, 0.29328903555870056, 0.23735255002975464, 0.06489499658346176, -0.17750121653079987, -0.052235547453165054, 0.01943165250122547, 0.08382849395275116, 0.03663395717740059, 0.185542494058609, 0.10818056762218475, -0.20306450128555298, -0.018249962478876114, 0.1321031004190445, -0.07529652118682861, -0.13463562726974487, 0.019464001059532166, 0.015837544575333595, -0.005661819130182266, 0.09371813386678696, 0.18241004645824432, 0.07587499916553497, -0.04590899869799614, -0.11252360045909882, 0.16109247505664825, 0.08924368768930435, 0.018144726753234863, -0.29646238684654236, 0.22927354276180267, -0.5523183941841125, 0.11193901300430298, -0.1192144826054573, -0.019443633034825325, -0.03837034851312637, 0.023880407214164734, 0.17945656180381775, -0.1349179893732071, -0.011917248368263245, -0.13310137391090393, 0.16569079458713531, -0.007529661990702152, -0.18914714455604553, 0.24576857686042786, -0.1830207258462906, -0.07222263514995575, -0.15229523181915283, 0.024364788085222244, -0.08532384783029556, 0.05953328311443329, -0.20560890436172485, 0.09324774891138077, -0.11424393951892853, -0.10353956371545792, -0.07921458780765533, 0.06040071323513985, -0.071700818836689, -0.023177746683359146, -0.0476643368601799, -0.0523671917617321, 0.006303757894784212, -0.08148596435785294, 0.07031509280204773, -0.0741908848285675, -0.10531803965568542, -0.08212822675704956, 0.03430527076125145, -0.035934705287218094, -0.12586842477321625, -0.27105221152305603, 0.08002594858407974, -0.31729400157928467, 0.05575578659772873, -0.33323487639427185, 0.06530999392271042, 0.07207100093364716, 0.05309506133198738, -0.16729378700256348, 0.31206944584846497, -0.009760702960193157, 0.2800257205963135, 0.019507763907313347, -0.09378059953451157, -0.11500533670186996, -0.21505168080329895, 0.1671101450920105, 0.20737974345684052, 0.34501445293426514, -0.2084752321243286, 0.2714281380176544, 0.23949068784713745, -0.07455313205718994, -0.19564877450466156, -0.14045976102352142, 0.02480977401137352, 0.0360979288816452, -0.17602434754371643, -0.00023072365729603916, -0.02159751206636429, 0.016415830701589584, 0.017015308141708374, -0.16108182072639465, -0.1738639920949936, 0.24276094138622284, 0.10998065024614334, 