{"version": "0.5.4", "metadata": {"date": {"year": 2026, "month": 4, "day": 26, "hour": 21, "minute": 11, "second": 16}, "loudness": -19.51770782470703, "gain": 0.8963044362003969, "name": "Octobass", "modeled_by": "October PRoduction Co.", "gear_type": "pedal", "gear_make": "", "gear_model": "", "tone_type": "crunch", "input_level_dbu": null, "output_level_dbu": null, "training": {"settings": {"ignore_checks": false}, "data": {"latency": {"manual": null, "calibration": {"algorithm_version": 1, "delays": [61], "safety_factor": 1, "recommended": 60, "warnings": {"matches_lookahead": false, "disagreement_too_high": false, "not_detected": false}}}, "checks": {"version": 3, "passed": true}}, "validation_esr": 0.008411088642028391}}, "architecture": "WaveNet", "config": {"layers": [{"input_size": 1, "condition_size": 1, "head_size": 8, "channels": 16, "kernel_size": 3, "dilations": [1, 2, 4, 8, 16, 32, 64, 128, 256, 512], "activation": "Tanh", "gated": false, "head_bias": false}, {"input_size": 16, "condition_size": 1, "head_size": 1, "channels": 8, "kernel_size": 3, "dilations": [1, 2, 4, 8, 16, 32, 64, 128, 256, 512], "activation": "Tanh", "gated": false, "head_bias": true}], "head": null, "head_scale": 0.02}, "weights": [-0.017461685463786125, 0.4324316680431366, -0.7759847044944763, -0.8342263102531433, -0.27706751227378845, 0.388363242149353, -0.11238331347703934, 0.8619358539581299, -0.190099835395813, 0.3422234058380127, -0.372456431388855, -0.12067867815494537, -1.0144248008728027, -0.7194653153419495, -0.448723703622818, 0.0069336481392383575, 0.24591542780399323, 0.0982428789138794, -0.25354766845703125, -0.31866589188575745, -0.01073983684182167, 0.18168146908283234, 0.23209966719150543, 0.1777559518814087, -0.08220015466213226, 0.2808472514152527, 0.20506128668785095, -0.19551724195480347, 0.15820252895355225, 0.025844473391771317, -0.12729521095752716, -0.12663577497005463, -0.15306325256824493, 0.010532467626035213, 0.11223923414945602, -0.10368916392326355, -0.22137002646923065, -0.14084018766880035, -0.009043674916028976, 0.130172997713089, 0.24381029605865479, -0.022757507860660553, -0.07870148122310638, -0.38748031854629517, -0.16870683431625366, 0.0039011132903397083, 0.34488722681999207, 0.14709092676639557, -0.1384209394454956, 0.22743746638298035, 0.14280374348163605, 0.05391841381788254, 0.32360824942588806, 0.09415785223245621, 0.03788397088646889, 0.17804135382175446, 0.0989120826125145, -0.17430666089057922, 0.1594165861606598, -0.005346055142581463, -0.004259590525180101, -0.15051163733005524, -0.18787170946598053, 0.05587831884622574, 0.007195341866463423, 0.07840172201395035, -0.10235195606946945, 0.03200743719935417, -0.0752747505903244, 0.16505025327205658, -0.10480333864688873, 0.11842907220125198, 0.034618765115737915, 0.12616315484046936, 0.29860562086105347, 0.10442294180393219, 0.024216433987021446, 0.03375968337059021, -0.02203846536576748, -0.08456635475158691, -0.2957110106945038, 0.16398730874061584, 0.060941342264413834, -0.020053667947649956, -0.05792735144495964, -0.031218554824590683, -0.19662725925445557, -0.04376788064837456, 0.032081879675388336, 0.061278581619262695, -0.004223001189529896, 0.07863011211156845, -0.05847189947962761, 0.09085796028375626, -0.14712274074554443, 0.06879957765340805, 0.03790276497602463, 0.009059624746441841, 0.030269930139183998, -0.13604654371738434, 0.14407984912395477, 0.27145957946777344, -0.08381228893995285, -0.03088446892797947, 0.03406210616230965, -0.02654200606048107, -0.10917571932077408, 0.054977644234895706, -0.03881489485502243, 0.056770361959934235, -0.16562573611736298, 0.1338472068309784, -0.02160651423037052, 0.03935058042407036, 0.21857134997844696, -0.12066883593797684, 0.09990614652633667, -0.025138288736343384, 0.015530621632933617, -0.11078857630491257, 0.08515781164169312, 0.0033005732111632824, -0.21770691871643066, 0.09918582439422607, -0.13290439546108246, -0.2198694944381714, 0.008271807804703712, -0.07896415889263153, 0.08380142599344254, -0.1638002246618271, 0.017599698156118393, -0.08212853223085403, 0.006458017509430647, -0.0020248116925358772, 0.24985045194625854, -0.04495648294687271, 0.032658107578754425, -0.13785520195960999, 0.10295268893241882, 0.08400116115808487, 0.27491050958633423, 0.044167861342430115, 0.1429494321346283, -0.14766594767570496, -0.08696416020393372, -0.05119099095463753, -0.02828095853328705, 0.05772308260202408, -0.07875093072652817, -0.2585589289665222, -0.1065867617726326, -0.12561187148094177, -0.17487049102783203, 0.11126639693975449, 0.07967890799045563, -0.280987948179245, 0.1299196034669876, -0.16308143734931946, 0.054161909967660904, -0.15947242081165314, -0.044815950095653534, 0.03342575579881668, -0.26971402764320374, -0.16278299689292908, -0.11922722309827805, 0.06950265914201736, -0.022115206345915794, 0.15958386659622192, -0.19383397698402405, 0.03493691235780716, 0.2359299212694168, -0.12432736903429031, 0.15973016619682312, 0.1467323899269104, -0.21098338067531586, 0.059049092233181, -0.11260368674993515, 0.014271175488829613, 0.11492614448070526, -0.03679852932691574, -0.11017066240310669, -0.07474830001592636, -0.004891314543783665, 0.1050136610865593, 0.08365887403488159, 0.13973338901996613, -0.13931046426296234, -0.06211988627910614, -0.21879719197750092, 0.1596653163433075, 0.1485043466091156, 0.19724559783935547, -0.17863120138645172, 0.022176500409841537, -0.017187394201755524, -0.1751493215560913, -0.0381791815161705, 0.15863853693008423, -0.14929558336734772, 0.03971538320183754, 0.11296264827251434, 0.026370598003268242, -0.07235545665025711, 0.0037101490888744593, -0.1589231640100479, 0.09183026105165482, -0.15685266256332397, 0.1875889003276825, -0.05648883804678917, -0.05140811949968338, 0.15616260468959808, 0.15622030198574066, 0.152746319770813, -0.09764840453863144, -0.19003328680992126, -0.12189505994319916, -0.05138265714049339, -0.26640790700912476, -0.025916673243045807, -0.05320194736123085, -0.18680758774280548, 0.011972161009907722, 0.12785525619983673, 0.18070702254772186, 0.0027295523323118687, -0.0074983625672757626, -0.23510481417179108, -0.13198871910572052, 0.08973035216331482, 0.1691640168428421, 0.14370590448379517, 0.05632792413234711, -0.13945406675338745, 0.015474212355911732, 0.19383357465267181, 0.08568837493658066, 0.19552330672740936, -0.18237143754959106, -0.24003803730010986, -0.08818303793668747, 0.12402847409248352, -0.05111049860715866, -0.16352562606334686, 0.09312047809362411, -0.11773506551980972, -0.28310245275497437, 0.16569960117340088, -0.3080185055732727, -0.13860198855400085, 0.040290895849466324, -0.2600027620792389, -0.11743390560150146, 0.1921522617340088, 0.01627139002084732, -0.023851029574871063, -0.1805083304643631, -0.08098451793193817, -0.02233889512717724, 0.04595530778169632, -0.08601149916648865, 0.05889713391661644, 0.05858605355024338, 0.06165563687682152, -0.03918774053454399, 0.0737089142203331, -0.0627698227763176, -0.19234402477741241, 0.06608457863330841, 0.11523409932851791, -0.09968102723360062, -0.03228984773159027, -0.06652948260307312, 0.0029610884375870228, -0.006378729362040758, -0.039048995822668076, -0.23903656005859375, 0.22082161903381348, -0.07891447842121124, 0.13509181141853333, 0.01877497136592865, 0.023022383451461792, -0.22517059743404388, -0.052045296877622604, 0.11658010631799698, 0.16547530889511108, 0.08021004498004913, -0.05180501192808151, -0.09919469058513641, 0.0023455519694834948, 0.00452542956918478, -0.21529138088226318, 0.1014404445886612, 0.029339510947465897, -0.15586018562316895, -0.011417847126722336, -0.10224799066781998, -0.050623342394828796, -0.08296793699264526, 0.05171114578843117, -0.19463147222995758, -0.03739335387945175, -0.037540581077337265, -0.00701487110927701, -0.07124050706624985, 0.07279787957668304, -0.15934085845947266, 0.1802346557378769, 0.09100205451250076, 0.16744762659072876, -0.08396853506565094, -0.1521495282649994, -0.14011019468307495, 0.11234816908836365, -0.08617398887872696, -0.0645451694726944, 0.16134129464626312, -0.0965798869729042, -0.10582840442657471, 0.13908222317695618, 0.03016475960612297, 0.11649871617555618, -0.06237232685089111, -0.0881548821926117, -0.061819445341825485, 0.23786954581737518, 0.16363908350467682, 0.20365099608898163, -0.044918980449438095, 0.0707937479019165, -0.16125363111495972, -0.00970506016165018, -0.1051255390048027, 0.25195959210395813, 0.00888286717236042, -0.12142612040042877, -0.05137583985924721, 0.18632452189922333, 0.1364748328924179, 0.02915557287633419, 0.20581577718257904, -0.0683557540178299, -0.17103654146194458, 0.18111984431743622, 0.04902191460132599, -0.20450429618358612, 0.19603992998600006, 0.04384441673755646, -0.034359097480773926, -0.01558680646121502, 0.005995810031890869, 0.014821944758296013, 0.00032786495285108685, -0.18317186832427979, -0.002864780370146036, 0.2563122510910034, 0.26963937282562256, 0.028722008690238, -0.12037557363510132, -0.3118171989917755, -0.04862606152892113, 0.09862495958805084, -0.3523918390274048, -0.19804905354976654, 0.31264281272888184, -0.1163346916437149, 0.05982091277837753, 0.3087909519672394, 0.07792668789625168, -0.02203725278377533, -0.23206745088100433, -0.2676222324371338, 0.0337999165058136, 0.12879100441932678, 0.14075599610805511, -0.056976016610860825, -0.2794482111930847, -0.07292347401380539, 0.04430956766009331, 0.32651153206825256, 0.3124944269657135, 0.2068365067243576, -0.24301092326641083, -0.14340417087078094, 0.04927004873752594, 0.2518688142299652, -0.04484526440501213, -0.004700885619968176, 0.2805056571960449, -0.2615695297718048, -0.013317937031388283, 0.21342341601848602, -0.24432894587516785, -0.163003072142601, 0.11810031533241272, -0.31639257073402405, 0.016263091936707497, 0.3032355308532715, -0.05221404507756233, -0.03170017898082733, 0.04575331136584282, 0.1942541003227234, -0.06414943933486938, 0.03197532892227173, 0.0941600650548935, 0.17541740834712982, -0.12579672038555145, 0.1715172827243805, -0.017244694754481316, -0.041041262447834015, 0.1152435764670372, -0.21055379509925842, -0.008032119832932949, 0.16794562339782715, -0.10817843675613403, -0.07093026489019394, -0.0962095856666565, 0.07652825862169266, -0.055963996797800064, 0.0999007374048233, 0.03762328252196312, 0.08975475281476974, -0.12309124320745468, 0.13526570796966553, 0.05551514774560928, 0.1401572823524475, -0.23824605345726013, 0.03145937994122505, -0.15456517040729523, 0.0577128529548645, 0.020606663078069687, -0.05735203996300697, -0.06519085168838501, 0.14792022109031677, 0.06678604334592819, -0.20218421518802643, -0.006215513218194246, 0.06375156342983246, -0.23947331309318542, 0.08368749916553497, -0.09551900625228882, -0.2657177150249481, -0.1246606633067131, 0.012341479770839214, -0.02552424557507038, -0.11232605576515198, 0.12677456438541412, 0.1033860370516777, 0.04584706574678421, -0.017738811671733856, -0.2434510439634323, 0.26129940152168274, 0.1709904670715332, 0.312816321849823, 0.01840157061815262, -0.19351676106452942, -0.0563417486846447, 0.0588049553334713, -0.030829140916466713, -0.2949143052101135, 0.011226493865251541, -0.2284248024225235, -0.22144946455955505, 0.0948910340666771, -0.02613617293536663, 0.21382519602775574, 0.011095596477389336, -0.027242042124271393, -0.23417715728282928, 0.008766638115048409, 0.05480697751045227, 0.2422085702419281, 0.09056704491376877, 0.012714173644781113, -0.17283950746059418, 0.14098303020000458, -0.05450069531798363, 0.04592432454228401, -0.00037941106711514294, -0.1702871471643448, -0.09972251951694489, -0.03732245787978172, -0.14156842231750488, -0.26990941166877747, 0.1571115404367447, -0.1153692677617073, -0.06894265115261078, 0.13974468410015106, -0.017953816801309586, -0.1730250120162964, 0.008979754522442818, -0.12381178140640259, -0.15371030569076538, 0.13260719180107117, -0.07256325334310532, 0.23582389950752258, -0.0961926281452179, -0.1856490820646286, -0.11554841697216034, 0.2337271124124527, 0.28712600469589233, -0.022188259288668633, 0.09190915524959564, -0.08761201053857803, -0.03185829147696495, 0.1294931024312973, -0.238893523812294, -0.07502716034650803, 0.06632829457521439, -0.19054549932479858, -0.061857566237449646, -0.024728793650865555, 0.23527607321739197, 0.06415478140115738, -0.07833751291036606, -0.05725386366248131, -0.012777522206306458, 0.011107128113508224, 0.17360053956508636, 0.20326955616474152, -0.021621771156787872, -0.08023826032876968, -0.12478382885456085, 0.09967778623104095, 0.041531000286340714, 0.023546000942587852, -0.09693919867277145, -0.01516708917915821, -0.14572779834270477, 0.02159281075000763, -0.19872228801250458, 0.04928259924054146, 0.17704075574874878, -0.2715252935886383, -0.23846223950386047, -0.10409589111804962, -0.15979629755020142, -0.15509164333343506, -0.0853256955742836, -0.20607832074165344, -0.0879296138882637, -0.0611550398170948, 0.11284621804952621, 0.0720529556274414, -0.06682582944631577, 0.012740080244839191, 0.08728460967540741, -0.05481133982539177, -0.02413940615952015, -0.03664228692650795, 0.04930569976568222, -0.1037217229604721, -0.14994466304779053, 0.2371939718723297, -0.057785797864198685, 0.01771261729300022, 0.0814988911151886, -0.005968637764453888, -0.047837045043706894, 0.1703968197107315, -0.014098236337304115, -0.11775396764278412, -0.16782040894031525, -0.050286222249269485, 0.04406474530696869, -0.042827315628528595, 0.1032574251294136, -0.021072208881378174, -0.1197296753525734, 0.11762382835149765, 0.04379730299115181, 0.18336425721645355, 0.06071356683969498, -0.027273479849100113, -0.17666801810264587, 0.013790955767035484, 0.10110960900783539, 0.03729506954550743, -0.11425239592790604, 0.04363608360290527, 0.21237249672412872, -0.00665646605193615, -0.12918491661548615, -0.03572198376059532, 0.06766262650489807, -0.022765452042222023, 0.019287632778286934, 0.05774654448032379, 0.04188351705670357, 0.2020503580570221, 0.15358829498291016, 0.000789809855632484, -0.11574801057577133, -0.17461778223514557, 0.04189085587859154, 0.2237839251756668, 0.18234047293663025, 0.036142077296972275, 0.06286681443452835, 0.012388142757117748, -0.03724529966711998, -0.05417337641119957, -0.18004333972930908, -0.2692408263683319, 0.20547261834144592, -0.17379683256149292, -0.22202594578266144, 0.15607401728630066, 0.045017000287771225, 0.08464773744344711, -0.09711718559265137, -0.0831090658903122, -0.23112916946411133, 0.2582857012748718, 0.061767201870679855, 0.2207009643316269, 0.05731935426592827, -0.020117878913879395, -0.12101146578788757, 0.2318931370973587, 0.13121084868907928, 0.09108626842498779, 0.051435697823762894, -0.07951442152261734, -0.2988457679748535, 0.04085532948374748, -0.1928040236234665, -0.014273581095039845, 0.07480958849191666, -0.2584943175315857, -0.1799536943435669, 0.1572553515434265, -0.08614148199558258, -0.12232514470815659, 0.08365224301815033, -0.06452669203281403, -0.1983843296766281, 0.01972474716603756, -0.09948669373989105, -0.009674488566815853, -0.0375036783516407, -0.37353453040122986, 0.2449038326740265, 0.04230343922972679, 0.2821023166179657, -0.319204717874527, 0.11875757575035095, -0.35388025641441345, 0.35272735357284546, -0.09263214468955994, -0.31086426973342896, 0.31354761123657227, -0.03767998144030571, -0.15471580624580383, 0.12004625052213669, -0.11358869075775146, 0.21081320941448212, -0.21392619609832764, 0.11077877879142761, -0.3526257276535034, 0.2983549237251282, -0.02202986739575863, 0.2431902140378952, -0.12834185361862183, -0.13312436640262604, -0.2724648714065552, 0.3712584972381592, -0.009518411010503769, 0.3911879062652588, -0.2789404094219208, 0.09926299005746841, -0.4156233072280884, 0.2155253291130066, -0.004012357909232378, -0.22941553592681885, 0.27365636825561523, 0.11526872962713242, -0.29515451192855835, 0.22954459488391876, 0.12100666016340256, -0.313332736492157, 0.3615182042121887, -0.0748017355799675, -0.2973366379737854, 0.22214631736278534, 0.08060135692358017, 0.1793186366558075, -0.24702666699886322, -0.13120462000370026, 0.1979554295539856, 0.11254477500915527, -0.10943809151649475, -0.2949063181877136, -0.039608586579561234, 0.21218246221542358, 0.22255681455135345, 0.0038491799496114254, 0.028616098687052727, 0.10525891929864883, 0.1752910166978836, -0.053264010697603226, 0.1308712512254715, 0.18006817996501923, -0.2134128361940384, -0.165057972073555, -0.2194129228591919, 0.07442022860050201, 0.17191603779792786, 0.21751652657985687, -0.21511749923229218, -0.11926035583019257, -0.15966328978538513, 0.004992675967514515, 0.052355602383613586, -0.017079701647162437, 0.025088174268603325, -0.23389925062656403, -0.12364546209573746, 0.129957914352417, 0.29778531193733215, 0.2531355619430542, 0.029412265866994858, 0.07304362207651138, 0.09266086667776108, -0.18782220780849457, 0.13102060556411743, 0.17702992260456085, 0.06365517526865005, 0.09432430565357208, 0.22734400629997253, -0.15031477808952332, 0.1777695119380951, 0.2507537305355072, -0.11468135565519333, -0.1199050098657608, -0.21214956045150757, 0.18191377818584442, 0.08400393277406693, -0.22810885310173035, 0.06345539540052414, -0.1405700296163559, 0.07705195248126984, 0.05965444818139076, 0.14671014249324799, -0.2385893315076828, 0.011374391615390778, 0.15550005435943604, -0.1043752059340477, -0.13329747319221497, 0.024754654616117477, -0.23216398060321808, -0.1607431024312973, -0.04253548011183739, 0.2979145348072052, 0.16819967329502106, 0.09279587119817734, -0.11993811279535294, -0.06829788535833359, 0.07749637216329575, 0.13963255286216736, -0.04265905171632767, 0.07817375659942627, -0.0897504910826683, -0.16113680601119995, 0.08885122090578079, 0.2414684295654297, -0.055000439286231995, 0.010334696620702744, -0.0646873414516449, -0.1582057923078537, 0.014886446297168732, -0.12053727358579636, -0.1527838110923767, 0.10913524776697159, -0.12595750391483307, 0.030560249462723732, -0.05953177809715271, -0.05478892847895622, -0.14190074801445007, 0.18074600398540497, -0.3331652581691742, -0.17980806529521942, 0.04851822927594185, 0.1393359750509262, 0.02620893530547619, -0.013554474338889122, 0.028118621557950974, -0.1197090595960617, -0.11339390277862549, -0.034074775874614716, -0.08040802925825119, -0.03366412594914436, -0.0420011542737484, 0.12756218016147614, -0.03733661025762558, -0.03204137086868286, -0.09220471233129501, -0.05757436901330948, 0.056185703724622726, 0.06773833930492401, -0.08129192888736725, 0.4934830069541931, -0.41501671075820923, 0.778755784034729, -0.6482699513435364, -0.048366744071245193, 0.887599766254425, 0.9425513744354248, -0.7715511918067932, 0.1767808049917221, 0.07679540663957596, -0.46487686038017273, -0.44854170083999634, 0.2140474170446396, -0.7209707498550415, 0.22696463763713837, 0.4983832836151123, 0.04119270667433739, 0.31103622913360596, -0.21531550586223602, 0.19624793529510498, 0.07088203728199005, -0.18507108092308044, -0.0695427805185318, -0.37443435192108154, -0.11810614168643951, -0.18688075244426727, -0.21332642436027527, -0.07769636064767838, -0.17497436702251434, 0.2531515061855316, 0.27590179443359375, -0.22812773287296295, 0.35426071286201477, 0.05008081719279289, -0.3499757647514343, 0.16454823315143585, -0.30994507670402527, -0.19918473064899445, -0.25703057646751404, -0.45167073607444763, -0.08739400655031204, -0.056968964636325836, -0.3161817193031311, 0.18586337566375732, -0.031493157148361206, -0.7225561738014221, 0.3667091727256775, 0.203902006149292, 0.14824411273002625, 0.12048294395208359, -0.11867552995681763, 0.22092728316783905, -0.2361595630645752, -0.18949076533317566, -0.024792438372969627, -0.32946863770484924, -0.07050174474716187, -0.2201874703168869, 0.06147059053182602, -0.17023569345474243, 0.04195579141378403, 0.3358879089355469, 0.18945057690143585, -0.09587692469358444, 0.3457949757575989, 0.12578357756137848, -0.12661771476268768, -0.01184530183672905, -0.28607499599456787, -0.1551470309495926, -0.14242468774318695, -0.17187774181365967, -0.30684706568717957, -0.2343442738056183, -0.1717463582754135, 0.10429735481739044, 0.09745857119560242, -0.18952785432338715, 0.052974168211221695, -0.12052805721759796, -0.3092578053474426, -0.356507271528244, -0.0414046049118042, 0.0875476822257042, 0.3514779210090637, 0.2094656080007553, 0.32196706533432007, 0.18369799852371216, 0.1591801792383194, 0.40398895740509033, 0.05090748146176338, 0.1396465003490448, 0.23147837817668915, 0.023241745308041573, -0.27300676703453064, 0.18968625366687775, -0.25215625762939453, -0.24329787492752075, 0.3187452256679535, -0.06634348630905151, 0.38858410716056824, 0.4644834101200104, 0.4359323978424072, -0.37593117356300354, 0.3449847400188446, 0.1708848774433136, -0.042445383965969086, -0.26152732968330383, 0.16385406255722046, -0.2465100884437561, -0.02667602151632309, 0.4072873294353485, 0.22097870707511902, 0.2142253965139389, 0.011121763847768307, 0.18315023183822632, -0.4491736590862274, -0.3421657383441925, -0.1105288416147232, -0.022062696516513824, 0.030598651617765427, -0.4354898929595947, -0.42600563168525696, 0.289638876914978, -0.03027326986193657, -0.44961339235305786, 0.28282833099365234, -0.3467637002468109, 0.23708806931972504, -0.042982444167137146, 0.3324935734272003, -0.24612125754356384, -0.13658639788627625, 0.30782899260520935, 0.30217429995536804, 0.05574771389365196, 0.17788033187389374, -0.09910805523395538, 0.16060170531272888, -0.29041555523872375, 0.07669567316770554, 0.07519657164812088, -0.11552530527114868, 0.12982231378555298, -0.014612574130296707, 0.16000835597515106, -0.4654737412929535, -0.11541130393743515, -0.12555718421936035, -0.2874980866909027, -0.37448111176490784, -0.041871458292007446, -0.3336441218852997, -0.4123188555240631, -0.014111838303506374, 0.24807998538017273, -0.15912143886089325, 0.06321211159229279, 0.26665449142456055, -0.20213012397289276, -0.2756042778491974, -0.13380230963230133, 0.4242839813232422, -0.3752277195453644, -0.017586689442396164, 0.21531884372234344, 0.40766674280166626, -0.3122102618217468, 0.21630625426769257, 0.36963537335395813, 0.25617632269859314, -0.14414459466934204, 0.39434197545051575, 0.2953055202960968, -0.3179149329662323, 0.19076025485992432, 0.16875891387462616, 0.3019677698612213, -0.3840356171131134, 0.1761474311351776, -0.20184409618377686, -0.3152425289154053, -0.0696166381239891, -0.16332128643989563, -0.009299849160015583, -0.26622799038887024, -0.26988485455513, 0.02015095017850399, -0.20534966886043549, -0.08817177265882492, 0.1067492663860321, 0.11035248637199402, 0.0778556764125824, -0.20632404088974, 0.12692143023014069, -0.06050299480557442, 0.06282984465360641, -0.017689932137727737, -0.012669138610363007, -0.36198052763938904, 0.06163046509027481, -0.10983192920684814, -0.05539972707629204, -0.25652965903282166, -0.12718380987644196, -0.18308836221694946, -0.20736916363239288, -0.1503656655550003, -0.2533807158470154, 0.025010166689753532, -0.03230620548129082, 0.04710295423865318, 0.12181149423122406, -0.2647208273410797, -0.08520899713039398, 0.6323815584182739, 0.122870072722435, -0.07895123958587646, -0.07184826582670212, 0.14477236568927765, 0.16013754904270172, 0.3873889446258545, -0.14149810373783112, -0.01853817328810692, 0.09479018300771713, -0.005204617511481047, -0.2825012505054474, 0.2927723228931427, -0.3440111577510834, 0.005362689029425383, -0.03323203697800636, 0.3639413118362427, -0.21724648773670197, -0.3063737452030182, -0.22992457449436188, 0.2431381344795227, -0.27963051199913025, -0.05036608502268791, 0.028440484777092934, 0.007952095940709114, -0.807615339756012, 0.31066009402275085, -0.28116509318351746, -0.13609644770622253, 0.48752185702323914, -0.285037100315094, 0.12076126784086227, 0.8510168194770813, -0.46282631158828735, 0.2184116095304489, 0.4570167660713196, 0.17519576847553253, 0.3097989857196808, 1.2004342079162598, -0.5471384525299072, -0.3699081838130951, 0.5171431303024292, 0.1680816262960434, 0.18150804936885834, 0.09967462718486786, -0.3009445071220398, 0.2112247198820114, 0.025329435244202614, -0.60518479347229, -0.19046583771705627, -0.27702128887176514, -0.1974463313817978, -0.28377974033355713, -0.04063946008682251, 0.10528985410928726, 0.27351197600364685, -0.06194566190242767, 0.23292553424835205, -0.23358753323554993, 0.2750232219696045, -0.4258855879306793, -0.18082918226718903, 0.03270706161856651, 0.1956656575202942, 0.0967344343662262, 0.07079896330833435, -0.08958929032087326, 0.03589191660284996, 0.07386647909879684, 0.07774035632610321, -0.006956744473427534, 0.09012343734502792, -0.0697643905878067, 0.01299966312944889, -0.03285463899374008, -0.035840682685375214, 0.18478302657604218, 0.08427174389362335, 0.15651710331439972, -0.028825782239437103, -0.007297440432012081, 0.02189604751765728, -0.1436283141374588, -0.033493731170892715, -0.040357597172260284, -0.0708518922328949, -0.13957098126411438, 0.10534223914146423, 0.1466374546289444, -0.04876398667693138, 0.11985283344984055, 0.009848758578300476, 0.0013754327083006501, 0.07691988348960876, -0.02431267313659191, 0.03983120992779732, -0.16275902092456818, -0.025259599089622498, 0.06826314330101013, -0.15716056525707245, -0.1918937861919403, -0.049708299338817596, -0.07956846803426743, -0.09303576499223709, -0.023328330367803574, -0.0499688982963562, -0.14908158779144287, -0.1300751268863678, 0.02584119327366352, 0.018651830032467842, -0.04903097078204155, -0.03739676624536514, -0.04053611308336258, 0.1271761953830719, -0.12705886363983154, -0.4382852017879486, -0.47768843173980713, 0.09383012354373932, -3.9903032302390784e-05, 0.045789770781993866, -0.2070872038602829, 0.05504276230931282, 0.04538584128022194, 0.09377086907625198, -0.05617872253060341, 0.10097146779298782, 0.015788031741976738, 0.016666453331708908, -0.053800567984580994, 0.07718639820814133, -0.10374053567647934, 0.01290662307292223, -0.13149520754814148, -0.004395967815071344, -0.24018822610378265, 0.1749790757894516, -0.28776946663856506, -0.0683714970946312, 0.049443915486335754, 0.24544261395931244, -0.031311605125665665, -0.14978256821632385, -0.03149188309907913, 0.08268582820892334, 0.01633049175143242, 0.03900038078427315, -0.01347603090107441, -0.08981522917747498, -0.006741305347532034, -0.008129486814141273, -0.03486485034227371, 0.20175589621067047, 0.03367544338107109, -0.11383321136236191, -0.1208997294306755, -0.05720815062522888, 0.24048514664173126, 0.14050139486789703, -0.2630311846733093, 0.009245716035366058, 0.09174111485481262, 0.0636870414018631, -0.07461394369602203, -0.2150612324476242, -0.8139314651489258, 0.15788346529006958, -0.18032243847846985, 0.2800862193107605, -0.3264177739620209, -0.11011109501123428, -0.17289374768733978, -0.09592920541763306, 0.17380426824092865, 0.21374651789665222, -0.16928809881210327, -0.03491802141070366, -0.028507234528660774, -0.043582264333963394, 0.1521703153848648, -0.01278133224695921, -0.10177531093358994, 0.12872900068759918, -0.049233295023441315, 0.2132030427455902, -0.044876739382743835, 0.17945338785648346, 0.21443909406661987, 0.13057364523410797, -0.15191984176635742, -0.22603976726531982, -0.050000112503767014, 0.0539676770567894, 0.1917342245578766, 0.004599685315042734, -0.19922609627246857, -0.17110802233219147, -0.06558122485876083, 0.12891677021980286, 0.022777466103434563, -0.13350263237953186, -0.23201774060726166, -0.07247037440538406, 0.05169058218598366, -0.07103116065263748, 0.10212905704975128, 0.154644176363945, -0.2512431740760803, -0.03587799519300461, 0.027178164571523666, -0.05966636538505554, -0.018875248730182648, -0.034086160361766815, -0.39010190963745117, 0.38762903213500977, -0.11433877795934677, 0.31156492233276367, 0.07396233826875687, -0.03446437790989876, -0.03263301029801369, -0.00824697408825159, -0.11573997884988785, 0.07141538709402084, -0.05245644226670265, 0.15491576492786407, -0.07467501610517502, -0.19468724727630615, 0.09670110791921616, 0.07012911885976791, -0.20374120771884918, -0.09964248538017273, -0.16877879202365875, 0.021157976239919662, -0.11956122517585754, 0.0869760662317276, 0.1366032212972641, 0.1361980438232422, 0.18352524936199188, -0.06982675194740295, -0.20121976733207703, 0.0019502524519339204, 0.21432706713676453, 0.17785826325416565, -0.11184228211641312, -0.07421574741601944, 0.037879642099142075, -0.18373702466487885, 0.12480786442756653, 0.19190850853919983, -0.03804823011159897, -0.08027689903974533, 0.0829334482550621, 0.09746897965669632, 0.23582057654857635, 0.27391907572746277, 0.036629583686590195, -0.1600014567375183, 0.15303663909435272, -0.13818518817424774, -0.21542568504810333, 0.056168604642152786, -0.15475820004940033, -0.010361995548009872, 0.058534059673547745, 0.13202114403247833, 0.1566392034292221, -0.14547553658485413, -0.040813811123371124, -0.00733760604634881, 0.024307994171977043, 0.11894867569208145, -0.08910088241100311, -0.11720617115497589, 0.05498228222131729, -0.11539168655872345, -0.13290366530418396, 0.07572009414434433, 0.08507947623729706, 0.010841842740774155, -0.014912980608642101, -0.05258209630846977, -0.10563921928405762, 0.13700298964977264, 0.015683475881814957, 0.05730810761451721, -0.13867565989494324, -0.07544014602899551, 0.05653791502118111, 0.18469151854515076, 0.17542600631713867, 0.04419770836830139, -0.0010775979608297348, -0.14807242155075073, -0.04253115504980087, -0.0989709347486496, 0.07985085994005203, 0.07349282503128052, -0.09974776953458786, -0.12693263590335846, -0.05543781444430351, 0.08226671069860458, 0.10625658184289932, -0.1906326860189438, -0.27801522612571716, 0.11089017987251282, 0.000611015479080379, -0.01863652653992176, -0.003970263991504908, 0.1443541795015335, -0.13624805212020874, 0.20859259366989136, 0.09614112228155136, 0.08915194869041443, -0.04942488670349121, 0.3642193377017975, 0.19499975442886353, 0.11768457293510437, -0.3022556006908417, -0.0954996794462204, -0.10569600760936737, 0.303533673286438, 0.2905435562133789, 0.26013752818107605, -0.18673394620418549, -0.08689755946397781, -0.16291850805282593, -0.2701551914215088, -0.02859884686768055, -0.045266080647706985, 0.08950871974229813, -0.0978623628616333, 0.04772114008665085, 0.15522855520248413, -0.10807326436042786, 0.006672224495559931, 0.18236353993415833, -0.11843203753232956, 0.2647082209587097, 0.21070069074630737, 0.22177447378635406, -0.03714742138981819, 0.06416814774274826, -0.11057814955711365, -0.05622211843729019, 0.10895100980997086, 0.08762308210134506, 0.06384961307048798, 0.22284330427646637, 0.049375150352716446, 0.1743481308221817, 0.16766607761383057, 0.3705786466598511, 0.1319177895784378, -0.04631736874580383, -0.11350470781326294, 0.052755314856767654, 0.2227039933204651, 0.6599770784378052, -0.12629765272140503, -0.006965267471969128, -0.2615254819393158, -0.17481546103954315, -0.10364564508199692, 0.03554157912731171, -0.07557326555252075, 0.11621535569429398, 0.33808720111846924, 0.00024117763678077608, -0.12440818548202515, -0.10561419278383255, 0.062356580048799515, 0.17844001948833466, 0.12025264650583267, 0.0431104451417923, 0.02625833824276924, 0.07386945188045502, 0.06033593416213989, 0.2384282350540161, 0.05279950425028801, 0.15071295201778412, 0.05765799432992935, -0.054158635437488556, 0.0013020248152315617, -0.05246433988213539, 0.06889647245407104, -0.06006611883640289, -0.0839732438325882, -0.09104417264461517, -0.17712841928005219, 0.15576596558094025, 0.017359638586640358, 0.09555526077747345, -0.00461157551035285, -0.045574869960546494, 0.0072427717968821526, -0.05054359883069992, -0.027454832568764687, 0.044539980590343475, 0.147323876619339, 0.07515569776296616, 0.0928826630115509, -0.08659040927886963, 0.10393922030925751, -0.2271125614643097, -0.08174791932106018, -0.2593630254268646, -1.377113312628353e-05, -0.27302488684654236, 0.1430564671754837, -0.03383044898509979, -0.11993078887462616, 0.11915919184684753, 0.16649022698402405, 0.10489256680011749, 0.062486495822668076, -0.09369085729122162, -0.09761089831590652, 0.0693124383687973, 0.13800927996635437, -0.1344877928495407, -0.1067647635936737, -0.16222597658634186, -0.04715786501765251, -0.2644604742527008, -0.19494162499904633, 0.1232127696275711, -0.1485919952392578, -0.05769234150648117, 0.039071496576070786, -0.0019003826892003417, 0.01847822591662407, 0.07138599455356598, -0.046950772404670715, 0.04444232955574989, 0.034870445728302, -0.06860154122114182, 0.1204247772693634, 0.11050832271575928, 0.026983313262462616, -0.014496775344014168, 0.09143741428852081, -0.06036417558789253, -0.025109535083174706, -0.07951359450817108, -0.19805575907230377, 0.031190836802124977, 0.03524177893996239, -0.031176334246993065, -0.13191406428813934, -0.11793690174818039, 0.04045239835977554, -0.1544731855392456, -0.05711755529046059, -0.0767408087849617, 0.0003933142579626292, -0.2292841374874115, -0.08818840980529785, 0.00022145874390844256, 0.06158376485109329, 0.02564389258623123, -0.21254360675811768, -0.034874193370342255, -0.0571570061147213, 0.00939156487584114, 0.05573244020342827, -0.021928563714027405, 0.04232088848948479, 0.25031766295433044, 0.15675921738147736, 0.0509190708398819, 0.22076968848705292, 0.21670228242874146, 0.1818925440311432, -0.12287432700395584, 0.04916730895638466, -0.0395834743976593, 0.00016761536244302988, -0.03126225247979164, -0.01714506559073925, -0.22708642482757568, -0.23990948498249054, -0.06916067749261856, -0.03581941872835159, -0.11529424041509628, 0.12840716540813446, 0.02171647734940052, 0.13543149828910828, -0.08782484382390976, 0.08061622828245163, -0.018570758402347565, -0.038617849349975586, -0.07500404864549637, -0.08887563645839691, 0.02200021967291832, -0.030695125460624695, 0.21882402896881104, 0.18733271956443787, -0.0653284341096878, -0.1038210391998291, -0.15262337028980255, -0.08317182958126068, -0.10708841681480408, -0.06152833625674248, 0.08680479228496552, 0.008708023466169834, -0.09588789194822311, 0.06230008602142334, 0.15762266516685486, -0.013308694586157799, -0.16072572767734528, 0.08350460976362228, 0.14251594245433807, -0.18618297576904297, 0.054240673780441284, 0.01741056516766548, -0.10561562329530716, 0.15467295050621033, -0.032413631677627563, 0.14926081895828247, -0.0840529203414917, -0.09810265153646469, -0.018277985975146294, -0.14199528098106384, 0.0076234606094658375, 0.05706242471933365, 0.09614027291536331, 0.22249771654605865, -0.06088772416114807, -0.06591196358203888, 0.10660894215106964, -0.06147310882806778, 0.23389354348182678, 0.0672663226723671, -0.08745963871479034, -0.18551529943943024, -0.03220231458544731, -0.13428431749343872, 0.12085477262735367, 0.20667541027069092, 0.003779940539970994, -0.1231832504272461, -0.09629814326763153, 0.0073105767369270325, 0.054142437875270844, -0.11104279011487961, -0.1326821744441986, 0.1285143941640854, 0.09458290040493011, 0.07550415396690369, 0.019561149179935455, -0.1677999198436737, -0.10710874944925308, -0.014932365156710148, -0.029161300510168076, -0.07858822494745255, 0.07551327347755432, -0.09579475969076157, -0.1876603364944458, 0.025150783360004425, -0.03285892307758331, -0.07128403335809708, 0.06373351067304611, 0.14196529984474182, -0.16579023003578186, 0.009571002796292305, 0.04261521250009537, 0.007032519206404686, 0.07286564260721207, -0.20060959458351135, 0.204677551984787, -0.01195567101240158, -0.10553623735904694, -0.17455141246318817, 0.0651535764336586, 0.20864124596118927, 0.0844017043709755, -0.03916299343109131, 0.01223744172602892, -0.1583508402109146, 0.06938030570745468, 0.23511183261871338, 0.05042443051934242, -0.16567113995552063, -0.13612684607505798, -0.04128853976726532, 0.0235025342553854, 0.08051078766584396, 0.06636505573987961, -0.05315527692437172, -0.21701298654079437, -0.035311974585056305, 0.31896960735321045, 0.08834938704967499, -0.0372079461812973, -0.027364514768123627, 0.1293705552816391, 0.06528326869010925, 0.4652967154979706, -0.43589434027671814, 0.042573317885398865, -0.4422230124473572, -0.012435393407940865, 0.245407372713089, 0.05089499056339264, 0.0356002077460289, -0.10462062805891037, -0.29674363136291504, -0.24013130366802216, 0.0006654108874499798, 0.12627771496772766, 0.19701310992240906, -0.07403457909822464, -0.25676608085632324, -0.1534818857908249, -0.055930670350790024, 0.08232174813747406, -0.1621054857969284, 0.017757412046194077, 0.44532766938209534, 0.10491519421339035, 0.022260518744587898, -0.10851898044347763, 0.20109029114246368, 0.1790238916873932, 0.4170997738838196, 0.1740153580904007, 0.13508392870426178, -0.300057053565979, -0.0997820720076561, -0.23589922487735748, 0.2052868753671646, -0.07731088250875473, -0.07522498816251755, -0.1777246743440628, -0.09670211374759674, -0.11714272201061249, 0.3198319375514984, 0.0568520687520504, -0.02259070798754692, -0.06583815068006516, 0.16916844248771667, 0.18488448858261108, -0.14628666639328003, -0.014380475506186485, 0.35188230872154236, 0.35720744729042053, -0.13290637731552124, -0.28442883491516113, -0.3654497563838959, -0.15413527190685272, 0.001093679224140942, 0.3017253279685974, -0.10654943436384201, 0.05916440486907959, 0.019183345139026642, -0.09164725244045258, 0.11447940766811371, 0.32569387555122375, -0.07615818828344345, -0.08235141634941101, 0.029953785240650177, -0.14690381288528442, 0.07390845566987991, -0.16058489680290222, -0.1225871741771698, -0.038324207067489624, -0.299198716878891, 0.15712861716747284, -0.052944205701351166, -0.03558139130473137, -0.021116409450769424, -0.06080133467912674, -0.24509669840335846, 0.11627598851919174, -0.12812042236328125, 0.24088314175605774, 0.09268966317176819, -0.00809351447969675, -0.05050288140773773, -0.09510472416877747, 0.12162994593381882, 0.3001520335674286, 0.03957536816596985, 0.19600775837898254, -0.13257960975170135, -0.049126334488391876, -0.13729892671108246, 0.07817300409078598, 0.16596944630146027, -0.08755436539649963, 0.012164083309471607, -0.14636577665805817, -0.13380353152751923, 0.39792516827583313, -0.042450789362192154, 0.18875651061534882, 0.037689097225666046, -0.030060797929763794, -0.0017272487748414278, -0.11581169068813324, 0.09006911516189575, -0.039418574422597885, 0.030529597774147987, 0.03829384222626686, 0.14928869903087616, -0.12841831147670746, 0.17031703889369965, -0.10529188811779022, -0.0776027962565422, -0.02547931857407093, -0.06201077252626419, 0.10759034752845764, 0.08518585562705994, -0.08169787377119064, 0.06391849368810654, -0.14082831144332886, 0.019351601600646973, 0.07302327454090118, 0.1465599238872528, 0.12420707195997238, 0.03560125082731247, -0.03920069709420204, 0.037110645323991776, -0.07288920134305954, 0.1678214818239212, 0.06095327064394951, -0.08375215530395508, 0.04874631389975548, -0.0037979825865477324, -0.021285902708768845, 0.020859573036432266, -0.03839830681681633, 0.04873919486999512, -0.13240499794483185, -0.09363727271556854, 0.048027679324150085, 0.04454229772090912, 0.09558028727769852, 0.07108093798160553, -0.05014441907405853, 0.05656914412975311, 0.13410258293151855, -0.25010183453559875, 0.004530817270278931, -0.22393716871738434, 0.012758464552462101, -0.21131585538387299, 0.052779585123062134, -0.1682995855808258, -0.09915319085121155, 0.19804039597511292, -0.05134090036153793, -0.1698906123638153, 0.10464715212583542, -0.06724729388952255, -0.07199433445930481, 0.014153005555272102, 0.0096824262291193, 0.06914123147726059, 0.015747083351016045, 0.0396396741271019, 0.1790139526128769, -0.17654970288276672, -0.05747508630156517, -0.04160836338996887, 0.1371520608663559, 0.07104984670877457, 0.08739621937274933, 0.020307332277297974, -0.08153866231441498, -0.006764564663171768, -0.0020608091726899147, -0.051432013511657715, -0.015852034091949463, -0.20342351496219635, 0.11725610494613647, -0.09297584742307663, 0.16328668594360352, 0.06503723561763763, 0.06882606446743011, -0.053070880472660065, -0.07945714890956879, -0.00713273836299777, -0.026493892073631287, -0.05143895000219345, -0.08176863938570023, 0.09450080990791321, -0.021524576470255852, -0.1279422640800476, 0.034300949424505234, -0.01606881618499756, 0.09848347306251526, 0.16929757595062256, 0.052140798419713974, -0.083336241543293, 0.17398206889629364, -0.07647176086902618, -0.0331336110830307, 0.00578715093433857, 0.20653681457042694, 0.0364551842212677, 0.17820844054222107, 0.17930486798286438, -0.022251974791288376, 0.10611137747764587, -0.05009850859642029, -0.022532792761921883, -0.02181057445704937, -0.03642748296260834, -0.05165412649512291, -0.2894120514392853, -0.16636358201503754, 0.023798378184437752, 0.1553601622581482, -0.07201110571622849, 0.07520444691181183, -0.29433268308639526, -0.27550584077835083, -0.08114655315876007, 0.11895470321178436, 0.1702352613210678, -0.1062273159623146, 0.020131975412368774, 0.010651669465005398, 0.02929823100566864, 0.24719908833503723, 0.08442167192697525, -0.008584033697843552, 0.00865314994007349, -0.04225005954504013, -0.12680037319660187, 0.00965544581413269, 0.06652577966451645, 0.028819546103477478, 0.23403650522232056, 0.048344988375902176, -0.023827962577342987, 0.169056698679924, -0.2217719554901123, -0.04793773591518402, 0.1628423035144806, 0.1262677013874054, 0.1562451720237732, 0.09571108967065811, -0.05574829876422882, 0.15091702342033386, -0.12788605690002441, 0.5178127884864807, 0.033374909311532974, 0.26059696078300476, -0.2252262383699417, -0.03668849915266037, 0.0546463318169117, 0.20456618070602417, 0.19843289256095886, 0.13354411721229553, 0.023627979680895805, -0.005306015256792307, -0.36942851543426514, 0.25636693835258484, 0.32031455636024475, -0.4563560485839844, 0.23873019218444824, -0.6766981482505798, -0.36774584650993347, -0.08343583345413208, 0.3849416673183441, -0.9438350796699524, -0.7014289498329163, -0.8387996554374695, 0.24791114032268524, -0.8629322648048401, 0.6445512175559998, -0.8397293090820312, 0.0005205810302868485, -0.10266871005296707, -0.012031284160912037, 0.14516235888004303, 0.09018120169639587, 0.0930517315864563, -0.24509327113628387, -0.061728354543447495, -0.11590784788131714, -0.0965094268321991, 0.1990053504705429, 0.11072254925966263, 0.1289716213941574, 0.16542008519172668, -0.14823667705059052, -0.04931355640292168, 0.05549928918480873, -0.20609110593795776, -0.1840423196554184, -0.06966298073530197, -0.19453048706054688, 0.2811766564846039, -0.07850002497434616, -0.135764941573143, 0.23922602832317352, -0.0461752749979496, 0.20408667623996735, 0.19435741007328033, 0.11241400241851807, 0.11198092252016068, 0.14691179990768433, 0.4060966968536377, -0.05719133839011192, 0.036295320838689804, -0.13720206916332245, 0.03487582132220268, -0.014227465726435184, 0.1565397083759308, -0.02206837758421898, 0.07986261695623398, -0.03923783823847771, 0.033063098788261414, -0.2659538686275482, -0.13692133128643036, 0.049833353608846664, 0.12419047951698303, 0.35738950967788696, 0.011785896494984627, 0.13972033560276031, 0.08770734816789627, -0.266882061958313, 0.008124086074531078, -0.09201277047395706, 0.21069829165935516, -0.12410709261894226, -0.11504392325878143, -0.03425627946853638, 0.11386717855930328, 0.1380375176668167, 0.30821919441223145, 0.3294881284236908, -0.13054601848125458, 0.13984516263008118, 0.08962642401456833, 0.3078361451625824, 0.13571390509605408, -0.039564043283462524, -0.057382453233003616, 0.20122098922729492, -0.1954869031906128, -0.09862742573022842, 0.32663917541503906, 0.06627413630485535, -0.039711255580186844, -0.22566796839237213, 0.01793435588479042, -0.16731779277324677, -0.1309092491865158, -0.04883619025349617, -0.09071248024702072, -0.2729912996292114, -0.25687453150749207, -0.39138782024383545, -0.22211600840091705, -0.19895052909851074, -0.21553419530391693, -0.22946056723594666, -0.03597801551222801, 0.020570838823914528, 0.3693400025367737, 0.013480155728757381, -0.22017253935337067, -0.016595914959907532, 0.07153862714767456, 0.08420584350824356, 0.15587268769741058, 0.10563120990991592, 0.009878416545689106, 0.09025142341852188, -0.07359369844198227, -0.0013648854801431298, 0.3886536657810211, -0.27999234199523926, -0.20808961987495422, 0.16051918268203735, -0.041650399565696716, -0.03659895062446594, 0.02015819400548935, 0.09942866116762161, 0.09399861842393875, -0.17593596875667572, 0.2086828351020813, -0.06612329930067062, -0.02277589775621891, 0.14604628086090088, -0.07610875368118286, 0.05922960862517357, -0.2539936900138855, 0.006994760129600763, 0.05314022675156593, -0.08337986469268799, 0.04786400496959686, -0.23973487317562103, 0.007835360243916512, -0.2947867512702942, 0.014400074258446693, -0.0808662474155426, 0.05857047066092491, -0.07277939468622208, 0.21811482310295105, -0.24675314128398895, -0.005753783043473959, -0.25085097551345825, 0.050962481647729874, -0.022259937599301338, -0.15886197984218597, 0.13444995880126953, 0.13183796405792236, 0.2481265813112259, -0.13904792070388794, 0.015390447340905666, 0.18432816863059998, -0.03588736057281494, 0.30996173620224, -0.136333629488945, -0.07490861415863037, 0.04473042115569115, 0.09427164494991302, 0.1379060298204422, -0.23118576407432556, 0.16158965229988098, 0.027071956545114517, -0.12865866720676422, -0.07470294088125229, 0.0015284951077774167, 0.2548430263996124, 0.0696667730808258, -0.06649919599294662, 0.15435504913330078, -0.1174330785870552, -0.11302454769611359, -0.16054150462150574, -0.26039552688598633, -0.0010608184384182096, 0.048701949417591095, 0.12799839675426483, 0.02154276706278324, 0.0262282844632864, 0.19919709861278534, 0.2161998152732849, -0.03795650601387024, 0.27389082312583923, 0.12633788585662842, 0.05751340091228485, -0.07997377216815948, 0.0690239667892456, 0.10032813996076584, 0.07512237876653671, -0.20873259007930756, -0.16718466579914093, -0.26796090602874756, -0.19028133153915405, 0.12622271478176117, 0.3603364825248718, -0.35118651390075684, 0.13735347986221313, 0.1769227832555771, -0.34671905636787415, -0.07256557047367096, -0.08055692911148071, 0.2228003442287445, -0.20282694697380066, 0.030610447749495506, -0.011620338074862957, -0.18926002085208893, 0.270593523979187, -0.12121876329183578, 0.09311354160308838, -0.3404324948787689, -0.046884529292583466, 0.053738098591566086, -0.0801548883318901, -0.1384682059288025, -0.5462680459022522, 0.3296121060848236, -0.01181010901927948, -0.27305740118026733, 0.045583102852106094, 0.2089749127626419, 0.3043622076511383, -0.19900204241275787, 0.3871498703956604, -0.07930494844913483, 0.08386355638504028, 0.023748384788632393, -0.19777937233448029, 0.24462498724460602, 0.23119471967220306, 0.017617356032133102, -0.09084225445985794, 0.22681939601898193, 0.054391637444496155, 0.044622987508773804, 0.009430482052266598, 0.19834493100643158, 0.3657848536968231, 0.12554818391799927, 0.09475433081388474, -0.13784083724021912, -0.34827178716659546, 0.3417784571647644, 0.47747036814689636, -0.33009999990463257, 0.1955600529909134, -0.2645217776298523, -0.17938955128192902, -0.07710263133049011, -0.011624406091868877, 0.6412052512168884, -0.0207771435379982, -0.1583852618932724, -0.4541495442390442, -0.06210875138640404, -0.2368653267621994, -0.1913999319076538, 0.15027575194835663, -0.1802148073911667, 0.11442065984010696, 0.13631168007850647, -0.23939231038093567, 0.20407061278820038, 0.3711414039134979, -0.23489579558372498, 0.24776044487953186, -0.13626478612422943, -0.42885175347328186, -0.005895551294088364, -0.1854310780763626, 0.08112983405590057, -0.2874482274055481, -0.06683973968029022, 0.16485896706581116, 0.1965249925851822, 0.29265064001083374, -0.07121046632528305, 0.15635788440704346, -0.11107975244522095, -0.02323857508599758, 0.09746919572353363, -0.42196735739707947, 0.00999806821346283, -0.1521315723657608, 0.04492904990911484, -0.05436369404196739, -0.11499111354351044, -0.013685214333236217, -0.032355520874261856, 0.03104790858924389, 0.0321912057697773, 0.026455191895365715, -0.004296208266168833, 0.03485120087862015, -0.08281790465116501, -0.09345290064811707, 0.12039211392402649, -0.01842723786830902, -0.05092752352356911, 0.6460135579109192, 0.07850024849176407, -0.23330172896385193, -0.052686907351017, 0.014256065711379051, 0.08859122544527054, 0.06235389783978462, 0.14072434604167938, -0.038847822695970535, -0.039274755865335464, 0.18451252579689026, 0.09272542595863342, 0.07781554758548737, 0.00948141049593687, -0.08560986071825027, -0.0897698625922203, 0.08001961559057236, -0.0460236594080925, -0.040741216391325, -0.13612157106399536, -0.2114507257938385, -0.0006064631161279976, -0.04510747268795967, 0.0507681705057621, -0.12839652597904205, 0.13897804915905, -0.037399571388959885, 0.29623672366142273, 0.10120482742786407, -0.5012600421905518, 0.18008354306221008, -0.23680074512958527, -0.042339988052845, 0.16091285645961761, 0.13300557434558868, 0.2574915587902069, -0.13176533579826355, 0.09198207408189774, -0.3391055166721344, 0.3079890012741089, 0.29910367727279663, 0.16044558584690094, -0.10421331971883774, -0.1020452007651329, -0.2949405610561371, -0.029062559828162193, -0.21022194623947144, -0.07812949270009995, -0.46467894315719604, -0.45520657300949097, -0.2770112454891205, 0.29234179854393005, 0.08735553175210953, 0.16144734621047974, -0.07696715742349625, -0.12585125863552094, 0.06448972970247269, 0.0390750877559185, 0.012889441102743149, -0.40041807293891907, -0.00608145771548152, -0.04401123523712158, 0.164454847574234, 0.22871369123458862, 0.20286132395267487, -0.043554436415433884, -0.10979819297790527, 0.057095665484666824, -0.12225568294525146, 0.03320099040865898, 0.11578647047281265, -0.27259549498558044, -0.0153643898665905, 0.03825731948018074, -0.3499605655670166, -0.009099208749830723, 0.20808441936969757, -0.2123081535100937, 0.11053390800952911, 0.15292899310588837, 0.5829747915267944, 0.14210189878940582, -0.0831151232123375, -0.05951596423983574, 0.19050239026546478, 0.06144283339381218, -0.04389721527695656, 0.10760756582021713, -0.06502098590135574, -0.01335942279547453, -0.08062822371721268, 0.10556071996688843, 0.14960408210754395, -0.014975645579397678, -0.030874526128172874, 0.12503622472286224, 0.011267323046922684, 0.25961294770240784, 0.373153418302536, 0.013895262964069843, 0.09120521694421768, -0.07761973142623901, -0.13952472805976868, 0.07251393795013428, -0.001130240736529231, 0.02178557589650154, -0.05846575275063515, -0.02755248174071312, 0.04349680244922638, 0.13949432969093323, -0.015227563679218292, -0.15721674263477325, 0.00577773479744792, -0.09558619558811188, -0.1590329110622406, -0.23058433830738068, 0.27745622396469116, 0.1377541720867157, -0.04024623706936836, -0.017705662176012993, -0.026713838800787926, -0.04918351024389267, 0.007041748613119125, -0.15968988835811615, -0.32570070028305054, -0.03966847062110901, -0.0630389004945755, -0.015983253717422485, 0.2653931677341461, -0.1484449952840805, -0.17223936319351196, 0.05759430304169655, -0.06733202934265137, 0.125894695520401, 0.14908002316951752, -0.0399622917175293, 0.013931919820606709, -0.1785234808921814, 0.21281924843788147, 0.20140773057937622, 0.14412423968315125, 0.12804438173770905, 0.0668216273188591, 0.0007858221651986241, -0.13681663572788239, 0.22642429172992706, 0.39374810457229614, -0.000705126381944865, -0.13068807125091553, -0.218352273106575, -0.13419859111309052, -0.12676040828227997, -0.12399207800626755, -0.04186218976974487, 0.0035407019313424826, 0.07972502708435059, -0.01774747110903263, -0.02468261495232582, -0.16343657672405243, -0.0005096952663734555, 0.005429838318377733, 0.008387531153857708, 0.02158794179558754, 0.04097820818424225, 0.13839782774448395, 0.01198628544807434, -0.10910477489233017, -0.05246954411268234, 0.23052527010440826, 0.023930881172418594, 0.21201789379119873, -0.1596880555152893, 0.07620440423488617, 0.6684862971305847, -0.16443337500095367, 0.04507303982973099, 0.040071360766887665, 0.0004347124486230314, -0.17712152004241943, 0.07294256240129471, -0.19350643455982208, -0.014144452288746834, 0.20653590559959412, -0.003103056689724326, 0.05036846175789833, 0.007858139462769032, -0.08893377333879471, 0.08549541234970093, 0.14471395313739777, -0.07120967656373978, 0.06689814478158951, -0.12233240157365799, 0.3286999762058258, 0.10930473357439041, -0.2887420654296875, -0.1682051718235016, -0.11889288574457169, 0.1993294060230255, 0.0045368000864982605, -0.04761222377419472, -0.2328665554523468, 0.01985918916761875, -0.13234145939350128, 0.2754388451576233, 0.0723864734172821, 0.11206607520580292, -0.1438276320695877, -0.07140886038541794, -0.048895157873630524, 0.2248118370771408, 0.2002355307340622, 0.08964702486991882, -0.10436082631349564, -0.15352700650691986, 0.00867621973156929, 0.05710016191005707, -0.07613823562860489, -0.09586523473262787, 0.2662826478481293, 0.1045026034116745, 0.07541446387767792, -0.21890215575695038, 0.15361471474170685, -0.04199371486902237, 0.00347057543694973, -0.019383786246180534, -0.14189286530017853, -0.15087762475013733, -0.24158191680908203, -0.124725341796875, 0.43294021487236023, -0.21801835298538208, -0.18663088977336884, 0.0662909746170044, -0.2774598300457001, -0.08689893037080765, 0.5030601620674133, 0.11497893184423447, 0.010967574082314968, -0.053865496069192886, 0.18455839157104492, -0.3150342106819153, -0.1054539605975151, -0.2918214797973633, 0.0022083851508796215, 0.15576837956905365, 0.14443539083003998, -0.03157585859298706, -0.1437067687511444, -0.1832936406135559, -0.07808726280927658, 0.20640264451503754, 0.23701751232147217, 0.08205679804086685, -0.3773193955421448, -0.17028389871120453, -0.06790096312761307, 0.24775345623493195, 0.028835376724600792, 0.07418253272771835, -0.06608981639146805, -0.11878969520330429, -0.14160096645355225, 0.2754786014556885, -0.2562549412250519, 0.005934633314609528, 0.4522569179534912, 0.0615709125995636, 0.5214458703994751, -0.29368335008621216, 0.4308376908302307, 0.0669056698679924, -0.38547974824905396, -0.1866111010313034, -0.17884619534015656, -0.06303735822439194, 0.07896971702575684, -0.16769102215766907, 0.002374541014432907, 0.09124342352151871, -0.1538289189338684, -0.11231739073991776, -0.06763642281293869, 0.0027879858389496803, 0.026230817660689354, 0.03090779483318329, 0.006762541364878416, 0.041947051882743835, 0.01965099200606346, 0.10649815201759338, 0.1796908676624298, 0.01728810742497444, -0.030316639691591263, -0.04556125029921532, 0.19744658470153809, 0.31448525190353394, -0.04133456200361252, -0.1493338644504547, -0.18748366832733154, 0.1938229501247406, -0.012398756109178066, 0.327487587928772, -0.089440256357193, -0.18449169397354126, -0.03333188220858574, -0.074554443359375, -0.2965175211429596, -0.3907930850982666, -0.030596667900681496, -0.07219197601079941, -0.24267876148223877, 0.16441956162452698, -0.05533091351389885, -0.1736975908279419, 0.023163316771388054, 0.2097933143377304, -0.6258311867713928, -0.10694504529237747, 0.1050192192196846, -0.05378312990069389, -0.09929167479276657, 0.09952081739902496, 0.04825654253363609, -0.13881053030490875, 0.09351065009832382, -0.24636143445968628, 0.036642007529735565, 0.013924037106335163, 0.134794682264328, -0.05295543745160103, 0.03189963474869728, -0.2274084985256195, 0.1084035262465477, -0.141248419880867, 0.14873363077640533, -0.011427154764533043, -0.1445666253566742, -0.17446312308311462, 0.09187973290681839, -0.07153047621250153, -0.1913325935602188, 0.023694157600402832, -0.16664130985736847, 0.2894347906112671, -0.06844069063663483, 0.035599417984485626, -0.16915495693683624, -0.16866840422153473, -0.15499894320964813, 0.229619562625885, -0.11175922304391861, 0.21825796365737915, -0.23287951946258545, -0.025361448526382446, 0.010569713078439236, 0.14173927903175354, -0.11372267454862595, 0.14123038947582245, -0.06803207099437714, 0.07440271228551865, 0.06334397196769714, -0.148702472448349, 0.018815871328115463, -0.07082962244749069, 0.5700449347496033, -0.3600904941558838, -0.1441413164138794, -0.16440390050411224, 0.22106941044330597, 0.038743481040000916, 0.029304450377821922, 0.09184815734624863, 0.062002863734960556, 0.10189694166183472, -0.2049270123243332, 0.04680270701646805, 0.1695973426103592, -0.14523538947105408, 0.0450252890586853, 0.2179495394229889, -0.06961370259523392, -0.18564961850643158, -0.08376720547676086, 0.03667844459414482, -0.3976442813873291, -0.209956556558609, 0.1781020313501358, 0.15440481901168823, 0.05469372496008873, -0.06033134460449219, -0.00483263423666358, -0.2604254484176636, 0.16699965298175812, 0.07211454212665558, -0.024815641343593597, -0.24834978580474854, -0.04988374188542366, -0.0906449407339096, 0.3857555389404297, 0.12449271976947784, 0.1556205153465271, -0.25903671979904175, 0.23375765979290009, 0.22088061273097992, 0.04545259848237038, -0.1591644436120987, 0.21132685244083405, -0.2651827037334442, 0.019211912527680397, 0.02424146980047226, -0.23062506318092346, -0.20404961705207825, -0.2564668357372284, -0.3784680962562561, 0.047500286251306534, 0.11009036004543304, 0.13957799971103668, -0.25853070616722107, -0.12337235361337662, -0.1538110226392746, -0.06898020207881927, 0.10893959552049637, 0.27713432908058167, -0.12653543055057526, -0.053589846938848495, 0.20072436332702637, -0.22241997718811035, -0.01822035014629364, 0.10113578289747238, 0.08971642702817917, 0.0609118714928627, -0.028815871104598045, 0.06264584511518478, -0.21553261578083038, -0.340597927570343, -0.2569023668766022, -0.014510920271277428, -0.04767309129238129, 0.21578247845172882, -0.10664629936218262, -0.23852087557315826, -0.1544654667377472, -0.1466037631034851, 0.28884896636009216, 0.24376606941223145, -0.08731049299240112, -0.18052245676517487, -0.0430477038025856, 0.07116793096065521, 0.17613476514816284, 0.05382802337408066, 0.031419310718774796, -0.180381640791893, -0.2167188972234726, -0.057932525873184204, 0.07231071591377258, -0.16262272000312805, -0.09453420341014862, 0.23326870799064636, -0.12389932572841644, 0.05914512276649475, -0.4168366491794586, 0.23117081820964813, 0.13325968384742737, -0.22603578865528107, -0.09343349933624268, -0.04952361062169075, -0.02727844938635826, -0.09971673041582108, -0.02542581409215927, 0.1887432038784027, -0.007475134916603565, 0.07712335139513016, 0.21385212242603302, -0.12348568439483643, -0.03998696058988571, -0.027075566351413727, 0.17000682651996613, -0.1634760946035385, 0.007132160943001509, 0.3903523087501526, -0.13269977271556854, 0.07054388523101807, 0.08332482725381851, 0.15886253118515015, -0.0717167928814888, 0.3898976743221283, 0.26069191098213196, 0.18066217005252838, -0.15369080007076263, 0.044472262263298035, 0.007904138416051865, 0.12212922424077988, 0.015279046259820461, -0.0248461551964283, -0.06003144755959511, -0.06264413893222809, 0.051627807319164276, 0.05117329582571983, 0.08866103738546371, 0.12661312520503998, -0.01940222457051277, 0.045783888548612595, 0.15240010619163513, -0.08784914761781693, -0.2525002956390381, -0.02095850557088852, -0.0748012363910675, 0.24886517226696014, -0.23889179527759552, -0.0069964113645255566, -0.1547168493270874, -0.372828871011734, -0.12766872346401215, -0.19783778488636017, 0.0061876834370195866, -0.01022009551525116, -0.07463838160037994, 0.1665099710226059, -0.08926396816968918, -0.11644919216632843, 0.08674492686986923, -0.107103630900383, 0.05820785090327263, 0.16859793663024902, 0.1385640949010849, 0.03504873067140579, 0.02758757770061493, 0.23177501559257507, -0.29972654581069946, -0.2861729860305786, -0.11722321808338165, 0.037921302020549774, 0.11625681072473526, 0.14159487187862396, 0.02280566282570362, -0.11207213252782822, -0.2643038332462311, -0.014159816317260265, -0.009686659090220928, 0.03210869058966637, 0.039200618863105774, -0.16925877332687378, -0.18900072574615479, -0.13623948395252228, -0.019233020022511482, 0.010164590552449226, -0.24600911140441895, -0.07101243734359741, -0.22059641778469086, -0.10945182293653488, 0.03669668734073639, -0.23048850893974304, -0.1308748722076416, 0.22817184031009674, -0.24987947940826416, -0.4741567373275757, -0.03320958465337753, 0.20806680619716644, -0.10181302577257156, -0.23482449352741241, -0.16463279724121094, -0.17731896042823792, 0.07308243215084076, 0.2058763951063156, 0.11596304178237915, -0.03854471445083618, -0.19336006045341492, -0.2955997884273529, -0.08654803037643433, 0.18143849074840546, 0.20248830318450928, 0.18100032210350037, 0.22657062113285065, 0.2602570652961731, 0.19481436908245087, -0.14098475873470306, 0.027055397629737854, 0.12394868582487106, -0.2573034167289734, 0.0006661387160420418, -0.2240135818719864, -0.11421358585357666, -0.31819432973861694, -0.2679876983165741, -0.014113322831690311, -0.20843949913978577, -0.031119143590331078, -0.08691000938415527, 0.03938824683427811, 0.028558138757944107, 0.04715218394994736, 0.05614989995956421, -0.03204386308789253, -0.01564871333539486, -0.023806486278772354, 0.14049357175827026, -0.16462090611457825, 0.01054153311997652, -0.1230994239449501, 0.13895849883556366, 0.1149933710694313, 0.09576449543237686, -0.06141708791255951, 0.06948915868997574, 0.07118178904056549, 0.19965364038944244, 0.09192059934139252, 0.1152886152267456, 0.01808716543018818, -0.044670626521110535, -0.07915458083152771, 0.1971287578344345, -0.11350268870592117, -0.17758382856845856, 0.17092324793338776, 0.025387713685631752, -0.1481150984764099, -0.03332606703042984, -0.07737280428409576, 0.018966032192111015, -0.11142977327108383, 0.1080600768327713, 0.1966114342212677, -0.7084915637969971, 0.09542996436357498, -0.3764248490333557, 0.07252909243106842, -0.052722297608852386, -0.08244235068559647, -0.12554121017456055, -0.03398032858967781, -0.08984553813934326, 0.12232125550508499, 0.034308746457099915, -0.1179443746805191, -0.15896187722682953, -0.08856766670942307, 0.18056628108024597, 0.07075566053390503, -0.04894714057445526, -0.25353655219078064, -0.1599656641483307, 0.2657751142978668, 0.12141340225934982, 0.12588578462600708, 0.07820398360490799, -0.1250712275505066, 0.25462034344673157, 0.12062487751245499, -0.1798856109380722, 0.05876190587878227, 0.14267374575138092, 0.3664249777793884, -0.3372194766998291, -0.029020491987466812, 0.1610269397497177, 0.08427077531814575, 0.1706862449645996, 0.112043596804142, -0.10424846410751343, 0.025559531524777412, -0.1892302930355072, -0.005985849071294069, 0.03278227895498276, -0.02951846458017826, -0.38571202754974365, -0.16327708959579468, -0.26803404092788696, -0.03343715891242027, -0.12252600491046906, -0.11395029723644257, -0.010753372684121132, -0.06340273469686508, 0.10683030635118484, -0.08247428387403488, 0.10507861524820328, -0.13539165258407593, 0.14134173095226288, 0.0624329037964344, 0.21395529806613922, -0.06066000461578369, -0.06571537256240845, -0.11219693720340729, 0.15169236063957214, -0.1273677796125412, 0.19159160554409027, -0.16450642049312592, 0.014940624125301838, -0.11768312752246857, -0.100517638027668, 0.16524669528007507, -0.3015776574611664, -0.04882965236902237, 0.04614973068237305, -0.10812956839799881, -0.34646883606910706, -0.19648393988609314, -0.3271206021308899, 0.24815231561660767, -0.18181076645851135, -0.2919897437095642, 0.12105538696050644, -0.07006116211414337, 0.13573282957077026, -0.14886385202407837, -0.05573995038866997, 0.06858225166797638, -0.1353326439857483, -0.06400660425424576, 0.25919756293296814, -0.1590510606765747, 0.03538399934768677, 0.19636161625385284, -0.22032508254051208, -0.013360963203012943, 0.23398184776306152, 0.042219508439302444, 0.16573049128055573, -0.04343419522047043, 0.20804397761821747, -0.09731075912714005, -0.21605655550956726, 0.01423670630902052, -0.061027515679597855, 0.16850663721561432, 0.13257955014705658, 0.14292655885219574, -0.013110504485666752, -0.021848026663064957, -0.0553935281932354, 0.17133067548274994, -0.04252259060740471, 0.02251063659787178, -0.20367854833602905, -0.06324660032987595, -0.13686712086200714, 0.22448579967021942, 0.14437037706375122, 0.1042201891541481, 0.11110417544841766, -0.24055853486061096, 0.08161850273609161, -0.006368996575474739, -0.09635041654109955, 0.08169590681791306, 0.12767469882965088, 0.30531346797943115, 0.3963266611099243, -0.21544621884822845, -0.04347846284508705, -0.09592705219984055, -0.002649212023243308, 0.17721351981163025, 0.13101215660572052, -0.05569877475500107, -0.32239624857902527, 0.10803559422492981, -0.012347714975476265, -0.013834334909915924, -0.14125798642635345, 0.1408129334449768, 0.06619220227003098, 0.1852329820394516, -0.007078717928379774, -0.32024937868118286, -0.016500262543559074, 0.08942387253046036, 0.06853312999010086, 0.07686922699213028, -0.6734752058982849, 1.0435945987701416, -0.019557621330022812, -0.6996912360191345, -0.04586009681224823, -0.0372941680252552, -0.47093087434768677, 0.8016103506088257, -1.1109715700149536, 1.0916568040847778, 0.7003674507141113, -0.35630613565444946, -0.6077314615249634, 0.34607234597206116, -0.8966049551963806, 0.1537032127380371, -0.19482439756393433, -0.06483159214258194, -0.24937067925930023, 0.14738290011882782, 0.4087309241294861, 0.14472734928131104, 0.015753090381622314, 0.053325191140174866, 0.25303998589515686, 0.05612247437238693, 0.11953067034482956, -0.3277258574962616, 0.24097657203674316, -0.09077168256044388, -0.04308800771832466, 0.1357465535402298, 0.16881932318210602, -0.11238240450620651, 0.281831830739975, 0.16428562998771667, -0.05251677334308624, -0.12453701347112656, -0.23949718475341797, -0.16943064332008362, 0.0210260059684515, 0.037030186504125595, -0.22590839862823486, 0.33397847414016724, 0.040436338633298874, -0.13506266474723816, -0.007505700923502445, 0.16427519917488098, -0.2518159747123718, -0.02902296930551529, -0.37476417422294617, 0.1439143568277359, 0.11455412209033966, -0.031004387885332108, -0.15007930994033813, -0.0870237946510315, 0.1746443808078766, -0.0461280457675457, 0.2388664335012436, 0.023713571950793266, -0.28424525260925293, 0.10190488398075104, 0.018978334963321686, 0.09853898733854294, 0.21204185485839844, -0.04038119688630104, -0.015018358826637268, -0.08051630854606628, 0.1903506964445114, -0.11683250963687897, 0.0025322262663394213, 0.30341750383377075, -0.0035884820390492678, 0.23725640773773193, 0.36219853162765503, 0.3014565408229828, -0.004229337442666292, 0.1835954785346985, -0.16131073236465454, 0.017650237306952477, -0.11076643317937851, 0.08337230980396271, -0.10884595662355423, 0.11085221916437149, -0.2510378658771515, 0.13010910153388977, 0.17345786094665527, 0.15161839127540588, -0.12931981682777405, -0.15376104414463043, 0.08646675199270248, -0.24167625606060028, -0.1411474049091339, 0.13630467653274536, -0.04158581420779228, 0.13335098326206207, -0.3398353159427643, 0.2770107388496399, -0.1265014410018921, -0.24107976257801056, 0.08515891432762146, 0.3371475636959076, 0.0975940078496933, -0.2910688519477844, -0.2578195631504059, -0.11958320438861847, 0.20864251255989075, -0.17471496760845184, 0.23020045459270477, 0.18814978003501892, -0.06037328764796257, -0.013869155198335648, 0.21203555166721344, -0.20538301765918732, 0.07396809011697769, 0.20885030925273895, 0.022198626771569252, 0.059365205466747284, -0.1939442753791809, -0.2448868453502655, 0.20509064197540283, 0.17758354544639587, -0.08952567726373672, 0.10058213025331497, 0.11671879142522812, 0.15966473519802094, 0.1481163054704666, 0.27422642707824707, 0.12720166146755219, -0.11864200234413147, -0.09686766564846039, 0.12399856001138687, -0.4740046262741089, 0.013379587791860104, -0.03644062206149101, 0.06241631507873535, -0.166376531124115, -0.093296580016613, 0.08757320791482925, -0.12390005588531494, 0.2934562563896179, 0.05133241415023804, -0.12030806392431259, -0.39238739013671875, 0.405618280172348, -0.0068380264565348625, 0.12797605991363525, -0.23640528321266174, -0.024500951170921326, -0.11372091621160507, 0.32565775513648987, -0.10113444179296494, 0.024399947375059128, -0.08575701713562012, 0.17947153747081757, -0.05370274558663368, 0.08760231733322144, 0.03766777366399765, -0.19787226617336273, 0.41362544894218445, -0.23277491331100464, -0.018684640526771545, 0.13256613910198212, 0.21120469272136688, 0.12154392153024673, -0.17233699560165405, -0.2671067416667938, -0.12925688922405243, 0.012902375310659409, 0.09588126093149185, -0.09241616725921631, -0.16774334013462067, -0.15520134568214417, 0.22025278210639954, -0.09472827613353729, 0.22199809551239014, -0.11053641885519028, 0.08113052695989609, -0.21280162036418915, 0.19808368384838104, -0.011062610894441605, 0.05270985886454582, 0.03608563542366028, 0.19579364359378815, 0.04448956996202469, -0.15547345578670502, -0.0354597382247448, 0.16457286477088928, -0.20540881156921387, 0.027471106499433517, 0.1560497134923935, 0.09867542237043381, -0.10809372365474701, -0.10961297899484634, -0.06852518022060394, -0.047977130860090256, 0.38076239824295044, 0.3510880768299103, 0.11032925546169281, -0.1799367219209671, -0.09556777030229568, -0.09858082234859467, 0.41094186902046204, -0.43849658966064453, -0.0002913391508627683, -0.05760641768574715, 0.09731853753328323, -0.17529073357582092, -0.18981142342090607, -0.34431716799736023, 0.1891048550605774, 0.0838550329208374, 0.13200125098228455, -0.010959526523947716, 0.012110489420592785, 0.1902010440826416, 0.16928091645240784, -0.15274794399738312, 0.22252120077610016, -0.05380399525165558, 0.23524324595928192, -0.17574328184127808, -0.1229691281914711, -0.49755725264549255, 0.33658772706985474, -0.011803440749645233, 0.0674266442656517, -0.12400978803634644, -0.2686980068683624, 0.11319221556186676, -0.14582312107086182, 0.12295910716056824, -0.09160459786653519, 0.09343220293521881, -0.3407522439956665, 0.19101718068122864, 0.14890745282173157, -0.022798404097557068, -0.018308129161596298, 0.34008508920669556, 0.012636837549507618, -0.047298260033130646, -0.1765407770872116, 0.001988441916182637, -0.004774522967636585, 0.1379213184118271, -0.3788217008113861, 0.16186872124671936, 0.363429993391037, -0.04684365913271904, 0.20411081612110138, -0.20400740206241608, -0.08050785213708878, 0.09706121683120728, -0.09835890680551529, 0.13810622692108154, -0.289601594209671, -0.20178289711475372, -0.3388470411300659, -0.18920353055000305, 0.16817913949489594, -0.03153637424111366, -0.01734677329659462, -0.06407808512449265, 0.20940211415290833, 0.29552194476127625, 0.2843914031982422, -0.14690198004245758, -0.02051622048020363, 0.034436870366334915, -0.18646052479743958, 0.22741201519966125, -0.18621313571929932, 0.3075484037399292, -0.07294782996177673, -0.09370974451303482, 0.3691263496875763, 0.21550802886486053, 0.14219757914543152, -0.3940029442310333, 0.0027295993641018867, 0.0033281261567026377, 0.3230098485946655, 0.24101822078227997, -0.0542459711432457, 0.19506925344467163, -0.01788073033094406, -0.028733888640999794, -0.17904458940029144, -0.09671396762132645, -0.1176103949546814, -0.033042557537555695, 0.06727617233991623, -0.25865063071250916, -0.23547321557998657, -0.15650418400764465, 0.20044390857219696, 0.28579697012901306, 0.04382121562957764, 0.05395672842860222, -0.04372910037636757, 0.05040318891406059, -0.1736375391483307, -0.16723032295703888, 0.13069626688957214, 0.022215653210878372, -0.2404678612947464, -0.38550904393196106, -0.2448839396238327, -0.06365247815847397, -0.08144360780715942, 0.15077783167362213, -0.053115736693143845, -0.18893665075302124, -0.19784779846668243, -0.08369466662406921, 0.05698522925376892, -0.14065806567668915, -0.15597273409366608, -0.0632779598236084, -0.04689479619264603, -0.14547127485275269, 0.09633409231901169, -0.11509129405021667, -0.03894144296646118, -0.1150415688753128, 0.15654586255550385, -0.02196599543094635, -0.38375067710876465, -0.14521647989749908, -0.22799193859100342, 0.03401592746376991, 0.11092905700206757, 0.1640383005142212, 0.1195925772190094, 0.1089298203587532, 0.3826601505279541, -0.02326015941798687, 0.0006582698551937938, 0.024061229079961777, -0.16123662889003754, -0.004480183124542236, 0.1636093556880951, -0.01694408431649208, -0.4844219982624054, 0.11720167845487595, -0.19463403522968292, 0.05504009127616882, -0.08355628699064255, 0.08370663970708847, 0.06846064329147339, -0.3312128186225891, 0.06367063522338867, -0.15371662378311157, 0.25768789649009705, 0.05853819102048874, 0.15599577128887177, -0.1454893797636032, 0.027114324271678925, -0.08255262672901154, 0.17906667292118073, -0.08163677901029587, 0.06821591407060623, 0.09036387503147125, 0.1127251386642456, -0.16391310095787048, 0.29621458053588867, -0.019676614552736282, -0.17666953802108765, 0.1560739427804947, -0.2810716927051544, -0.12475525587797165, 0.1623985469341278, 0.1131710484623909, -0.23347054421901703, 0.11730232834815979, -0.1648351550102234, 0.13035035133361816, 0.2902021110057831, -0.22440320253372192, -0.05851311609148979, 0.03012368269264698, -0.15749166905879974, -0.10986059159040451, -0.16700051724910736, -0.10158466547727585, 0.20332087576389313, 0.016509028151631355, -0.30068036913871765, -0.3063671290874481, -0.0168951116502285, -0.11969061195850372, 0.03848933055996895, 0.17018434405326843, -0.5310505628585815, 0.00420871889218688, -0.03429415822029114, 0.14713378250598907, -0.25331640243530273, -0.19142109155654907, 0.14519308507442474, 0.07344083487987518, 0.04768607020378113, -0.31723296642303467, -0.15936852991580963, -0.03546613082289696, 0.23005889356136322, 0.11230853199958801, 0.08583685010671616, -0.14266479015350342, -0.09079696983098984, -0.051615700125694275, 0.2340916395187378, 0.06412864476442337, 0.08635769039392471, -0.2637157440185547, -0.19833101332187653, -0.23839229345321655, -0.020021721720695496, 0.028241200372576714, 0.04077068716287613, -0.162615567445755, 0.04890700802206993, -0.0002717400493565947, -0.22869044542312622, -0.10878190398216248, -0.18350949883460999, 0.11088887602090836, -0.23895025253295898, 0.020708905532956123, 0.07166116684675217, -0.020918257534503937, 0.21941496431827545, -0.035846415907144547, 0.012625979259610176, 0.06775689125061035, -0.10415279120206833, 0.12310385704040527, 0.19477388262748718, -0.01128825731575489, 0.04463532567024231, 0.24149726331233978, -0.1719176173210144, 0.03422410786151886, 0.08821643143892288, -0.01127937063574791, -0.16582264006137848, -0.1868792027235031, 0.2811359763145447, 0.17070719599723816, 0.07479127496480942, 1.1322290447424166e-05, 0.004816926084458828, -0.041209712624549866, 0.23809127509593964, 0.13580375909805298, -0.09205140918493271, -0.2793096601963043, -0.2500321567058563, 0.017614444717764854, 0.17231109738349915, 0.051043711602687836, 0.25323915481567383, -0.08732921630144119, -0.18466521799564362, 0.23138217628002167, 0.259412556886673, -0.016064248979091644, 0.19051720201969147, -0.20145325362682343, 0.1511038988828659, 0.07250217348337173, -0.24926631152629852, -0.12338077276945114, 0.19915221631526947, 0.14638099074363708, -0.1889287829399109, 0.08524000644683838, 0.11436613649129868, 0.02677122689783573, 0.039033450186252594, 0.009123431518673897, 0.2347283661365509, 0.07071152329444885, -0.04296404495835304, -0.02193649485707283, 0.2482697069644928, 0.0827987864613533, 0.14161109924316406, 0.02582591027021408, 0.23601286113262177, 0.12750186026096344, -0.06820295751094818, -0.09677933156490326, -0.2070045918226242, 0.02566070482134819, 0.2121550440788269, -0.0051406617276370525, -0.0129750557243824, 0.05917598307132721, -0.03405127301812172, -0.08569835126399994, -0.1909056156873703, 0.019044363871216774, 0.15006519854068756, -0.19343604147434235, -0.25682532787323, -0.0036377664655447006, 0.19392332434654236, 0.034648995846509933, 0.1932942420244217, 0.03262916952371597, -0.21101820468902588, -0.04449371621012688, 0.09052125364542007, -0.07858753204345703, 0.026815446093678474, -0.14808790385723114, 0.03441538289189339, -0.10689292848110199, -0.19572393596172333, -0.04415193200111389, 0.10493949055671692, 0.3148689866065979, -0.07928361743688583, -0.09715286642313004, 0.18851543962955475, -0.0055398158729076385, -0.0337003692984581, 0.07867292314767838, 0.15754173696041107, -0.009764584712684155, -0.2852483093738556, 0.12838676571846008, 0.19428887963294983, 0.2802797555923462, -0.23701244592666626, -0.10292021185159683, -0.09337896853685379, -0.007479620631784201, -0.0750298798084259, -0.06811588257551193, -0.20755895972251892, -0.25345945358276367, 0.20017187297344208, 0.10849699378013611, 0.0963997021317482, 0.040013764053583145, -0.04686763137578964, 0.09012458473443985, -0.002991671673953533, 0.006606484763324261, -0.0032917812932282686, -0.18107792735099792, -0.2807524800300598, 0.14157362282276154, 0.11371079087257385, 0.1504698246717453, -0.036805614829063416, -0.07259262353181839, -0.028371170163154602, -0.2660171687602997, 0.29277634620666504, 0.1565382331609726, -0.10899747908115387, -0.29757416248321533, 0.15810614824295044, 0.04179656133055687, -0.22350730001926422, -0.2036655992269516, 0.043813418596982956, 0.26549232006073, -0.2293405532836914, 0.04059865325689316, 0.28466418385505676, -0.09115038812160492, -0.05306892469525337, -0.18546387553215027, 0.052306436002254486, 0.11117187142372131, 0.21614012122154236, -0.17039020359516144, 0.03653997182846069, 0.043568000197410583, 0.23930878937244415, 0.1325208991765976, 0.11832871288061142, -0.007222413085401058, 0.10551441460847855, 0.08817851543426514, -0.2071302831172943, 0.09287651628255844, 0.0027156255673617125, -0.11797148734331131, -0.14597979187965393, -0.11297781765460968, 0.04905476048588753, -0.14564043283462524, -0.16135627031326294, -0.15148498117923737, 0.05575849860906601, 0.01447067316621542, 0.1894385665655136, 0.03589077666401863, 0.040582697838544846, 0.08301632106304169, 0.01232190802693367, -0.04655618965625763, -0.30050939321517944, -0.13931365311145782, -0.15117043256759644, 0.03325280919671059, -0.1994650810956955, -0.008983427658677101, -0.1174500435590744, -0.026887955144047737, -0.1343713104724884, -0.28555750846862793, -0.25377216935157776, 0.013360836543142796, 0.1352406144142151, 0.13345223665237427, -0.08543620258569717, 0.03796045854687691, -0.06216574087738991, -0.2721211612224579, 0.0595439150929451, -0.07749757170677185, -0.029399001970887184, -0.17931750416755676, 0.12111394107341766, -0.14785823225975037, 0.23589646816253662, 0.2916744351387024, -0.37589505314826965, -0.2060345858335495, 0.06351058185100555, 0.2563168704509735, -0.1683894842863083, -0.24498462677001953, 0.09645528346300125, 0.15328466892242432, -0.09504017233848572, -0.39576706290245056, -0.1355348527431488, -0.05854121595621109, -0.0032022122759371996, 0.22587580978870392, 0.06259302794933319, -0.24009735882282257, -0.21281950175762177, -0.15378892421722412, 0.25462526082992554, 0.038955286145210266, 0.0191363412886858, -0.3588630259037018, -0.14636169373989105, -0.1596476286649704, 0.22316604852676392, 0.066424660384655, 0.025070713832974434, -0.08152251690626144, 0.23798227310180664, -0.09574279189109802, -0.24143323302268982, -0.13888947665691376, -0.06250663846731186, 0.18982568383216858, 0.034890782088041306, 0.03436748683452606, 0.08854527026414871, -0.264117568731308, -0.10299017280340195, -0.401206910610199, 0.19823229312896729, 0.06554669886827469, 0.06456965208053589, -0.20352867245674133, -0.21816809475421906, -0.21090327203273773, 0.07318763434886932, 0.16440249979496002, -0.11988023668527603, -0.0714232549071312, 0.08941879123449326, 0.22724762558937073, -0.13101844489574432, 0.005832591559737921, 0.12275844812393188, -0.09710700809955597, -0.2081252932548523, -0.5076503753662109, -0.14068199694156647, -0.314603716135025, -0.13463063538074493, 0.08244556188583374, 0.05538947507739067, -0.2161710262298584, 0.06478574872016907, 0.0726950466632843, 0.06395909935235977, 0.004245339427143335, -0.15722434222698212, -0.2367691695690155, 0.09745457768440247, -0.07841859012842178, -0.1419522911310196, 0.1392766684293747, 0.0398000031709671, -0.026832591742277145, -0.06821499764919281, 0.12179899960756302, -0.1268138289451599, -0.001491129514761269, 0.034346599131822586, 0.036001916974782944, -0.11844208836555481, -0.1497124880552292, -0.11675883084535599, -0.2060624659061432, -0.013282585889101028, -0.043797846883535385, 0.16487494111061096, 0.0001787120709195733, -0.3639766573905945, 0.06363561004400253, 0.06842713057994843, -0.05813541263341904, -0.15730838477611542, 0.10392497479915619, -0.15172840654850006, 0.06261620670557022, 0.08346101641654968, 0.30896133184432983, -0.08413601666688919, 0.127831369638443, 0.2577745020389557, 0.009316264651715755, -0.020151318982243538, 0.0024359875824302435, 0.12667599320411682, 0.12548509240150452, 0.3286188840866089, 0.2275177389383316, 0.10736246407032013, -0.4101904034614563, -0.4528718888759613, -0.03580836206674576, 0.29841792583465576, -0.12334422022104263, 0.19957982003688812, -0.24148350954055786, -0.09206966310739517, -0.046275436878204346, -0.3185843825340271, 0.06460395455360413, -0.009818264283239841, -0.2621275782585144, 0.04116157442331314, 0.0992792621254921, -0.2876933515071869, -0.0867273211479187, -0.0633283481001854, -0.28882312774658203, -0.10088110715150833, -0.13597452640533447, 0.15622064471244812, -0.06583665311336517, -0.22503042221069336, -0.11721446365118027, -0.13505056500434875, -0.11124636977910995, 0.2743486762046814, -0.17717966437339783, 0.02080356702208519, 0.1305287480354309, 0.11045193672180176, 0.19963958859443665, -0.5717161297798157, 0.06932323426008224, 0.07394485920667648, -0.05916788801550865, -0.0333896167576313, 0.0258169062435627, -0.06491318345069885, -0.01367055531591177, -0.008608726784586906, -0.07596154510974884, -0.09565789997577667, -0.006085419096052647, -0.16960957646369934, -0.30394473671913147, 0.04365817829966545, 0.21351806819438934, 0.10757666826248169, 0.044367026537656784, -0.22252631187438965, -0.06957593560218811, 0.019465990364551544, -0.08486402034759521, -0.17596586048603058, -0.042209967970848083, 0.06244916841387749, -0.0841246098279953, -0.16555288434028625, 0.20618261396884918, -0.2018616646528244, -0.17632822692394257, -0.016101380810141563, 0.3609454035758972, 0.15004520118236542, 0.3220634162425995, 0.1588798463344574, 0.20621955394744873, -0.1955891251564026, -0.18373256921768188, 0.09161822497844696, 0.041774287819862366, 0.17878930270671844, 0.07466782629489899, -0.367574006319046, -0.05886797606945038, 0.12268144637346268, -0.032436296343803406, -0.16176779568195343, 0.06471545249223709, -0.2755722105503082, -0.2210390716791153, -0.12293503433465958, 0.26299789547920227, -0.23564505577087402, -0.19490383565425873, 0.1653512865304947, 0.09574387967586517, 0.022904731333255768, -0.1757856011390686, 0.07376621663570404, 0.039120178669691086, 0.31823378801345825, 0.046312980353832245, -0.043737415224313736, -0.27376529574394226, -0.24946314096450806, 0.12140502780675888, 0.39286017417907715, 0.23612357676029205, -0.016349364072084427, -0.11255058646202087, -0.30492597818374634, -0.26844409108161926, 0.12270097434520721, 0.1526709347963333, 0.14759084582328796, -0.37713396549224854, 0.3396279811859131, -0.012218224816024303, -0.2080874741077423, -0.28979891538619995, -0.14717915654182434, 0.14944227039813995, -0.16484147310256958, -0.07820358872413635, 0.33736705780029297, 0.2870239317417145, 0.16369368135929108, 0.16531747579574585, -0.16510696709156036, -0.07680594176054001, -0.24074752628803253, 0.19175054132938385, 0.07694343477487564, 0.05506255105137825, -0.08733801543712616, -0.033939674496650696, -0.30618128180503845, -0.0321129746735096, 0.12007322907447815, -0.04068431258201599, 0.11684254556894302, 0.048487383872270584, 0.10465854406356812, -0.0686408206820488, 0.08773768693208694, -0.08085748553276062, 0.1840668022632599, 0.2540644407272339, 0.3066301643848419, -0.09624119102954865, 0.032067108899354935, -0.3151777386665344, -0.11548182368278503, 0.13683314621448517, 0.10512867569923401, -0.0689326748251915, -0.09772717207670212, -0.13238519430160522, 0.6097385287284851, 0.21062499284744263, 0.5501015186309814, 0.14311911165714264, 0.12895074486732483, -0.01767987571656704, 0.04858865588903427, -0.115425243973732, -0.1335415542125702, 0.044525425881147385, 0.20155160129070282, 0.03253760188817978, 0.12783052027225494, 0.08728746324777603, 0.11237015575170517, 0.16432833671569824, -0.05036859214305878, 0.1010267585515976, -0.04487660154700279, 0.11416040360927582, 0.09538907557725906, -0.10515937209129333, -0.08998182415962219, -0.009570972062647343, 0.14196720719337463, -0.13660044968128204, 0.14250367879867554, 0.152034729719162, -0.13007937371730804, 0.07002090662717819, 0.37824368476867676, 0.24307475984096527, 0.08637480437755585, -0.21374961733818054, 0.035534292459487915, 0.12098052352666855, -0.07072113454341888, -0.02472645975649357, -0.15035739541053772, -0.161940336227417, -0.06605525314807892, 0.13715757429599762, 0.06359978765249252, -0.1452150046825409, -0.03602207079529762, -0.06117459759116173, -0.08928896486759186, 0.15387383103370667, 0.35822951793670654, 0.1801764816045761, -0.12585029006004333, 0.026166917756199837, -0.017249353229999542, 0.04330185428261757, -0.23928996920585632, -0.12015419453382492, 0.22122183442115784, 0.08842530101537704, -0.14522741734981537, -0.11852846294641495, 0.24834106862545013, 0.13151025772094727, 0.0017269218806177378, 0.09204299747943878, 0.12776726484298706, 0.6565313339233398, -0.18652381002902985, -0.12462170422077179, -0.2704135477542877, 0.13570909202098846, -0.09493909776210785, 0.34179532527923584, -0.2841096520423889, -0.03209470584988594, 0.00986881460994482, -0.13799341022968292, -0.10053174197673798, -0.2588043510913849, 0.25063490867614746, -0.1551799774169922, -0.47142118215560913, 0.09171375632286072, -0.07614362984895706, 0.6242475509643555, 0.060244254767894745, 0.325022429227829, 0.262023389339447, -0.14257529377937317, 0.2324248105287552, 0.11338583379983902, -0.05190230906009674, -0.11175993829965591, -0.022147033363580704, -0.09382165968418121, -0.012904954142868519, 0.19476322829723358, -0.06434416025876999, 0.053395312279462814, -0.03475869074463844, -0.03298834711313248, -0.06765786558389664, -0.26845604181289673, -0.052830811589956284, 0.20301701128482819, -0.10891591757535934, 0.013468620367348194, -0.061229344457387924, -0.006070483475923538, -0.06818842142820358, 0.11530573666095734, 0.3659232258796692, -0.07491345703601837, 0.07247478514909744, -0.003362377407029271, -0.03537267819046974, 0.1371910721063614, 0.03818615898489952, -0.06870995461940765, -0.18101447820663452, -0.11968261748552322, 0.23705267906188965, 0.3881835639476776, 0.10033617168664932, -0.055407945066690445, 0.1057274267077446, 0.07794563472270966, -0.40553370118141174, -0.38555723428726196, 0.09832131117582321, 0.03793569654226303, -0.002708957064896822, -0.1625833511352539, -0.4158101975917816, -0.15396833419799805, -0.3051309585571289, 0.0003874846443068236, -0.14506587386131287, -0.04083478823304176, 0.0893893912434578, -0.004201413132250309, 0.12577173113822937, -0.08302801847457886, 0.06806304305791855, -0.28431907296180725, 0.13067655265331268, -0.4799823462963104, 0.4633485674858093, -0.14970019459724426, -0.015222067013382912, 0.03965356945991516, -0.1422843039035797, 0.05149686709046364, -0.09891808778047562, 0.20828257501125336, -0.16125385463237762, 0.8428710699081421, -0.18560899794101715, 0.041724856942892075, 0.0591520294547081, -0.18659856915473938, 0.004319843370467424, -0.049473315477371216, -0.14779558777809143, 0.08767160028219223, 0.11514635384082794, -0.21776366233825684, -0.30416339635849, -0.17862197756767273, 0.18903258442878723, -0.04260135069489479, -0.045755863189697266, 0.15030518174171448, 0.08640684932470322, 0.3401942253112793, -0.05428266525268555, 0.8229801058769226, 0.4451232850551605, 0.9274030923843384, -0.9880598783493042, -0.8136668801307678, -0.2636983096599579, -0.37876513600349426, 0.19807489216327667, 0.9308001399040222, 1.1928588151931763, -1.1782113313674927, 0.6589927077293396, 0.41368481516838074, -0.6480990052223206, -0.39190900325775146, -0.3686363697052002, -0.16508306562900543, -0.34927481412887573, 0.21201443672180176, -0.2900233864784241, 0.1750066727399826, 0.13374753296375275, -0.08884433656930923, -0.112462617456913, -0.2966923415660858, 0.12027876824140549, -0.13185040652751923, 0.0223950557410717, 0.012558848597109318, -0.10221008956432343, 0.2413293570280075, -0.17006321251392365, 0.021100308746099472, -0.1906285434961319, -0.17341522872447968, 0.25358909368515015, -0.005686095450073481, 0.2707537114620209, 0.3393578827381134, -0.2327994555234909, -0.34112802147865295, -0.09972930699586868, -0.32422229647636414, 0.020452139899134636, -0.39010879397392273, -0.22783057391643524, 0.2593251168727875, 0.24295715987682343, -0.07310662418603897, 0.2234571874141693, -0.0443916954100132, -0.46471893787384033, -0.16951841115951538, -0.393551230430603, -0.23359185457229614, 0.14149057865142822, 0.2620222866535187, -0.13001181185245514, 0.09185899794101715, -0.5966210961341858, 0.027582433074712753, 0.21256579458713531, -0.07669226080179214, 0.13993531465530396, -0.036956656724214554, 0.07015884667634964, -0.12446083873510361, 0.13524995744228363, 0.17093493044376373, 0.16539634764194489, 0.32588374614715576, 0.0924225002527237, -0.2003396451473236, -0.01509827096015215, 0.09312158077955246, -0.2425953596830368, 0.07872691750526428, 0.1748909205198288, 0.1023203507065773, -0.11126657575368881, 0.19620998203754425, 0.010869605466723442, -0.1665368676185608, 0.2135728895664215, -0.06551950424909592, -0.03297896683216095, 0.035187773406505585, -0.1992734670639038, 0.3583647906780243, 0.21658921241760254, 0.15676932036876678, 0.1737101823091507, -0.14560766518115997, -0.035148780792951584, -0.3430607318878174, -0.10473205894231796, -0.3870755136013031, 0.0972822830080986, 0.2162744700908661, -0.011692630127072334, -0.2704578638076782, -0.0067069027572870255, -0.23064789175987244, -0.02725844830274582, 0.27763763070106506, 0.04151259362697601, -0.18353252112865448, 0.09932966530323029, -0.02754763886332512, 0.09383682161569595, -0.43380439281463623, -0.11611761152744293, -0.036774925887584686, -0.2822363078594208, -0.15592128038406372, -0.0704442709684372, -0.07897176593542099, -0.20263758301734924, 0.1437041163444519, 0.1186060905456543, -0.2880360186100006, 0.12716087698936462, 0.11022291332483292, -0.08693983405828476, -0.015729818493127823, 0.010367712937295437, 0.18773916363716125, -0.22281542420387268, -0.19583311676979065, 0.30164337158203125, -0.20160500705242157, 0.0841800794005394, 0.15769192576408386, -0.14361120760440826, -0.18157537281513214, 0.172909215092659, 0.0035042131785303354, -0.07625202089548111, -0.017648572102189064, -0.01586463488638401, -0.26237863302230835, -0.137450709939003, 0.17172086238861084, -0.0814676508307457, -0.2374039888381958, 0.023368803784251213, -0.10978296399116516, 0.05010389909148216, 0.15398621559143066, -0.031061653047800064, -0.14614473283290863, -0.13076245784759521, -0.24118110537528992, 0.01844017393887043, -0.02670913003385067, -0.06581567227840424, 0.16358144581317902, 0.3967975080013275, 0.23276396095752716, 0.06475265324115753, 0.10800419002771378, -0.12448077648878098, 0.2875100374221802, -0.061579521745443344, -0.19679705798625946, -0.02624296024441719, -0.22782815992832184, 0.2271830141544342, -0.10834211111068726, 0.027301138266921043, 0.16999739408493042, -0.06005179136991501, 0.2640050947666168, -0.0010166874853894114, 0.07648749649524689, 0.14223827421665192, -0.07092203199863434, 0.24279260635375977, -0.24290895462036133, -0.34067249298095703, -0.20455670356750488, -0.13883188366889954, 0.03254665434360504, -0.27892938256263733, 0.1470278650522232, 0.02216453105211258, -0.11058683693408966, -0.12485761195421219, -0.17238639295101166, 0.1314936876296997, 0.20642445981502533, -0.14609394967556, 0.015597935765981674, 0.19908256828784943, -0.11757730692625046, -0.24266886711120605, -0.25506269931793213, -0.2673812210559845, -0.09378180652856827, -0.04332469403743744, -0.18143770098686218, 0.07834440469741821, 0.25998401641845703, 0.06097766011953354, -0.15327030420303345, 0.2815360724925995, -0.15057526528835297, -0.2921244204044342, 0.09328443557024002, -0.000918387551791966, 0.2951461672782898, 0.3927951157093048, 0.052202895283699036, 0.3593963086605072, -0.14536641538143158, 0.16653944551944733, 0.17294712364673615, 0.11792293190956116, -0.15968798100948334, -0.2885532081127167, -0.24957957863807678, -0.03608357906341553, 0.03284250199794769, -0.21291056275367737, -0.04821742698550224, 0.3040409982204437, -0.07960634678602219, 0.37887218594551086, 0.0002681920595932752, 0.10232654958963394, -0.028700409457087517, -0.09249390661716461, -0.08413605391979218, 0.29118046164512634, 0.19904904067516327, -0.13052582740783691, -0.23191823065280914, -0.11736518144607544, 0.011788439936935902, 0.11103505641222, 0.06470752507448196, -0.23230555653572083, 0.25055912137031555, -0.08020294457674026, -0.210519477725029, -0.3579052984714508, -0.12135432660579681, 0.20540189743041992, -0.11336733400821686, 0.09246323257684708, -0.37177497148513794, 0.2634287476539612, 0.25563502311706543, 0.13882656395435333, -0.09810806810855865, 0.032757557928562164, -0.09427694976329803, 0.24564743041992188, -0.15072467923164368, -0.31813710927963257, -0.2640109956264496, -0.5594712495803833, 0.1464579850435257, 0.006455393508076668, -0.1765197068452835, 0.14524443447589874, -0.06495781242847443, 0.25658419728279114, 0.12964141368865967, 0.06698226928710938, 0.14671435952186584, -0.01683030091226101, -0.039361510425806046, -0.21628765761852264, 0.25623777508735657, -0.2657284736633301, 0.022297652438282967, 0.33814364671707153, 0.0817025750875473, 0.20854458212852478, -0.3928256928920746, 0.2966495454311371, 0.09246090054512024, 0.24129989743232727, 0.05217248573899269, -0.38963785767555237, 0.1666218489408493, -0.05420810356736183, 0.13337454199790955, -0.05538768321275711, 0.05984882265329361, -0.02909550815820694, 0.23517127335071564, -0.15699973702430725, -0.4137399196624756, -0.16923080384731293, -0.07993122935295105, 0.36947593092918396, 0.012404361739754677, -0.04535144567489624, 0.07884612679481506, 0.12904708087444305, -0.07875969260931015, 0.05051357299089432, -0.21484234929084778, 0.3093108832836151, 0.1505424976348877, 0.006750959903001785, 0.07830929756164551, 0.16668735444545746, 0.24147659540176392, -0.049423880875110626, 0.3482154309749603, 0.1347104012966156, -0.044705700129270554, 0.10449038445949554, -0.28512415289878845, 0.05481141433119774, 0.24465098977088928, 0.40571439266204834, -0.13815194368362427, 0.10647943615913391, -0.07899335771799088, 0.02353283017873764, -0.15674073994159698, -0.1316438913345337, 0.18261049687862396, 0.20819512009620667, 0.44220420718193054, -0.23095408082008362, 0.029356636106967926, -0.43344953656196594, 0.13771434128284454, 0.12357758730649948, 0.06044233217835426, -0.04838290065526962, -0.13615508377552032, -0.006018680054694414, 0.1816014051437378, -0.14041727781295776, -0.14431189000606537, 0.23435740172863007, 0.00990654993802309, -0.586731493473053, 0.8037797808647156, -0.15842217206954956, 0.023521663621068, 0.30180415511131287, 0.17312376201152802, 0.03369109332561493, -0.11356981843709946, 0.04252156987786293, 0.0356786884367466, -0.28101465106010437, -0.17830313742160797, 0.10195068269968033, 0.20245538651943207, -0.11033213883638382, -0.056350886821746826, -0.18482786417007446, -0.17523780465126038, -0.025804739445447922, 0.22568219900131226, 0.04284277558326721, 0.1342071145772934, -0.11909552663564682, 0.012920781970024109, -0.21154625713825226, 0.17233936488628387, 0.16528113186359406, -0.012567132711410522, -0.12669232487678528, -0.047833383083343506, -0.2563040256500244, 0.10822518169879913, -0.10809677839279175, -0.2458030879497528, 0.13252344727516174, 0.18696558475494385, 0.14236579835414886, -0.1731371283531189, 0.006350243464112282, 0.0909724086523056, -0.15708118677139282, -0.023483216762542725, 0.026884479448199272, 0.12822091579437256, 0.13551384210586548, 0.29500335454940796, -0.05161196365952492, 0.1705401986837387, -0.40925735235214233, 0.289379745721817, 0.06245177611708641, -0.0031540701165795326, -0.11228780448436737, -0.14751766622066498, -0.15526840090751648, -0.06818509101867676, 0.07724009454250336, -0.021416665986180305, 0.22785592079162598, -0.004412594251334667, -0.05419494956731796, -0.05006936937570572, -0.056790806353092194, 0.037431906908750534, -0.04868103563785553, 0.13073308765888214, -0.012443330138921738, -0.1449958086013794, 0.1661282330751419, -0.17777569591999054, 0.21844922006130219, 0.17187194526195526, 0.23053991794586182, 0.06643033772706985, 0.07820985466241837, 0.06349868327379227, 0.39332816004753113, -0.05607188493013382, -0.0030052445363253355, 0.06907376646995544, 0.05167054384946823, 0.20477908849716187, -0.021352356299757957, 0.01605578139424324, -0.1426200270652771, 0.19540935754776, 0.01921749860048294, -0.22213415801525116, 0.09807071089744568, 0.013696452602744102, 0.03779132664203644, 0.08570802956819534, 0.1438857913017273, 0.02788913995027542, -0.3147345781326294, -0.13488450646400452, 0.2673203945159912, 0.06217467039823532, -0.05833857133984566, 0.002515481784939766, 0.019678819924592972, -0.023744745180010796, -0.04560372978448868, 0.11337053030729294, -0.028808319941163063, 0.03203553706407547, 0.26404860615730286, 0.19031831622123718, -0.07166607677936554, 0.12838104367256165, 0.16340264678001404, 0.05786028131842613, 0.016051916405558586, 0.11212141811847687, 0.0711733028292656, 0.07088122516870499, -0.27077603340148926, 0.05207346752285957, 0.09578293561935425, 0.06512802094221115, 0.14967307448387146, 0.004661901388317347, -0.27707168459892273, -0.061786454170942307, 0.29266971349716187, 0.056070879101753235, 0.08285336196422577, -0.19021563231945038, 0.0315261073410511, 0.1418437659740448, -0.09125783294439316, 0.05450219660997391, -0.05291367322206497, 0.20417287945747375, -0.020403122529387474, -0.09638490527868271, 0.3103368580341339, -0.04787378013134003, 0.1634366363286972, 0.037559058517217636, -0.04606890305876732, 0.11527996510267258, -0.23838353157043457, 0.09326530247926712, 0.551377534866333, -0.33033180236816406, -0.18352110683918, 0.2852311432361603, -0.16511839628219604, 0.036100346595048904, -0.06012321263551712, 0.15435980260372162, 0.09680139273405075, -0.15775202214717865, 0.007711621467024088, 0.14286303520202637, 0.018777456134557724, -0.11972972005605698, 0.1519090086221695, 0.12022014707326889, 0.11999914050102234, 0.05423760414123535, 0.14240260422229767, 0.026306647807359695, 0.024806974455714226, -0.03583243116736412, 0.21068058907985687, -0.0833122655749321, 0.13333426415920258, -0.23618189990520477, 0.028103962540626526, -0.11254289746284485, 0.03717615455389023, -0.0655696913599968, 0.2535179555416107, -0.031498346477746964, 0.13192912936210632, 0.2098662406206131, -0.11298180371522903, -0.056652218103408813, -0.2219386100769043, 0.10077065229415894, -0.18683667480945587, -0.14281931519508362, 0.16356132924556732, -0.1697113811969757, -0.01158994436264038, -0.12834513187408447, -0.1537834256887436, -0.1189735159277916, 0.14185288548469543, 0.15957902371883392, 0.19703365862369537, -0.05120868608355522, 0.03885096684098244, 0.02580980211496353, 0.04871656000614166, -0.13641288876533508, 0.01956041157245636, -0.07990611344575882, -0.11613770574331284, 0.07328002154827118, -0.13468974828720093, 0.10535169392824173, -0.08795782178640366, -0.1121053695678711, -0.11279579252004623, -0.0094104940071702, -0.08456962555646896, -0.14358724653720856, -0.23171134293079376, 0.0293255802243948, -0.01986886002123356, 0.06000630557537079, -0.18893013894557953, -0.0376434326171875, -0.060062553733587265, 0.001988109666854143, -0.09296103566884995, 0.21269367635250092, -0.24884538352489471, 0.14819084107875824, -0.12451817840337753, -0.131644606590271, -0.1471763402223587, -0.12217040359973907, -0.021675003692507744, 0.04845819249749184, 0.19655786454677582, -0.2096647471189499, 0.27101218700408936, 0.29842090606689453, -0.10231348127126694, -0.13781292736530304, -0.06602130830287933, 0.0661473348736763, -0.20774517953395844, -0.10500242561101913, 0.26345294713974, -0.1205882802605629, 0.11687684804201126, 0.07416397333145142, -0.14139597117900848, -0.06567005068063736, 0.2143760472536087, 0.15812206268310547, 0.17495372891426086, -0.18004119396209717, 