{"version": "0.5.4", "metadata": {"date": {"year": 2026, "month": 4, "day": 27, "hour": 3, "minute": 13, "second": 54}, "loudness": -20.112533569335938, "gain": 0.6586862482860152, "name": "Octobass", "modeled_by": "October PRoduction Co.", "gear_type": "pedal", "gear_make": "", "gear_model": "", "tone_type": "crunch", "input_level_dbu": null, "output_level_dbu": null, "training": {"settings": {"ignore_checks": false}, "data": {"latency": {"manual": null, "calibration": {"algorithm_version": 1, "delays": [63], "safety_factor": 1, "recommended": 62, "warnings": {"matches_lookahead": false, "disagreement_too_high": false, "not_detected": false}}}, "checks": {"version": 3, "passed": true}}, "validation_esr": 0.0025483899903773954}}, "architecture": "WaveNet", "config": {"layers": [{"input_size": 1, "condition_size": 1, "head_size": 8, "channels": 16, "kernel_size": 3, "dilations": [1, 2, 4, 8, 16, 32, 64, 128, 256, 512], "activation": "Tanh", "gated": false, "head_bias": false}, {"input_size": 16, "condition_size": 1, "head_size": 1, "channels": 8, "kernel_size": 3, "dilations": [1, 2, 4, 8, 16, 32, 64, 128, 256, 512], "activation": "Tanh", "gated": false, "head_bias": true}], "head": null, "head_scale": 0.02}, "weights": [0.00010192244371864945, 0.5593283772468567, -0.7593631148338318, -0.7937595248222351, -0.3014364540576935, 0.2508409023284912, -0.0010708761401474476, 0.8109990358352661, -0.10814422369003296, 0.26188454031944275, -0.32832810282707214, -0.14107666909694672, -0.9438399076461792, -0.6493781805038452, -0.32486408948898315, 0.0104609290137887, 0.12829680740833282, 0.18081112205982208, -0.08704867213964462, -0.1552918404340744, -0.056456297636032104, 0.08573012799024582, 0.06533372402191162, 0.21381166577339172, 0.016400624066591263, 0.11069035530090332, 0.24106889963150024, -0.09714849293231964, -0.0049088760279119015, 0.0612817220389843, -0.024258511140942574, 0.041440632194280624, -0.19069160521030426, -0.09058870375156403, -0.04289037361741066, -0.07112565636634827, -0.10815923660993576, 0.028430145233869553, -0.04469135031104088, 0.03185828775167465, 0.06901820749044418, 0.010748055763542652, 0.017722688615322113, -0.21673522889614105, -0.2026766836643219, -0.09688673913478851, 0.1770348995923996, 0.18542751669883728, -0.03704836592078209, 0.07323213666677475, 0.19296813011169434, 0.15925027430057526, 0.15379470586776733, 0.1295621246099472, 0.13584762811660767, 0.009232398122549057, 0.13505171239376068, -0.07568359375, -0.012873006984591484, 0.02703533135354519, 0.0966760590672493, -0.011647914536297321, -0.1139976903796196, -0.00036365524283610284, 0.0666474997997284, 0.0416322760283947, -0.08669277280569077, -0.013358176685869694, -0.020830433815717697, 0.2015233337879181, -0.06178727373480797, 0.05822071060538292, -0.0018753319745883346, 0.1693718582391739, 0.23848462104797363, 0.06756327301263809, 0.06984911113977432, -0.022479668259620667, -0.05372072756290436, -0.12764780223369598, -0.23385389149188995, 0.19842243194580078, 0.12128498405218124, -0.09935804456472397, -0.060757435858249664, -0.07410552352666855, -0.13603612780570984, -0.007270121946930885, 0.07110462337732315, -0.00581620167940855, -0.04041929170489311, 0.03586230427026749, 0.0035219520796090364, 0.12509332597255707, -0.10281278938055038, 0.009089985862374306, 0.003844792954623699, 0.06364592909812927, -0.013867628760635853, -0.15823976695537567, 0.18662472069263458, 0.21063904464244843, -0.12083873152732849, 0.012251870706677437, -0.026204630732536316, -0.06273982673883438, -0.06653449684381485, -0.006492104846984148, -0.07332795858383179, 0.00010666585149010643, -0.073600172996521, 0.07827159017324448, -0.07549963146448135, 0.09580231457948685, 0.17396299540996552, -0.09339786320924759, 0.07201681286096573, -0.08321341127157211, -0.010718464851379395, -0.07484062016010284, 0.14088541269302368, -0.022658975794911385, -0.18117859959602356, 0.15545178949832916, -0.16172495484352112, -0.18566401302814484, 0.05553831160068512, -0.05153660476207733, 0.04676062986254692, -0.21712253987789154, -0.03491518646478653, -0.021880293264985085, 0.016461007297039032, 0.02400851808488369, 0.21349143981933594, -0.10084500908851624, 0.008925944566726685, -0.09013742208480835, 0.15680159628391266, 0.10969022661447525, 0.23421627283096313, -0.00884399376809597, 0.11576629430055618, -0.11122839897871017, -0.03275039792060852, -0.08316480368375778, 0.0015227632829919457, 0.10405249893665314, -0.10425426810979843, -0.2218000441789627, -0.05020718649029732, -0.15200398862361908, -0.13842308521270752, 0.16674380004405975, 0.05382436513900757, -0.24181340634822845, 0.18197816610336304, -0.1011192575097084, -0.02996336854994297, -0.09289693087339401, 0.015314493328332901, 0.035192493349313736, -0.17810717225074768, -0.18917185068130493, -0.12515215575695038, 0.08574419468641281, 0.0005933761713095009, 0.1570223569869995, -0.2109796553850174, 0.057934824377298355, 0.2319871485233307, -0.1399024873971939, 0.1871240884065628, 0.14619788527488708, -0.22001633048057556, 0.03631007298827171, -0.10800239443778992, 0.027623292058706284, 0.1492408663034439, -0.07361644506454468, -0.08226438611745834, -0.09749521315097809, -0.0012316307984292507, 0.12094367295503616, 0.1040818840265274, 0.12344418466091156, -0.1492260843515396, -0.08428791910409927, -0.21006803214550018, 0.17196816205978394, 0.17240186035633087, 0.19361662864685059, -0.19199831783771515, 0.058247990906238556, -0.01060919463634491, -0.17563089728355408, -0.01589655689895153, 0.15461094677448273, -0.16568328440189362, 0.06278849393129349, 0.10910665988922119, 0.011008404195308685, -0.05081407353281975, -0.0032939701341092587, -0.17201757431030273, 0.056920792907476425, -0.09084195643663406, 0.13115277886390686, 0.031173286959528923, 0.009521524421870708, 0.04767333343625069, -0.01884419657289982, 0.015008935704827309, -0.0924927145242691, -0.011182027868926525, 0.023023227229714394, -0.05321173369884491, -0.08619627356529236, 0.12068210542201996, -0.0566670261323452, -0.0187765434384346, 0.14519599080085754, 0.1074296236038208, 0.01144874095916748, -0.13080225884914398, 0.016761738806962967, -0.09803228080272675, -0.022084828466176987, 0.0313163660466671, -0.009548196569085121, -0.0020002552773803473, 0.060338836163282394, 0.01641693152487278, 0.13837143778800964, 0.14806683361530304, -0.08296559005975723, 0.0604291632771492, -0.1587434858083725, -0.07060565054416656, 0.048536770045757294, 0.10586719959974289, 0.1025049164891243, -0.04127071797847748, 0.056982509791851044, 0.0628284215927124, -0.13630397617816925, 0.16326367855072021, -0.13006597757339478, 0.006157543510198593, 0.03462112694978714, -0.08554069697856903, 0.02119630016386509, 0.17416177690029144, 0.0018269582651555538, -0.04851650446653366, -0.02147500030696392, -0.13127312064170837, 0.01065273117274046, -0.000160150695592165, -0.0720827579498291, 0.03831428289413452, 0.02432815544307232, 0.04914448410272598, -0.010899591259658337, 0.10571549832820892, -0.07537993043661118, -0.16447679698467255, 0.09884127974510193, 0.09964720159769058, -0.07361786812543869, -0.007846380583941936, -0.05256759375333786, -0.025418421253561974, -0.03643330559134483, -0.08388840407133102, -0.19064892828464508, 0.21403716504573822, -0.06651987880468369, 0.10691487044095993, -0.013698493130505085, 0.01144421100616455, -0.19077694416046143, -0.0206511951982975, 0.12957334518432617, 0.13506779074668884, 0.050622209906578064, -0.06589005142450333, -0.07197996973991394, 0.03274135664105415, -0.01797397993505001, -0.19919298589229584, 0.12304273247718811, 0.01732885278761387, -0.12731847167015076, 0.02146536111831665, -0.11507181078195572, -0.022639093920588493, -0.0508420392870903, 0.038865167647600174, -0.16445602476596832, -0.008820312097668648, 0.046890124678611755, -0.06572899222373962, 0.017024941742420197, 0.042096830904483795, -0.16614630818367004, 0.11633584648370743, 0.08634666353464127, 0.17747412621974945, -0.1183440238237381, -0.14720116555690765, -0.143031045794487, 0.14391060173511505, -0.08063426613807678, -0.06825926899909973, 0.1938866823911667, -0.09574959427118301, -0.1105063185095787, 0.16039890050888062, 0.02658967301249504, 0.12108117341995239, -0.09170595556497574, -0.11051272600889206, -0.058484919369220734, 0.22713129222393036, 0.15824410319328308, 0.2069995254278183, -0.07693817466497421, 0.07674117386341095, -0.1611098349094391, 0.0215079914778471, -0.1099463701248169, 0.25372886657714844, -0.020012376829981804, -0.11755959689617157, -0.056390952318906784, 0.2166489064693451, 0.13369610905647278, 0.016348207369446754, 0.22908549010753632, -0.062386296689510345, -0.17387725412845612, 0.2136494219303131, 0.05398337170481682, -0.20809105038642883, 0.22780728340148926, 0.048752281814813614, -0.03613344207406044, 0.011443418450653553, 0.05666640028357506, -0.044591087847948074, 0.0837656632065773, -0.1244731917977333, 0.0028493155259639025, -0.00020907797443214804, 0.21069175004959106, 0.0685093104839325, 0.08075281232595444, -0.2528376281261444, -0.08559341728687286, -0.11164502054452896, -0.29533761739730835, -0.2363859862089157, 0.10051345825195312, -0.06397169083356857, 0.02623828314244747, 0.1101294457912445, 0.010281304828822613, 0.008332142606377602, -0.021922923624515533, -0.2002379149198532, 0.04653336480259895, -0.09377579391002655, 0.08233172446489334, -0.019699152559041977, -0.06814674288034439, 0.0026546907611191273, 0.03113151714205742, 0.12688717246055603, 0.24986909329891205, 0.23514072597026825, -0.036942191421985626, -0.0792224183678627, 0.018521001562476158, 0.04433576762676239, 0.009999392554163933, -0.031427640467882156, 0.0930328518152237, -0.20420542359352112, -0.05161735787987709, 0.001592547632753849, -0.18582414090633392, -0.20013295114040375, -0.093538798391819, -0.2544310986995697, -0.014799125492572784, 0.09594612568616867, 0.0030433202628046274, -0.06857786327600479, 0.1297137439250946, 0.08896230906248093, -0.04978134483098984, -0.014816944487392902, 0.18981918692588806, 0.18522635102272034, -0.1590576469898224, 0.07796553522348404, -0.017328821122646332, -0.008057133294641972, 0.020883340388536453, -0.2109811007976532, 0.023729819804430008, 0.07112030684947968, -0.11209053546190262, -0.04878510162234306, -0.0006134515278972685, 0.07629548013210297, -0.08560708910226822, -0.012501508928835392, 0.06924467533826828, 0.07761579751968384, -0.02895321510732174, 0.13566185534000397, 0.023882761597633362, 0.046819090843200684, -0.2281661480665207, 0.05772572010755539, -0.060390401631593704, 0.054221730679273605, -0.007052015047520399, -0.15269416570663452, -0.06530724465847015, 0.17779229581356049, -0.034132760018110275, -0.2115067094564438, 0.01189227495342493, -0.029768409207463264, -0.2393968552350998, 0.11609890311956406, -0.1900089830160141, -0.2660636901855469, -0.09338565915822983, -0.08177152276039124, -0.023734213784337044, -0.08435368537902832, 0.16446062922477722, -0.026668187230825424, 0.04333175718784332, -0.02219625934958458, -0.1995828002691269, 0.20035772025585175, 0.15815435349941254, 0.26874032616615295, 0.024608809500932693, -0.17832259833812714, -0.0037103667855262756, 0.05030366778373718, -0.015118982642889023, -0.2433927059173584, 0.00440014386549592, -0.21597659587860107, -0.17181867361068726, 0.08046462386846542, -0.04218481481075287, 0.16078287363052368, 0.019857820123434067, -0.026863768696784973, -0.1596529632806778, -0.018068986013531685, 0.038964688777923584, 0.18990114331245422, 0.09782099723815918, 0.033323612064123154, -0.11599594354629517, 0.1380796879529953, -0.0711350366473198, -0.007737154606729746, 0.008262379094958305, -0.15571676194667816, -0.04862561821937561, -0.046350859105587006, -0.13843724131584167, -0.23508813977241516, 0.14053985476493835, -0.09916317462921143, -0.016500208526849747, 0.132772758603096, -0.0024055715184658766, -0.12113183736801147, 0.0016292805084958673, -0.10704176872968674, -0.10007897764444351, 0.12159159034490585, -0.03966614603996277, 0.1588415503501892, -0.0030458765104413033, -0.1879202127456665, -0.09992484003305435, 0.15424692630767822, 0.2532288432121277, -0.022747095674276352, 0.07160916924476624, -0.052433472126722336, -0.027318200096488, 0.1477005034685135, -0.20207831263542175, -0.0675525888800621, 0.08723534643650055, -0.1595154106616974, -0.057816654443740845, -0.010347536765038967, 0.1977251172065735, 0.056510139256715775, -0.09680294990539551, -0.02557750977575779, 0.022702911868691444, 0.016632629558444023, 0.13675332069396973, 0.19608210027217865, -0.042149268090724945, -0.03863110765814781, -0.1070619747042656, 0.12329269200563431, 0.003914959263056517, 0.012687668204307556, -0.11669047921895981, 0.019952546805143356, -0.13995321094989777, 0.0395299457013607, -0.1741202175617218, 0.048552773892879486, 0.18875066936016083, -0.2340277135372162, -0.23075631260871887, -0.08305467665195465, -0.12325979024171829, -0.14794239401817322, -0.06516938656568527, -0.16763029992580414, -0.07799974083900452, -0.042068105190992355, 0.07251162827014923, 0.0013934597373008728, -0.06108059734106064, -0.10766110569238663, 0.21963666379451752, -0.22259333729743958, 0.134732186794281, -0.1836118847131729, 0.11783528327941895, -0.2622562348842621, -0.007791840936988592, 0.17252309620380402, -0.21956710517406464, 0.1585754156112671, 0.013090686872601509, -0.15605789422988892, 0.09506089985370636, 0.11766236275434494, 0.13338275253772736, -0.2647017240524292, -0.10541646182537079, -0.17116311192512512, 0.15665391087532043, -0.12891359627246857, 0.2636719346046448, -0.1619664579629898, -0.052892375737428665, -0.01796097122132778, 0.18914957344532013, 0.12202955037355423, 0.21043454110622406, -0.16879802942276, -0.1145082339644432, -0.13913163542747498, 0.2454363852739334, -0.026809465140104294, -0.2580462694168091, 0.18430297076702118, 0.1505754292011261, -0.16865578293800354, 0.010867253877222538, -0.10384433716535568, -0.0916522666811943, 0.11856549978256226, -0.04751551151275635, -0.09620986878871918, 0.18188245594501495, 0.1361193060874939, 0.059736717492341995, -0.11076889932155609, -0.09698352962732315, -0.12729549407958984, 0.06613282859325409, 0.15971140563488007, 0.1037222295999527, -0.009446045383810997, 0.050672151148319244, 0.09199060499668121, 0.014218532480299473, -0.044730037450790405, -0.09794183075428009, -0.21699924767017365, 0.21790426969528198, -0.09946196526288986, -0.17453885078430176, 0.15812215209007263, -0.037244196981191635, 0.03119759075343609, -0.10744205117225647, -0.014664066955447197, -0.17978669703006744, 0.24452097713947296, -0.0201632808893919, 0.167883038520813, 0.04549916833639145, 0.06899584829807281, -0.06217025965452194, 0.2493455559015274, 0.048260584473609924, 0.03661429509520531, 0.04063117504119873, 0.0016974275931715965, -0.2473393678665161, 0.05091264843940735, -0.12342657148838043, 0.02335602603852749, 0.07778148353099823, -0.1763274222612381, -0.1269727498292923, 0.16942794620990753, -0.004686353728175163, -0.07002610713243484, 0.09526146948337555, 0.01710168458521366, -0.14475128054618835, 0.027956461533904076, -0.09926586598157883, -0.08535181730985641, 0.03054048679769039, -0.1089845672249794, 0.07769883424043655, 0.003649505553767085, -0.00726887583732605, -0.20559591054916382, 0.19215495884418488, -0.06402236223220825, 0.2321968376636505, -0.16535747051239014, -0.014170237816870213, 0.19333796203136444, -0.10986553877592087, 0.1321004331111908, 0.005161072593182325, -0.18092001974582672, -0.07337816059589386, -0.07738634943962097, 0.1951311081647873, -0.08034220337867737, 0.0940866693854332, -0.09534773230552673, -0.05167246609926224, -0.008244143798947334, -0.06146886572241783, 0.002481061266735196, 0.21560241281986237, -0.10443705320358276, 0.10448239743709564, -0.14517343044281006, 0.17954561114311218, -0.1288892924785614, 0.08382109552621841, -0.08528033643960953, 0.05165667086839676, 0.15610244870185852, 0.04447310045361519, -8.796502515906468e-05, 0.10962966084480286, 0.049374599009752274, -0.01991473138332367, 0.23961764574050903, -0.1478462964296341, -0.003300553187727928, 0.09837299585342407, 0.006608378142118454, 0.09101934731006622, -0.009766068309545517, -0.12088925391435623, 0.13757304847240448, 0.03715626150369644, 0.058553554117679596, -0.14827468991279602, 0.17054280638694763, 0.07680407911539078, 0.0699223130941391, -0.21678775548934937, 0.1623949259519577, -0.04795081913471222, -0.048028863966464996, 0.08260416239500046, -0.00824101734906435, -0.021072786301374435, -0.07328569889068604, -0.022562235593795776, -0.018966494128108025, -0.0675433874130249, 0.0831204354763031, 0.09719520807266235, -0.0754539892077446, 0.03465430438518524, 0.06365422159433365, -0.12978705763816833, -0.07019412517547607, -0.18931379914283752, 0.17957253754138947, -0.09161693602800369, 0.07801621407270432, -0.012396561913192272, 0.1542053073644638, 0.04728580266237259, 0.17103098332881927, -0.04832038655877113, -0.08282206207513809, -0.03742257133126259, -0.02389565110206604, -0.04785696417093277, 0.19798260927200317, -0.057122185826301575, 0.007138225249946117, -0.014267696999013424, 0.02944798395037651, 0.043380189687013626, 0.023594900965690613, -0.06007157266139984, -0.13913506269454956, 0.09145241230726242, 0.08353961259126663, -0.12229125201702118, 0.15433309972286224, -0.2435806542634964, -0.10595951229333878, -0.04059900715947151, 0.25324177742004395, -0.04692753776907921, 0.11405868083238602, 0.26498696208000183, 0.0882580578327179, -0.026767548173666, 0.118076853454113, -0.05527713522315025, -0.07197190821170807, -0.13206064701080322, 0.11896365880966187, 0.07515396177768707, 0.08572307974100113, 0.037269093096256256, 0.006777741480618715, -0.03141885995864868, -0.053202878683805466, -0.14777076244354248, 0.14235256612300873, 0.06652965396642685, -0.08808887004852295, -0.001728732488118112, 0.06382562965154648, -0.14522556960582733, 0.1049746423959732, 0.11566697806119919, -0.06535453349351883, 0.08894407749176025, 0.03217068314552307, -0.07754531502723694, 0.21943551301956177, 0.06810634583234787, 0.1373802125453949, 0.047219257801771164, 0.13623905181884766, -0.038032885640859604, 0.278935045003891, -0.14952422678470612, -0.08333677798509598, 0.12644776701927185, 0.08869171887636185, 0.05093679949641228, -0.07941453903913498, -0.05738157033920288, -0.06906922161579132, -0.06500434875488281, -0.020120929926633835, 0.15309274196624756, 0.001482362044043839, 0.009303906001150608, 0.062201377004384995, 0.11786462366580963, 0.019915536046028137, 0.005478070117533207, -0.004891590680927038, 0.017713798210024834, -0.0015457303961738944, 0.07427750527858734, 0.39884713292121887, -0.3754223883152008, 0.7189894914627075, -0.6278708577156067, -0.05489243194460869, 0.8514803647994995, 0.9063416719436646, -0.5581713318824768, 0.14012625813484192, 0.08136999607086182, -0.4882412552833557, -0.37652066349983215, 0.19936402142047882, -0.6519048810005188, 0.10259459912776947, 0.38478922843933105, -0.17440581321716309, 0.1793884038925171, -0.023370666429400444, 0.07213552296161652, -0.041494037955999374, -0.07663323730230331, 0.1250603199005127, -0.07066097855567932, -0.018976964056491852, -0.060258276760578156, -0.008896135725080967, -0.2465810328722, 0.08929178863763809, -0.025427527725696564, 0.06900018453598022, -0.05071045085787773, 0.07953263074159622, -0.07818914949893951, -0.18024659156799316, 0.050958819687366486, 0.00959652941673994, -0.028395486995577812, -0.07864177972078323, -0.19106009602546692, -0.0013730904320254922, 0.15455007553100586, -0.4003162384033203, -0.18470826745033264, 0.033081572502851486, -0.12368973344564438, 0.00034653893089853227, 0.11484233289957047, 0.1429407298564911, 0.13850490748882294, -0.031123565509915352, 0.2605648338794708, -0.0705951675772667, -0.15571986138820648, 0.04071794077754021, -0.3766794502735138, -0.07131429016590118, -0.20937030017375946, 0.005390526726841927, -0.2578997313976288, 0.07201173156499863, 0.30225038528442383, 0.017035316675901413, 0.03631458431482315, 0.164068803191185, -0.09341293573379517, -0.09230045229196548, -0.10840108245611191, 0.13581234216690063, 0.030899064615368843, -0.03256148844957352, -0.0018988607916980982, -0.2873668670654297, -0.0328969843685627, -0.03949759528040886, 0.08302263915538788, 0.13600605726242065, 0.2756384611129761, -0.1125863716006279, -0.07650464028120041, -0.09886953979730606, -0.2518737316131592, -0.207172229886055, 0.15343107283115387, 0.0731251910328865, 0.23111934959888458, 0.1509828269481659, -0.24440336227416992, 0.10762288421392441, 0.30622467398643494, -0.11133182793855667, 0.21382777392864227, -0.0852920189499855, 0.17413900792598724, -0.2624744474887848, 0.0921681597828865, -0.19726945459842682, -0.058126647025346756, 0.1390063315629959, 0.013444013893604279, 0.14181141555309296, 0.2700481116771698, 0.28588035702705383, 0.1198384165763855, 0.23889921605587006, 0.02688230387866497, -0.1726951003074646, -0.12333796173334122, -0.0002818785433191806, -0.18956732749938965, 0.05970733240246773, 0.12397213280200958, 0.2072376310825348, 0.13831129670143127, 0.2698211967945099, 0.14187389612197876, -0.07658443599939346, -0.16007648408412933, 0.09548981487751007, -0.1697319746017456, 0.10406631976366043, -0.3011690080165863, -0.3892795741558075, -0.14842720329761505, 0.12605203688144684, -0.24253425002098083, 0.05798202380537987, -0.20037943124771118, 0.1444123536348343, 0.026454994454979897, 0.33294251561164856, -0.31678780913352966, -0.07401120662689209, 0.19175685942173004, 0.3112512528896332, 0.20053279399871826, 0.23572959005832672, -0.12319687008857727, 0.3012136220932007, 0.007877886295318604, 0.14451849460601807, -0.2222735434770584, -0.005244595464318991, 0.04866058751940727, -0.07702263444662094, 0.0039560552686452866, -0.3090289831161499, -0.18355223536491394, 0.08795318007469177, -0.13099679350852966, -0.22813840210437775, -0.12744902074337006, -0.26017677783966064, -0.2726731598377228, 0.014038975350558758, 0.008583171293139458, -0.013931219466030598, -0.09435363113880157, 0.11409690976142883, -0.01169965323060751, -0.2587844133377075, -0.0018516834825277328, 0.25726932287216187, -0.29566267132759094, -0.1672113984823227, 0.05914697051048279, 0.2356482446193695, -0.04145412892103195, 0.10787329822778702, 0.2435365915298462, 0.2073177695274353, 0.06092723459005356, 0.28022271394729614, 0.13489162921905518, -0.09782746434211731, -0.07563626766204834, 0.19026251137256622, 0.2832557260990143, -0.3515704274177551, 0.2281094789505005, -0.1027369573712349, -0.29230812191963196, -0.051729410886764526, -0.1873735934495926, -0.058690618723630905, -0.26404640078544617, -0.31964805722236633, -0.1357533037662506, -0.17868834733963013, 0.2253376692533493, -0.0046900734305381775, 0.1722748726606369, 0.006433069705963135, -0.12198849767446518, 0.14817538857460022, -0.020349696278572083, 0.010331820696592331, -0.01957922801375389, -0.013358484022319317, 0.0012892126105725765, -0.009828892536461353, -0.1886647343635559, 0.004984115716069937, 0.03637492284178734, -0.04905804991722107, 0.1288367509841919, -0.10660289973020554, -0.2466955929994583, 0.021948229521512985, -0.07587836682796478, 0.05360408499836922, 0.08277016878128052, 0.15891389548778534, -0.0911848247051239, -0.022999774664640427, 0.2811416685581207, 0.15782521665096283, -0.020711196586489677, -0.04562052711844444, 0.4227319657802582, 0.09998314827680588, -0.13219653069972992, 0.10324465483427048, -0.008763411082327366, -0.05357152596116066, -0.2540779411792755, -0.10248987376689911, 0.06400598585605621, 0.0244050994515419, 0.19988547265529633, 0.2210570126771927, 0.11489100009202957, 0.011365587823092937, -0.07656402885913849, -0.008536902256309986, -0.1322830617427826, -0.10270261764526367, -0.11966162919998169, 0.05515017732977867, 0.026674937456846237, 0.06115008145570755, 0.2601381242275238, -0.0007006695959717035, -0.06042474880814552, -0.05077717453241348, 0.10013673454523087, 0.1930939108133316, 0.07489055395126343, -0.2790411114692688, 0.12623219192028046, -0.12419131398200989, 0.13865455985069275, 0.06472904980182648, 0.20489194989204407, -0.08281999826431274, 0.05824634060263634, 0.06351589411497116, 0.12818804383277893, 0.22437909245491028, -0.130193293094635, -0.0946587398648262, 0.12945620715618134, 0.10711080580949783, 0.18062356114387512, -0.08823959529399872, -0.1523517370223999, 0.0064422436989843845, -0.05269472673535347, 0.06196688115596771, 0.2194337546825409, -0.04755302518606186, 0.014458882622420788, 0.10123274475336075, -0.06127668917179108, 0.1461116522550583, -0.0843580886721611, -0.11096978932619095, -0.03850819543004036, 0.07153388857841492, -0.07752211391925812, 0.05180180445313454, -0.13895395398139954, 0.12409341335296631, 0.06437745690345764, 0.0015195264713838696, 0.02222711592912674, -0.005381291266530752, 0.05174665153026581, -0.029098160564899445, -0.10589829832315445, 0.06509722024202347, 0.17613649368286133, -0.1255045384168625, 0.1794806271791458, -0.16322854161262512, -0.07629109174013138, 0.05116899684071541, -0.23034760355949402, -0.016434969380497932, -0.0045909942127764225, -0.014725803397595882, -0.10541772097349167, 0.0018655231688171625, 0.23006834089756012, -0.06258674710988998, 0.07275489717721939, -0.15768837928771973, -0.13390254974365234, 0.10652980208396912, 0.12658903002738953, -0.019677158445119858, -0.15817955136299133, -0.1568286120891571, 0.01830371655523777, -0.10306975245475769, -0.05333343893289566, 0.056460216641426086, -0.12529169023036957, -0.22399099171161652, -0.09138378500938416, 0.004297687206417322, -0.20929008722305298, -0.08764921873807907, 0.05186358839273453, -0.19090141355991364, 0.03904234617948532, -0.008267669007182121, -0.1989194005727768, 0.015182641334831715, -0.09513042122125626, -0.2324051707983017, 0.11556129902601242, 0.10873021930456161, 0.07271122932434082, 0.004991226363927126, -0.14089566469192505, -0.04479731619358063, -0.049249082803726196, 0.2550274729728699, 0.0893520787358284, -0.1970011442899704, 0.24750033020973206, -0.15567174553871155, -0.099721260368824, 0.17693741619586945, -0.22159747779369354, 0.028684550896286964, -0.042254719883203506, 0.03974906727671623, 0.0014079904649406672, 0.028179053217172623, -0.050111349672079086, -0.0850025936961174, -0.0997776985168457, 0.08987481892108917, -0.19582884013652802, -0.007204484660178423, 0.201807901263237, -0.005635297391563654, -0.06063765659928322, -0.19660088419914246, -0.07919864356517792, 0.04415474832057953, 0.12536175549030304, 0.09729422628879547, -0.2204265594482422, -0.026840168982744217, -0.05474242568016052, 0.07866384834051132, -0.15591353178024292, -0.09840551763772964, 0.23914581537246704, -0.2474927455186844, 0.07878462970256805, -0.031185854226350784, -0.0591052807867527, 0.024931039661169052, 0.052323322743177414, -0.1596713364124298, 0.01579073816537857, -0.049351997673511505, 0.043826840817928314, 0.19288310408592224, -0.05942275747656822, -0.04847438633441925, -0.15550580620765686, 0.06961354613304138, -0.020729150623083115, 0.11353492736816406, -0.2612505257129669, -0.035132430493831635, -0.009108961559832096, 0.12168799340724945, 0.09878015518188477, -0.08938981592655182, -0.029977668076753616, 0.18701297044754028, -0.01414397917687893, 0.08482973277568817, 0.009942407719790936, 0.16569124162197113, 0.07192357629537582, 0.14539703726768494, -0.12542301416397095, -0.0165476705878973, -0.010722069069743156, 0.02590337023139, 0.09041833877563477, -0.04240516200661659, -0.18298770487308502, -0.007072294596582651, -0.04687061533331871, 0.1259612888097763, -0.15513645112514496, -0.18826588988304138, -0.24503670632839203, 0.10017063468694687, 0.09199387580156326, -0.13366837799549103, 0.14239928126335144, 0.15865972638130188, -0.011721240356564522, 0.055503856390714645, 0.05532398074865341, -0.03705828636884689, 0.1421712338924408, -0.0524364598095417, 5.92526703258045e-08, 0.19140557944774628, -0.14310644567012787, 0.08752112090587616, 0.18281914293766022, -0.12562772631645203, 0.017537910491228104, -0.0918397530913353, -0.34012752771377563, 0.19398133456707, 0.113089919090271, 0.0945463553071022, -0.06104309856891632, -0.27878567576408386, 0.1271888166666031, 0.14394913613796234, -0.17705313861370087, 0.07887077331542969, -0.12057790160179138, -0.06695456802845001, -0.13316494226455688, -0.05763879790902138, 0.05702352896332741, -0.02741997502744198, 0.1316489726305008, 0.020137706771492958, -0.1986379325389862, -0.08137932419776917, 0.16145701706409454, 0.11405530571937561, -0.020242715254426003, -0.029266588389873505, 0.21783582866191864, -0.19413471221923828, 0.1391019970178604, 0.11922907829284668, 0.05890211835503578, -0.07321339100599289, 0.11321792751550674, 0.21264569461345673, 0.024878880009055138, 0.24882838129997253, -0.08064328134059906, -0.3359779417514801, 0.09612243622541428, -0.18121489882469177, -0.23761506378650665, 0.14653339982032776, -0.06643664836883545, 0.07673057913780212, 0.004241378046572208, 0.09808727353811264, 0.06055121868848801, -0.08096158504486084, -0.08840839564800262, 0.039792533963918686, -0.052552588284015656, 0.24500104784965515, -0.14221663773059845, -0.059798676520586014, 0.010910280048847198, -0.009042864665389061, -0.10655620694160461, 0.011664268560707569, 0.12939053773880005, 0.02180180884897709, -0.051508430391550064, -0.1231997162103653, -0.08186300843954086, 0.15981519222259521, -0.09668508172035217, 0.12747134268283844, -0.12118351459503174, 0.020569797605276108, 0.05305934324860573, 0.20558783411979675, 0.10361164063215256, 0.07821070402860641, -0.02306206151843071, -0.024600202217698097, -0.06320939213037491, -0.05178887024521828, 0.0017946737352758646, 0.09378663450479507, -0.1304072141647339, -0.002206670120358467, -0.1104658767580986, -0.03256552666425705, 0.1476251631975174, -0.10179289430379868, -0.2895027697086334, 0.12001391500234604, 0.09737841039896011, -0.05099189281463623, 0.06035112217068672, 0.038300253450870514, -0.2174331694841385, 0.003440970554947853, 0.03477183356881142, -0.04469834268093109, -2.944932202808559e-05, -0.06399420648813248, -0.009499317035079002, -0.27003946900367737, -0.43151506781578064, 0.2817242443561554, 0.026237955316901207, 0.009976057335734367, 0.040193986147642136, -0.09262002259492874, 0.026663584634661674, 0.08715739101171494, -0.02558174356818199, 0.03400026261806488, 0.002597829094156623, 0.12782737612724304, 0.03661218658089638, -0.1285034418106079, 0.07780288904905319, 0.05209560692310333, -0.10214769095182419, -0.12503258883953094, 0.03544209524989128, -0.16307185590267181, 0.2259691208600998, 0.1814373880624771, 0.20418187975883484, -0.16130413115024567, 0.10367953032255173, -0.14560075104236603, 0.03821717947721481, 0.13567449152469635, 0.14332172274589539, -0.030375370755791664, 0.1911890208721161, -0.02656303159892559, -0.0232278760522604, 0.2748815417289734, -0.008257311768829823, -0.06239321455359459, -0.03563618287444115, -0.09440268576145172, -0.013843064196407795, 0.017898932099342346, 0.06587934494018555, -0.22959913313388824, -0.09947486966848373, -0.02589668706059456, -0.07824230939149857, 0.04914941266179085, 0.030535239726305008, 0.1314041167497635, 0.0800752341747284, 0.12122264504432678, -0.01304548792541027, -0.04230792447924614, -0.12944388389587402, 0.21113012731075287, 0.06648711860179901, -0.11388885974884033, -0.027779066935181618, -0.0027223036158829927, 0.1062677651643753, -0.06463354080915451, 0.19783280789852142, 0.181707501411438, 0.05605040490627289, 0.1743418425321579, -0.0537688173353672, 0.1396002322435379, -0.0006545159267261624, 0.17775599658489227, -0.06770572811365128, -0.014667940326035023, -0.16601189970970154, -0.04774724319577217, 0.047023169696331024, 0.06720630824565887, -0.04481516778469086, 0.036712802946567535, -0.16451528668403625, 0.1122664287686348, -0.09646310657262802, -0.040692124515771866, 0.08078418672084808, 0.06945084780454636, 0.11263397336006165, 0.12378423660993576, 0.021018216386437416, 0.07607638835906982, -0.07150262594223022, -0.06541518121957779, 0.011326988227665424, 0.05740877240896225, -0.1071556806564331, 0.04834781587123871, 0.1182476356625557, -0.12809060513973236, 0.04525336995720863, 0.2103446125984192, 0.13935329020023346, 0.013979138806462288, -0.12268120050430298, -0.1633305847644806, -0.013608500361442566, 0.1751045137643814, -0.08774936199188232, -0.09629322588443756, -0.04167582839727402, 0.052307166159152985, -0.17565418779850006, -0.11074123531579971, 0.2016361653804779, -0.03448041155934334, -0.07242638617753983, -0.021046902984380722, -0.04874052852392197, 0.03973700478672981, 0.1063520535826683, -0.020705364644527435, -0.048473525792360306, -0.0365864597260952, -0.15267176926136017, 0.17849251627922058, 0.12950333952903748, 0.10005495697259903, -0.11005157232284546, 0.022067083045840263, -0.1657518893480301, 0.016995837911963463, -0.061524294316768646, -0.07510591298341751, 0.12387579679489136, -0.12094175070524216, -0.06201567128300667, 0.05978948250412941, -0.09889496117830276, 0.007481727283447981, -0.030380286276340485, 0.05865482613444328, 0.0877705067396164, 0.18076375126838684, -0.12275528162717819, -0.04710233584046364, -0.04807916283607483, 0.22920121252536774, 0.15779340267181396, -0.0963931679725647, -0.14071403443813324, -0.017009414732456207, -0.32730379700660706, 0.20283222198486328, 0.04697128012776375, 0.10703447461128235, 0.15030446648597717, -0.0018678304040804505, -0.09907017648220062, -0.005996695253998041, -0.07302847504615784, -0.002565274713560939, -0.17160245776176453, 0.08449240773916245, 0.054091520607471466, 0.13115844130516052, 0.028024354949593544, -0.032060395926237106, -0.2279009073972702, -0.10439791530370712, 0.11446674913167953, 0.03054662235081196, -0.11963594704866409, 0.05881756171584129, -0.0456552729010582, 0.08613800257444382, -0.02301757037639618, 0.13625836372375488, -0.027029696851968765, -0.14427103102207184, 0.07962118089199066, 0.010243905708193779, 0.06821074336767197, 0.01936628669500351, 0.029654813930392265, 0.17044728994369507, 0.01520257256925106, -0.10941467434167862, -0.13767500221729279, 0.04317053407430649, -0.16366201639175415, 0.10107183456420898, 0.06938035041093826, 0.09707455337047577, 0.047127027064561844, 0.1273496001958847, 0.14197996258735657, -0.07198332995176315, -0.21266570687294006, -0.09916169941425323, 0.33011218905448914, -0.07735839486122131, 0.09534908831119537, -0.028433246538043022, -0.03492281958460808, 0.2011672854423523, -0.05531652644276619, 0.034675080329179764, 0.045804645866155624, -0.01941671408712864, -0.10802742838859558, -0.16222116351127625, 0.054592810571193695, 0.1157136932015419, 0.05149012431502342, 0.14536292850971222, -0.150567427277565, -0.08011660724878311, 0.13539950549602509, 0.0015589020913466811, 0.22745104134082794, -0.005824679043143988, -0.14160770177841187, -0.1933201402425766, 0.013285561464726925, -0.032010238617658615, 0.14863766729831696, 0.1518193930387497, 0.015640323981642723, 0.041119009256362915, -0.0067541212774813175, 0.10133463889360428, 0.09242242574691772, -0.1483716368675232, -0.06305062770843506, 0.09053638577461243, 0.014179704710841179, -0.0006142696947790682, 0.01150508876889944, -0.03854960575699806, -0.058563921600580215, -0.030479956418275833, -0.10555046051740646, -0.13035720586776733, 0.07825760543346405, -0.2292891889810562, -0.0538262203335762, 0.15642870962619781, 0.2215401977300644, 0.037019889801740646, 0.212119460105896, 0.12618932127952576, -0.03974803909659386, 0.16856606304645538, 0.020895574241876602, -0.030633606016635895, 0.1313449740409851, -0.009113402105867863, -0.06890600174665451, -0.20952048897743225, -0.06230871379375458, 0.0159154050052166, 0.1982140988111496, 0.2378990203142166, -0.13835085928440094, -0.18708792328834534, 0.02864782325923443, 0.06787622720003128, 0.23739466071128845, 0.21471066772937775, -0.15771695971488953, -0.3502994477748871, -0.12910865247249603, 0.19487540423870087, 0.19858168065547943, 0.019385477527976036, 0.07379467040300369, 0.17586763203144073, -0.1596260517835617, 0.02803071215748787, 0.14347565174102783, -0.11465511471033096, 0.05667870491743088, -0.046302150934934616, -0.022464482113718987, 0.10751868039369583, 0.3233049809932709, -0.10947421193122864, 0.024567876011133194, -0.292967289686203, -0.22746771574020386, 0.15533606708049774, -0.08492093533277512, -0.1285344809293747, 0.009130011312663555, -0.006721735466271639, 0.04564591124653816, -0.0143339354544878, 0.06103631108999252, 0.13560067117214203, 0.09790464490652084, -0.0009891919326037169, 0.046249669045209885, -0.214111328125, -0.2672778367996216, -0.511504054069519, -0.06552086025476456, 0.21679598093032837, -0.06455483287572861, 0.13584685325622559, -0.025387708097696304, 0.25092247128486633, 0.08395395427942276, 0.25489452481269836, 0.003121797926723957, 0.18753550946712494, -0.21740920841693878, -0.005171532277017832, -0.21597640216350555, 0.1668945550918579, -0.1109471544623375, -0.01411353424191475, -0.06509409099817276, -0.002643882529810071, -0.03581942617893219, -0.013792706653475761, 0.10374604165554047, -0.09878001362085342, -0.09298384189605713, -0.10622391104698181, 0.20298956334590912, 0.03535598888993263, -0.1058569923043251, 0.10351762175559998, -0.12155772000551224, -0.1462956666946411, 0.037661172449588776, 0.17183473706245422, 0.29761385917663574, -0.03167189285159111, 0.1261487454175949, -0.1187814399600029, 0.03611773997545242, -0.04688739776611328, -0.0015597388846799731, 0.10927971452474594, 0.13330453634262085, -0.13090108335018158, -0.0010359951993450522, 0.06424235552549362, -0.09364830702543259, 0.12636181712150574, 0.05002857744693756, -0.10935644805431366, -0.10048478841781616, -0.19788843393325806, 0.17131708562374115, -0.1105671226978302, -0.15339812636375427, -0.08128085732460022, -0.1475997269153595, -0.16171817481517792, 0.10576116293668747, -0.08467889577150345, 0.12459085881710052, 0.05620545521378517, -0.02621653862297535, 0.008586438372731209, -0.08476041257381439, 0.15316830575466156, 0.2106999158859253, 0.0031146090477705, 0.1170450821518898, -0.11657649278640747, -0.10756619274616241, 0.0857677161693573, -0.0373772494494915, 0.01828526146709919, -0.025880202651023865, -0.02073659561574459, -0.13008622825145721, 0.07376478612422943, -0.024902386590838432, -0.08844289928674698, 0.06209154799580574, 0.049569353461265564, 0.04177280515432358, -0.2523368299007416, -0.046550869941711426, 0.04380199685692787, -0.1746186912059784, -0.15064235031604767, 0.139972522854805, -0.15231139957904816, -0.06478316336870193, 0.09799343347549438, -0.1863633096218109, 0.06901777535676956, 0.0162290520966053, 0.01360352337360382, -0.0017292629927396774, 0.19568203389644623, 0.08542037755250931, -0.06949017196893692, -0.11691995710134506, -0.2398364543914795, 0.15512195229530334, 0.14714868366718292, 0.2970729470252991, -0.07545491307973862, -0.054116636514663696, -0.1886928677558899, 0.003178421640768647, 0.10135941207408905, 0.2147551029920578, -0.19452200829982758, 0.05605044960975647, -0.24674583971500397, 0.08640233427286148, 0.0157606340944767, -0.15488633513450623, 0.15053696930408478, 0.032756634056568146, -0.003987847361713648, 0.17019793391227722, 0.06916750967502594, -0.011116391979157925, 0.1488826870918274, -0.06178845092654228, -0.09775836020708084, 0.09640929847955704, -0.22054065763950348, 0.011602330952882767, -0.06233079358935356, -0.1371258944272995, -0.08930528908967972, -0.11773008108139038, -0.011777135543525219, 0.2024744153022766, 0.04441634938120842, -0.1411723643541336, -0.08727838844060898, -0.040635839104652405, 0.08676844835281372, -0.06649909168481827, -0.10399840772151947, 0.11226163804531097, 0.025447236374020576, 0.17128179967403412, 0.08402422070503235, 0.16776017844676971, 0.09201151132583618, -0.14074201881885529, 0.026659324765205383, 0.001104028895497322, 0.13514047861099243, 0.08689343184232712, 0.17717315256595612, -0.19338445365428925, 0.01673181727528572, -0.24962282180786133, 0.0032373645808547735, -0.05535745620727539, 0.00993614923208952, 0.0881199836730957, -0.018767982721328735, -0.08577810972929001, 0.17148306965827942, 0.12942077219486237, -0.04653867334127426, 0.12086640298366547, -0.08747188001871109, 0.0347941517829895, 0.15359792113304138, -0.09641838818788528, -0.08140891045331955, -0.005165610462427139, -0.26181045174598694, -0.05177838355302811, 0.01599852554500103, 0.20943103730678558, 0.1455036699771881, 0.22112371027469635, -0.08564707636833191, 0.12134742736816406, -0.2496119886636734, -0.04840536043047905, 0.01312635000795126, 0.18882916867733002, 0.06787615269422531, 0.11894121766090393, -0.0022147707641124725, 0.055851828306913376, 0.0805349051952362, -0.19143076241016388, -0.12896159291267395, 0.03492865338921547, 0.023608699440956116, -0.09018424153327942, -0.17963837087154388, 0.05123228579759598, 0.047643374651670456, 0.12967854738235474, -0.19709022343158722, 0.01211790181696415, -0.20212234556674957, -0.06353417038917542, -0.07371996343135834, 0.0009827247122302651, -0.07218697667121887, -0.12126436829566956, 0.08656902611255646, 0.20548959076404572, 0.04993046447634697, 0.16632579267024994, -0.14169545471668243, -0.04612360894680023, -0.0013211354380473495, -0.08182228356599808, -0.021073590964078903, -0.09425042569637299, -0.10245080292224884, 0.02902951091527939, 0.12700772285461426, -0.20435425639152527, 0.053244415670633316, -0.052969831973314285, -0.09701079875230789, 0.08058220148086548, 0.12953995168209076, 0.10510209947824478, 0.06425897032022476, 0.04467065632343292, 0.05280560627579689, 0.09526161104440689, -0.10026644170284271, 0.16892972588539124, 0.2198837548494339, 0.19525325298309326, -0.030593760311603546, 0.012210431508719921, 0.05040643736720085, 0.07353618741035461, 0.250615656375885, 0.05568765476346016, -0.00446237763389945, -0.01771700754761696, -0.3149224817752838, 0.32512980699539185, 0.2633916735649109, -0.4690893888473511, 0.11687170714139938, -0.7305669188499451, -0.27741891145706177, -0.37542903423309326, 0.7519336938858032, -0.8992674350738525, -0.5932377576828003, -0.8857011198997498, 0.2574637532234192, -0.7744314670562744, 0.21400295197963715, -0.6463401317596436, -0.22187122702598572, -0.1996641904115677, -0.10059821605682373, 0.2383822202682495, 0.16119728982448578, 0.09975303709506989, -0.3259657919406891, -0.17111948132514954, -0.036630917340517044, 0.05736447498202324, 0.17246636748313904, -0.0005654369597323239, 0.2586928606033325, -0.07335161417722702, -0.15257278084754944, 0.15542124211788177, 0.1098484918475151, -0.09490612149238586, -0.06126443296670914, 0.13450808823108673, -0.3145808279514313, 0.3526080846786499, -0.21590617299079895, -0.2454090416431427, 0.008309726603329182, -0.21232204139232635, 0.060514774173498154, 0.0760391503572464, 0.06821649521589279, 0.060574233531951904, -0.007541608065366745, 0.3022652268409729, 0.05670228973031044, -0.06163880601525307, -0.005821504630148411, 0.03676985949277878, -0.04149961471557617, 0.1483892798423767, -0.004302463959902525, 0.12089210748672485, -0.16744710505008698, 0.018035683780908585, -0.22556859254837036, -0.0699189156293869, -0.020845944061875343, -0.03313117474317551, 0.12122489511966705, 0.057265251874923706, 0.2024218589067459, 0.172226220369339, -0.17765556275844574, -0.3067900836467743, -0.1264767050743103, -0.09239323437213898, 0.03528487682342529, 0.07080399245023727, -0.17112107574939728, 0.06819523125886917, 0.011698330752551556, 0.2815748155117035, 0.12115098536014557, 0.1498604565858841, 0.16379496455192566, 0.013659188523888588, 0.46417495608329773, 0.2113114446401596, 0.011862476356327534, -0.31154176592826843, 0.04786501079797745, -0.10759276896715164, 0.0655284896492958, 0.43576350808143616, -0.06343033909797668, -0.15247756242752075, -0.172794371843338, 0.042915571480989456, -0.2432645559310913, 0.16520759463310242, -0.05052279680967331, -0.23919253051280975, -0.22744809091091156, -0.04434565454721451, -0.13423483073711395, -0.06683681160211563, 0.15074889361858368, -0.2903152108192444, 0.10178966820240021, -0.023937249556183815, 0.1979440301656723, 0.12254843860864639, -0.04402687028050423, -0.0163193941116333, -0.2228996306657791, -0.1863812655210495, 0.11491049081087112, -0.12897755205631256, -0.05579562485218048, -0.22119629383087158, 0.07799850404262543, -0.08417029678821564, 0.03142690286040306, 0.2569940984249115, -0.3342810273170471, -0.338764488697052, 0.37396907806396484, -0.020364290103316307, -0.1030675396323204, 0.12817351520061493, 0.1582016944885254, -0.4678066074848175, -0.1447778046131134, 0.2648089826107025, 0.22333677113056183, 0.22461412847042084, 0.0714455172419548, -0.009009906090795994, 0.14430223405361176, -0.21863140165805817, 0.013997877016663551, 0.22290828824043274, -0.17463597655296326, 0.17155231535434723, -0.20062591135501862, -0.1146109402179718, -0.28438788652420044, 0.27999943494796753, 0.21950960159301758, -0.10389596223831177, 0.05813821032643318, 0.181681290268898, -0.2230547070503235, -0.2904851734638214, -0.27996233105659485, -0.17120429873466492, 0.002957693301141262, -0.08745969831943512, -0.07841550558805466, 0.01697009988129139, 0.21549101173877716, -0.13323037326335907, -0.06157631427049637, 0.23789143562316895, 0.0008418229990638793, 0.3020809292793274, -0.11456619948148727, 0.04760190099477768, -0.08035653084516525, 0.10375548899173737, 0.08447041362524033, -0.15662191808223724, 0.21607166528701782, -0.0011964720906689763, -0.02735740877687931, 0.0362715870141983, 0.2902398407459259, 0.01745225302875042, 0.180320143699646, -0.09569194912910461, 0.08857563138008118, -0.17479518055915833, -0.24427422881126404, -0.24662795662879944, -0.28314393758773804, 0.2715854346752167, -0.05842900648713112, 0.10378295928239822, -0.19566494226455688, -0.17774680256843567, 0.2705248296260834, 0.3243426978588104, -0.10488973557949066, -0.22964775562286377, 0.2784641683101654, 0.0033520476426929235, -0.1723245233297348, 0.25035902857780457, 0.1498173475265503, 0.37754589319229126, -0.2883088290691376, -0.20432081818580627, -0.14380119740962982, -0.11665009707212448, 0.013512165285646915, 0.24074207246303558, -0.40861064195632935, 0.24877023696899414, 0.2846948802471161, -0.10993590205907822, 0.06598217040300369, 0.14791882038116455, 0.12622764706611633, -0.04398322477936745, -0.1640944480895996, -0.17723673582077026, -0.225361168384552, 0.09159215539693832, 0.10035611689090729, -0.18566209077835083, -0.15839740633964539, 0.1383628100156784, -0.0955580621957779, -0.054416630417108536, -0.28289228677749634, -0.09109359234571457, 0.1807992309331894, -0.12712498009204865, 0.09859831631183624, -0.07747659832239151, 0.10136979073286057, 0.10369875282049179, -0.2043674886226654, 0.14005495607852936, -0.23727504909038544, -0.004087237641215324, 0.024581078439950943, 0.005586224142462015, 0.10479672998189926, 0.21228919923305511, 0.057058561593294144, 0.022331736981868744, 0.2454138696193695, 0.1584785431623459, 0.07812826335430145, -0.04677049070596695, 0.3057064414024353, 0.502214252948761, 0.14329606294631958, -0.2863931953907013, -0.19106638431549072, -0.2335890233516693, 0.22282913327217102, 0.215084508061409, -0.37035635113716125, -0.011502855457365513, -0.2486836463212967, 0.08301032334566116, -0.2552820146083832, 0.5359913110733032, 0.28317534923553467, 0.02088131383061409, 0.3041858971118927, -0.09672928601503372, -0.16827161610126495, -0.06679233908653259, -0.24758639931678772, 0.1388339251279831, -0.257546991109848, 0.15616028010845184, -0.2474967986345291, -0.12396593391895294, 0.20127417147159576, -0.026009175926446915, -0.19858936965465546, 0.5790854096412659, -0.24722209572792053, -0.040456049144268036, -0.07210644334554672, -0.037084244191646576, -0.09530952572822571, 0.01265759952366352, -0.13401293754577637, 0.03865422308444977, 0.10048847645521164, 0.09624610096216202, 0.06923001259565353, 0.019784793257713318, 0.06443804502487183, -0.11919666826725006, 0.04080409184098244, -0.22961276769638062, -0.12365704029798508, -0.0031954788137227297, 0.017309293150901794, -0.06525004655122757, -0.09525322169065475, 0.0661015585064888, -0.04821152240037918, 0.009051977656781673, -0.17092835903167725, -0.013929460197687149, -0.06130107864737511, -0.09239985793828964, -0.1287025809288025, -0.008971872739493847, 0.13364386558532715, 0.04847211763262749, -0.02818201668560505, 0.1109754741191864, 0.15726053714752197, -0.08403845131397247, -0.06504898518323898, 0.04740577191114426, 0.04674933850765228, 0.056612528860569, 0.10663659870624542, -0.12351097911596298, -0.1336984783411026, 0.08732100576162338, 0.04018155485391617, -0.11458056420087814, -0.08426135778427124, -0.07700666040182114, -0.11274666339159012, 0.0159964207559824, -0.07614905387163162, -0.03405890241265297, -0.009122995659708977, 0.11684078723192215, 0.11204420775175095, 0.06377663463354111, 0.2505760192871094, -0.07966633886098862, 0.13514244556427002, 0.0063477433286607265, 0.1134260892868042, 0.050631407648324966, -0.13483305275440216, 0.08228860050439835, -0.20070217549800873, 0.19108441472053528, -0.005480348598212004, -0.07745493203401566, 0.006420353893190622, -0.1513005644083023, 0.10152135044336319, -0.1806344836950302, 0.1976517140865326, 0.09833239763975143, 0.10536538809537888, -0.01352890208363533, -0.16538552939891815, -0.227117657661438, 0.15826630592346191, -0.06246918812394142, 0.04008191451430321, -0.027420593425631523, 0.04017188400030136, -0.10701566189527512, 0.08793915063142776, -0.13620388507843018, 0.06592299789190292, -0.14450088143348694, -0.07740344107151031, -0.01686680316925049, -0.01731248013675213, -0.10694529861211777, -0.2175690233707428, 0.14589746296405792, 0.009174131788313389, -0.06395581364631653, 0.19648799300193787, 0.052404750138521194, -0.02332530915737152, -0.1603214591741562, -0.17564056813716888, -0.06841425597667694, -0.028803100809454918, 0.16133517026901245, 0.053631410002708435, -0.054915182292461395, -0.07921727001667023, -0.2504911422729492, -0.03436972200870514, 0.0885668396949768, 0.2213647961616516, 0.2219315469264984, 0.22485338151454926, 0.27762433886528015, 0.2365797758102417, -0.03527238592505455, -0.0905090793967247, 0.32349178194999695, 0.038835227489471436, -0.11615919321775436, 0.17734459042549133, -0.16592124104499817, -0.026599500328302383, -0.12464563548564911, -0.24238285422325134, -0.1220610961318016, -0.2021791785955429, -0.17669734358787537, 0.08145108819007874, 0.0818556696176529, 0.3074513077735901, 0.18488390743732452, 0.20918014645576477, 0.19513921439647675, 0.010749989189207554, -0.15752382576465607, 0.14413705468177795, 0.127523735165596, 0.1833743453025818, -0.16570590436458588, -0.12279799580574036, 0.00028457920416258276, 0.3249756693840027, 0.08417166024446487, -0.011034916155040264, 0.0031930776312947273, -0.1356755793094635, 0.08480962365865707, -0.3215959072113037, -0.22383733093738556, -0.12895001471042633, 0.07332011312246323, 0.03768666461110115, 0.15400268137454987, 0.009837213903665543, 0.005830082111060619, -0.11806882172822952, -0.28984230756759644, -0.05065159127116203, -0.006336228922009468, -0.5268769264221191, -0.21888196468353271, -0.09315450489521027, -0.12344188988208771, 0.10091832280158997, -0.1230996623635292, -0.1382792443037033, -0.09008940309286118, 0.37793847918510437, 0.24004480242729187, -0.0033984214533120394, 0.29533225297927856, 0.12139876186847687, -0.1368628293275833, 0.06257446855306625, 0.020465092733502388, -0.022100577130913734, -0.11174134165048599, -0.09844278544187546, 0.07611420005559921, 0.15194569528102875, -0.07527751475572586, -0.13346995413303375, -0.11356617510318756, -0.01741744950413704, 0.05843759700655937, 0.06716975569725037, -0.00429001497104764, -0.009746520780026913, -0.29796844720840454, -0.11375171691179276, -0.2352984994649887, 0.11169182509183884, 0.04069264605641365, 0.016699476167559624, 0.13384553790092468, -0.13267982006072998, -0.20699442923069, 0.003963409923017025, 0.24468567967414856, 0.16845694184303284, 0.14419545233249664, -0.12078893184661865, 0.0240207239985466, 0.03767886012792587, 0.05832165107131004, 0.2135840654373169, 0.07279867678880692, 0.07564041763544083, 0.1245284229516983, 0.05476723238825798, -0.0809372290968895, -0.02323237620294094, -0.16522838175296783, 0.028739359229803085, 0.0018133372068405151, 0.0966344103217125, 0.23068997263908386, -0.06345925480127335, 0.022284936159849167, 0.2755766808986664, -0.08314599096775055, -0.03279126062989235, 0.06834118068218231, 0.02820858545601368, -0.0571153350174427, -0.0840379074215889, -0.04364996403455734, -0.12501271069049835, -0.06710198521614075, 0.10847479850053787, -0.07611453533172607, -0.1703300029039383, 0.05066569149494171, -0.07747060060501099, -0.06441361457109451, 0.05857251584529877, -0.09645310789346695, -0.10135284066200256, -0.11955152451992035, -0.06583356857299805, -0.003592276945710182, 0.03885994106531143, -0.20437587797641754, 0.1227467954158783, -0.17241276800632477, 0.2242831140756607, 0.3091776371002197, -0.003969147335737944, -0.08523862063884735, -0.08559110015630722, 0.07040000706911087, 0.018775787204504013, -0.06383945792913437, 0.12497812509536743, 0.0007945206598378718, 0.20505166053771973, -0.19726860523223877, 0.002999655669555068, 0.05197351053357124, -0.2395467907190323, 0.131773442029953, -0.05055208131670952, 0.008849958889186382, -0.03317078948020935, 0.346294105052948, 0.13213402032852173, -0.2003111094236374, 0.08843357861042023, 0.07520481944084167, 0.07173354178667068, -0.008134009316563606, 0.1878880262374878, -0.011730065569281578, -0.2305843085050583, 0.15060250461101532, -0.11357542872428894, 0.14032210409641266, 0.07717132568359375, -0.005931620951741934, -0.31209856271743774, 0.06468415260314941, 0.014923464506864548, 0.09167373180389404, -0.15068760514259338, -0.13712984323501587, -0.3273741602897644, -0.449686199426651, 0.027536733075976372, 0.2639029920101166, 0.10938111692667007, -0.12090852111577988, 0.12829764187335968, -0.1669238954782486, 0.16149859130382538, -0.04736548289656639, -0.38158491253852844, -0.07346654683351517, 0.17402882874011993, 0.03713545575737953, 0.05057544261217117, 0.03104574605822563, 0.12428884208202362, 0.15359877049922943, 0.044710054993629456, -0.145325168967247, -0.07837717235088348, -0.1210508868098259, 0.10614868998527527, 0.05152804031968117, -0.13754905760288239, 0.03840543329715729, 0.07472722232341766, -0.21923081576824188, -0.06935818493366241, 0.06120136007666588, 0.06593356281518936, 0.10462494194507599, -0.044138453900814056, -0.03279738873243332, -0.0997927263379097, -0.21841543912887573, 0.09397391974925995, -0.08827250450849533, -0.039679594337940216, 0.0032829702831804752, 0.052766501903533936, 0.1475597769021988, 0.18436874449253082, -0.11534862965345383, -0.04984215274453163, -0.13621902465820312, 0.149746373295784, 0.05483623594045639, 0.45760518312454224, 0.06272000074386597, -0.19399139285087585, -0.06455164402723312, -0.056148186326026917, 0.03936251252889633, -0.26258033514022827, -0.14046870172023773, 0.08074724674224854, 0.05842725560069084, 0.39321672916412354, 0.012348353862762451, -0.11244680732488632, 0.1022476777434349, -0.13838981091976166, 0.021267566829919815, -0.2654411494731903, 0.4009116291999817, -0.07136757671833038, -0.09213501214981079, 0.020920200273394585, 0.13685983419418335, -0.2500528395175934, 0.15843363106250763, 0.14612247049808502, 0.19058240950107574, 0.18698637187480927, 0.6390451788902283, 0.2507558763027191, -0.08858603984117508, 0.09897085279226303, -0.08245821297168732, -0.08340250700712204, 0.07668684422969818, 0.1441597044467926, 0.05745449289679527, -0.12490522861480713, 0.09592746943235397, 0.017661569640040398, 0.13293150067329407, 0.18515460193157196, -0.10145486891269684, -0.1182098314166069, 0.029236681759357452, 0.05414227023720741, 0.20148596167564392, -0.1757415235042572, -0.19143879413604736, -0.3440147638320923, -0.4434012472629547, 0.1396903097629547, 0.07338804006576538, 0.03158179298043251, -0.035765524953603745, -0.0543915294110775, -0.49359139800071716, 0.20515158772468567, 0.38184383511543274, 0.11695099622011185, -0.02336660400032997, 0.012772825546562672, 0.016296539455652237, 0.0681457370519638, 0.011838391423225403, 0.14342017471790314, 0.0516405925154686, 0.08847352117300034, 0.003166148206219077, -0.2275814563035965, -0.026187174022197723, -0.06694598495960236, -0.09456693381071091, 0.113855741918087, -0.014969637617468834, -0.0011568510672077537, 0.27892518043518066, -0.024170855060219765, -0.11731299757957458, 0.23498457670211792, 0.09832866489887238, -0.051748499274253845, -0.07769843935966492, 0.12165066599845886, -0.05519105866551399, -0.2029799073934555, -0.01113115530461073, 0.0015704062534496188, 0.045138463377952576, -0.06642115116119385, 0.08414760231971741, -0.23090451955795288, 0.057692911475896835, 0.006709004286676645, 0.06478501856327057, 0.016725381836295128, -0.08332544565200806, -0.18840391933918, 0.04873170331120491, -0.017168588936328888, 0.17767469584941864, -0.14587640762329102, -0.0621456615626812, 0.38040050864219666, -0.011782596819102764, -0.1221482902765274, 0.06275857239961624, -0.17543509602546692, -0.1342013031244278, 0.05151889845728874, 0.046096500009298325, 0.34810537099838257, 0.03620518371462822, 0.07039733976125717, -0.018422411754727364, 0.027523962780833244, 0.057131994515657425, -0.1195220872759819, -0.15370213985443115, -0.14964821934700012, 0.05164472013711929, 0.008770227432250977, 0.084415964782238, 0.1324659287929535, 0.09607274830341339, 0.031588636338710785, -0.04953891783952713, 0.052612464874982834, -0.187981516122818, -0.0067279464565217495, 0.10143004357814789, 0.016298092901706696, -0.19785776734352112, -0.12120824307203293, -0.0792989581823349, -0.04959533363580704, -0.01066218689084053, -0.023096254095435143, 0.017890257760882378, -0.14563681185245514, -0.0931001603603363, -0.07958410680294037, -0.14001935720443726, 0.02955794893205166, -0.1733032613992691, -0.3408135175704956, 0.005733381025493145, 0.05715148150920868, -0.006647544912993908, -0.0730927586555481, -0.26911506056785583, 0.20088325440883636, -0.2579847276210785, 0.3031565248966217, 0.10584358125925064, 0.2337924689054489, -0.06279250234365463, -0.21788890659809113, -0.041308339685201645, -0.08071500062942505, 0.2156778872013092, -0.27963921427726746, 0.23140443861484528, -0.05306528881192207, -0.5723750591278076, 0.02920268103480339, -0.03217650204896927, 0.038975853472948074, 0.0980113297700882, 0.06134964898228645, 0.19553424417972565, 0.04346787557005882, -0.043705087155103683, 0.13167564570903778, 0.05509568378329277, -0.06031244620680809, 0.0780496895313263, 0.09472078830003738, -0.1417168527841568, 0.01180196087807417, 0.06718471646308899, 0.1534126102924347, -0.07375640422105789, 0.11175950616598129, 0.11368145048618317, -0.11940670758485794, 0.08113518357276917, 0.20087964832782745, 0.0011704136850312352, 0.05039018765091896, 0.035679761320352554, 0.07646219432353973, -0.03977327421307564, 0.06956539303064346, -0.07478752732276917, 0.04767796769738197, -0.07805947214365005, 0.09463859349489212, 0.1455651968717575, -0.2032616287469864, 0.25645866990089417, 0.07190775871276855, -0.014968263916671276, -0.03603336587548256, 0.14186334609985352, -0.1769300401210785, -0.048787474632263184, -0.1298874169588089, 0.09397411346435547, -0.1150716245174408, 0.05559385195374489, -0.2345765084028244, 0.0896587073802948, 0.03613394498825073, -0.21696114540100098, 0.30435213446617126, 0.03649209067225456, -0.3393288850784302, 0.12569059431552887, 0.058583736419677734, -0.04610271006822586, 0.5017856359481812, -0.20281381905078888, -0.03519868105649948, 0.3694761097431183, 0.0676736831665039, 0.095267154276371, -0.19692978262901306, 0.005651515908539295, -0.09654048830270767, -0.518989622592926, -0.060638800263404846, -0.0842490866780281, 0.2109348326921463, 0.2524016499519348, 0.055941347032785416, -0.36031875014305115, -0.24434611201286316, -0.17949031293392181, 0.22256796061992645, 0.011178034357726574, -0.06549704074859619, -0.5985007882118225, -0.14629605412483215, -0.26860252022743225, 0.21679078042507172, -0.07202718406915665, -0.42261072993278503, 0.40416115522384644, 0.13888566195964813, 0.43198519945144653, -0.009712805040180683, -0.08838241547346115, -0.3536517918109894, 0.3008248507976532, -0.11031710356473923, 0.037673112004995346, 0.15151245892047882, 0.2380305975675583, -0.14278453588485718, 0.18848364055156708, -0.046115364879369736, -0.01567433960735798, 0.025361185893416405, 0.07063803821802139, 0.13974688947200775, -0.34958964586257935, 0.01761762984097004, -0.17809350788593292, -0.14268940687179565, 0.08418111503124237, -0.05409684404730797, -0.1497497856616974, 0.07938650995492935, 0.0020971507765352726, 0.09708128869533539, -0.034779131412506104, 0.04953296110033989, 0.15732333064079285, -0.10480204969644547, 0.22010129690170288, -0.1496409773826599, -0.002989925676956773, -0.10743723064661026, 0.078992560505867, 0.1088922992348671, -0.10775552690029144, -0.044801317155361176, -0.09861814975738525, 0.1420823633670807, 0.07682377099990845, 0.09738119691610336, 0.1320052593946457, -0.10618969053030014, 0.10848382860422134, 0.026647135615348816, -0.12381566315889359, 0.2667233645915985, 0.09842876344919205, -0.004937306512147188, 0.13941481709480286, 0.20105773210525513, -0.08820046484470367, -0.07850129902362823, -0.11020039767026901, -0.07936649769544601, 0.0492459237575531, 0.36118248105049133, -0.25408703088760376, 0.13067427277565002, 0.02657964825630188, -0.06639770418405533, 0.16117006540298462, -0.09708145260810852, -0.1709785908460617, 0.16285084187984467, -0.07649575918912888, -0.1880979984998703, -0.043990153819322586, -0.13707172870635986, 0.09558524936437607, -0.2018720805644989, 0.05281533673405647, 0.12020178139209747, 0.016408581286668777, 0.09298406541347504, -0.054958734661340714, 0.1762467920780182, 0.01809573732316494, -0.027205564081668854, -0.04328819364309311, 0.1097048744559288, -0.051338471472263336, 0.04380454495549202, -0.05367518961429596, -0.06688385456800461, -0.03114296682178974, 0.12176033109426498, 0.12041006237268448, 0.08319642394781113, -0.07093172520399094, -0.15460890531539917, -0.06806143373250961, -0.0020762074273079634, 0.012458288110792637, 0.009964046999812126, -0.0687292143702507, -0.00914888083934784, 0.14226864278316498, 0.14709033071994781, -0.16629382967948914, -0.2618294954299927, -0.10464577376842499, 0.011719965375959873, -0.3397332429885864, 0.31076523661613464, -0.1185111477971077, 0.02783346176147461, 0.05800408497452736, 0.18655753135681152, 0.07704655081033707, 0.05090664327144623, 0.1154550239443779, -0.24423478543758392, -0.21984288096427917, 0.010141460224986076, -0.35612136125564575, -0.2756529450416565, -0.020295795053243637, -0.10816708207130432, -0.06487934291362762, -0.253578782081604, 0.18116122484207153, 0.20237286388874054, -0.14257657527923584, -0.047591231763362885, 0.024980388581752777, -0.08520461618900299, 0.07774922996759415, 0.13808603584766388, 0.006726170424371958, 0.02315739542245865, -0.22881336510181427, 0.07790733873844147, 0.10920873284339905, 0.09381008893251419, 0.0572701133787632, -0.09460832178592682, -0.08694693446159363, 0.05029904469847679, 0.011594801209867, -0.02817537449300289, 0.006193243432790041, -0.17544715106487274, -0.005026253405958414, 0.0239731278270483, -0.08766521513462067, -0.11721517145633698, 0.13396196067333221, -0.03274130821228027, -0.18018265068531036, -0.06322479993104935, -0.016026504337787628, 0.04302162677049637, 0.23571211099624634, -0.11280686408281326, 0.09479787200689316, 0.08526849746704102, -0.08227837830781937, 0.09331861883401871, 0.20938308537006378, -0.0920054242014885, 0.19738934934139252, 0.11872418969869614, -0.09180250763893127, 0.12845487892627716, 0.16852974891662598, 0.12326393276453018, 0.10488016903400421, 0.04527794197201729, 0.07455798238515854, -0.22615988552570343, -0.14071688055992126, -0.06031154468655586, -0.004804675467312336, 0.08203209936618805, 0.07084418833255768, -0.024653349071741104, 0.05581090599298477, -0.05185995250940323, 0.057174909859895706, 0.04402520880103111, -0.01663515344262123, -0.10703162848949432, -0.08455730229616165, -0.07763703912496567, -0.055398087948560715, 0.1053008958697319, -0.13354942202568054, 0.23998035490512848, 0.13581860065460205, 0.14175303280353546, 0.2600693106651306, -0.19230827689170837, -0.0813712403178215, 0.12388502061367035, 0.0026971478946506977, 0.2668894827365875, -0.02763352170586586, -0.06148187071084976, -0.002296965103596449, 0.2274104803800583, 0.17694005370140076, -0.01732805371284485, 0.05464472249150276, 0.012482303194701672, -0.01951964758336544, 0.06742726266384125, -0.019066575914621353, -0.03409188613295555, -0.04233371093869209, 0.06710467487573624, 0.08890534192323685, 0.0934268981218338, 0.03811663016676903, -0.07158388197422028, 0.0002702664933167398, -0.009806807152926922, -0.06466618925333023, -0.17895954847335815, -0.5084445476531982, 0.9776427745819092, 0.1743420958518982, -0.36554884910583496, -0.04622476547956467, -0.13740508258342743, -0.2463584542274475, 0.4812982380390167, -0.6966418623924255, 0.9898715019226074, 0.3656855523586273, 0.14074823260307312, -0.2842555344104767, 0.3329852223396301, -0.68316650390625, 0.050074778497219086, -0.03785347566008568, -0.035875413566827774, 0.07135111093521118, 0.0602412112057209, 0.18039396405220032, 0.029789714142680168, 0.0888601616024971, 0.12820051610469818, 0.07592546194791794, 0.15610601007938385, 0.06306499987840652, -0.14117538928985596, 0.12217786908149719, -0.23228153586387634, -0.009006424807012081, 0.028603404760360718, 0.22261889278888702, 0.09347265958786011, 0.4316772222518921, 0.20148436725139618, -0.052971821278333664, 0.1111353188753128, -0.4922342598438263, -0.19255174696445465, 0.18127505481243134, -0.006641603074967861, 0.13125768303871155, -0.01842200756072998, 0.2651931643486023, -0.12740541994571686, -0.28124570846557617, 0.10136812925338745, -0.21299836039543152, -0.012957105413079262, -0.14609086513519287, 0.0986609011888504, -0.055505529046058655, -0.11114930361509323, -0.35679754614830017, 0.07667826861143112, 0.0904955044388771, -0.34416845440864563, -0.22667226195335388, 0.2749752700328827, -0.08596723526716232, -0.1394312083721161, 0.11021704971790314, 0.26421427726745605, -0.008777506649494171, 0.2703813910484314, -0.092994324862957, -0.19611570239067078, 0.16825316846370697, -0.28054046630859375, 0.26287052035331726, 0.02289150469005108, -0.16036182641983032, 0.07228081673383713, 0.03590105101466179, 0.1505083441734314, 0.22873468697071075, 0.19297321140766144, -0.17143617570400238, 0.11602405458688736, -0.1313423067331314, 0.14172756671905518, -0.02252812497317791, 0.14728213846683502, -0.11838831007480621, 0.15990006923675537, -0.0293688103556633, -0.007908403873443604, -0.006006396375596523, -0.08343350887298584, 0.007864194922149181, -0.025900105014443398, -0.01516776718199253, 0.13532313704490662, -0.059865936636924744, 0.047807514667510986, -0.245314359664917, -0.012736069969832897, -0.16760915517807007, -0.07232946902513504, -0.04932190850377083, 0.41160526871681213, -0.007912825793027878, -0.09921082854270935, -0.14829222857952118, 0.010548992082476616, 0.21180495619773865, 0.043531037867069244, 0.22367605566978455, 0.32752329111099243, 0.06271769106388092, -0.011474673636257648, 0.18500031530857086, -0.21493810415267944, 0.08789519965648651, 0.11688274145126343, -0.046739064157009125, -0.10772483795881271, -0.08626749366521835, -0.07274939119815826, 0.020040882751345634, 0.0610642246901989, -0.21323147416114807, 0.16915751993656158, 0.13374976813793182, -0.03825635835528374, 0.06608039140701294, 0.15806689858436584, 0.08330104500055313, -0.1290477216243744, -0.15584537386894226, 0.0621521957218647, -0.14747364819049835, 0.03081156685948372, -0.13525210320949554, 0.006054647266864777, 0.014940164051949978, 0.16350865364074707, 0.14748939871788025, -0.005256839096546173, 0.06462346762418747, 0.0968886986374855, 0.0035276077687740326, -0.2435566782951355, 0.5369465351104736, -0.05029847472906113, 0.22672709822654724, -0.004972257651388645, -0.12106138467788696, -0.28764596581459045, -0.09064127504825592, -0.12379691749811172, 0.016849275678396225, 0.18697640299797058, 0.2642042636871338, -0.12110679596662521, -0.024305256083607674, 0.13240979611873627, -0.16607263684272766, 0.20943810045719147, -0.19869022071361542, -0.1523638516664505, 0.16222280263900757, 0.07816267758607864, 0.30459681153297424, 0.012004763819277287, -0.0082190977409482, -0.052118051797151566, 0.03541640564799309, 0.1589176207780838, 0.10914022475481033, 0.0010861695045605302, 0.16605697572231293, 0.1919967532157898, 0.14157795906066895, 0.332278311252594, -0.1816335767507553, -0.22305338084697723, -0.30660945177078247, 0.15545764565467834, -0.16479896008968353, 0.11563511192798615, -0.07896621525287628, 0.26800039410591125, 0.07282645255327225, -0.1730371117591858, 0.2849518656730652, -0.1641375869512558, -0.23953618109226227, 0.10222383588552475, 0.2726270258426666, 0.15866224467754364, 0.04688152298331261, 0.06367045640945435, -0.12942829728126526, -0.21858637034893036, 0.2596690058708191, 0.20231813192367554, 0.22657735645771027, -0.4280422627925873, -0.24622772634029388, -0.14448463916778564, 0.30673882365226746, -0.05396032705903053, -0.0066883559338748455, 0.23564547300338745, 0.13883265852928162, -0.38788658380508423, -0.007982068695127964, 0.15324310958385468, 0.03946210816502571, 0.11004697531461716, 0.28209495544433594, -0.40691077709198, -0.12375278770923615, 0.10415790230035782, -0.13692913949489594, -0.1538221389055252, -0.14002107083797455, 0.008991237729787827, 0.08636955916881561, 0.03279401361942291, -0.2286614626646042, -0.3040659725666046, 0.3933790624141693, -0.08004820346832275, 0.14010603725910187, -0.24154667556285858, -0.13781051337718964, 0.03689153864979744, -0.1872624158859253, -0.1446743756532669, -0.15903106331825256, 0.5010507702827454, 0.04690328240394592, 0.08099237084388733, 0.34988707304000854, -0.13381709158420563, -0.17480167746543884, 0.14927254617214203, 0.1455143839120865, -0.10764466971158981, -0.03419770300388336, -0.13624438643455505, -0.18256312608718872, 0.14419108629226685, -0.38402479887008667, 0.09658590704202652, 0.18774515390396118, 0.0997101217508316, 0.3144952058792114, -0.007314743008464575, 0.13856089115142822, 0.2796270549297333, -0.18856164813041687, -0.05107788369059563, -0.10750014334917068, -0.29499781131744385, -0.035877928137779236, -0.0443686917424202, -0.042440712451934814, 0.17724846303462982, -0.23096801340579987, 0.020468594506382942, 0.2586694061756134, 0.21852484345436096, 0.43449273705482483, -0.17841073870658875, -0.23429988324642181, -0.11221320182085037, 0.19438062608242035, 0.09738707542419434, -0.03198380023241043, -0.00784384086728096, 0.148746058344841, -0.09650009870529175, 0.14171989262104034, 0.04472159966826439, -0.022664304822683334, -0.1869668960571289, -0.1053418517112732, 0.031776782125234604, 0.09588050097227097, 0.2208787351846695, 0.09803219139575958, 0.06843074411153793, 0.09130342304706573, 0.05429345741868019, 0.05348890647292137, 0.04369771108031273, -0.42470061779022217, -0.11067558079957962, 0.10758725553750992, -0.14574705064296722, -0.06209036335349083, -0.25937744975090027, -0.08508411794900894, 0.13655969500541687, -0.17105408012866974, 0.03355129063129425, -0.21245287358760834, -0.12570923566818237, 0.12752193212509155, -0.05418922379612923, 0.19366851449012756, 0.025328408926725388, -0.045022644102573395, -0.06346495449542999, -0.09917004406452179, 0.026639895513653755, 0.1619068831205368, 0.02857794426381588, -0.13728030025959015, -0.17789646983146667, -0.07575152814388275, 0.24732406437397003, 0.3500836193561554, -0.15401196479797363, 0.056757379323244095, 0.09211891889572144, 0.12012851238250732, 0.02503623440861702, -0.20034831762313843, -0.13791367411613464, 0.003454244928434491, -0.15147735178470612, 0.014292788691818714, -0.08863919228315353, -0.20776323974132538, -0.1491779386997223, -0.2540854811668396, -0.039482131600379944, 0.015893545001745224, 0.039681583642959595, 0.23045267164707184, -0.027838341891765594, 0.16327081620693207, 0.055951137095689774, 0.04228634387254715, -0.147535040974617, 0.040557295083999634, -0.0523759163916111, -0.0634259507060051, 0.10887150466442108, -0.21551232039928436, 0.28557226061820984, 0.0641690045595169, 0.03340337797999382, 0.05057563632726669, 0.0555122084915638, 0.09722187370061874, -0.18304593861103058, -0.028257472440600395, -0.1801822930574417, 0.012643598020076752, 0.11375893652439117, -0.09131250530481339, -0.16092665493488312, -0.287860631942749, 0.0024359251838177443, 0.10986988246440887, -0.033089667558670044, 0.028361106291413307, 0.298781156539917, -0.07411812990903854, 0.038099803030490875, 0.18031711876392365, 0.2727733850479126, -0.049891147762537, 0.06605405360460281, 0.03508772328495979, -0.10168084502220154, 0.00810127705335617, -0.14519983530044556, -0.137212336063385, 0.05888545140624046, -0.20963823795318604, 0.1650553196668625, -0.029182499274611473, -0.02044302597641945, 0.002812971593812108, 0.027085959911346436, 0.023003078997135162, -0.14300821721553802, -0.017249183729290962, 0.009538750164210796, 0.2947732210159302, -0.45481863617897034, -0.09288971871137619, -0.24178297817707062, -0.20727010071277618, 0.3110419809818268, -0.09510573744773865, 0.34028923511505127, -0.2584712505340576, 0.15922607481479645, -0.06950954347848892, 0.004813598468899727, -0.030134696513414383, -0.19743092358112335, -0.01239317748695612, -0.03923937678337097, 0.026253173127770424, -0.16636067628860474, 0.06810364872217178, -0.059913281351327896, 0.13238325715065002, -0.12184936553239822, 0.028490472584962845, -0.024727612733840942, 0.07084125280380249, 0.06174716725945473, 0.017295340076088905, 0.006575893610715866, 0.0721852108836174, 0.0018314588814973831, 0.05145353823900223, 0.17005331814289093, -0.34337687492370605, -0.07705482840538025, 0.1490488499403, -0.11341571807861328, -0.15657444298267365, -0.08211509883403778, -0.23839333653450012, 0.07042989879846573, -0.339359849691391, -0.02916843071579933, 0.0008965942542999983, -0.09263798594474792, 0.10322273522615433, 0.05015065521001816, 0.2123284637928009, -0.13073427975177765, 0.09560908377170563, -0.2534090280532837, -0.060569193214178085, 0.035872552543878555, 0.10269849747419357, 0.04156311973929405, 0.008093493990600109, 0.1569453328847885, -0.13150447607040405, -0.039003681391477585, 0.09491679072380066, 0.0010968154529109597, -0.0736360251903534, -0.1493247002363205, 0.13927167654037476, 0.1509922593832016, -0.07503051310777664, -0.03750236704945564, -0.036130279302597046, 0.0003348147729411721, 0.16942255198955536, 0.2251075655221939, -0.18640339374542236, -0.23037360608577728, -0.26671403646469116, 0.19707635045051575, 0.11982937902212143, -0.009306876920163631, 0.22796115279197693, 0.024613015353679657, 0.06934627145528793, 0.20833154022693634, 0.06322657316923141, 0.06923756748437881, 0.11906493455171585, -0.25689879059791565, 0.2275288850069046, -0.053108103573322296, -0.2909851372241974, -0.15239040553569794, -0.0210786834359169, 0.12689940631389618, -0.0940423533320427, 0.06573682278394699, -0.0030473892111331224, 0.20992060005664825, 0.0770648717880249, -0.09461132436990738, 0.06514095515012741, 0.08171570301055908, -0.06422731280326843, -0.06533374637365341, 0.2606876790523529, 0.0911075696349144, 0.1221323311328888, 0.20617404580116272, -0.0926419198513031, -0.04200807958841324, -0.160659521818161, -0.0734739601612091, -0.2617647349834442, 0.044243987649679184, 0.18971450626850128, 0.09409543126821518, -0.027770886197686195, 0.012992269359529018, -0.03353894129395485, -0.019912470132112503, 0.02672579325735569, 0.10334046185016632, 0.10091891139745712, -0.18909670412540436, -0.37725552916526794, -0.12602189183235168, -0.12488796561956406, 0.0463188998401165, 0.18198765814304352, -0.0006461102748289704, -0.20938202738761902, 0.013573731295764446, -0.18688619136810303, 0.23887020349502563, 0.2188982218503952, 0.017786458134651184, 0.2436230480670929, -0.016292795538902283, -0.1641225814819336, 0.016449149698019028, -0.008162404410541058, 0.2508869469165802, 0.08501385152339935, -0.0491284616291523, 0.2398732304573059, -0.12060581892728806, 0.07701151818037033, -0.05971844121813774, -0.23111487925052643, -0.38905641436576843, 0.2908344268798828, 0.23730404675006866, 0.5916080474853516, 0.44446271657943726, -0.2888386845588684, -0.0043495893478393555, 0.0993378534913063, 0.2715291678905487, -0.19217145442962646, -0.017616497352719307, -0.12857194244861603, -0.2958511412143707, -0.16107822954654694, -0.06707217544317245, 0.16554442048072815, 0.07898683100938797, 0.050553496927022934, -0.14365297555923462, -0.3631162643432617, -0.11025401949882507, 0.14778567850589752, 0.028407186269760132, 0.23035457730293274, 0.43489551544189453, -0.37737247347831726, 0.20814239978790283, 0.416941374540329, -0.12940265238285065, 0.055098410695791245, 0.12236911058425903, 0.014151331037282944, -0.1427268236875534, -0.056422244757413864, -0.05984107032418251, -0.13433003425598145, -0.14939258992671967, 0.0236226674169302, 0.2225697785615921, -0.09514982998371124, -0.20203863084316254, 0.4495239853858948, 0.5549946427345276, -0.492404967546463, 0.24668164551258087, 0.10903910547494888, -0.14197379350662231, 0.34800344705581665, 0.18386033177375793, -0.04770250618457794, 0.4516744613647461, 0.11817939579486847, -0.314470112323761, 0.06868525594472885, -0.22302158176898956, -0.4452346861362457, -0.17144732177257538, -0.010175484232604504, -0.08748514950275421, -0.2735099494457245, -0.09199456870555878, 0.16232724487781525, -0.015292803756892681, -0.08725046366453171, -0.10172919183969498, 0.05780521407723427, 0.022032737731933594, 0.11376816779375076, 0.19855108857154846, 0.10334937274456024, -0.10818285495042801, -0.3072205185890198, 0.035613350570201874, 0.3301519453525543, 0.13744953274726868, 0.05943892523646355, -0.014527635648846626, 0.03631318360567093, -0.2963953912258148, -0.46301570534706116, 0.26089563965797424, -0.046941984444856644, -0.15546199679374695, 0.18262456357479095, 0.03500921651721001, -0.22321054339408875, -0.07524600625038147, 0.17446289956569672, 0.07452722638845444, 0.0620645247399807, -0.028033841401338577, -0.3827809691429138, 0.03389883041381836, 0.02110854722559452, -0.1949770450592041, -0.005134204402565956, 0.22341394424438477, -0.032301176339387894, 0.0293511301279068, -0.03850526362657547, 0.15055875480175018, -0.09871260076761246, 0.2285509705543518, -0.03303048014640808, -0.1835322231054306, 0.11700038611888885, 0.10015261173248291, -0.15379883348941803, -0.13779349625110626, -0.02042132429778576, 0.05378752201795578, -0.08564938604831696, -0.03389416262507439, -0.1508311629295349, -0.007947455160319805, 0.019311394542455673, 0.19218775629997253, -0.01013813354074955, -0.031637661159038544, -0.1754547506570816, 0.06625677645206451, 0.02573743462562561, -0.100784070789814, 0.043785326182842255, -0.20538489520549774, -0.09945569932460785, -0.022740203887224197, 0.08613049238920212, 0.19769352674484253, 0.08063950389623642, -0.034535109996795654, 0.21662524342536926, -0.10499384999275208, -0.12397568672895432, -0.04563062638044357, -0.23517577350139618, 0.19245709478855133, 0.09443346410989761, -0.0872461348772049, 0.08420757204294205, -0.010359713807702065, 0.263996958732605, 0.13265225291252136, -0.3399348258972168, -0.13929495215415955, -0.0797649472951889, -0.2504073679447174, -0.4002750813961029, -0.11997364461421967, -0.10272036492824554, -0.20865514874458313, -0.1088433787226677, -0.19218884408473969, 0.020172014832496643, 0.03139786049723625, -0.09899204224348068, 0.13509315252304077, -0.06773711740970612, -0.14520393311977386, -0.12336307018995285, -0.10190016031265259, -0.060398709028959274, -0.12417271733283997, -0.026969321072101593, 0.10668901354074478, -0.002743466990068555, -0.037762630730867386, 0.3091917634010315, 0.22805994749069214, 0.4982589781284332, -0.03333640098571777, -0.10912244021892548, -0.22122062742710114, 0.31612980365753174, 0.11044581979513168, 0.0441436804831028, 0.11331533640623093, -0.08202208578586578, -0.002709015039727092, -0.10867183655500412, 0.06111064925789833, -0.055269766598939896, -0.0375765785574913, 0.10766801983118057, -0.06638549268245697, 0.0960683673620224, 0.1230536550283432, 0.3688417375087738, 0.027316680178046227, 0.22405128180980682, -0.10993517190217972, 0.11295932531356812, -0.26083362102508545, 0.03207981586456299, 0.47451063990592957, 0.17270120978355408, 0.15788130462169647, 0.10812387615442276, 0.09507831931114197, -0.010760996490716934, -0.05280320718884468, 0.008812179788947105, 0.23514141142368317, -0.18320688605308533, -0.02923373132944107, -0.02029668726027012, 0.03958926722407341, -0.10065529495477676, -0.05178605765104294, -0.1455441415309906, -0.029210563749074936, 0.1678483486175537, 0.15083783864974976, -0.027358613908290863, -0.10230959206819534, -0.11918412894010544, 0.1654510349035263, 0.05928778275847435, 0.11957550048828125, 0.23750226199626923, -0.05630113556981087, -0.026224471628665924, -0.06260533630847931, -0.14117693901062012, 0.027302619069814682, -0.027165068313479424, -0.194902241230011, -0.06559814512729645, 0.01759408786892891, -0.2905268967151642, 0.011938298121094704, -0.11213871091604233, 0.050581879913806915, 0.2628255784511566, -0.11937020719051361, 0.1836562603712082, 0.10082030296325684, -0.04260258376598358, 0.06744448095560074, 0.14663061499595642, 0.280679315328598, 0.7314587831497192, 0.08885549008846283, 0.3979213833808899, 0.7889487147331238, 0.02131190150976181, 0.032461002469062805, -0.1007215678691864, -0.12097464501857758, 0.01636209338903427, 0.07661478966474533, 0.0238911472260952, 0.021610122174024582, -0.07265929877758026, 0.1526504009962082, 0.028026413172483444, -0.07555662095546722, -0.08371728658676147, -0.0025666875299066305, -0.03997165337204933, 0.10607638955116272, -0.0626644417643547, 0.08698130398988724, -0.056655995547771454, 0.14384585618972778, -0.07472987473011017, 0.15395833551883698, 0.1889301836490631, 0.24580799043178558, -0.1997864693403244, -0.18009129166603088, -0.26255154609680176, 0.10340800881385803, -0.02297496795654297, 0.03493106737732887, 0.0951421931385994, -0.1678267866373062, -0.18564066290855408, 0.08615756779909134, 0.0959685891866684, 0.24701371788978577, 0.2962716221809387, 0.17453843355178833, 0.17574916779994965, 0.015673942863941193, 0.09698639810085297, -0.014202745631337166, -0.08971086889505386, 0.04426572844386101, -0.049532342702150345, -0.15971174836158752, -0.31378495693206787, -0.15166683495044708, -0.06256957352161407, -0.027782754972577095, -0.05817907303571701, -0.1947736144065857, -0.13678930699825287, 0.14579173922538757, -0.014700823463499546, -0.06734894216060638, 0.0014733831631019711, 0.10099954158067703, -0.05506862327456474, -0.14754943549633026, 0.05390719696879387, 0.002359581645578146, 0.2192469835281372, -0.07931479066610336, -0.13152417540550232, -0.036581769585609436, -0.254846453666687, -0.004082662519067526, 0.0059166220016777515, 0.07979723811149597, -0.29916253685951233, -0.1482304334640503, 0.11617455631494522, -0.08647498488426208, -0.10607326030731201, 0.14006765186786652, 0.21279211342334747, -0.052454520016908646, 0.20992550253868103, -0.02210737019777298, 0.09700994938611984, -0.21614030003547668, -0.24931171536445618, -0.06588421761989594, -0.011348053812980652, -0.4792816638946533, 0.042900778353214264, -0.0011497149243950844, 0.1443089097738266, 0.058340370655059814, 0.2566838264465332, -0.15548400580883026, -0.28096792101860046, 0.03646005690097809, -0.04075021669268608, -0.09988698363304138, -0.19283579289913177, -0.00983765721321106, -0.09087763726711273, 0.11492804437875748, 0.01847495511174202, -0.12480370700359344, 0.2899858057498932, -0.13921049237251282, -0.12647627294063568, -0.11103469133377075, 0.08225883543491364, -0.03916047886013985, 0.2198958843946457, 0.09474097937345505, 0.14037449657917023, -0.38362354040145874, 0.1308842897415161, -0.16248683631420135, 0.033628955483436584, 0.17611432075500488, -0.03580325469374657, 0.09575369209051132, 0.024786947295069695, -0.04201656952500343, 0.05649084597826004, -0.07481059432029724, 0.14670298993587494, -0.0339987687766552, 0.12780597805976868, 0.07524584233760834, -0.24847528338432312, -0.032220397144556046, 0.09421016275882721, 0.08551964163780212, -0.10757389664649963, -0.009870951063930988, 0.19383294880390167, 0.2197340428829193, 0.18711262941360474, 0.1989530473947525, -0.18290409445762634, 0.1854817420244217, 0.05234724283218384, 0.3174755275249481, -0.18802866339683533, 0.10963313281536102, 0.3503304123878479, -0.13177050650119781, 0.1386730670928955, -0.19002942740917206, 0.005814605858176947, 0.049041565507650375, 0.022923855111002922, 0.13336080312728882, -0.018202630802989006, 0.16323022544384003, 0.21269965171813965, 0.04554678499698639, 0.10506090521812439, 0.14649583399295807, -0.20277360081672668, 0.08622833341360092, -0.10895072668790817, 0.008126038126647472, -0.043960828334093094, 0.02985016256570816, 0.08161286264657974, -0.11576139181852341, 0.2849133014678955, 0.13473056256771088, -0.21409639716148376, 0.19070878624916077, 0.01973665878176689, -0.3753831684589386, 0.11375868320465088, 0.029013050720095634, -0.0589439682662487, -0.14291279017925262, 0.10507123917341232, 0.03854750841856003, 0.14034846425056458, -0.09236796200275421, -0.01908099092543125, 0.024760708212852478, 0.13041001558303833, 0.104497030377388, 0.04587931931018829, -0.14807459712028503, 0.02845705859363079, 0.4474315941333771, 0.11303875595331192, -0.44655641913414, -0.2902509272098541, -0.09468825906515121, -0.15294042229652405, 0.5610618591308594, -0.11393926292657852, -0.030940594151616096, 0.2848472595214844, 0.02524949610233307, -0.16778485476970673, -0.25183603167533875, 0.13034255802631378, -0.1317749321460724, -0.36130914092063904, 0.0018208629917353392, -0.05007635056972504, 0.22419598698616028, 0.019498642534017563, 0.037546634674072266, -0.15850001573562622, -0.0784088596701622, 0.15123572945594788, 0.4102862775325775, -0.07466792315244675, 0.3559224307537079, 0.09839063137769699, -0.008935181424021721, 0.11809664219617844, 0.49235430359840393, 0.1469377875328064, 0.11268113553524017, 0.03212520107626915, -0.18200866878032684, -0.07460403442382812, 0.061073869466781616, -0.1356263905763626, 0.12078194320201874, 0.2939342260360718, 0.016327856108546257, -0.006603904999792576, -0.30010682344436646, 0.10193725675344467, 0.31716281175613403, 0.2212480753660202, -0.17117050290107727, 0.17125944793224335, 0.2218322604894638, 0.004968569613993168, -0.17747746407985687, -0.10144685953855515, -0.17946049571037292, -0.37255966663360596, -0.18180856108665466, 0.0638880655169487, 0.0034327732864767313, 0.23559387028217316, 0.0938936397433281, 0.1034204289317131, -0.03773163631558418, 0.040035370737314224, -0.018654946237802505, -0.028522953391075134, -0.05499599501490593, -0.0030464897863566875, 0.01410502940416336, 0.06344186514616013, 0.20580464601516724, -0.062225889414548874, -0.10433497279882431, -0.14151692390441895, 0.02920321375131607, -0.19451390206813812, -0.009931247681379318, 0.07327461987733841, -0.22846241295337677, -0.003144897287711501, -0.184495747089386, 0.09904304146766663, -0.18109247088432312, -0.12834767997264862, -0.26933494210243225, -0.04710942134261131, 0.19073332846164703, -0.2566237151622772, 0.00015127896040212363, 0.12606701254844666, 0.1373170018196106, -0.007999173365533352, -0.14680306613445282, -0.10691462457180023, -0.00999218039214611, 0.11572042852640152, 0.10383698344230652, -0.09372535347938538, 0.11797018349170685, -0.05599343404173851, 0.3295796513557434, 0.015282733365893364, -0.07218713313341141, -0.11616888642311096, 0.03583274781703949, 0.15049992501735687, 0.05684872716665268, 0.09763873368501663, 0.14066872000694275, 0.04032587260007858, -0.07027655839920044, 0.12470831722021103, 0.678059995174408, 0.27285560965538025, 0.647287905216217, -0.7972058057785034, -0.39201390743255615, -0.14930492639541626, 0.3082374036312103, 0.01234497595578432, 0.34738677740097046, 0.3601875603199005, -0.8993558287620544, 0.3796146512031555, -0.2298029661178589, -0.5859854817390442, -0.21378116309642792, -0.43986833095550537, -0.2600101828575134, -0.20710042119026184, 0.19956697523593903, -0.20648528635501862, -0.0775771215558052, 0.1499159038066864, -0.040116146206855774, -0.19877839088439941, -0.30144551396369934, -0.006013019476085901, -0.08107462525367737, 0.008436759933829308, 0.14095117151737213, -0.06933256983757019, 0.13437558710575104, -0.03765314817428589, -0.37592604756355286, -0.0988040566444397, 0.14574261009693146, -0.31194666028022766, -0.05768195912241936, 0.14116168022155762, 0.014001261442899704, -0.07109782844781876, -0.5986654162406921, 0.0525093600153923, -0.18178722262382507, 0.20706923305988312, -0.01987132802605629, -0.09050357341766357, 0.23057404160499573, 0.17167219519615173, -0.17899808287620544, 0.19650715589523315, -0.190211683511734, -0.5020055174827576, -0.09459301084280014, -0.0714782252907753, 0.2108275145292282, 0.22995775938034058, -0.08377004414796829, -0.2207949012517929, 0.0002651918039191514, -0.1954452097415924, 0.20846796035766602, 0.24817827343940735, 0.08905918151140213, 0.04490555822849274, 0.06005047634243965, -0.026115447282791138, 0.019076993688941002, 0.39630404114723206, 0.1659971922636032, 0.1070832759141922, 0.26859575510025024, 0.2627730965614319, 0.048116520047187805, -0.06505686044692993, -0.048472050577402115, 0.06745114177465439, 0.07308558374643326, 0.06834157556295395, 0.00983427930623293, -0.22208775579929352, 0.023164289072155952, -0.08743679523468018, -0.08969341218471527, 0.05461450293660164, 0.06739603728055954, -0.08881011605262756, 0.08109339326620102, -0.21303921937942505, 0.21457698941230774, 0.07458968460559845, 0.014364639297127724, 0.1330898404121399, -0.22939594089984894, -0.07494868338108063, -0.119249127805233, -0.18925896286964417, -0.12301945686340332, 0.24070577323436737, 0.21081353724002838, 0.022092703729867935, -0.21141618490219116, 0.31884339451789856, -0.03888632729649544, -0.006264689844101667, 0.058376096189022064, -0.04008805379271507, -0.21640482544898987, -0.01725577376782894, -0.019564969465136528, 0.08192717283964157, -0.08773985505104065, -0.018348177894949913, -0.36935144662857056, -0.161861851811409, -0.08615444600582123, -0.019659128040075302, -0.01251812931150198, -0.13612061738967896, 0.3072454333305359, 0.07971668243408203, -0.28998005390167236, 0.05907910317182541, -0.03535926342010498, -0.14949247241020203, 0.13327094912528992, -0.014581238850951195, 0.10144821554422379, -0.07070161402225494, -0.06842823326587677, 0.22853034734725952, -0.29521262645721436, 0.13533665239810944, 0.24104173481464386, -0.049953069537878036, -0.054363105446100235, 0.28031861782073975, -0.046560026705265045, -0.03800296038389206, 0.05360710620880127, 0.11452991515398026, -0.2095355987548828, 0.07875407487154007, 0.39241737127304077, -0.1244274154305458, -0.0699174776673317, 0.011762280017137527, 0.058944061398506165, -0.03273738920688629, 0.26470860838890076, -0.08864808082580566, -0.3156883418560028, -0.19050075113773346, -0.14089736342430115, 0.08797148615121841, 0.04619897902011871, -0.047787610441446304, 0.2954045236110687, 0.1462641954421997, -0.05069737136363983, 0.08380211889743805, -0.07805949449539185, 0.14389346539974213, 0.29373428225517273, -0.3263203501701355, -0.1522001028060913, 0.1430578976869583, -0.194837749004364, -0.07153478264808655, -0.425520122051239, -0.17605267465114594, -0.02332359552383423, -0.12911958992481232, 0.3154001533985138, -0.20246531069278717, 0.16072075068950653, 0.2638421952724457, -0.1277437061071396, 0.12240343540906906, -0.4675852358341217, -0.17029616236686707, -0.15403692424297333, -0.08876383304595947, -0.12160176783800125, -0.15544864535331726, 0.17351965606212616, -0.13400007784366608, -0.0908832997083664, 0.0064242989756166935, -0.12641343474388123, 0.12718799710273743, 0.03476818650960922, 0.02197379805147648, 0.1669468730688095, 0.24940066039562225, -0.14298789203166962, 0.041685495525598526, -0.06909481436014175, -0.224107027053833, 0.07295691221952438, 0.12723098695278168, 0.016800522804260254, 0.05824415385723114, 0.2470753788948059, 0.03368118405342102, -0.0858406126499176, 0.1038818433880806, -0.20916074514389038, -0.043305832892656326, 0.18433162569999695, 0.33910346031188965, 0.16800719499588013, 0.5595846176147461, -0.09623457491397858, 0.23391962051391602, -0.08751969039440155, 0.19419945776462555, 0.33891168236732483, 0.14027933776378632, -0.21789054572582245, -0.01983690820634365, -0.47967013716697693, 0.0800432488322258, 0.19469858705997467, -0.3095162808895111, -0.008187551982700825, 0.10186902433633804, 0.14887291193008423, 0.3310454487800598, 0.11321873217821121, 0.007013742811977863, -0.06492476910352707, 0.11827212572097778, -0.04582919552922249, 0.26504722237586975, 0.10457940399646759, -0.0073342290706932545, -0.18947891891002655, -0.21598763763904572, -0.18154379725456238, 0.10247129946947098, 0.09372229129076004, -0.015497120097279549, -0.04311692342162132, 0.1790783852338791, -0.09886222332715988, -0.01335698552429676, -0.006284607108682394, 0.110099196434021, -0.08021442592144012, 0.09117978066205978, -0.2688250243663788, -0.057653553783893585, 0.049868978559970856, 0.06855985522270203, 0.037112507969141006, 0.028723830357193947, -0.07257822155952454, 0.1765013188123703, -0.35200372338294983, -0.17428173124790192, -0.47975876927375793, -0.14335525035858154, 0.12690334022045135, 0.11548622697591782, -0.3201199173927307, -0.007530055474489927, -0.24789312481880188, -0.04474107176065445, 0.0730491504073143, 0.10240527987480164, 0.2421882301568985, 0.10613132268190384, -0.1607770472764969, 0.01027797069400549, 0.04237443581223488, -0.04262446612119675, 0.021993542090058327, 0.06321819126605988, 0.007922098971903324, 0.006426149979233742, -0.19457003474235535, 0.1403726041316986, 0.08033928275108337, 0.01072666421532631, 0.1298196166753769, -0.14277006685733795, -0.02348983660340309, 0.12070996314287186, 0.32589951157569885, -0.03336203843355179, 0.0021364062558859587, 0.4848507046699524, 0.25196605920791626, 0.199787899851799, 0.11851395666599274, 0.21876823902130127, -0.10756988823413849, 0.24468669295310974, 0.004254200030118227, -0.1975807398557663, -0.16515108942985535, 0.0772160217165947, -0.004676687531173229, -0.04070185124874115, 0.02310609631240368, 0.2672595679759979, 0.18988853693008423, 0.0030040813144296408, 0.11216852068901062, 0.42212560772895813, 0.2114654779434204, 0.11344143748283386, 0.17333486676216125, -0.10904834419488907, -0.09944001585245132, 0.452947735786438, -0.5232792496681213, 0.24491091072559357, 0.2744370102882385, 0.1064605712890625, -0.16627436876296997, -0.13690000772476196, -0.007169757038354874, -0.23646531999111176, 0.21635758876800537, 0.11038972437381744, -0.02767198532819748, 0.04757458344101906, -0.020437583327293396, -0.045826222747564316, -0.01016499474644661, -0.14219053089618683, 0.126498281955719, 0.12631963193416595, 0.08207467943429947, 0.1690516471862793, -0.2440677285194397, -0.08435220271348953, 0.2882577180862427, -0.4176473021507263, -0.023042231798171997, 0.04418053850531578, -0.08085525780916214, 0.0534348301589489, 0.2254963517189026, -0.2217961698770523, 0.07800006866455078, 0.11072591692209244, 0.23284587264060974, 0.027068456634879112, -0.1920074224472046, 0.14095424115657806, -0.05892651528120041, -0.2144624888896942, -0.2670893669128418, -0.012707938440144062, 0.24166341125965118, -0.17418979108333588, -0.17747171223163605, -0.42844462394714355, -0.08881504088640213, 0.12457195669412613, 0.18916967511177063, 0.023576218634843826, -0.08081092685461044, 0.17651838064193726, -0.10517216473817825, -0.07469306141138077, 0.3082104027271271, -0.16029107570648193, 0.008545922115445137, -0.15413393080234528, -0.13817575573921204, -0.19787834584712982, 0.15290150046348572, -0.09613614529371262, -0.09272922575473785, 0.06242695078253746, 0.24362532794475555, 0.042103610932826996, -0.24498477578163147, -0.19448699057102203, -0.035045426338911057, 0.006874077953398228, -0.1070343479514122, -0.12286459654569626, 0.13325835764408112, 0.012303448282182217, -0.26631036400794983, -0.02500009536743164, 0.179511159658432, 0.19215382635593414, -0.07879462838172913, -0.22043940424919128, 0.014762399718165398, 0.13261276483535767, -0.03569873794913292, -0.025446895509958267, -0.10945925861597061, 0.0960673987865448, 0.03515646606683731, 0.05745109170675278, 0.014907829463481903, 0.044850029051303864, -0.0028630795422941446, 0.06335736811161041, -0.06844241917133331, -0.39157184958457947, -0.019666748121380806, -0.08554723858833313, -0.1416381448507309, 0.3370788097381592, -0.2732711434364319, -0.1268765777349472, -0.007346517406404018, 0.15595148503780365, 0.11280035972595215, 0.06060246378183365, 0.15787962079048157, -0.04906310513615608, -0.18020787835121155, -0.10126877576112747, 0.11106528341770172, 0.008186298422515392, 0.08472414314746857, 0.1072041243314743, 0.09593945741653442, 0.05593550205230713, -0.021562522277235985, -0.0429973304271698, -0.15484963357448578, -0.2534233331680298, 0.17147144675254822, -0.19230154156684875, 0.17268319427967072, -0.05840369313955307, -0.13293339312076569, -0.4458724558353424, 0.161208376288414, 0.3670508861541748, -0.26531532406806946, -0.06768093258142471, -0.17344094812870026, 0.26826685667037964, -0.0316154807806015, 0.19950522482395172, 0.035107724368572235, -0.25919094681739807, -0.07762200385332108, 0.14062200486660004, 0.24101683497428894, 0.23767215013504028, -0.1364745944738388, -0.3638734519481659, -0.15507188439369202, -0.24214456975460052, 0.3151342272758484, -0.09626399725675583, 0.1403258889913559, 0.329659104347229, -0.2396756410598755, -0.10031788796186447, 0.15127819776535034, 0.06339780986309052, -0.0016448250971734524, 0.003717732848599553, 0.2714628577232361, -0.12909865379333496, -0.14769183099269867, -0.10265921801328659, 0.10988233238458633, -0.08241914957761765, 0.08214999735355377, -0.13445858657360077, 0.1532447338104248, 0.01474786177277565, 0.09711689502000809, 0.09626910835504532, -0.06801792979240417, -0.1099831685423851, -0.005989144090563059, 0.26695170998573303, 0.01405684370547533, 0.23475372791290283, 0.345440149307251, 0.06447631120681763, 0.23575954139232635, 0.07946369051933289, 0.20941828191280365, -0.022909266874194145, 0.33410173654556274, -0.02131081372499466, 0.04110521823167801, -0.17123745381832123, 0.16809268295764923, 0.05263466015458107, -0.22389256954193115, -0.17438174784183502, 0.06647057086229324, 0.046207405626773834, -0.015060926787555218, -0.14554771780967712, -0.08238629996776581, -0.12000098079442978, 0.13177263736724854, 0.17081153392791748, 0.09799105674028397, 0.27632975578308105, 0.4484504461288452, -0.13303722441196442, -0.17017412185668945, 0.03455192223191261, -0.18131765723228455, 0.13249516487121582, -0.22093147039413452, -0.11664675176143646, -0.2212967574596405, 0.18611092865467072, -0.11719518899917603, -0.11462543159723282, 0.09218034148216248, -0.15625587105751038, -0.05803236737847328, -0.17105413973331451, 0.022249586880207062, -0.1826171576976776, 0.11875983327627182, 0.14587584137916565, -0.21580632030963898, -0.03570142015814781, -0.09584805369377136, 0.25028470158576965, 0.10927017033100128, -0.0626591369509697, 0.10109417140483856, -0.07270963490009308, -0.16113053262233734, -0.15430521965026855, 0.007367895916104317, 0.18691760301589966, -0.08090087026357651, -0.030176842585206032, -0.12033291906118393, -0.03632066026329994, -0.16042065620422363, -0.14393670856952667, 0.04343820735812187, 0.05927117541432381, -0.16414932906627655, -0.061218537390232086, 0.08027888834476471, 0.1361764520406723, 0.039151620119810104, -0.1841166466474533, 0.035116273909807205, 0.2022482454776764, -0.13026063144207, -0.15861262381076813, -0.06429731100797653, 0.029819225892424583, 0.06544298678636551, -0.16439932584762573, 0.08668345212936401, 0.13196563720703125, -0.04019547998905182, -0.09658476710319519, 0.07065149396657944, -0.18956761062145233, -0.02769465744495392, 0.026470227167010307, 0.18291746079921722, 0.07638252526521683, -0.27576446533203125, 0.0830087661743164, -0.024780284613370895, 0.07626422494649887, -0.13870693743228912, -0.09330082684755325, 0.14885665476322174, 0.17482009530067444, -0.07576532661914825, 