{"version": "0.5.4", "metadata": {"date": {"year": 2026, "month": 4, "day": 27, "hour": 0, "minute": 10, "second": 54}, "loudness": -21.162500381469727, "gain": 0.6598126939278615, "name": "Octobass", "modeled_by": "October PRoduction Co.", "gear_type": "pedal", "gear_make": "", "gear_model": "", "tone_type": "crunch", "input_level_dbu": null, "output_level_dbu": null, "training": {"settings": {"ignore_checks": false}, "data": {"latency": {"manual": null, "calibration": {"algorithm_version": 1, "delays": [63], "safety_factor": 1, "recommended": 62, "warnings": {"matches_lookahead": false, "disagreement_too_high": false, "not_detected": false}}}, "checks": {"version": 3, "passed": true}}, "validation_esr": 0.0026418157916437285}}, "architecture": "WaveNet", "config": {"layers": [{"input_size": 1, "condition_size": 1, "head_size": 8, "channels": 16, "kernel_size": 3, "dilations": [1, 2, 4, 8, 16, 32, 64, 128, 256, 512], "activation": "Tanh", "gated": false, "head_bias": false}, {"input_size": 16, "condition_size": 1, "head_size": 1, "channels": 8, "kernel_size": 3, "dilations": [1, 2, 4, 8, 16, 32, 64, 128, 256, 512], "activation": "Tanh", "gated": false, "head_bias": true}], "head": null, "head_scale": 0.02}, "weights": [0.005318770185112953, 0.5645188689231873, -0.744342029094696, -0.8061213493347168, -0.31126871705055237, 0.2474011480808258, -0.041618820279836655, 0.8156375885009766, -0.13448484241962433, 0.24142538011074066, -0.3427405059337616, -0.1857909858226776, -0.9695700407028198, -0.6557533144950867, -0.3162124752998352, -0.01842840202152729, 0.14241355657577515, 0.1654789298772812, -0.11671099066734314, -0.17101100087165833, -0.055957771837711334, 0.11122515797615051, 0.08084504306316376, 0.2135380655527115, -0.009290183894336224, 0.12666790187358856, 0.2407442182302475, -0.12291445583105087, 0.010277214460074902, 0.060635458678007126, -0.04934807866811752, 0.0265407282859087, -0.18991133570671082, -0.06452120840549469, -0.034004032611846924, -0.0793774351477623, -0.12978999316692352, 0.012501373887062073, -0.04445085674524307, 0.0575193390250206, 0.08627398312091827, 0.011110261082649231, -0.007210131268948317, -0.2324696034193039, -0.20187437534332275, -0.07136383652687073, 0.19325657188892365, 0.18560104072093964, -0.06276428699493408, 0.08826505392789841, 0.1918877214193344, 0.1335820108652115, 0.16974544525146484, 0.1294374167919159, 0.1102437749505043, 0.025163576006889343, 0.13474760949611664, -0.1011972650885582, 0.0019805505871772766, 0.026251576840877533, 0.0708860456943512, 0.02069077268242836, -0.09774386137723923, -0.024925339967012405, 0.10047836601734161, 0.02436666376888752, -0.07876633107662201, -0.03821181878447533, -0.025494718924164772, 0.20657022297382355, -0.03711618110537529, 0.0625302791595459, -0.007072004489600658, 0.19437648355960846, 0.24314406514167786, 0.062419116497039795, 0.09430617839097977, -0.018082696944475174, -0.058714207261800766, -0.15191306173801422, -0.23787778615951538, 0.20333699882030487, 0.13012106716632843, -0.10346287488937378, -0.0778922289609909, -0.09891413897275925, -0.1405569165945053, -0.0021082721650600433, 0.09727803617715836, -0.0001143368863267824, -0.0440964475274086, 0.011262145824730396, -0.0006281471578404307, 0.12974931299686432, -0.07778653502464294, 0.013927018269896507, -0.0010903615038841963, 0.08770626783370972, -0.009538059122860432, -0.16295552253723145, 0.21152837574481964, 0.2153020203113556, -0.12599404156208038, 0.03714718669652939, -0.021670067682862282, -0.06772904098033905, -0.04239063337445259, -0.002142486162483692, -0.07804828882217407, 0.01064472645521164, -0.0984073132276535, 0.045535698533058167, -0.10189982503652573, 0.08973024785518646, 0.19170354306697845, -0.07559403777122498, 0.0737401470541954, -0.08064914494752884, -0.028310665860772133, -0.07654460519552231, 0.13844729959964752, -0.04048381745815277, -0.1831493377685547, 0.15303073823451996, -0.17933113873004913, -0.18682871758937836, 0.052908096462488174, -0.034295421093702316, 0.04815112426877022, -0.21475906670093536, -0.05029556527733803, -0.022214094176888466, 0.014920194633305073, 0.041761938482522964, 0.2154817283153534, -0.09834852814674377, -0.010046198964118958, -0.09370584040880203, 0.15381528437137604, 0.1275090128183365, 0.23611146211624146, -0.00608337065204978, 0.0977337583899498, -0.11385514587163925, -0.035347215831279755, -0.1004849299788475, -3.762399501283653e-05, 0.10183470696210861, -0.12204459309577942, -0.22375807166099548, -0.052687034010887146, -0.16982030868530273, -0.14042894542217255, 0.16418294608592987, 0.03635189309716225, -0.2430615872144699, 0.17936725914478302, -0.12550127506256104, -0.03264551982283592, -0.05481982231140137, -0.007205620873719454, 0.02532024495303631, -0.21109506487846375, -0.17036643624305725, -0.1386280208826065, 0.07913921773433685, -0.01846197247505188, 0.17012141644954681, -0.2045976221561432, 0.039046529680490494, 0.24547429382801056, -0.13329942524433136, 0.16834436357021332, 0.15929080545902252, -0.21341931819915771, 0.055023834109306335, -0.1211186870932579, 0.020969895645976067, 0.10473396629095078, -0.09264732897281647, -0.10708248615264893, -0.07857559621334076, -0.014691741205751896, 0.11442631483078003, 0.08775290101766586, 0.1386573761701584, -0.1412992626428604, -0.065926194190979, -0.22338369488716125, 0.16514095664024353, 0.15388622879981995, 0.2075975090265274, -0.1852489709854126, 0.03978172317147255, 0.0022651790641248226, -0.1693841964006424, -0.03462570533156395, 0.16823312640190125, -0.15905490517616272, 0.043958794325590134, 0.12253159284591675, 0.017642898485064507, -0.06946806609630585, 0.00964139960706234, -0.16574779152870178, 0.08069457113742828, -0.08713167905807495, 0.12561102211475372, 0.007180086337029934, 0.013386089354753494, 0.020961884409189224, 0.05891761928796768, 0.02262980304658413, -0.11517396569252014, -0.0907849594950676, 0.013721596449613571, -0.032213713973760605, -0.16596201062202454, 0.11184434592723846, -0.03491714596748352, -0.0920548141002655, 0.1398957371711731, 0.1324099898338318, 0.08421879261732101, -0.12509340047836304, -0.009027319960296154, -0.09177042543888092, 0.004937273915857077, 0.045194290578365326, 0.0704280436038971, 0.007195860613137484, 0.038926344364881516, -0.048425715416669846, 0.13731393218040466, 0.1799841970205307, -0.010306614451110363, 0.06508960574865341, -0.1846795678138733, -0.1468399167060852, 0.04123028367757797, 0.13045066595077515, 0.03278692439198494, -0.04642624408006668, 0.08418484777212143, -0.01746826432645321, -0.14548130333423615, 0.18460187315940857, -0.20908713340759277, -0.0024271877482533455, 0.05670633912086487, -0.1593354195356369, 0.01595880091190338, 0.19909892976284027, -0.023761076852679253, -0.05332508683204651, -0.014659963548183441, -0.15265236794948578, 0.009137051180005074, 0.004921746905893087, -0.0526081845164299, 0.04467177018523216, 0.03981437906622887, 0.02960933931171894, -0.017052074894309044, 0.09052633494138718, -0.09503509104251862, -0.17102186381816864, 0.08354991674423218, 0.08057495206594467, -0.07937650382518768, -0.0232809130102396, -0.03347145393490791, -0.019483039155602455, -0.021427331492304802, -0.10084975510835648, -0.2075028270483017, 0.19857996702194214, -0.04681915417313576, 0.11337196826934814, 0.0015990695683285594, -0.009255154058337212, -0.1989395022392273, -0.03639603778719902, 0.14926253259181976, 0.1413014978170395, 0.06598857045173645, -0.08592912554740906, -0.07898805290460587, 0.01740816794335842, -0.036888595670461655, -0.20550614595413208, 0.10814406722784042, -0.0023099775426089764, -0.1338033527135849, 0.006161259952932596, -0.13477155566215515, -0.02915596403181553, -0.06622005254030228, 0.019649039953947067, -0.1702166348695755, -0.024038763716816902, 0.028139512985944748, -0.059348296374082565, 0.03479743376374245, 0.02368428185582161, -0.16397424042224884, 0.1439623236656189, 0.10316086560487747, 0.17467787861824036, -0.11628677695989609, -0.16369056701660156, -0.14029723405838013, 0.14207576215267181, -0.0974375307559967, -0.0657142698764801, 0.19209691882133484, -0.1122056320309639, -0.10719428211450577, 0.15825580060482025, 0.042624395340681076, 0.11820107698440552, -0.08994195610284805, -0.1349872648715973, -0.06610305607318878, 0.21948039531707764, 0.1749524623155594, 0.2044539749622345, -0.07505419850349426, 0.05890751630067825, -0.1604166030883789, 0.019164912402629852, -0.0931464359164238, 0.25112950801849365, -0.01781824417412281, -0.13453258574008942, -0.05450898036360741, 0.21473300457000732, 0.11736119538545609, 0.019082309678196907, 0.22737589478492737, -0.07910167425870895, -0.171324223279953, 0.21178419888019562, 0.03718458116054535, -0.2055833637714386, 0.2258354276418686, 0.032471511512994766, -0.032985568046569824, 0.009359021671116352, 0.027660707011818886, -0.06582243740558624, 0.11262574046850204, -0.11649814993143082, -0.001873100409284234, 0.01660178042948246, 0.20201285183429718, 0.08625677227973938, 0.0913260281085968, -0.24415642023086548, -0.10338366776704788, -0.12220907211303711, -0.2867475748062134, -0.2542820870876312, 0.08996894210577011, -0.05526072531938553, 0.008659996092319489, 0.09946557879447937, 0.0011018681107088923, 0.02545773983001709, -0.011613985523581505, -0.16949261724948883, 0.04844793677330017, -0.08494755625724792, 0.07375188171863556, -0.0018279145006090403, -0.0575794093310833, 0.009544146247208118, 0.012436923570930958, 0.11587008833885193, 0.24124030768871307, 0.2525254786014557, -0.026367204263806343, -0.07100716978311539, 0.00025398231809958816, 0.03363029286265373, 0.018929263576865196, -0.04840411618351936, 0.08320486545562744, -0.19573023915290833, -0.06955006718635559, -0.009000732563436031, -0.17730429768562317, -0.21795226633548737, -0.10412468016147614, -0.24539318680763245, -0.03198136016726494, 0.085746169090271, -0.021527327597141266, -0.0784926488995552, 0.16041794419288635, 0.05437203496694565, -0.05047124996781349, -0.003962652757763863, 0.1985236555337906, 0.1923874467611313, -0.1611928641796112, 0.06926919519901276, -0.024454724043607712, -0.005951891653239727, 0.012069066986441612, -0.21828314661979675, 0.025900332257151604, 0.06256432831287384, -0.11876332014799118, -0.04678709805011749, 0.007606151048094034, 0.08295371383428574, -0.08786561340093613, -0.023585045710206032, 0.061881519854068756, 0.08315656334161758, -0.02014363557100296, 0.14303332567214966, 0.02178567461669445, 0.03689725324511528, -0.2366597205400467, 0.05919976532459259, -0.05161898955702782, 0.061313141137361526, -0.008970600552856922, -0.16175809502601624, -0.07323034852743149, 0.17982222139835358, -0.04233631491661072, -0.2183687537908554, 0.014178449288010597, -0.03858935832977295, -0.24672944843769073, 0.11820102483034134, -0.19884644448757172, -0.2733724117279053, -0.09140841662883759, -0.09012552350759506, -0.030567726120352745, -0.08224567025899887, 0.12415952235460281, -0.024569349363446236, 0.06812088191509247, -0.03260737657546997, -0.20405365526676178, 0.21021901071071625, 0.14626450836658478, 0.2855348587036133, 0.022599738091230392, -0.16608306765556335, -0.020237209275364876, 0.05248956009745598, -0.003224598476663232, -0.26047515869140625, 0.006546104792505503, -0.2038961946964264, -0.18774355947971344, 0.08237055689096451, -0.05433819070458412, 0.17713800072669983, 0.017667008563876152, -0.019104385748505592, -0.18238569796085358, -0.014088484458625317, 0.02694142796099186, 0.20686738193035126, 0.09579642862081528, 0.043045707046985626, -0.1350996196269989, 0.13955174386501312, -0.08267251402139664, 0.008948677219450474, 0.0063330442644655704, -0.14402030408382416, -0.06626053899526596, -0.04440690204501152, -0.12699134647846222, -0.2519903779029846, 0.1426783949136734, -0.08724033087491989, -0.033483512699604034, 0.13482654094696045, 0.009444245137274265, -0.13809868693351746, 0.003574118949472904, -0.09494134783744812, -0.11607322096824646, 0.12376318126916885, -0.06281383335590363, 0.13920468091964722, 0.013391363434493542, -0.1941414326429367, -0.09594275057315826, 0.17819614708423615, 0.2833546996116638, -0.03339898958802223, 0.0745125263929367, -0.08189868927001953, -0.016237901523709297, 0.14546911418437958, -0.2323630303144455, -0.056847695261240005, 0.08441007137298584, -0.1887795329093933, -0.04675479605793953, -0.012707410380244255, 0.22728979587554932, 0.045610036700963974, -0.0937023013830185, -0.026509780436754227, 0.04971836134791374, 0.01823776215314865, 0.16686563193798065, 0.18531030416488647, -0.03943796455860138, -0.0716019943356514, -0.09870339930057526, 0.11804354190826416, 0.034029629081487656, 0.0021567100193351507, -0.11340988427400589, -0.010784750804305077, -0.1297421008348465, 0.036322545260190964, -0.2039782553911209, 0.05935851112008095, 0.18559888005256653, -0.26425468921661377, -0.2201170176267624, -0.08583676069974899, -0.15346509218215942, -0.13725793361663818, -0.06807278841733932, -0.19686029851436615, -0.06687179952859879, -0.04447351396083832, 0.045251984149217606, -0.05333227291703224, -0.004689475055783987, 0.019140783697366714, 0.1771426945924759, -0.22635173797607422, -0.049566805362701416, -0.09986784309148788, 0.2371731549501419, -0.07850881665945053, -0.09300417453050613, 0.0521787665784359, -0.0332588292658329, 0.07482699304819107, -0.10721040517091751, 0.02213309146463871, 0.01016356609761715, 0.00013264987501315773, -0.04089333117008209, -0.1806855946779251, 0.01331345271319151, -0.07095898687839508, 0.09687857329845428, -0.25105708837509155, 0.07799527794122696, -0.0779021754860878, 0.06725528836250305, 0.14259719848632812, 0.10331813991069794, 0.000595075311139226, 0.036027561873197556, -0.08430399745702744, 0.005102173890918493, 0.04034114256501198, 0.15956811606884003, -0.14832881093025208, -0.08916696161031723, 0.10311274230480194, 0.036379292607307434, 0.017870280891656876, -0.07241259515285492, -0.22330093383789062, 0.09291637688875198, 0.03471437096595764, -0.1675344854593277, 0.08118945360183716, 0.0980767235159874, 0.020204773172736168, 0.09147907048463821, -0.07097507268190384, 0.009230919182300568, -0.13225041329860687, 0.0844993144273758, 0.19407713413238525, 0.11937874555587769, -0.013789040967822075, 0.04422924667596817, 0.07695258408784866, 0.018651895225048065, -0.03804205730557442, -0.11355727165937424, -0.2129218429327011, 0.22447888553142548, -0.11461982131004333, -0.16965723037719727, 0.16455136239528656, -0.022376324981451035, 0.0269264318048954, -0.11363623291254044, -0.018009768798947334, -0.1585472971200943, 0.2588379979133606, -0.004753523971885443, 0.16372668743133545, 0.0389833003282547, 0.05214769020676613, -0.06033642217516899, 0.2544335424900055, 0.06377175450325012, 0.03256015479564667, 0.03469005972146988, -0.014018085785210133, -0.24389205873012543, 0.05721182003617287, -0.13858920335769653, 0.027864651754498482, 0.08419372141361237, -0.1918398141860962, -0.12290585041046143, 0.17588728666305542, -0.02021210454404354, -0.06594022363424301, 0.10165558755397797, 0.0021714649628847837, -0.13995231688022614, 0.034299399703741074, -0.113614521920681, -0.10561158508062363, 0.034536439925432205, -0.08741357177495956, 0.06819463521242142, -0.001505443942733109, -0.013122688047587872, -0.21437174081802368, 0.1814572662115097, -0.0576787143945694, 0.24089762568473816, -0.15471713244915009, -0.007931753993034363, 0.2022179663181305, -0.09917031228542328, 0.13763311505317688, 0.013629576191306114, -0.17021046578884125, -0.07934065163135529, -0.08549711853265762, 0.1845225840806961, -0.07489757239818573, 0.10212249308824539, -0.0975164845585823, -0.0581233836710453, -0.017230242490768433, -0.07210845500230789, 0.010261804796755314, 0.2250872403383255, -0.09284523129463196, 0.09811843931674957, -0.1536140888929367, 0.16858930885791779, -0.12189148366451263, 0.0932844951748848, -0.07445841282606125, 0.057038333266973495, 0.16406747698783875, 0.054706718772649765, 0.0062670353800058365, 0.11864908784627914, 0.06009701266884804, -0.013542751781642437, 0.24856869876384735, -0.13705457746982574, 0.00248841755092144, 0.1066569983959198, 0.0171969011425972, 0.1305674910545349, -0.06788720190525055, -0.13972407579421997, 0.13346751034259796, 0.015906788408756256, 0.058654431253671646, -0.17511112987995148, 0.15404869616031647, 0.13057351112365723, 0.09632303565740585, -0.199038565158844, 0.10684556514024734, -0.020706936717033386, -0.030283499509096146, 0.02707289531826973, 0.01614801026880741, -0.0077569372951984406, -0.12252431362867355, -0.04691319540143013, -0.032787811011075974, -0.020734878256917, 0.07532446086406708, 0.08325915038585663, -0.07912462204694748, 0.007591355126351118, 0.04587496817111969, -0.07416516542434692, -0.049078039824962616, -0.18450912833213806, 0.14249233901500702, -0.11645912379026413, 0.06447259336709976, 0.03501880541443825, 0.17955076694488525, 0.06136680766940117, 0.12067408114671707, -0.024848569184541702, -0.07499216496944427, -0.07801449298858643, 0.0034254195634275675, -0.029758356511592865, 0.1417921632528305, -0.030458014458417892, 0.0243027675896883, -0.06884494423866272, 0.05466162785887718, 0.057643141597509384, -0.026175420731306076, -0.030142417177557945, -0.10659066587686539, 0.11578671634197235, 0.07977625727653503, -0.14303205907344818, 0.1794581413269043, -0.18054406344890594, -0.025533219799399376, -0.05571507290005684, 0.1860642433166504, -0.12631988525390625, 0.1300337314605713, 0.19949890673160553, 0.007837912067770958, -0.010793879628181458, 0.05689306557178497, -0.13329020142555237, -0.05753028765320778, -0.06785203516483307, 0.19480015337467194, 0.06068483367562294, 0.056152284145355225, -0.04635414108633995, 0.006307990290224552, 0.035614050924777985, 0.02670019492506981, -0.16407331824302673, 0.0867367833852768, -0.003043808275833726, -0.0715789794921875, 0.06265181303024292, 0.13899463415145874, -0.16058900952339172, 0.03865448385477066, 0.038228411227464676, -0.04803609475493431, 0.031015485525131226, -0.041695740073919296, -0.06315170228481293, 0.15379494428634644, -0.012074806727468967, 0.15348456799983978, -0.01873779296875, 0.056793779134750366, -0.02224810980260372, 0.21594785153865814, -0.22730806469917297, -0.06937890499830246, 0.06223106011748314, 0.07471931725740433, -0.036083634942770004, -0.1026793122291565, -0.09055700898170471, -0.06970027089118958, -0.042533595114946365, 0.015486030839383602, 0.18140293657779694, -0.0038967581931501627, 0.03229305148124695, 0.08092411607503891, 0.08907268941402435, -0.040892861783504486, -0.03651932254433632, -0.024943333119153976, 0.008079113438725471, 0.01963977888226509, 0.02233816124498844, 0.42445623874664307, -0.37016183137893677, 0.72139972448349, -0.6343127489089966, -0.07482951879501343, 0.8667361736297607, 0.9081350564956665, -0.5476043224334717, 0.1380055695772171, 0.07928812503814697, -0.48580074310302734, -0.2580820620059967, 0.19268271327018738, -0.662528395652771, 0.15889203548431396, 0.3684450089931488, -0.12986701726913452, 0.15503498911857605, -0.04984348267316818, 0.06911011785268784, -0.01638847030699253, -0.0019635441713035107, 0.10989243537187576, -0.06587390601634979, -0.022093510255217552, -0.04061529412865639, -0.04549025744199753, 0.04257707670331001, 0.03718375787138939, -0.023853091523051262, 0.027633508667349815, -0.04511924833059311, 0.01697283424437046, -0.0958217903971672, -0.18015481531620026, -0.04372258111834526, -0.07430028915405273, -0.006556912325322628, -0.07316063344478607, -0.21436133980751038, 0.03551710397005081, 0.1935330629348755, -0.3970165550708771, -0.14571642875671387, 0.1081932932138443, -0.19132044911384583, 0.1252361536026001, 0.24079276621341705, 0.14151093363761902, 0.10889972001314163, -0.013368560001254082, 0.23989997804164886, -0.17400340735912323, -0.14881891012191772, 0.06371037662029266, -0.30454909801483154, -0.06666350364685059, -0.18601460754871368, 0.07861251384019852, -0.12277430295944214, 0.09571320563554764, 0.28875812888145447, 0.04411935806274414, 0.02069198712706566, 0.17436084151268005, -0.09730971604585648, -0.07749032974243164, -0.1123373880982399, 0.09022743999958038, 0.029591387137770653, -0.020548595115542412, 0.028263967484235764, -0.27850624918937683, -0.027752865105867386, -0.027742750942707062, -0.028693081811070442, 0.12846799194812775, 0.26245811581611633, -0.09502887725830078, -0.07552005350589752, -0.13613441586494446, -0.27687615156173706, -0.2281079739332199, 0.14749184250831604, 0.208110049366951, 0.21557094156742096, 0.10998158156871796, -0.20090022683143616, 0.09391085058450699, 0.29368069767951965, -0.13602934777736664, 0.09133166074752808, -0.06908182054758072, 0.1691151261329651, -0.16017617285251617, 0.06243399530649185, -0.20302776992321014, -0.0487380176782608, 0.12487239390611649, 0.02669563889503479, 0.15688011050224304, 0.2597622573375702, 0.27391669154167175, 0.12538497149944305, 0.22444279491901398, 0.0198014248162508, -0.16150563955307007, -0.04284926503896713, 0.0009103353950195014, -0.16596023738384247, -0.011553450487554073, 0.10698796063661575, 0.2678561806678772, 0.21064548194408417, 0.17215892672538757, 0.23887114226818085, -0.290842741727829, -0.18611152470111847, 0.002174339722841978, -0.21657203137874603, -0.008267807774245739, -0.37774813175201416, -0.44219452142715454, 0.11730948090553284, 0.02590797282755375, -0.14966297149658203, 0.024701088666915894, -0.11677268892526627, 0.15698933601379395, 0.034672267735004425, 0.321015328168869, -0.2956389784812927, -0.18241669237613678, 0.19345667958259583, 0.29989945888519287, 0.16984619200229645, 0.22835683822631836, -0.13627009093761444, 0.26387467980384827, -0.09375061094760895, 0.12773418426513672, -0.21019351482391357, -0.003433327656239271, 0.07396228611469269, -0.018904956057667732, 0.04603860154747963, -0.3431784212589264, -0.14602282643318176, 0.09224782884120941, -0.1634252965450287, -0.2680000960826874, -0.1833992898464203, -0.30114567279815674, -0.3145454227924347, -0.0481175072491169, -0.03459032624959946, -0.06498652696609497, -0.06532790511846542, 0.09198034554719925, 0.03658244013786316, -0.2162572294473648, 0.06945189833641052, 0.13380935788154602, -0.20197738707065582, -0.25719913840293884, -0.04931057617068291, 0.12106316536664963, -0.07029177993535995, 0.008994762785732746, 0.15648555755615234, 0.13585595786571503, 0.06690636277198792, 0.17433343827724457, 0.24556638300418854, 0.015985988080501556, 0.02723945863544941, 0.22495552897453308, 0.3098185956478119, -0.37026485800743103, 0.24790935218334198, -0.1652843952178955, -0.3147820830345154, -0.07221018522977829, -0.21259398758411407, -0.07970862835645676, -0.2851431965827942, -0.3456478416919708, -0.019830899313092232, -0.20756106078624725, 0.24397632479667664, -0.011886161752045155, 0.1644410341978073, -0.008155557326972485, -0.12580880522727966, 0.12426402419805527, -0.019653912633657455, 0.10575630515813828, -0.062008097767829895, -0.025070125237107277, 0.044759441167116165, -0.031116969883441925, -0.19920219480991364, 0.045581966638565063, -0.10981913655996323, -0.04546033591032028, 0.15483205020427704, -0.10665296763181686, -0.1948898583650589, -0.0726097896695137, -0.07473982870578766, 0.05437812954187393, 0.05312168970704079, 0.14343269169330597, -0.18172729015350342, -0.0042011188343167305, 0.2823385000228882, 0.1770012229681015, -0.03400510177016258, 0.004050661809742451, 0.07689504325389862, 0.1772128939628601, -0.14189760386943817, 0.0646592453122139, 0.0737607553601265, 0.0031429354567080736, -0.2242664396762848, -0.14094425737857819, 0.08756241947412491, -0.05224882438778877, 0.20463144779205322, 0.18959562480449677, 0.049524709582328796, -0.02819870412349701, -0.10000409930944443, -0.052695706486701965, 7.383406045846641e-05, -0.1317337155342102, -0.08830554038286209, -0.02661001868546009, 0.028231624513864517, 0.00764908641576767, 0.20279854536056519, 0.03203893452882767, -0.08919977396726608, -0.10431475192308426, 0.16155678033828735, 0.23792187869548798, -0.008905074559152126, -0.22708739340305328, 0.1566660851240158, -0.13768282532691956, -0.05320638418197632, 0.1183403879404068, 0.13958528637886047, -0.02775553986430168, 0.17601419985294342, 0.13361021876335144, 0.1350998431444168, 0.2576945126056671, -0.1591392308473587, -0.02244800142943859, 0.12484663724899292, 0.11673547327518463, 0.09639865159988403, -0.09985412657260895, -0.1708284616470337, -0.09265365451574326, -0.2722218334674835, 0.08030486106872559, 0.1787223368883133, -0.1303177773952484, 0.08270218223333359, 0.16026738286018372, -0.05841594934463501, 0.17300428450107574, -0.1154356524348259, -0.11662129312753677, -0.04120955616235733, 0.051114752888679504, -0.06639151275157928, 0.05872413516044617, -0.041520606726408005, 0.12109841406345367, 0.031449321657419205, 0.01807471178472042, 0.011871018446981907, 0.02689928561449051, 0.05061495304107666, 0.037507832050323486, -0.08691248297691345, 0.09094792604446411, 0.15500026941299438, -0.11179758608341217, 0.0804535374045372, -0.07814720273017883, -0.08896199613809586, 0.07327055931091309, -0.16482990980148315, -0.06176608428359032, 0.019205784425139427, 0.0864144116640091, -0.14051996171474457, 0.06683629006147385, 0.13219428062438965, -0.027714572846889496, 0.037138186395168304, -0.1038341373205185, -0.1462676078081131, 0.10690096765756607, 0.035987891256809235, 0.013633024878799915, -0.1872054785490036, -0.053385086357593536, -0.0033494026865810156, -0.06481950730085373, -0.1646605134010315, 0.05022811144590378, -0.16202512383460999, -0.13377463817596436, -0.12457221746444702, 0.018616946414113045, -0.07839138060808182, -0.12457223981618881, 0.08758843690156937, -0.20128867030143738, -0.06218358874320984, 0.0917416512966156, -0.12594333291053772, 0.009671437554061413, -0.03836376219987869, -0.12743645906448364, 0.044400010257959366, 0.15136319398880005, 0.09376776963472366, -0.06277864426374435, -0.11515578627586365, -0.028892938047647476, -0.047325003892183304, 0.25258615612983704, -0.05990346521139145, -0.1378673017024994, 0.1135767325758934, -0.13787893950939178, -0.1119169220328331, 0.1803532987833023, -0.1970950812101364, 0.0008339572814293206, -0.01794927939772606, 0.16706565022468567, -0.0520840622484684, 0.13139545917510986, -0.09756018221378326, -0.0549718476831913, -0.12268263846635818, 0.08392061293125153, -0.2069631665945053, -0.0101465480402112, 0.16643311083316803, 0.024873705580830574, -0.07285287231206894, -0.1628669649362564, -0.10916444659233093, 0.06435553729534149, 0.0981067568063736, 0.09635591506958008, -0.2319987714290619, -0.006324260961264372, -0.08729810267686844, 0.07955215871334076, -0.09096863865852356, -0.1003764271736145, 0.26155638694763184, -0.21750856935977936, -0.023023543879389763, 0.0881846621632576, -0.04036586731672287, 0.02289021946489811, 0.09013600647449493, -0.10515028983354568, -0.029763732105493546, -0.0071557797491550446, -0.024562109261751175, 0.15801559388637543, -0.12160980701446533, -0.033846162259578705, -0.15224502980709076, 0.08625080436468124, -0.0403892956674099, 0.26948803663253784, -0.381989985704422, -0.016738705337047577, -0.02196872979402542, 0.13005834817886353, 0.12446010857820511, -0.11231126636266708, -0.008337805047631264, 0.21679283678531647, -0.01053595170378685, 0.08670555800199509, -0.017651544883847237, 0.17111708223819733, 0.07462488114833832, 0.1584978848695755, -0.12680183351039886, -0.030456045642495155, -0.03904043510556221, 0.03498922660946846, 0.08613686263561249, -0.024338945746421814, -0.18823793530464172, -0.022103633731603622, -0.06633573770523071, 0.11632069945335388, -0.13549338281154633, -0.16435572504997253, -0.24736431241035461, 0.08630096912384033, 0.1285310834646225, -0.1283814013004303, 0.152987539768219, 0.13596561551094055, -0.10593529790639877, 0.09725745767354965, 0.024790512397885323, -0.07096730172634125, 0.1476278305053711, -0.03870563954114914, -0.015614192001521587, 0.15057258307933807, -0.18690428137779236, 0.22242707014083862, 0.13320070505142212, -0.07554640620946884, -0.07064183056354523, -0.029902314767241478, -0.36723077297210693, 0.3162531852722168, -0.2937506139278412, 0.2097819745540619, -0.12685786187648773, -0.16494567692279816, 0.20826922357082367, 0.08853355795145035, -0.07997163385152817, 0.1545567810535431, 0.16877225041389465, 0.3461647927761078, -0.17282462120056152, 0.041973479092121124, -0.03431873396039009, 0.0627284049987793, 0.07145030051469803, -0.029130831360816956, -0.28165581822395325, -0.01917315274477005, 0.05987954139709473, 0.16644516587257385, -0.10080981254577637, 0.022677911445498466, 0.15300104022026062, -0.0891222357749939, 0.1044616848230362, 0.17717382311820984, 0.002078082412481308, 0.0003805320884566754, 0.14640508592128754, 0.0921979770064354, 0.15154440701007843, 0.3634986877441406, 0.03157183155417442, 0.023281116038560867, 0.17763671278953552, -0.2000919133424759, -0.16253235936164856, 0.2248355597257614, 0.04714985191822052, 0.24516814947128296, -0.08368635177612305, 0.1320652961730957, -0.07569753378629684, -0.10391753911972046, -0.11304778605699539, 0.10019698739051819, -0.08452262729406357, 0.32396048307418823, -0.2803414762020111, -0.05775010958313942, -0.012837434187531471, 0.013802255503833294, -0.1235506609082222, -0.022031869739294052, 0.1366913914680481, 0.055566757917404175, -0.05265679955482483, -0.2743847966194153, -0.07902663946151733, 0.18365679681301117, -0.09528441727161407, 0.10420412570238113, -0.15334594249725342, 0.04469494894146919, 0.05208771303296089, 0.23108969628810883, 0.09318448603153229, 0.07172120362520218, -0.050935275852680206, -0.030984491109848022, -0.08028798550367355, -0.05311926454305649, -0.016481002792716026, 0.09531118720769882, -0.15365423262119293, -0.000998583622276783, -0.09470658749341965, -0.04936646670103073, 0.15340137481689453, 0.04258902370929718, -0.2007383406162262, 0.18271735310554504, 0.07739195972681046, -0.08098781108856201, 0.11634347587823868, 0.12910129129886627, -0.1839907169342041, -0.05118473246693611, 0.07129731774330139, 0.0913144052028656, 0.008359342813491821, -0.024891553446650505, -0.029070043936371803, -0.26943501830101013, -0.47244587540626526, 0.28793105483055115, -0.06743579357862473, 0.029970020055770874, 0.027849243953824043, -0.09716779738664627, 0.032881010323762894, 0.08310813456773758, -0.025584712624549866, -0.030046988278627396, 0.02869056910276413, 0.1738290637731552, 0.044179148972034454, -0.14589983224868774, 0.08747339993715286, 0.040908265858888626, -0.12594367563724518, -0.17223040759563446, 0.038271188735961914, -0.16336673498153687, 0.23928625881671906, 0.1787058562040329, 0.23160231113433838, -0.1799888014793396, 0.12003261595964432, -0.137262761592865, 0.06578927487134933, 0.12287292629480362, 0.15537044405937195, -0.05101263150572777, 0.18990322947502136, -0.02188808098435402, -0.0453202985227108, 0.2609631419181824, -0.04183317720890045, -0.11184327304363251, 0.02356305904686451, -0.08662887662649155, 0.013769437558948994, 0.03719696030020714, 0.08728012442588806, -0.19405019283294678, -0.13215522468090057, 0.07269237190485, -0.03485293313860893, 0.018732711672782898, 0.009482703171670437, 0.09242560714483261, 0.13579800724983215, 0.24018462002277374, -0.06708226352930069, -0.060502663254737854, -0.15624603629112244, 0.20282989740371704, 0.07716082036495209, -0.11993774026632309, 0.0019674997311085463, 0.04107962176203728, 0.09411821514368057, -0.04727621376514435, 0.19191612303256989, 0.19129642844200134, 0.05599025636911392, 0.18577972054481506, -0.05054543539881706, 0.13515429198741913, -0.00015485723270103335, 0.19373278319835663, -0.0640517845749855, -0.022210504859685898, -0.18319427967071533, -0.06232890486717224, 0.07241277396678925, 0.0800403505563736, -0.004842387046664953, 0.03900143876671791, -0.17286372184753418, 0.09400433301925659, -0.0914030373096466, -0.039631910622119904, 0.07952496409416199, 0.013042120262980461, 0.03135491535067558, 0.138860821723938, -0.014663301408290863, 0.0323701910674572, -0.09191477298736572, -0.07022254168987274, -0.040850669145584106, 0.03830887749791145, -0.012101791799068451, -0.0026255077682435513, 0.10617882013320923, -0.11860281974077225, 0.07462462782859802, 0.2508540153503418, -0.08229266852140427, -0.0003344785363879055, -0.06073177605867386, -0.17250032722949982, -0.01336982473731041, 0.17166198790073395, -0.09786981344223022, -0.09784244000911713, -0.048017725348472595, 0.17835131287574768, -0.21237990260124207, -0.20778360962867737, 0.21178820729255676, -0.042355433106422424, -0.07693949341773987, -0.05723818764090538, -0.062123414129018784, 0.06709717959165573, 0.11291162669658661, -0.024036094546318054, -0.05346974730491638, -0.054106228053569794, -0.15055720508098602, 0.18620042502880096, 0.12726520001888275, 0.07537268102169037, -0.13583062589168549, 0.0041458155028522015, -0.1634945124387741, 0.020359303802251816, -0.0362294539809227, -0.05373312160372734, 0.13581828773021698, -0.0018473691307008266, -0.10172738134860992, 0.05049216002225876, -0.11781802773475647, 0.009374044835567474, -0.03246140480041504, 0.07123996317386627, 0.07910104840993881, 0.15857872366905212, -0.1828022450208664, 0.056886784732341766, -0.02427855134010315, 0.17334452271461487, 0.17686492204666138, -0.10308857262134552, 0.165266752243042, -0.2178809940814972, -0.2295607030391693, 0.17249153554439545, 0.0837538093328476, 0.12184804677963257, 0.11574561148881912, 0.028021225705742836, -0.10822320729494095, 0.07730156183242798, 0.06328136473894119, 0.05403207242488861, -0.13169847428798676, 0.06082364544272423, 0.05975873023271561, 0.12545087933540344, 0.0669681504368782, 0.003168374067172408, -0.19094035029411316, -0.13907775282859802, 0.11252585053443909, 0.01074125338345766, -0.0914851725101471, 0.06308276951313019, -0.03409097343683243, 0.07674143463373184, -0.05046752840280533, 0.1225382387638092, -0.0016173298936337233, -0.12707950174808502, 0.03638027608394623, 0.02263324148952961, 0.06770643591880798, -0.05005095526576042, 0.14939066767692566, 0.11473358422517776, -0.01071531418710947, -0.07066088914871216, -0.15981799364089966, 0.003317249473184347, -0.12091827392578125, 0.07234605401754379, 0.21998849511146545, 0.00354432943277061, 0.004903401713818312, 0.005651457235217094, 0.13106898963451385, -0.0827903002500534, 0.027019275352358818, -0.2625602185726166, 0.49237167835235596, -0.20355215668678284, 0.07634823024272919, -0.04781107231974602, -0.11390653997659683, 0.2229733169078827, -0.05814126878976822, -0.061593037098646164, 0.010273398831486702, -0.07858084887266159, -0.013103840872645378, -0.14279358088970184, 0.03257334232330322, 0.010513529181480408, 0.02979232557117939, 0.1820099949836731, -0.048773717135190964, -0.07383258640766144, 0.122564896941185, -0.09888024628162384, 0.1974681168794632, 0.027955062687397003, -0.03079444356262684, -0.13039010763168335, 0.0018350542522966862, -0.13195651769638062, 0.12082429230213165, 0.19143572449684143, -0.08603646606206894, 0.03465764597058296, 0.007916485890746117, -0.13419067859649658, 0.10516355186700821, -0.37908804416656494, -0.1920015960931778, 0.13289953768253326, -0.011599928140640259, -0.19711264967918396, -0.05111626535654068, -0.1024271547794342, -0.04856852442026138, -0.22664476931095123, -0.029261134564876556, -0.09880456328392029, 0.1275983452796936, -0.2273302525281906, -0.17376954853534698, -0.0980975404381752, 0.17566579580307007, 0.06461573392152786, 0.19890861213207245, 0.10579205304384232, -0.027639947831630707, 0.1503286361694336, 0.03446429595351219, 0.0025990058202296495, 0.05599415302276611, -0.001350818551145494, -0.06512975692749023, -0.15959304571151733, -0.07598403841257095, 0.06624913215637207, 0.19303642213344574, 0.21653372049331665, -0.1341535896062851, -0.14740151166915894, 0.03255833685398102, 0.05635113641619682, 0.18853697180747986, 0.2176433801651001, -0.12044494599103928, -0.26064828038215637, -0.11328247934579849, 0.1847270131111145, 0.14837495982646942, 0.021930303424596786, 0.09069984406232834, 0.15096250176429749, -0.13554704189300537, 0.006608838681131601, 0.10199451446533203, -0.22963756322860718, 0.09369046986103058, 0.033178895711898804, -0.006186403799802065, 0.14925941824913025, 0.3404194116592407, 0.10866287350654602, 0.07522675395011902, -0.22114527225494385, 0.03066638484597206, 0.13186006247997284, -0.14095282554626465, -0.03753938898444176, 0.21962177753448486, 0.030742688104510307, -0.21336781978607178, -0.013327641412615776, -0.04483458027243614, 0.16762742400169373, 0.095561183989048, -0.08223222196102142, 0.07375622540712357, 0.04380842670798302, -0.06097765639424324, -0.25886306166648865, -0.07406721264123917, 0.3078693747520447, -0.07206253707408905, 0.11728011071681976, -0.228143572807312, 0.2164229452610016, 0.0687389150261879, 0.33244067430496216, -0.03525255247950554, 0.21800288558006287, -0.3146800100803375, 0.00926902238279581, -0.27779990434646606, 0.2008560746908188, -0.14852671325206757, 0.028233053162693977, -0.1586705446243286, 0.016061360016465187, -0.0022299918346107006, -0.11759797483682632, 0.12156958878040314, -0.16203948855400085, 0.04187323898077011, 0.07599543780088425, 0.2068292200565338, -0.06095466390252113, -0.01564524509012699, 0.27804073691368103, -0.010376154445111752, -0.10377431660890579, 0.05929732695221901, 0.0564262680709362, 0.022976640611886978, -0.032805848866701126, 0.13284912705421448, -0.11387593299150467, 0.035467471927404404, -0.04967043921351433, 0.03775592893362045, 0.0993596687912941, 0.13457810878753662, -0.1159103587269783, -0.0012121187755838037, 0.07337962836027145, -0.07694003731012344, 0.25265035033226013, 0.11276571452617645, 0.011944645084440708, -0.08243368566036224, -0.190878763794899, 0.1540609747171402, -0.13059112429618835, -0.162535160779953, -0.08554419130086899, -0.1345999389886856, -0.16258615255355835, 0.08999349921941757, -0.10027579218149185, 0.11841652542352676, 0.07318785041570663, -0.024068182334303856, 0.0077233389019966125, -0.11468455195426941, 0.13429459929466248, 0.20721672475337982, 0.02215215191245079, 0.11191661655902863, -0.1172851100564003, -0.07022977620363235, 0.19495244324207306, -0.01781359128654003, -0.010758335702121258, -0.017962036654353142, 0.011281818151473999, -0.13325433433055878, 0.08909665048122406, -0.004843075759708881, -0.019000347703695297, 0.03429263457655907, -0.021586688235402107, 0.016732951626181602, -0.15512606501579285, -0.06856685131788254, 0.09346234798431396, 0.09925027191638947, -0.15855081379413605, 0.2076389193534851, -0.08026719838380814, -0.12272146344184875, 0.14309348165988922, -0.14101988077163696, 0.04733505845069885, 0.09650368243455887, -0.03923366218805313, 0.08658576756715775, 0.21859867870807648, 0.02972378581762314, 0.00923166237771511, -0.2309354841709137, -0.07862181961536407, 0.04478156939148903, 0.22418256103992462, 0.23214150965213776, 0.006570568773895502, -0.15411990880966187, -0.08760368824005127, -0.05152412876486778, 0.2555594742298126, 0.1414729207754135, -0.12125775963068008, 0.024950388818979263, -0.149418443441391, -0.01758711226284504, 0.11774159222841263, -0.1848418116569519, 0.050428107380867004, -0.011378838680684566, -0.21315307915210724, 0.21177689731121063, -0.04798347130417824, -0.01864922232925892, 0.10452746599912643, -0.050856128334999084, -0.16371648013591766, -0.04343009367585182, -0.16086769104003906, -0.07300455868244171, -0.21689915657043457, -0.07312328368425369, -0.08901426941156387, -0.14083553850650787, -0.025750048458576202, 0.12196081131696701, 0.16900092363357544, -0.1805654764175415, -0.06487678736448288, -0.06358715146780014, 0.07933437079191208, -0.04224978759884834, -0.16657675802707672, 0.09445182234048843, 0.09610982239246368, 0.11712510883808136, 0.09431754797697067, 0.11652853339910507, 0.11577916145324707, -0.10991592705249786, 0.036663904786109924, -0.005566383246332407, 0.15130068361759186, 0.043962519615888596, 0.21287859976291656, -0.15961870551109314, 0.06360889971256256, -0.2690863013267517, -0.011526668444275856, -0.0755314826965332, 0.0004308544157538563, 0.11392663419246674, 0.011707397177815437, -0.09392648935317993, 0.13628990948200226, 0.14480505883693695, -0.08235178887844086, 0.09570329636335373, -0.021560752764344215, -3.6344649743114132e-06, 0.19033744931221008, -0.09306292235851288, -0.12794551253318787, -0.017207683995366096, -0.14012019336223602, -0.10013588517904282, -0.014311855658888817, 0.26829659938812256, 0.07285825163125992, 0.0445341132581234, -0.09491761773824692, 0.1363767683506012, -0.22479699552059174, 0.08431204408407211, 0.017286408692598343, 0.10721250623464584, 0.040703024715185165, 0.13120484352111816, 0.009058940224349499, 0.0319928340613842, 0.09712774306535721, -0.1735762655735016, -0.168877974152565, -0.019822929054498672, 0.03617139905691147, -0.05544327571988106, -0.20026157796382904, 0.0344277024269104, 0.025382239371538162, 0.1327582597732544, -0.2151641845703125, 0.04825254902243614, -0.2149384468793869, -0.07402275502681732, -0.10320397466421127, 0.024497486650943756, -0.05412115156650543, -0.08130846172571182, 0.08875101059675217, 0.19181877374649048, 0.017828727141022682, 0.18361896276474, -0.12736934423446655, -0.08169067651033401, 0.02244815044105053, -0.051565807312726974, -0.11147931963205338, -0.13893099129199982, -0.13328291475772858, 0.03331119567155838, 0.16543686389923096, -0.16283723711967468, 0.0026957434602081776, -0.04214973375201225, -0.07667370140552521, 0.20463253557682037, 0.19932006299495697, 0.16670764982700348, 0.13212427496910095, 0.06082362309098244, 0.06548383086919785, 0.06449408829212189, -0.06079996004700661, 0.16998779773712158, 0.141797736287117, 0.25615596771240234, -0.002179330214858055, -0.06251423805952072, 0.005530210677534342, 0.06628182530403137, 0.2026013880968094, 0.0361715704202652, 0.0176759772002697, -0.007607872132211924, -0.3314080536365509, 0.3134526014328003, 0.231934055685997, -0.6762980222702026, 0.08168748766183853, -0.7503820061683655, -0.29966896772384644, -0.3522797226905823, 0.7592639327049255, -0.8222180008888245, -0.5704766511917114, -0.9386865496635437, 0.24016287922859192, -0.7587587237358093, 0.23521049320697784, -0.6543508172035217, -0.22087936103343964, -0.19663693010807037, -0.03448791056871414, 0.32097363471984863, 0.10661748796701431, 0.11596240848302841, -0.3068409264087677, -0.21418793499469757, -0.03742513805627823, -0.010386070236563683, 0.1273876279592514, 0.14468611776828766, 0.24527353048324585, 0.04895974323153496, -0.1935848593711853, 0.15090902149677277, 0.07316576689481735, -0.049044691026210785, -0.06611540168523788, -0.13148072361946106, -0.3210104703903198, 0.319380521774292, -0.13488800823688507, -0.20491915941238403, -0.0048057325184345245, -0.09299919754266739, -0.012517813593149185, 0.02976318821310997, 0.05145558342337608, -0.018374832347035408, -0.006816351320594549, 0.3330020010471344, -0.09358856081962585, -0.162672221660614, -0.011008811183273792, 0.17408715188503265, 0.02599111944437027, 0.21380378305912018, -0.03237452730536461, -0.025053009390830994, 0.012750278227031231, 0.04966942220926285, -0.31875988841056824, 0.11345919966697693, 0.03939457982778549, -0.07676439732313156, 0.0727757140994072, 0.06526875495910645, 0.16936634480953217, 0.14050474762916565, -0.12152215838432312, -0.20044127106666565, -0.05335596576333046, -0.15321998298168182, 0.023517988622188568, 0.0022740191780030727, -0.03092273138463497, -0.010955561883747578, -0.004043538589030504, 0.5376157164573669, 0.10807211697101593, -0.010179839096963406, 0.22313453257083893, -0.09498431533575058, 0.38209274411201477, 0.13293859362602234, 0.03241262212395668, -0.3191305696964264, 0.24152502417564392, -0.15975064039230347, 0.055955857038497925, 0.35963955521583557, 0.06669387966394424, -0.07819294184446335, -0.17145755887031555, 0.23736488819122314, -0.21153049170970917, 0.11647573858499527, -0.0704130008816719, -0.2501274347305298, -0.13290297985076904, 0.005407528020441532, -0.15737606585025787, -0.14719226956367493, 0.11858510226011276, -0.22039857506752014, 0.0462658517062664, 0.01813547872006893, -0.047509510070085526, 0.11908960342407227, -0.0194917693734169, -0.12636126577854156, -0.23870563507080078, 0.07764510810375214, 0.11198808997869492, -0.05428885295987129, -0.03501652553677559, -0.21394340693950653, 0.07511743158102036, -0.09380223602056503, -0.011441520415246487, 0.3189840614795685, -0.3395014703273773, -0.36107155680656433, 0.36152029037475586, -0.07879547774791718, -0.14405882358551025, 0.1860160529613495, 0.16245019435882568, -0.4185810685157776, -0.17413046956062317, 0.30040186643600464, 0.22225435078144073, 0.22818385064601898, 0.08390352874994278, 0.025368867442011833, 0.17752723395824432, -0.2463383674621582, 0.03999818488955498, 0.24129852652549744, -0.160988911986351, 0.20987117290496826, -0.1739794760942459, 0.025435682386159897, -0.29042088985443115, 0.16424037516117096, 0.218911811709404, -0.12041570991277695, 0.03449148312211037, 0.1598690003156662, -0.24498453736305237, -0.17166471481323242, -0.2848990261554718, -0.2119280844926834, -0.00034134899033233523, -0.10433293133974075, 0.0631999596953392, 0.10246993601322174, 0.20633766055107117, 0.0051284111104905605, -0.05464032664895058, 0.444338858127594, -0.05773712694644928, 0.30410343408584595, -0.038927286863327026, 0.09864020347595215, -0.06959069520235062, 0.12599828839302063, 0.12555408477783203, -0.20879709720611572, 0.2037440687417984, 0.018473127856850624, -0.022977793589234352, -0.07983796298503876, 0.3777516186237335, 0.2134193778038025, 0.14856074750423431, -0.031208647415041924, 0.12496396154165268, -0.20482707023620605, -0.21084870398044586, -0.20137374103069305, -0.3240855038166046, 0.17769069969654083, -0.14771634340286255, 0.06152484938502312, -0.2067400962114334, -0.12468725442886353, 0.23336835205554962, 0.36833712458610535, -0.1181986927986145, -0.12796269357204437, 0.2532118856906891, 0.11364727467298508, -0.1825941801071167, 0.2618387043476105, 0.17268900573253632, 0.3777723014354706, -0.2881094515323639, -0.1397111564874649, -0.2566598653793335, -0.15560215711593628, 0.00713676493614912, 0.23084107041358948, -0.3947608470916748, 0.2936962842941284, 0.29847463965415955, -0.21975699067115784, 0.055977411568164825, 0.3180561363697052, 0.13377220928668976, -0.0757376179099083, -0.11431434005498886, -0.15306751430034637, -0.22513970732688904, 0.14639148116111755, 0.032506976276636124, -0.0900331363081932, -0.13912822306156158, 0.12303952872753143, -0.14401458203792572, -0.023871129378676414, -0.2790375351905823, -0.04473811388015747, 0.20708593726158142, 0.12502942979335785, 0.020253287628293037, -0.029391922056674957, 0.09041125327348709, 0.06474023312330246, -0.2165565937757492, 0.24240392446517944, -0.24786244332790375, -0.06969594955444336, -0.007793006487190723, -0.07942134141921997, 0.23765519261360168, 0.1766808182001114, 0.09782828390598297, 0.19832777976989746, 0.30360835790634155, 0.12349563091993332, 0.09811224788427353, -0.06661123037338257, 0.19552738964557648, 0.3496253192424774, 0.0718299150466919, -0.24952495098114014, -0.2959757447242737, -0.13927917182445526, 0.19454602897167206, 0.13298043608665466, -0.21391594409942627, 0.24283000826835632, -0.2389712929725647, -0.1005001813173294, -0.20540016889572144, 0.4813562333583832, 0.17352071404457092, 0.08750593662261963, 0.19082660973072052, -0.08183329552412033, -0.1771257370710373, -0.1284140944480896, -0.2913503050804138, -0.017361320555210114, -0.2520282566547394, 0.16964107751846313, -0.21433822810649872, -0.07421429455280304, 0.19394667446613312, 0.0676490068435669, -0.19986101984977722, 0.2864674925804138, -0.21177656948566437, -0.1473492980003357, -0.013658317737281322, -0.04292374104261398, -0.06896011531352997, 0.019971519708633423, -0.1321900337934494, 0.00637032138183713, 0.09030283242464066, 0.10366464406251907, 0.09031092375516891, 0.05086445435881615, 0.0895846039056778, -0.13401660323143005, 0.055004436522722244, -0.22405347228050232, -0.08354108780622482, 0.029645029455423355, 0.029709214344620705, -0.028213132172822952, -0.05345923453569412, 0.044397760182619095, -0.05658993870019913, -0.08237538486719131, -0.043656136840581894, -0.00388210522942245, -0.06145783141255379, -0.01393565721809864, -0.09133778512477875, -0.07925079017877579, 0.09123765677213669, 0.03356193006038666, -0.058808583766222, 0.1937382072210312, 0.1601063758134842, -0.029420236125588417, -0.07776828855276108, -0.00707658426836133, 0.0029779665637761354, 0.017327342182397842, 0.09142707288265228, -0.16529840230941772, -0.11696729809045792, 0.051861122250556946, 0.0635751485824585, -0.18661265075206757, -0.05378194898366928, -0.12975692749023438, -0.11785456538200378, -0.008132698945701122, -0.06389253586530685, 0.08275129646062851, -0.05063677579164505, 0.18068866431713104, 0.027133388444781303, 0.10173524171113968, 0.1853063702583313, -0.07725320011377335, 0.13961739838123322, -0.03149547427892685, 0.14088062942028046, 0.040513522922992706, -0.20037676393985748, 0.2657853960990906, -0.09161946922540665, 0.3038909435272217, -0.05397116020321846, -0.12215607613325119, -0.080802321434021, -0.09905867278575897, 0.0901893600821495, -0.18527866899967194, 0.16966627538204193, 0.1418016105890274, 0.10113158077001572, -0.036713793873786926, -0.14198237657546997, -0.24929016828536987, 0.21156832575798035, -0.04636652022600174, 0.10789619386196136, -0.06876786798238754, 0.002028224989771843, -0.11328598111867905, 0.11104615032672882, -0.05814708024263382, 0.07050448656082153, -0.12179293483495712, -0.10824359208345413, -0.01993871107697487, 0.023065214976668358, -0.0384717620909214, -0.15727712213993073, 0.16268010437488556, -0.10803551971912384, -0.1422976851463318, 0.18644435703754425, 0.08258788287639618, 0.0008944605360738933, -0.11784998327493668, -0.11979793012142181, -0.0390433743596077, 0.028141792863607407, 0.14495114982128143, -0.13812600076198578, -0.020044106990098953, -0.07895088940858841, -0.24883656203746796, 0.0464123860001564, 0.1297692060470581, 0.3745831549167633, 0.22176210582256317, 0.05922680348157883, 0.211053729057312, 0.21885348856449127, -0.08037558943033218, -0.059739742428064346, 0.3056051731109619, 0.026962606236338615, 0.0005172445671632886, 0.17949174344539642, -0.09074043482542038, -0.011985967867076397, -0.002159758936613798, -0.0776078924536705, -0.09993026405572891, -0.1781884878873825, -0.10177534818649292, 0.01828593946993351, 0.04523448646068573, 0.18965822458267212, 0.13332760334014893, 0.17844156920909882, 0.06255011260509491, -0.017369452863931656, -0.15534012019634247, 0.1381097137928009, 0.0965781956911087, 0.16581711173057556, -0.11199522763490677, -0.0684673935174942, -0.07957006990909576, 0.19699053466320038, 0.05362401157617569, -0.026543311774730682, -0.03516313433647156, -0.13857001066207886, 0.021999087184667587, -0.06136668473482132, 0.011898000724613667, 0.1399550586938858, -0.04294876754283905, -0.07284346967935562, 0.13919660449028015, 0.009030677378177643, 0.08049221336841583, -0.12536807358264923, -0.17233020067214966, -0.110084168612957, -0.25307875871658325, -0.06083544343709946, 0.18364378809928894, -0.07954847812652588, -0.1957300305366516, 0.04987514391541481, -0.10610274225473404, -0.17482148110866547, -0.08300850540399551, 0.19405364990234375, 0.15699750185012817, -0.009971817955374718, 0.22955766320228577, 0.10853485018014908, -0.1134306788444519, 0.045679304748773575, 0.0464518740773201, -0.032991647720336914, -0.19744201004505157, -0.12836945056915283, 0.026518194004893303, 0.19248375296592712, -0.12156961113214493, -0.15225918591022491, -0.08285994827747345, 0.06569337844848633, 0.09574770927429199, 0.10700123012065887, 0.01693679951131344, 0.028832407668232918, -0.14429834485054016, -0.13242602348327637, -0.2521769106388092, 0.11868995428085327, -0.009667241014540195, 0.004427531734108925, 0.03997788950800896, -0.10051164776086807, -0.20277832448482513, 0.10051187872886658, 0.01641521416604519, 0.0316898487508297, 0.18650491535663605, -0.12940746545791626, 0.058628883212804794, 0.06460937857627869, 0.132058247923851, 0.3052537143230438, 0.11841089278459549, 0.16501344740390778, 0.10836881399154663, 0.015586396679282188, -0.1169675961136818, -0.018198935315012932, -0.22413870692253113, -0.020060790702700615, -0.05659307911992073, 0.06765981763601303, 0.19365844130516052, -0.0272938534617424, -0.041105519980192184, 0.2892473638057709, 0.10739275813102722, -0.009813779033720493, 0.04720194637775421, 0.03392369672656059, 0.011801183223724365, 0.0010699392296373844, -0.05728482827544212, -0.14710019528865814, -0.031158428639173508, 0.14258849620819092, -0.048149462789297104, -0.15749241411685944, 0.009406028315424919, -0.1196678876876831, -0.05229556933045387, 0.11914867162704468, -0.21321798861026764, -0.13131943345069885, -0.21288850903511047, -0.08135735243558884, 0.0482931062579155, 0.09930568933486938, -0.10873141884803772, 0.18734396994113922, -0.1009194627404213, -0.007654602639377117, -0.013895051553845406, -0.06907984614372253, -0.17490290105342865, -0.09859635680913925, 0.06833358108997345, -0.03512382507324219, -0.1134985163807869, 0.12164551019668579, -0.29012274742126465, -0.044215839356184006, -0.18468020856380463, 0.40072476863861084, 0.21297714114189148, -0.27706843614578247, 0.33724576234817505, 0.08677513897418976, 0.07732242345809937, 0.03019833005964756, -0.06075446680188179, -0.24498653411865234, 0.2940753996372223, -0.13592198491096497, -0.22942611575126648, -0.1855236142873764, -0.16090820729732513, 0.16411538422107697, -0.35502827167510986, -0.19366413354873657, 0.2645312249660492, 0.2977394759654999, 0.20232553780078888, 0.004336573649197817, -0.40054064989089966, -0.26783207058906555, 0.23824001848697662, 0.3246837556362152, 0.019784901291131973, -0.3640119731426239, 0.2715975344181061, 0.2812478542327881, -0.01797533594071865, 0.45609337091445923, 0.1831456869840622, -0.12580472230911255, -0.12155943363904953, -0.008354049175977707, -0.4126816987991333, -0.2354380339384079, -0.018262550234794617, -0.1935029774904251, 0.3867446184158325, 0.26713764667510986, -0.032744619995355606, -0.458322137594223, -0.2344454526901245, -0.00022897630697116256, 0.04769261181354523, -0.0705038532614708, -0.4177800416946411, -0.09102696180343628, -0.17686918377876282, 0.08994580805301666, 0.042982447892427444, -0.10931700468063354, 0.0715194046497345, 0.1097218245267868, -0.16985280811786652, -0.08457794040441513, 0.0178824495524168, -0.01413637213408947, -0.03679307922720909, -0.04387689754366875, -0.014529534615576267, -0.12053073942661285, -0.18231725692749023, 0.18186120688915253, -0.008954048156738281, -0.047407712787389755, -0.048804331570863724, -0.015342595987021923, 0.15152819454669952, 0.2037060558795929, -0.07902136445045471, -0.04343077167868614, -0.20119529962539673, 0.07170513272285461, -0.12448222190141678, 0.19266222417354584, -0.20457173883914948, -0.18586435914039612, -0.11489684134721756, -0.14759580790996552, 0.06127350404858589, -0.2761986553668976, -0.09735549241304398, 0.03381717950105667, 0.07232466340065002, 0.5158827304840088, -0.010945936664938927, -0.16990478336811066, 0.045931484550237656, -0.12443947046995163, 0.023865047842264175, -0.31145143508911133, 0.5720812678337097, -0.19811756908893585, -0.09398947656154633, -0.022559307515621185, 0.20019099116325378, -0.15504026412963867, 0.031648796051740646, 0.16669845581054688, 0.1944616138935089, 0.03285742923617363, 0.4931502342224121, 0.22583423554897308, 0.027559030801057816, 0.06833586096763611, -0.05318153649568558, -0.007577141281217337, 0.040317412465810776, 0.02028745412826538, 0.13327035307884216, 0.04838184639811516, 0.06820448487997055, -0.048156727105379105, 0.08699719607830048, 0.12539780139923096, -0.06823933869600296, -0.051482461392879486, -0.054162729531526566, -0.02320207469165325, 0.12706230580806732, -0.11392919719219208, -0.140369713306427, -0.3232370913028717, -0.4338737726211548, 0.14803528785705566, 0.032262932509183884, 0.10033001005649567, -0.06390469521284103, -0.022363990545272827, -0.2232973426580429, -0.0011151107028126717, 0.33250465989112854, 0.13629113137722015, -0.0919090211391449, -0.015112628228962421, 0.015149164944887161, 0.12407802790403366, -0.05309633910655975, 0.11544591188430786, -0.03280727565288544, -0.015665844082832336, 0.1287837028503418, -0.18735316395759583, 0.03804125636816025, -0.038763679563999176, -0.011724116280674934, 0.1331561952829361, 0.045806124806404114, 0.04247372969985008, 0.3339387774467468, -0.06642510741949081, -0.14854556322097778, 0.3471733331680298, 0.006880537141114473, -0.05624139681458473, -0.07914814352989197, 0.12364208698272705, 0.02676338516175747, -0.20217956602573395, 0.026007771492004395, 0.07330451160669327, 0.08601772040128708, -0.030471032485365868, 0.05272581800818443, -0.2844034433364868, 0.022770725190639496, -0.00736344326287508, 0.049380067735910416, -0.02649553120136261, -0.08631501346826553, -0.04698662459850311, 0.0632159411907196, 0.02725997380912304, 0.24430204927921295, -0.07899194210767746, -0.06999822705984116, 0.30625152587890625, -0.09774357825517654, -0.19045786559581757, 0.21540500223636627, -0.19291339814662933, -0.09486456960439682, 0.12175139784812927, 0.020641475915908813, 0.23421548306941986, -0.04493958130478859, 0.07133828103542328, -0.23480328917503357, 0.05158815532922745, -0.085515096783638, -0.20279286801815033, -0.07391864061355591, -0.20718806982040405, 0.09398560971021652, 0.17565275728702545, 0.021055204793810844, 0.04151008278131485, 0.15144602954387665, 0.12440332025289536, -0.2980659008026123, 0.004844335839152336, 0.07890219241380692, 0.03199109807610512, 0.0052947853691875935, 0.12005537003278732, 0.01911134459078312, -0.04436492174863815, -0.08493956923484802, -0.13294968008995056, 0.15013247728347778, -0.10288818180561066, 0.0886520966887474, -0.1972920000553131, -0.1012079045176506, -0.1582290679216385, -0.08799401670694351, 0.07937734574079514, -0.27831321954727173, -0.4921319782733917, -0.10715261101722717, -0.028025353327393532, 0.12311232835054398, -0.04267677292227745, -0.031247422099113464, 0.2671917676925659, -0.08549441397190094, 0.18531213700771332, 0.09109574556350708, -0.05017264187335968, -0.18386955559253693, -0.1439061015844345, -0.05292126536369324, -0.020829442888498306, 0.08461515605449677, -0.14945007860660553, 0.13327506184577942, -0.09349352866411209, -0.4080824553966522, 0.009922862984240055, -0.058860424906015396, -0.0273628868162632, 0.1766228824853897, 0.0710260421037674, 0.043603017926216125, 0.11294534057378769, 0.07717564702033997, 0.17877750098705292, 0.1671132892370224, 0.1614057868719101, 0.1741042584180832, 0.13706809282302856, -0.08307197690010071, 0.12818776071071625, 0.01680460013449192, 0.033320799469947815, -0.09776294231414795, 0.14743441343307495, 0.10593240708112717, -0.1748923510313034, 0.03010500967502594, 0.117385134100914, -0.008926418609917164, 0.05818066745996475, 0.09087742120027542, -0.01618731953203678, -0.16908913850784302, -0.05130357667803764, 0.08084628731012344, 0.07930508255958557, -0.03241927921772003, 0.05810435488820076, 0.07580103725194931, -0.055443570017814636, 0.08403538912534714, 0.2810482978820801, -0.04839315265417099, -0.17525681853294373, 0.19868186116218567, -0.15145473182201385, -0.09827330708503723, -0.042334847152233124, 0.19049790501594543, -0.061966005712747574, 0.08453325182199478, -0.1097525879740715, -0.21991601586341858, 0.07735330611467361, -0.23539379239082336, 0.22998705506324768, 0.11260335892438889, -0.3758266866207123, -0.03036149963736534, 0.06607074290513992, -0.030118511989712715, 0.42539724707603455, -0.025329090654850006, 0.06313516944646835, 0.37025153636932373, -0.013087524101138115, 0.19400747120380402, -0.11201434582471848, -0.055170826613903046, -0.0035631360951811075, -0.3333743214607239, 0.09452277421951294, -0.04287102818489075, 0.22745317220687866, 0.12424387782812119, 0.0727105438709259, -0.2912599742412567, -0.09676241874694824, -0.1542440801858902, 0.1373385637998581, -0.09319986402988434, 0.05953383818268776, -0.30741235613822937, -0.01632547564804554, -0.2885883152484894, 0.12539750337600708, 0.05720321089029312, -0.24630309641361237, 0.30165356397628784, -0.07596927136182785, -0.14045418798923492, 0.10132517665624619, 0.014641168527305126, -0.30243581533432007, 0.3018885850906372, -0.12281406670808792, 0.20426736772060394, 0.23059731721878052, -0.006569206714630127, -0.27144938707351685, -0.11055073142051697, 0.06713961064815521, 0.035558126866817474, 0.07843165844678879, 0.16595293581485748, -0.0017936410149559379, -0.31943824887275696, 0.003978858236223459, -0.17199110984802246, -0.21120154857635498, -0.007893351837992668, 0.022637473419308662, -0.2286396324634552, -0.008466261439025402, -0.015237863175570965, 0.06896871328353882, -0.1355021446943283, 0.03987138345837593, 0.1317443549633026, -0.06263250857591629, 0.16094541549682617, -0.20142267644405365, -0.035508982837200165, -0.16103781759738922, 0.11056199669837952, 0.14175917208194733, -0.17171922326087952, -0.10223256796598434, -0.09734503924846649, 0.10144273191690445, 0.31041523814201355, 0.1365205943584442, 0.08384843170642853, -0.2034781277179718, 0.05077774450182915, -0.1032138541340828, -0.0792047455906868, -0.030384737998247147, 0.4936507046222687, -0.2528308033943176, 0.1878110021352768, 0.17942029237747192, -0.09480351209640503, -0.1591150164604187, -0.17391188442707062, -0.17092905938625336, 0.2556000351905823, -0.017941754311323166, -0.2575039565563202, 0.04290087893605232, -0.06303852796554565, -0.0854431614279747, 0.17272818088531494, -0.1811423897743225, -0.1725587546825409, 0.13978108763694763, -0.06973572820425034, -0.12231313437223434, 0.1339935064315796, 0.04967162013053894, 0.28260818123817444, -0.11339911073446274, 0.12689892947673798, 0.14308421313762665, -0.1174265667796135, -0.0239059180021286, -0.1486564427614212, 0.11392726004123688, -0.045194242149591446, 0.008965038694441319, -0.026999186724424362, 0.05139519274234772, -0.11051321774721146, 0.06256241351366043, -0.026035603135824203, -0.014606451615691185, -0.057900384068489075, 0.044462256133556366, 0.04065403714776039, 0.0759720504283905, -0.06819978356361389, -0.11967121064662933, 0.0030212923884391785, 0.04527169466018677, 0.09143537282943726, -0.06936884671449661, 0.04728741943836212, -0.10582201182842255, 0.13837599754333496, 0.11687976121902466, -0.11456875503063202, -0.0909472182393074, -0.022791413590312004, 0.0205201655626297, -0.12339002639055252, 0.027111699804663658, -0.05387459695339203, 0.04193893447518349, 0.0898481085896492, 0.1384212225675583, 0.06125545874238014, 0.13410916924476624, 0.05591852217912674, -0.17362788319587708, -0.22764229774475098, 0.09620397537946701, -0.2777768671512604, -0.3619990646839142, 0.22287285327911377, -0.1301964670419693, -0.09938470274209976, -0.18289266526699066, 0.16285300254821777, 0.15146367251873016, -0.17152173817157745, -0.1577029824256897, 0.0018822022248059511, -0.16207274794578552, 0.07380619645118713, 0.0886930525302887, -0.015400555916130543, -0.003674471052363515, -0.23628729581832886, 0.19844500720500946, 0.18659663200378418, 0.07695405930280685, 0.1140228658914566, -0.14138974249362946, -0.06454229354858398, 0.09609119594097137, -0.021628694608807564, -0.07399347424507141, 0.17033272981643677, -0.09913739562034607, -0.1363322138786316, 0.024176860228180885, -0.0357489176094532, -0.09846976399421692, 0.18979422748088837, -0.022177804261446, -0.2255239337682724, 0.06855849921703339, -0.01078318152576685, -0.05781325697898865, 0.42470401525497437, -0.08183388411998749, 0.0395449697971344, 0.10462497174739838, -0.022125132381916046, 0.02675938792526722, 0.1819290816783905, -0.14218279719352722, 0.15838778018951416, 0.11683927476406097, -0.3369094729423523, 0.062490928918123245, -0.030135752633213997, 0.030404845252633095, 0.12300710380077362, -0.009543467313051224, 0.14807066321372986, -0.08584143966436386, -0.12204930186271667, -0.025084661319851875, -0.013736830092966557, 0.13511154055595398, 0.06897152960300446, 0.03823129087686539, 0.04843030124902725, -0.02075236104428768, 0.017485162243247032, 0.07005486637353897, -0.020881852135062218, -0.07544480264186859, -0.19863112270832062, -0.06823647767305374, -0.09532256424427032, 0.12200547009706497, -0.04441934823989868, 0.1411193460226059, 0.11846766620874405, -0.1829632669687271, 0.1877700239419937, -0.16040003299713135, -0.08720254898071289, 0.06904865801334381, -0.0398375503718853, 0.22610974311828613, 0.036800090223550797, -0.08784397691488266, 0.2567157745361328, -0.01575644686818123, 0.07225123047828674, 0.012436137534677982, 0.09388276189565659, -0.036002833396196365, 0.014493786729872227, 0.03689655289053917, 0.00034459022572264075, -0.030537588521838188, -0.09331164509057999, 0.003475732170045376, 0.06197965890169144, 0.01791376993060112, -0.044131383299827576, -0.053872592747211456, 0.0008906523580662906, -0.052221693098545074, 0.056621503084897995, -0.20839636027812958, -0.5627228021621704, 0.9584217667579651, 0.12260369211435318, -0.4238502085208893, 0.2542559504508972, -0.06148860231041908, -0.2541997730731964, 0.5267348289489746, -0.7197321653366089, 0.832209587097168, 0.21286654472351074, 0.17375025153160095, -0.4445416331291199, 0.12452326714992523, -0.5247766971588135, 0.01885593682527542, 0.11581985652446747, 0.01835569366812706, 0.18581196665763855, 0.05302009731531143, 0.14421585202217102, 0.11292940378189087, 0.11073474586009979, 0.09099353849887848, 0.045741576701402664, 0.22864122688770294, 0.054831307381391525, -0.20293597877025604, 0.0373653918504715, -0.2035033404827118, -0.0736616775393486, 0.01979447901248932, 0.22431573271751404, 0.10629824548959732, 0.3209141194820404, -0.026287632063031197, 0.08484510332345963, 0.17320974171161652, -0.4090946912765503, -0.3192230463027954, -0.020412765443325043, 0.09714742004871368, 0.11657624691724777, 0.18413697183132172, 0.4323308765888214, -0.3147026002407074, -0.24909959733486176, 0.13627927005290985, -0.18625514209270477, -0.12905941903591156, -0.15398165583610535, 0.1713533252477646, -0.23762819170951843, 0.004875454120337963, -0.2294406145811081, 0.17890122532844543, 0.2701646089553833, -0.07634380459785461, 0.05191546678543091, 0.01182369701564312, -0.10115166753530502, -0.19221282005310059, 0.05973182991147041, 0.23383291065692902, 0.020971819758415222, 0.19558371603488922, -0.0795212909579277, -0.24035018682479858, 0.1279873102903366, -0.22188694775104523, 0.23744924366474152, 0.15031950175762177, -0.10406719148159027, 0.04781476408243179, 0.056959666311740875, 0.18346087634563446, 0.1907624751329422, 0.23061911761760712, -0.1664077639579773, -0.018092669546604156, -0.015204200521111488, 0.20961806178092957, -0.036120202392339706, 0.046348631381988525, -0.0025313077494502068, 0.07963582873344421, 0.02613299898803234, 0.004861606750637293, -0.14257945120334625, -0.1469765454530716, -0.15032611787319183, -0.024483872577548027, 0.030100615695118904, 0.10180787742137909, -0.13562943041324615, -0.0893900915980339, -0.027895832434296608, 0.20297272503376007, 0.1079447939991951, -0.17440146207809448, -0.03429500013589859, 0.2574954628944397, -0.12706024944782257, -0.31974881887435913, -0.28849172592163086, 0.23981313407421112, 0.30098050832748413, 0.1772814691066742, 0.3018723130226135, 0.23368392884731293, -0.08784131705760956, -0.053715310990810394, 0.22775936126708984, -0.19489483535289764, 0.19654035568237305, 0.19127416610717773, -0.12787073850631714, -0.03086685575544834, -0.07144859433174133, -0.10202307254076004, 0.1453205943107605, 0.20074036717414856, -0.2547476887702942, 0.11430475115776062, 0.22407057881355286, -0.3406745493412018, 0.0011449374724179506, 0.15553508698940277, 0.04897797852754593, -0.17684276401996613, -0.10974718630313873, 0.15891951322555542, -0.074851855635643, 0.01618180423974991, -0.12335265427827835, 0.107575923204422, 0.0708756148815155, 0.05681354179978371, 0.08192537724971771, -0.060325898230075836, 0.012292402796447277, 0.10160921514034271, 0.06209013983607292, -0.23565822839736938, 0.5951464772224426, -0.11898844689130783, 0.275196373462677, -0.019655145704746246, -0.03438553586602211, -0.2694675624370575, 0.03151274472475052, -0.3537635803222656, 0.08542008697986603, 0.06725878268480301, 0.36498531699180603, -0.2092278003692627, 0.06920704245567322, 0.2390405833721161, -0.045298997312784195, 0.38829895853996277, -0.26888272166252136, -0.2508481740951538, -0.2158166468143463, 0.15964899957180023, 0.13856975734233856, -0.15427365899085999, -0.21103008091449738, -0.01650380715727806, 0.0766611099243164, -0.13350935280323029, -0.12059888243675232, -0.028865575790405273, 0.03774166852235794, -0.028161926195025444, 0.20735463500022888, 0.33430036902427673, -0.16684824228286743, -0.16958364844322205, -0.3416896462440491, 0.15923970937728882, -0.21742059290409088, 0.11842088401317596, -0.10802283883094788, 0.1397879421710968, 0.10758334398269653, -0.2523197829723358, 0.20987653732299805, -0.08502498269081116, -0.22637629508972168, 0.274949312210083, 0.272350013256073, 0.0960443764925003, 0.15012608468532562, 0.08799656480550766, 0.044351134449243546, -0.3263424336910248, -0.011661412194371223, 0.23392514884471893, 0.15107393264770508, -0.24862468242645264, -0.18202801048755646, 0.10726139694452286, 0.46216902136802673, -0.0036472047213464975, -0.07597821205854416, 0.35092172026634216, -0.09808336198329926, -0.5110903382301331, 0.12551680207252502, 0.11176849156618118, 0.08838310837745667, 0.07142926007509232, 0.23613964021205902, -0.33517545461654663, -0.07711280137300491, 0.210286945104599, -0.1505756974220276, 0.01511617936193943, -0.06693825125694275, 0.1244308352470398, 0.22082984447479248, 0.19611769914627075, -0.2836970388889313, -0.31361323595046997, 0.293506383895874, -0.0029074610210955143, 0.09238684922456741, -0.1103517934679985, -0.14384737610816956, 0.04857282340526581, -0.12307045608758926, 0.009833109565079212, -0.14209382236003876, 0.1884787529706955, -0.2188514620065689, 0.12586839497089386, 0.34054580330848694, 0.024604372680187225, -0.22561775147914886, 0.15195013582706451, 0.24562720954418182, 0.009347117505967617, 0.013602080754935741, -0.07730723917484283, -0.07226289063692093, 0.15079937875270844, -0.30906662344932556, 0.07144957035779953, 0.13453026115894318, 0.12342996150255203, 0.2322905957698822, -0.06734238564968109, 0.20456117391586304, 0.10800469666719437, -0.24371294677257538, -0.020841702818870544, -0.017032647505402565, -0.4537607729434967, 0.10640513896942139, 0.09436710923910141, -0.30919525027275085, 0.026078030467033386, -0.19588957726955414, -0.11057675629854202, 0.3787153661251068, 0.22799944877624512, 0.2480437159538269, -0.035358086228370667, -0.018926287069916725, -0.20949755609035492, 0.18634659051895142, 0.17575761675834656, -0.006764253135770559, 0.017847327515482903, 0.17107263207435608, -0.08216766268014908, 0.11527317017316818, 0.056753601878881454, -0.01058591715991497, -0.1716025471687317, -0.07804343849420547, 0.033899787813425064, 0.08551859855651855, 0.19543731212615967, 0.09254457801580429, 0.11791501939296722, 0.08393048495054245, 0.13795927166938782, 0.02644526958465576, 0.01648513413965702, -0.18967054784297943, -0.11340004205703735, 0.013966495171189308, -0.18110153079032898, -0.030803043395280838, 0.10093291848897934, -0.10007289797067642, 0.13833437860012054, -0.12463103234767914, 0.03434848040342331, -0.22131681442260742, -0.11964821070432663, 0.10437101125717163, -0.11645571887493134, 0.17315466701984406, -0.014921804890036583, 0.0012504481710493565, -0.02330276183784008, -0.07334902882575989, 0.05652425438165665, 0.19214172661304474, 0.05289461836218834, -0.05492149293422699, -0.11996447294950485, 0.1070210412144661, 0.26813122630119324, 0.09817095100879669, -0.17854978144168854, 0.030858183279633522, 0.09669724851846695, 0.10004030913114548, -0.08593906462192535, -0.06158778443932533, -0.09199772030115128, 0.04839426651597023, -0.18512505292892456, -0.041779328137636185, -0.09271412342786789, -0.16164737939834595, -0.21731573343276978, -0.24000366032123566, -0.10942579805850983, 0.020046615973114967, -0.02964341826736927, 0.2108178287744522, 0.047209300100803375, 0.18830519914627075, 0.05864802747964859, 0.1904047727584839, 0.16291780769824982, 0.07519608736038208, 0.11452796310186386, 0.016167867928743362, 0.10540083795785904, 0.030224107205867767, 0.2080700546503067, 0.22849041223526, -0.0643937811255455, -0.020778896287083626, -0.017110422253608704, -0.1129627451300621, -0.20639638602733612, -0.15693289041519165, -0.1402447670698166, -0.031436700373888016, 0.09539325535297394, -0.09345819056034088, -0.18338574469089508, -0.2331603467464447, 0.0854751318693161, 0.07843165099620819, 0.08335999399423599, -0.04569612070918083, 0.1539304405450821, 0.21900881826877594, -0.05351443216204643, 0.05958067625761032, 0.36175841093063354, -0.043214667588472366, 0.08207958936691284, -0.19218972325325012, 0.006563692819327116, 0.01297033578157425, 0.018556319177150726, 0.07165367901325226, 0.23804879188537598, -0.15360277891159058, 0.06453895568847656, 0.012228707782924175, -0.13452498614788055, -0.10282202810049057, 0.12346509844064713, -0.02331402525305748, -0.1560734361410141, -0.037707630544900894, 0.084387868642807, 0.4704466164112091, -0.16395261883735657, -0.2670104205608368, -0.11615443229675293, -0.019213706254959106, 0.21629071235656738, -0.18582411110401154, 0.24425706267356873, -0.0952276885509491, 0.13028952479362488, -0.0534856803715229, -0.012003742158412933, 0.0006723660626448691, -0.22106148302555084, -0.09921813756227493, -0.050172850489616394, -0.018892578780651093, -0.15025071799755096, 0.00903515424579382, -0.10040002316236496, 0.07799268513917923, -0.14288349449634552, -0.024707676842808723, 0.01931268721818924, 0.013504491187632084, 0.09574449062347412, -0.018103284761309624, 0.020503899082541466, 0.21361948549747467, -0.08286202698945999, 0.002024733927100897, 0.077146016061306, -0.19417698681354523, -0.09297926723957062, 0.15035739541053772, -0.030056757852435112, -0.12911571562290192, 0.010893730446696281, -0.14709801971912384, 0.03173191845417023, -0.19949859380722046, -0.04202163964509964, -0.008883246220648289, -0.005850558634847403, 0.1636037826538086, 0.11725205183029175, 0.1974167823791504, -0.15791337192058563, -0.014056785963475704, -0.15233926475048065, -0.07469791918992996, 0.011758831329643726, -0.014690305106341839, 0.042759764939546585, 0.058595944195985794, 0.14628779888153076, -0.11880286782979965, -0.0023276146966964006, 0.10287977755069733, -0.00010806754289660603, -0.09322135150432587, -0.18613988161087036, 0.10827820748090744, 0.10169316828250885, -0.058301303535699844, 0.029325593262910843, -0.05770958214998245, -0.003045926569029689, 0.18621519207954407, 0.17447605729103088, -0.1363053023815155, -0.2017465978860855, -0.266025573015213, 0.15706723928451538, 0.1612340658903122, -0.037055566906929016, 0.2449003905057907, 0.03477516770362854, 0.005083069205284119, 0.11187461763620377, 0.012740732170641422, 0.07912194728851318, 0.1443444937467575, -0.2977128326892853, 0.1792934536933899, 0.019180187955498695, -0.18759943544864655, -0.19446556270122528, -0.0009878522250801325, 0.10906772315502167, -0.13886934518814087, 0.011304439976811409, 0.024244505912065506, 0.2656465470790863, 0.009664016775786877, -0.0782397910952568, -0.17588259279727936, -0.07105918973684311, -0.023109033703804016, -0.0183874499052763, 0.08313776552677155, -0.008061371743679047, 0.12298000603914261, 0.04714469984173775, -0.008215785957872868, 0.0023778071627020836, -0.14464102685451508, -0.04809839278459549, -0.24534237384796143, 0.04854968935251236, 0.16640444099903107, 0.1662685126066208, 0.05591626837849617, 0.07093550264835358, -0.02587796561419964, 0.03469938039779663, 0.0005672292318195105, 0.07460387051105499, 0.08436761796474457, -0.16239094734191895, -0.48568373918533325, -0.007758458144962788, 0.020183561369776726, 0.045204535126686096, 0.13096781075000763, -0.00695129344239831, -0.17432697117328644, -0.12076139450073242, -0.04732276871800423, 0.12962856888771057, 0.1640603393316269, -0.03529158979654312, 0.20956173539161682, -0.11025586724281311, -0.19969502091407776, 0.019042598083615303, 0.02892255410552025, 0.22562846541404724, 0.15064123272895813, -0.12333974987268448, 0.09659107774496078, -0.02625327743589878, 0.08695130795240402, -0.047735970467329025, 0.03489795699715614, -0.1651151180267334, -0.33080530166625977, 0.015425274148583412, 0.12646976113319397, 0.1333218812942505, -0.1732858568429947, 0.2459648698568344, -0.025247804820537567, 0.190218985080719, -0.10549378395080566, -0.009154574014246464, -0.0065864818170666695, -0.32450899481773376, -0.023722847923636436, -0.04878715053200722, 0.01274937205016613, -0.10879669338464737, -0.06079350784420967, -0.20013588666915894, -0.1912030279636383, -0.20844371616840363, 0.09657091647386551, -0.12056739628314972, 0.18669536709785461, 0.4763902723789215, -0.03423940762877464, 0.17840442061424255, 0.18105384707450867, -0.05512285605072975, 0.32766664028167725, 0.0048984987661242485, 0.06752923876047134, -0.09283257275819778, 0.14913414418697357, -0.10307959467172623, -0.12152820080518723, -0.1371113657951355, -0.26981478929519653, 0.09459766745567322, -0.025540171191096306, -0.017915111035108566, 0.19291239976882935, 0.08338495343923569, -0.14323081076145172, 0.19193926453590393, 0.09089427441358566, -0.23096336424350739, 0.006874631624668837, 0.022587088868021965, -0.3696981370449066, 0.22491449117660522, 0.29868826270103455, 0.052937913686037064, 0.058552131056785583, -0.08584550768136978, -0.2805388271808624, -0.13085711002349854, -0.008367408998310566, 0.007849701680243015, -0.20789620280265808, -0.15380650758743286, 0.12614887952804565, 0.014893870800733566, -0.009059488773345947, -0.2320614606142044, 0.06452171504497528, -0.01903434842824936, 0.11564120650291443, 0.16398945450782776, 0.17635023593902588, -0.13020779192447662, -0.4658934772014618, -0.1083371564745903, 0.28457334637641907, 0.13878068327903748, 0.09466636925935745, -0.05976301431655884, 0.1285095363855362, -0.2756754457950592, -0.1801907867193222, 0.23889239132404327, -0.08616197854280472, -0.20606721937656403, 0.15294596552848816, 0.06517248600721359, -0.24109569191932678, -0.06616059690713882, 0.13822878897190094, 0.15008686482906342, -0.006378845777362585, -0.0013152261963114142, -0.3225135803222656, 0.08508726954460144, -0.016858451068401337, -0.1883016973733902, 0.23565229773521423, 0.1235833466053009, -0.07066916674375534, -0.05661150813102722, -0.05296910181641579, -0.05564960837364197, -0.1086851954460144, 0.1127476915717125, -0.028997350484132767, -0.19317969679832458, 0.09510354697704315, 0.12968572974205017, -0.13084730505943298, -0.12620532512664795, 0.004691014531999826, 0.09660077840089798, -0.048172615468502045, -0.09881501644849777, -0.15364305675029755, 0.01456488762050867, 0.054235972464084625, 0.22177839279174805, 0.014056414365768433, -0.07645498961210251, -0.29130399227142334, -0.15410888195037842, 0.20299279689788818, -0.09916567802429199, 0.031671009957790375, -0.30336257815361023, 0.012040575034916401, -0.057740721851587296, 0.12931926548480988, 0.19673795998096466, 0.02574566751718521, -0.019007541239261627, 0.22108885645866394, -0.14583760499954224, -0.1745937615633011, -0.06101864203810692, -0.19098636507987976, 0.18800342082977295, 0.07320014387369156, 0.012855581007897854, 0.07882411032915115, 0.004651270341128111, 0.16471551358699799, 0.15898145735263824, 0.24990350008010864, 0.49847978353500366, 0.16772937774658203, -0.07374540716409683, -0.09946908056735992, -0.0005128830671310425, 0.06018738076090813, -0.014262190088629723, -0.106523297727108, -0.1235104352235794, 0.08721011132001877, 0.08054808527231216, -0.11693529784679413, 0.1704731285572052, -0.04013562202453613, -0.04245501384139061, -0.06564042717218399, -0.05206577479839325, -0.10398505628108978, -0.13545182347297668, -0.08135993778705597, 0.0398058220744133, 0.05771339684724808, 0.004290630575269461, 0.24430713057518005, 0.18318989872932434, 0.3624981641769409, -0.146632581949234, -0.2677063047885895, -0.19561335444450378, 0.14479373395442963, 0.24549821019172668, -0.014808153733611107, 0.2688170075416565, -0.055154770612716675, -0.04886872321367264, 0.0005950420163571835, 0.09903012961149216, -0.11124838888645172, -0.07990849763154984, 0.1239369660615921, -0.09649176150560379, -0.029750093817710876, 0.06398525834083557, 0.47872593998908997, 0.0582258515059948, 0.16176213324069977, -0.1051720678806305, 0.16099552810192108, -0.11372298747301102, -0.22141161561012268, 0.15104636549949646, -0.035845495760440826, -0.02063657157123089, 0.10567240417003632, -0.03687494248151779, 0.023181650787591934, -0.08767396211624146, 0.019842829555273056, 0.1781710684299469, -0.14807364344596863, -0.01808471791446209, -0.10038512945175171, 0.026231419295072556, -0.184525266289711, -0.04876434803009033, -0.173291876912117, 0.029592769220471382, 0.12240539491176605, 0.24516893923282623, 0.046587761491537094, 0.009455223567783833, -0.20215384662151337, 0.4356912672519684, 0.37610724568367004, 0.0024470090866088867, 0.24996870756149292, 0.013255534693598747, -0.021746525540947914, -0.13610343635082245, -0.03561243414878845, 0.13433575630187988, -0.06604550778865814, -0.19738231599330902, 0.07499893754720688, -0.015597994439303875, -0.32786184549331665, -0.0766100212931633, -0.011076940223574638, -0.00568614574149251, 0.06557308882474899, 0.028394600376486778, 0.22141283750534058, 0.1582430750131607, -0.03422689437866211, -0.08097363263368607, 0.09059314429759979, -0.1541428416967392, 0.08957086503505707, 0.1783866584300995, 0.2104131430387497, 0.3810732066631317, 0.05433482304215431, 0.0802369937300682, -0.31276100873947144, -0.1364183872938156, -0.07184945791959763, 0.11959623545408249, 0.06697408854961395, -0.02477112226188183, 0.120989590883255, 0.19917026162147522, 0.2806953191757202, 0.012983760796487331, -0.1129564642906189, -0.019935356453061104, 0.11695142090320587, 0.06530455499887466, 0.03053653985261917, -0.04217931255698204, -0.00330006773583591, 0.002132224151864648, -0.2813034653663635, 0.25303220748901367, 0.3007993698120117, 0.07306408882141113, -0.02383771724998951, -0.19654446840286255, -0.24136269092559814, 0.09646488726139069, -0.01531317550688982, -0.08420848846435547, 0.04606262221932411, -0.06183074042201042, -0.08555789291858673, 0.0994860976934433, 0.08838021010160446, 0.3438205122947693, 0.33663201332092285, 0.14420822262763977, 0.12072291970252991, -0.012344403192400932, 0.08855320513248444, 0.03177917003631592, 0.16405190527439117, -0.14543554186820984, -0.05490293353796005, -0.12523622810840607, -0.3051866292953491, 0.07125677168369293, -0.059988271445035934, -0.003826697589829564, -0.14485035836696625, -0.15886260569095612, -0.10842495411634445, 0.0671539306640625, 0.02230365201830864, -0.14168158173561096, 0.03969406336545944, 0.0699470117688179, -0.13751578330993652, -0.16929523646831512, 0.0557611845433712, 0.013814699836075306, 0.21501600742340088, -0.07426221668720245, -0.14852334558963776, -0.06321214139461517, -0.34868738055229187, 0.045553434640169144, -0.019445473328232765, 0.08187134563922882, -0.2757926285266876, -0.005742710083723068, 0.11667892336845398, -0.22823865711688995, 0.1805264800786972, 0.12034249305725098, 0.20340561866760254, -0.1539812833070755, 0.20337413251399994, -0.07571510970592499, -0.037530865520238876, -0.1332051306962967, -0.18340109288692474, -0.06426631659269333, 0.09538669139146805, -0.3376540541648865, 0.37559694051742554, -0.11305532604455948, 0.07539086788892746, 0.09197770059108734, 0.04491772502660751, -0.07187231630086899, 0.03314283862709999, 0.19899067282676697, 0.004135351628065109, 0.06959141790866852, -0.15777605772018433, 0.03831979259848595, -0.04128754884004593, 0.05356370285153389, 0.06675704568624496, -0.14075487852096558, 0.22186501324176788, -0.03258567303419113, -0.17902825772762299, -0.0417977049946785, 0.09409692138433456, -0.05038734897971153, 0.17241446673870087, 0.019814761355519295, 0.04755723848938942, -0.3407436013221741, -0.005885367281734943, -0.14801621437072754, -0.10900776833295822, -0.1329261213541031, -0.15689189732074738, 0.06638754159212112, -0.05930004268884659, -0.05236991494894028, 0.018421152606606483, -0.00027756899362429976, 0.22081609070301056, -0.0715363472700119, 0.15296347439289093, 0.1307350993156433, -0.04049202799797058, 0.15084590017795563, 0.16628597676753998, 0.02684752643108368, -0.03718559071421623, -0.014332374557852745, 0.17497743666172028, 0.04543756693601608, 0.07372802495956421, 0.10869434475898743, -0.06239808723330498, 0.2767840623855591, 0.12808598577976227, 0.4451381266117096, 0.17037522792816162, -0.1758894920349121, -0.33461958169937134, 0.501364529132843, 0.13093465566635132, -0.2119079828262329, -0.08764377981424332, 0.13207340240478516, -0.0036049627233296633, 0.0016514124581590295, 0.05808216705918312, 0.24320468306541443, 0.08460023999214172, -0.19256560504436493, 0.11677055060863495, 0.09960726648569107, -0.13205645978450775, 0.00046146666863933206, -0.16317036747932434, -0.1446477323770523, -0.14962948858737946, 0.19379067420959473, 0.15222957730293274, -0.36059582233428955, 0.20656944811344147, -0.05642767250537872, -0.260994553565979, 0.3685067594051361, 0.024882029742002487, -0.26487234234809875, 0.13361792266368866, 0.11257648468017578, -0.1397252231836319, -0.17168278992176056, -0.1328544318675995, -0.05652915686368942, 0.09543900936841965, -0.08682185411453247, -0.1618674397468567, 0.08036229014396667, -0.2885853350162506, -0.13238248229026794, 0.6415472626686096, -0.40590721368789673, -0.11249130964279175, 0.487275093793869, 0.008439804427325726, -0.30795300006866455, -1.0658992528915405, 0.5300042033195496, 0.8334861397743225, 0.6997496485710144, -0.5012980103492737, -0.2816002070903778, 0.3965640962123871, 0.15805336833000183, -0.1082131564617157, -0.2990919053554535, 0.3829987049102783, -0.13501745462417603, -0.5744075775146484, 0.13525992631912231, 0.03748570382595062, 0.07150089740753174, 0.18378326296806335, 0.08252979069948196, -0.23508913815021515, -0.29228004813194275, 0.1868113875389099, 0.7434971332550049, -0.3808523118495941, 0.09006159007549286, 0.6897910237312317, 0.09540008753538132, 0.4235786497592926, 0.9919237494468689, -0.013626515865325928, -0.04731261730194092, 0.5044492483139038, -0.6280146837234497, -0.2768494486808777, 0.019935142248868942, -0.16366219520568848, 0.1898554414510727, 0.37580740451812744, 0.22403016686439514, 0.11887799948453903, -0.281070739030838, 0.4170312285423279, 0.7074081301689148, 0.4855288863182068, -0.2485228180885315, 0.13283339142799377, 0.21466368436813354, -0.2506473660469055, -0.06281575560569763, -0.06492742896080017, -0.24214476346969604, -0.0658906102180481, -0.12202661484479904, 0.03091837838292122, 0.012368902564048767, 0.23372091352939606, 0.07539902627468109, 0.12586185336112976, -0.012922234833240509, 0.013279929757118225, -0.02910386398434639, -0.035066504031419754, -0.04868296533823013, -0.05972481891512871, -0.0632275715470314, 0.07227432727813721, 0.13407042622566223, -0.11356886476278305, -0.0845358595252037, -0.12529228627681732, 0.03243330493569374, -0.042843297123909, -0.09011084586381912, 0.045510608702898026, -0.2223508059978485, 0.020264754071831703, -0.1791624128818512, 0.11090847849845886, -0.018416184931993484, 0.003972808364778757, -0.17371447384357452, -0.03046376071870327, 0.2446814924478531, -0.28087806701660156, 0.03980930149555206, 0.13836976885795593, 0.11080267280340195, 0.08571087568998337, -0.0670490488409996, -0.14103156328201294, 0.06803881376981735, 0.07721949368715286, 0.040718525648117065, -0.07557834684848785, 0.1057092621922493, -0.08932934701442719, 0.32024523615837097, 0.0893113911151886, -0.07209532707929611, -0.1134205162525177, 0.05340171605348587, 0.14945673942565918, 0.11031712591648102, 0.01777614653110504, 0.1411203294992447, -0.019613848999142647, -0.12815508246421814, 0.10881728678941727, 0.7337434887886047, 0.5719975233078003, 0.5130662322044373, -0.8492427468299866, -0.4559323191642761, -0.025645341724157333, 0.20640844106674194, 0.015150012448430061, 0.1739768534898758, 0.23408859968185425, -0.8971065878868103, 0.34840264916419983, -0.14080549776554108, -0.7761734127998352, -0.46325141191482544, -0.293246865272522, -0.02736978977918625, -0.20242181420326233, 0.08078789710998535, -0.16733241081237793, -0.09556825459003448, 0.04810800030827522, 0.03480624780058861, -0.11618135869503021, -0.18834474682807922, 0.026088682934641838, -0.18798168003559113, 0.03432977944612503, 0.058467235416173935, -0.19961123168468475, 0.15533098578453064, -0.1294161081314087, -0.2772383391857147, -0.1602902114391327, -0.014178033918142319, -0.28991684317588806, -0.1382727324962616, 0.006341550033539534, 0.11196903884410858, 0.09323613345623016, -0.35269972681999207, 0.12088683992624283, -0.17613531649112701, 0.07114127278327942, 0.0852850154042244, -0.012954339385032654, 0.2324179857969284, 0.1177382841706276, -0.1917704939842224, 0.2339356541633606, -0.40556004643440247, -0.37940487265586853, -0.18783676624298096, -0.11540624499320984, 0.1316646933555603, 0.1434422731399536, 0.022383596748113632, -0.3383065462112427, -0.029272349551320076, -0.20321081578731537, 0.09136804193258286, 0.10792041569948196, -0.09358759969472885, 0.07124324887990952, 0.05609491094946861, -0.04708854481577873, -0.20452329516410828, 0.41613179445266724, 0.1548190861940384, 0.16496898233890533, 0.31935638189315796, 0.2169836014509201, -0.05465292930603027, -0.13319283723831177, 0.021236427128314972, -0.03437451273202896, 0.027158865705132484, 0.160162553191185, 0.056846003979444504, -0.20405825972557068, 0.061091165989637375, -0.07769736647605896, -0.15941470861434937, 0.13077670335769653, 0.08112744241952896, -0.0988430604338646, 0.11076633632183075, -0.14733561873435974, 0.2153153270483017, 0.09895774722099304, 0.02538687363266945, 0.20338323712348938, -0.23943154513835907, -0.08546579629182816, -0.15434779226779938, -0.18141931295394897, -0.29017141461372375, 0.24236401915550232, 0.08847147971391678, 0.035958051681518555, -0.11927134543657303, 0.3209758996963501, 0.06470396369695663, 0.046350669115781784, 0.11531615257263184, 0.023638352751731873, -0.1176866888999939, 0.1707616001367569, 0.03125166520476341, 0.10471567511558533, -0.09155265986919403, 0.020418211817741394, -0.22941763699054718, -0.1145348772406578, 0.04312332719564438, -0.08751367777585983, -0.08701811730861664, -0.27509796619415283, 0.23110923171043396, 0.12238699942827225, -0.29634928703308105, 0.17026162147521973, -0.06015489995479584, -0.07047034800052643, 0.07041379064321518, 0.030564988031983376, -0.009296596050262451, -0.03400465101003647, -0.12296851724386215, 0.283082515001297, -0.36220648884773254, 0.17780065536499023, 0.23074832558631897, -0.08055047690868378, 0.016002655029296875, 0.30732133984565735, 0.07250548154115677, 0.07042255252599716, -0.021534830331802368, 0.042444560676813126, -0.22710266709327698, 0.1597684621810913, 0.3247568607330322, -0.10600042343139648, -0.2578410804271698, 0.008706209249794483, 0.011170424520969391, -0.09248815476894379, 0.2624686062335968, -0.09083128720521927, -0.2539559006690979, -0.22674556076526642, -0.04149220138788223, -0.048984725028276443, 0.02781200222671032, 0.13209189474582672, 0.2537441551685333, 0.06611785292625427, -0.025494970381259918, 0.08314727246761322, 0.01687065325677395, 0.23384393751621246, 0.24382345378398895, -0.26234421133995056, -0.38290175795555115, -0.05538535863161087, -0.30044427514076233, -0.02462228760123253, -0.36309176683425903, -0.37090033292770386, -0.10214051604270935, -0.13642926514148712, 0.43249833583831787, -0.0990217849612236, 0.3431822657585144, 0.3546277582645416, -0.15317140519618988, 0.10922158509492874, -0.2346855252981186, -0.1945871263742447, -0.14827409386634827, -0.05458870530128479, -0.11752843856811523, -0.11023003607988358, 0.23917973041534424, 0.03863096982240677, -0.15294474363327026, 0.011746635660529137, -0.1401498019695282, 0.2012397050857544, 0.058840129524469376, 0.0028267675079405308, -0.18384891748428345, 0.03537590801715851, -0.1844593733549118, -0.02351226471364498, -0.1803048849105835, -0.1374361515045166, 0.062426358461380005, 0.029423091560602188, -0.182607039809227, 0.1329614371061325, 0.37729910016059875, 0.1676402986049652, -0.16417638957500458, 0.2978855073451996, -0.1996343731880188, -0.08624236285686493, 0.20164471864700317, 0.43026745319366455, 0.1923477202653885, 0.485811710357666, -0.17093011736869812, 0.17929066717624664, -0.03313799947500229, 0.09756020456552505, 0.21541064977645874, 0.11585666984319687, -0.1855406016111374, 0.012200765311717987, -0.43869462609291077, 0.017967816442251205, 0.11940796673297882, -0.2463017851114273, -0.04997291415929794, 0.03188925236463547, -0.0140293650329113, 0.30120208859443665, 0.14915278553962708, 0.08755691349506378, -0.0346691831946373, 0.043968286365270615, -0.02896401472389698, 0.15322346985340118, 0.30860450863838196, 0.039750389754772186, -0.22350341081619263, -0.2057264894247055, -0.16024377942085266, 0.002656780183315277, 0.09054818749427795, -0.0001940883375937119, -0.004359202925115824, 0.10895569622516632, -0.08400233089923859, 0.015491696074604988, 0.06174623966217041, 0.09759975969791412, -0.04989153891801834, -0.14838659763336182, -0.2265402227640152, -0.09687566757202148, 0.11762992292642593, 0.10328195244073868, 0.010598685592412949, -0.021128138527274132, -0.1953916996717453, 0.255802720785141, -0.2764076292514801, -0.06978923827409744, -0.3299524784088135, -0.1511705070734024, 0.28778138756752014, -0.13632549345493317, -0.3360575735569, -0.04753733053803444, -0.28170260787010193, -0.044653356075286865, 0.0064353542402386665, 0.0024201979395002127, -0.012150528840720654, -0.0356423445045948, -0.08940348029136658, 0.07265445590019226, 0.0644591823220253, -0.004910006653517485, 0.026159489527344704, 0.006156465969979763, 0.04328547790646553, 0.04825570806860924, -0.1840217113494873, 0.1707170605659485, 0.05708511173725128, 0.07135645300149918, 0.08816505968570709, -0.12768492102622986, -0.003043003845959902, 0.07523079961538315, 0.3415816128253937, -0.0168214812874794, -0.15492907166481018, 0.2103775143623352, 0.3194914758205414, -0.03146588057279587, 0.3579231798648834, -0.057534556835889816, 0.03494986891746521, 0.07837054133415222, 0.15224862098693848, -0.21060195565223694, -0.18183380365371704, 0.09167860448360443, 0.012757454067468643, -0.06211768463253975, 0.07678363472223282, 0.42324721813201904, 0.1477402150630951, -0.04792683944106102, 0.03196951001882553, -0.15026462078094482, -0.12220370769500732, -0.04483487084507942, 0.1703430861234665, -0.07533372193574905, -0.20157432556152344, 0.39822205901145935, -0.3524475693702698, 0.15932641923427582, 0.34665900468826294, 0.052341852337121964, -0.16134251654148102, -0.017254257574677467, 0.08124499022960663, 0.13826662302017212, 0.07770147919654846, 0.13441695272922516, -0.03692822903394699, -0.06431003659963608, 0.043336886912584305, -0.1428270936012268, -0.10596366226673126, -0.05583259463310242, 0.14356669783592224, 0.05702589824795723, 0.004170909523963928, 0.1712876558303833, -0.17893140017986298, -0.03518785536289215, 0.21029110252857208, -0.21764594316482544, 0.13715007901191711, 0.026637336239218712, -0.22079680860042572, 0.07840454578399658, 0.3144996762275696, -0.2054987996816635, 0.07455508410930634, 0.10386575758457184, 0.17690733075141907, 0.020940173417329788, -0.154388427734375, 0.11543141305446625, -0.014334416016936302, -0.17689678072929382, -0.3518127501010895, -0.08435884118080139, 0.17488715052604675, -0.11993183195590973, -0.22453178465366364, -0.29813235998153687, -0.1258583664894104, 0.04908711463212967, 0.14875428378582, 0.05528576672077179, 0.00030313979368656874, 0.0006911433883942664, -0.05584663525223732, -0.10117337107658386, 0.3338894546031952, -0.15593546628952026, -0.029481396079063416, -0.009546955116093159, -0.12486433237791061, -0.19487418234348297, 0.16305723786354065, -0.11973819881677628, -0.0788237676024437, 0.09417851269245148, 0.24229007959365845, 0.018423818051815033, -0.2124696522951126, -0.19237443804740906, -0.038580384105443954, -0.013240638189017773, -0.08431395143270493, 0.026033619418740273, 0.10065219551324844, 0.10646402090787888, 0.27169567346572876, -0.2786695659160614, 0.16161397099494934, -0.03548266366124153, -0.042097579687833786, -0.13776801526546478, 0.011043822392821312, 0.09861428290605545, -0.04122716188430786, -0.12110813707113266, -0.0818605050444603, -0.024369841441512108, 0.016202136874198914, 0.048207275569438934, 0.2509717047214508, 0.010445292107760906, 0.01061368826776743, -0.071087546646595, 0.17547392845153809, -0.31443971395492554, 0.04838167503476143, -0.2002832442522049, -0.23631738126277924, 0.13537564873695374, 0.02499379962682724, -0.0691525936126709, -0.02044762298464775, 0.18908056616783142, -0.0175446979701519, 0.17025969922542572, -0.017117958515882492, -0.2561330795288086, -0.27953651547431946, -0.08525799959897995, 0.16181036829948425, 0.1073722392320633, -0.010142396204173565, 0.26824596524238586, 0.06079608201980591, 0.012213208712637424, 0.016658637672662735, -0.09040694683790207, -0.07260135561227798, -0.17696507275104523, 0.030848657712340355, -0.1599479764699936, 0.11670169979333878, 0.07110130786895752, 0.22949379682540894, -0.5355350971221924, 0.025336144492030144, 0.23065103590488434, -0.1756124198436737, 0.1473255306482315, -0.22379033267498016, 0.23884619772434235, -0.018096471205353737, 0.1805872917175293, 0.04471421614289284, -0.12527939677238464, -0.05678576976060867, 0.19455267488956451, 0.31997913122177124, 0.07310644537210464, 0.023638922721147537, -0.009479228407144547, 0.12668518722057343, -0.01593795046210289, 0.018054183572530746, -0.1932973861694336, -0.042194850742816925, -0.013588828966021538, -0.08662527054548264, 0.06885761022567749, 0.18233107030391693, 0.12587277591228485, 0.08298429846763611, 0.07211892306804657, -0.09057555347681046, 0.026336248964071274, -0.04809020459651947, -0.07049114257097244, 0.25532957911491394, -0.023270467296242714, -0.009695551358163357, -0.1294422298669815, 0.05361314117908478, 0.1789657026529312, 0.07775904983282089, 0.2956933081150055, 0.1946593075990677, 0.059644781053066254, 0.14698943495750427, 0.7275221943855286, 0.029222605749964714, 0.6483584642410278, 0.5073128342628479, 0.0003446307382546365, 0.5917160511016846, -0.3478054404258728, 0.2956273555755615, -0.18314509093761444, 0.3438035547733307, -0.011777058243751526, -0.006935781333595514, -0.5609127879142761, 0.11541831493377686, -0.03169530630111694, -0.20882168412208557, 0.07688476145267487, 0.42818889021873474, -0.012503013014793396, -0.4357602000236511, -0.3083254396915436, 0.2391243577003479, 0.07671888172626495, 0.26245903968811035, 0.2948673367500305, -0.04940038174390793, 0.6128329038619995, 1.427168846130371, -0.19335363805294037, -0.13652566075325012, 0.25068140029907227, -0.0778815969824791, -0.24807831645011902, -0.9236672520637512, -0.03781471773982048, -0.41199859976768494, 0.3824429512023926, 0.1413150131702423, -0.11392026394605637, -0.016770251095294952, -0.21396976709365845, 0.17957183718681335, -0.19115276634693146, -0.015432741492986679, 0.13745851814746857, 0.339327335357666, 0.36523789167404175, -0.311040997505188, 0.004043161869049072, -0.11443815380334854, 0.12020302563905716, 0.20387431979179382, 0.17461112141609192, 0.1085539162158966, 0.05618400126695633, -0.06284362822771072, -0.1503480076789856, -0.006538077257573605, 0.18117687106132507, -0.0671103224158287, -0.060347288846969604, -0.10299098491668701, -0.038533274084329605, -0.17584142088890076, -0.08310677856206894, 0.1732773631811142, -0.07113824039697647, -0.23657652735710144, -0.12764054536819458, 0.10938525199890137, 0.003807599190622568, 0.0027117636054754257, -0.1626262664794922, 0.06642010807991028, 0.006240406073629856, -0.09358904510736465, -0.1768011450767517, -0.0688815787434578, 0.017696712166070938, 0.06493436545133591, -0.0711110532283783, 0.007995611988008022, 0.08277011662721634, -0.10922114551067352, -0.10599499195814133, 0.08065493404865265, -0.26030033826828003, -0.09222342818975449, 0.03286321461200714, 0.2261108160018921, 0.11411590874195099, -0.18137450516223907, -0.022478025406599045, 0.05978543683886528, 0.15282253921031952, -0.12574675679206848, -0.06726333498954773, 