{"version": "0.5.4", "metadata": {"date": {"year": 2026, "month": 3, "day": 16, "hour": 23, "minute": 12, "second": 31}, "loudness": -19.875072479248047, "gain": 0.6766133223344992, "training": {"settings": {"ignore_checks": false}, "data": {"latency": {"manual": null, "calibration": {"algorithm_version": 1, "delays": [64], "safety_factor": 1, "recommended": 63, "warnings": {"matches_lookahead": false, "disagreement_too_high": false}}}, "checks": {"version": 3, "passed": true}}, "validation_esr": 0.012302358623615775}}, "architecture": "WaveNet", "config": {"layers": [{"input_size": 1, "condition_size": 1, "head_size": 8, "channels": 16, "kernel_size": 3, "dilations": [1, 2, 4, 8, 16, 32, 64, 128, 256, 512], "activation": "Tanh", "gated": false, "head_bias": false}, {"input_size": 16, "condition_size": 1, "head_size": 1, "channels": 8, "kernel_size": 3, "dilations": [1, 2, 4, 8, 16, 32, 64, 128, 256, 512], "activation": "Tanh", "gated": false, "head_bias": true}], "head": null, "head_scale": 0.02}, "weights": [-0.016378358006477356, 0.5694435834884644, -0.8083758354187012, -0.8382741808891296, -0.29748815298080444, 0.32109078764915466, -0.00042238697642460465, 0.8724268078804016, -0.13564136624336243, 0.30463141202926636, -0.35838598012924194, -0.2707206606864929, -0.97026526927948, -0.65716952085495, -0.43712231516838074, 0.10339285433292389, 0.1312098354101181, 0.21947963535785675, -0.08022313565015793, -0.13390131294727325, -0.13084959983825684, 0.13843408226966858, 0.04366733878850937, 0.2925869822502136, -0.039934705942869186, 0.08841091394424438, 0.3171803057193756, -0.15077070891857147, -0.02563813142478466, 0.1392448991537094, -0.08019545674324036, 0.06223997473716736, -0.2692306637763977, -0.04027330130338669, -0.15180642902851105, -0.1146300733089447, -0.21123665571212769, 0.05005722865462303, -0.12163854390382767, 0.08572489023208618, 0.05346013978123665, 0.08988714218139648, -0.016981082037091255, -0.19750374555587769, -0.2789240777492523, -0.04823632538318634, 0.15596197545528412, 0.26180335879325867, -0.08815782517194748, 0.05476061999797821, 0.26671355962753296, 0.11464753746986389, 0.13205842673778534, 0.2060561627149582, 0.08207076787948608, -0.012859616428613663, 0.21139048039913177, -0.12903264164924622, -0.031762558966875076, 0.10630344599485397, 0.044035375118255615, 0.044127676635980606, -0.1869240701198578, 0.08953415602445602, 0.018096106126904488, -0.05212654918432236, -0.028001202270388603, -0.003140006447210908, -0.035511817783117294, 0.10396205633878708, -0.07192491739988327, 0.07475534826517105, 0.09385399520397186, 0.15916673839092255, 0.2539515197277069, 0.16472367942333221, 0.058925554156303406, -0.007375018671154976, 0.04139164835214615, -0.12004946172237396, -0.2523716688156128, 0.10001088678836823, 0.03358594328165054, -0.17597264051437378, -0.05111072584986687, -0.0642961710691452, -0.15214067697525024, -0.10406387597322464, 0.07064677029848099, 0.01817263849079609, 0.06601002812385559, 0.04379480332136154, -0.013715733774006367, 0.02629019320011139, -0.11114402115345001, 0.026178786531090736, 0.10210767388343811, 0.05694597214460373, 0.003018926363438368, -0.05808565020561218, 0.17638063430786133, 0.2261527180671692, -0.024174058809876442, 0.0020378229673951864, -0.010792343877255917, 0.03402059152722359, -0.07458227127790451, 0.011294863186776638, 0.02390669845044613, 0.045291345566511154, -0.14191117882728577, 0.08033104985952377, -0.05534965544939041, 0.12242434173822403, 0.11504737287759781, -0.1058407723903656, 0.06235756352543831, -0.03493272885680199, 0.001796725089661777, -0.06668448448181152, 0.09561087191104889, -0.010175559669733047, -0.1720140278339386, 0.10749422758817673, -0.1485147327184677, -0.17674706876277924, 0.012003855779767036, -0.06143094226717949, 0.04103785753250122, -0.16540300846099854, -0.052446261048316956, -0.04301920905709267, -0.0964803546667099, 0.011652655899524689, 0.20463109016418457, -0.05319104716181755, 0.011710411868989468, -0.08994769304990768, 0.09224807471036911, 0.09944473952054977, 0.22669753432273865, 0.043521057814359665, 0.126503124833107, -0.10355649888515472, -0.08404591679573059, -0.07349753379821777, 0.009270064532756805, 0.05004618689417839, -0.09173320978879929, -0.21264119446277618, -0.0978696346282959, -0.1396390050649643, -0.12935128808021545, 0.118429034948349, 0.06480880826711655, -0.23487815260887146, 0.13457287847995758, -0.12448279559612274, -0.01933453045785427, -0.12389479577541351, -0.05100009962916374, -0.03731110692024231, -0.15229006111621857, -0.16756492853164673, -0.1256553828716278, 0.01818540319800377, -0.019682258367538452, 0.16004370152950287, -0.14400136470794678, 0.03637666255235672, 0.23334936797618866, -0.07252975553274155, 0.1661793440580368, 0.14784100651741028, -0.1541118025779724, 0.055971816182136536, -0.11231648176908493, -0.041742537170648575, 0.07960183173418045, -0.13431283831596375, -0.057905640453100204, -0.07640919834375381, -0.003199310041964054, 0.053430892527103424, 0.0890783742070198, 0.13206839561462402, -0.07255105674266815, -0.06463035196065903, -0.21325749158859253, 0.10188271105289459, 0.15189220011234283, 0.19625219702720642, -0.12285307049751282, 0.03863890841603279, -0.008702489547431469, -0.10557930916547775, -0.0372006930410862, 0.15629878640174866, -0.09820154309272766, 0.041284963488578796, 0.11068576574325562, 0.07853564620018005, -0.06929440796375275, 0.0009764459682628512, -0.10358810424804688, 0.1173093318939209, -0.07378286868333817, 0.17413941025733948, 0.06569470465183258, 0.02512897551059723, -0.016567084938287735, -0.15628162026405334, -0.10923105478286743, -0.03315896540880203, 0.13078941404819489, 0.1491207331418991, -0.10935748368501663, 0.055775780230760574, 0.24763686954975128, -0.11399317532777786, 0.11034468561410904, 0.26271045207977295, 0.04536232724785805, -0.11605071276426315, -0.24529212713241577, 0.07758671790361404, -0.021889498457312584, 0.052041489630937576, -0.039127416908741, -0.1527380645275116, -0.12905488908290863, 0.11549051105976105, 0.12063652276992798, 0.234644815325737, 0.06534478813409805, -0.20990145206451416, -0.053542185574769974, -0.09438781440258026, 0.06102220341563225, 0.16434596478939056, 0.04318449646234512, 0.2249249666929245, 0.07096046209335327, -0.009851018898189068, 0.20618955790996552, -0.008334190584719181, 0.1088755875825882, 0.010001412592828274, 0.1310856193304062, -0.022313319146633148, 0.048923179507255554, 0.14352309703826904, 0.11627595871686935, -0.09912373125553131, -0.11330520361661911, -0.011883328668773174, -0.10376384854316711, 0.05804102122783661, -0.06191321834921837, -0.0799400806427002, 0.04345354810357094, 0.06609584391117096, 0.057198166847229004, -0.01803485117852688, 0.06718616187572479, -0.06738769263029099, -0.17018385231494904, 0.05729096382856369, 0.1082230806350708, -0.08002830296754837, -0.04464777559041977, -0.05822831764817238, -0.016526417806744576, 0.008674931712448597, -0.054939888417720795, -0.15394729375839233, 0.16723006963729858, -0.07419906556606293, 0.11327386647462845, 0.027555691078305244, 0.01035773754119873, -0.20376552641391754, -0.07933158427476883, 0.12377102673053741, 0.14222852885723114, 0.09650707244873047, -0.05969040095806122, -0.07913149893283844, -0.012031346559524536, -0.012524450197815895, -0.2056753933429718, 0.07489506900310516, 0.0252209585160017, -0.1332756131887436, -0.01970934495329857, -0.10729990899562836, -0.028524478897452354, -0.0926966443657875, 0.04531915485858917, -0.17267020046710968, -0.049709752202034, 0.008716115728020668, -0.021897604689002037, -0.011140208691358566, 0.05732686072587967, -0.14435744285583496, 0.052013080567121506, 0.0828271359205246, 0.17756442725658417, -0.0818164050579071, -0.14298933744430542, -0.14476627111434937, 0.11131088435649872, -0.07699785381555557, -0.06918215751647949, 0.15769889950752258, -0.09026232361793518, -0.11081457138061523, 0.13022729754447937, 0.025354159995913506, 0.12607325613498688, -0.05186089128255844, -0.12891530990600586, -0.08478594571352005, 0.12544378638267517, 0.15480126440525055, 0.20831312239170074, -0.041127391159534454, 0.07064571976661682, -0.17167165875434875, -0.03280840069055557, -0.11110785603523254, 0.2562335431575775, 0.02102660946547985, -0.11580120027065277, -0.058976318687200546, 0.1769006997346878, 0.13403324782848358, 0.0143835274502635, 0.18548695743083954, -0.05872570350766182, -0.1748163104057312, 0.1777707189321518, 0.05762730911374092, -0.20914646983146667, 0.1913561373949051, 0.051270414143800735, -0.0388994961977005, -0.0234085563570261, 0.027452988550066948, -0.018770622089505196, 0.023726819083094597, -0.08799821138381958, 0.01622346229851246, -0.043355099856853485, 0.16974304616451263, 0.06965670734643936, 0.1104835644364357, -0.21175910532474518, -0.088538758456707, -0.140299990773201, -0.2539813816547394, -0.23780286312103271, 0.07109978795051575, -0.022612936794757843, 0.024721311405301094, 0.08257466554641724, -0.02812471054494381, 0.012265827506780624, 0.009757677093148232, -0.15328824520111084, 0.06187240779399872, -0.12234368920326233, 0.04117891192436218, -0.0175012219697237, -0.03866218775510788, 0.03356674313545227, 0.023202691227197647, 0.08646593987941742, 0.2112892121076584, 0.23833489418029785, -0.004750418942421675, -0.039141781628131866, 0.015658337622880936, 0.013019651174545288, 0.04640169441699982, -0.0335264727473259, 0.060138337314128876, -0.16276314854621887, -0.053284719586372375, -0.02763346955180168, -0.14437314867973328, -0.20145872235298157, -0.12286166101694107, -0.21644292771816254, -0.018818145617842674, 0.06552702933549881, 0.04436199739575386, -0.0815812423825264, 0.10029781609773636, 0.08557359874248505, -0.024275705218315125, -0.09119555354118347, 0.1915515512228012, 0.19059757888317108, -0.09487798064947128, 0.07637786865234375, -0.02417607232928276, -0.06916854530572891, 0.0191482063382864, -0.21692365407943726, -0.03979319706559181, 0.070567287504673, -0.1178569346666336, -0.10886542499065399, 0.004038033541291952, 0.08600933849811554, -0.018398184329271317, -0.031338080763816833, 0.04645688086748123, -0.01867249608039856, -0.026980996131896973, 0.1420314610004425, 0.08703877031803131, 0.03463276848196983, -0.24396489560604095, -0.021013295277953148, -0.056113582104444504, 0.06215542182326317, 0.060509443283081055, -0.15649311244487762, -0.0731164887547493, 0.11152740567922592, -0.03937762230634689, -0.21900303661823273, -0.057814717292785645, -0.0313882976770401, -0.24531544744968414, 0.05296173319220543, -0.1918470412492752, -0.27215027809143066, -0.15704308450222015, -0.08535493165254593, -0.031759507954120636, -0.14805053174495697, 0.1463436633348465, 0.013357417657971382, 0.04027928039431572, 0.009737511165440083, -0.14099270105361938, 0.15965692698955536, 0.15359602868556976, 0.2862878143787384, 0.04884989559650421, -0.17382930219173431, -0.023930933326482773, 0.029616789892315865, -0.010384037159383297, -0.26195353269577026, -0.019536757841706276, -0.21093514561653137, -0.19122494757175446, 0.0614134818315506, -0.04453524574637413, 0.18305635452270508, 0.047133129090070724, 0.036297839134931564, -0.11087765544652939, -0.025785628706216812, 0.034724801778793335, 0.2092016041278839, 0.12151605635881424, 0.02989507094025612, -0.1423136442899704, 0.09697229415178299, -0.07344349473714828, 0.01221514493227005, 0.03658319264650345, -0.1525259166955948, -0.06871536374092102, -0.07343156635761261, -0.13725100457668304, -0.25405406951904297, 0.10918888449668884, -0.09460466355085373, -0.03532871603965759, 0.10909759998321533, 0.002250713063403964, -0.14011205732822418, -0.022618241608142853, -0.10481980443000793, -0.12139878422021866, 0.09852460771799088, -0.09097401797771454, 0.20301280915737152, -0.0634656548500061, -0.16225868463516235, -0.0592382475733757, 0.10931999981403351, 0.2639355957508087, -0.043857235461473465, 0.09457346051931381, -0.06357494741678238, -0.008066557347774506, 0.12538781762123108, -0.21365605294704437, -0.048119112849235535, 0.06285631656646729, -0.16727857291698456, -0.03432722017168999, -0.02854199707508087, 0.21393495798110962, 0.04274158924818039, -0.06750418245792389, 0.015062974765896797, 0.0811367779970169, -0.006858236156404018, 0.1485217809677124, 0.17713314294815063, -0.018053928390145302, -0.06311623752117157, -0.10096491873264313, 0.08157578110694885, 0.018479030579328537, -0.003965048119425774, -0.08896645158529282, 0.006324137095361948, -0.12306433171033859, 0.012375538237392902, -0.19142301380634308, 0.06425680220127106, 0.15867888927459717, -0.24497509002685547, -0.2110055685043335, -0.10659641772508621, -0.13460233807563782, -0.12879855930805206, -0.08972398936748505, -0.18166756629943848, -0.06058574840426445, -0.06622711569070816, 0.10027044266462326, -0.05413471907377243, -0.10686124116182327, -0.11279209703207016, 0.1933751255273819, 0.14047665894031525, 0.25594189763069153, -0.21548116207122803, -0.050798241049051285, -0.38407623767852783, 0.026106195524334908, 0.33702972531318665, -0.33984488248825073, 0.19302412867546082, 0.18275994062423706, -0.2809641361236572, 0.12121693789958954, 0.2742502987384796, 0.2573109567165375, -0.2959624230861664, -0.2710382640361786, -0.2650504410266876, 0.05857774242758751, -0.0212392620742321, 0.3834723234176636, -0.19691558182239532, -0.22118814289569855, -0.14758597314357758, 0.2144569754600525, 0.2922665774822235, 0.3351817727088928, -0.19825774431228638, -0.2811965346336365, -0.26176580786705017, 0.2771185338497162, 0.13992345333099365, -0.3901197612285614, 0.21438325941562653, 0.32575345039367676, -0.28642818331718445, 0.045220378786325455, 0.06412055343389511, -0.21024174988269806, 0.15132001042366028, 0.119295135140419, -0.22229498624801636, 0.21409296989440918, 0.3038768172264099, 0.3478624224662781, 0.038366544991731644, -0.10857832431793213, -0.08647485822439194, 0.05298130214214325, 0.11295992881059647, 0.1120034009218216, 0.06978438794612885, 0.09214645624160767, 0.08287142217159271, -0.06714820861816406, -0.084365613758564, -0.10678596049547195, -0.29819250106811523, 0.17604021728038788, -0.10606265068054199, -0.2518536150455475, 0.1219729334115982, -0.026966175064444542, 0.11652772128582001, -0.06283096969127655, -0.03829622641205788, -0.2690996825695038, 0.14628192782402039, -0.010970229282975197, 0.2491704523563385, 0.08720459043979645, 0.0542537122964859, -0.15341323614120483, 0.1944109946489334, 0.05823585018515587, 0.11850519478321075, 0.08567589521408081, -0.00818440318107605, -0.3297971487045288, 0.006559853907674551, -0.1339239478111267, -0.059099696576595306, 0.03038155660033226, -0.18522432446479797, -0.20750956237316132, 0.12764094769954681, -0.013262148015201092, -0.15080526471138, 0.05335913226008415, 0.007292428053915501, -0.22726406157016754, -0.012791575863957405, -0.1424921602010727, -0.03331111744046211, -0.034987110644578934, -0.10769106447696686, 0.03402652218937874, 0.05751681327819824, -0.025591716170310974, -0.2105676531791687, 0.12688809633255005, -0.04493594169616699, 0.2386130690574646, -0.10132919996976852, 0.004239716101437807, 0.19886982440948486, -0.04519495368003845, 0.1504703015089035, 0.010475903749465942, -0.11751893162727356, -0.09403500705957413, -0.08656327426433563, 0.12737055122852325, -0.05881279706954956, 0.10350228101015091, -0.03828115016222, -0.07034718245267868, -0.014099420048296452, -0.12624095380306244, 0.028712619096040726, 0.2305944710969925, -0.029579488560557365, 0.0843529999256134, -0.15303343534469604, 0.11170298606157303, -0.1089818999171257, 0.09096422791481018, -0.01829281635582447, 0.07206662744283676, 0.16365686058998108, 0.1125633493065834, 0.018361307680606842, 0.11519481986761093, 0.11417145282030106, -0.0012954890262335539, 0.24531157314777374, -0.08279531449079514, 0.01724816858768463, 0.10639038681983948, 0.07228418439626694, 0.09004544466733932, -0.07832130789756775, -0.10624131560325623, 0.06906495988368988, 0.01278498861938715, 0.02350839413702488, -0.01689876802265644, 0.2068883776664734, 0.11592823266983032, -0.06296887993812561, -0.25176408886909485, 0.11920218169689178, -0.18266430497169495, -0.08458133786916733, 0.039065346121788025, -0.13198316097259521, -0.05546094477176666, -0.10104455053806305, 0.09843243658542633, 0.01583029329776764, -0.04169292375445366, 0.0016014049760997295, 0.07059907913208008, -0.051291365176439285, 0.1679953634738922, 0.0989086776971817, -0.08618012815713882, -0.17632591724395752, -0.22644533216953278, 0.1820857673883438, 0.028133954852819443, 0.1128215491771698, 0.011668095365166664, 0.030755704268813133, 0.014039631932973862, 0.14178566634655, -0.16914129257202148, -0.12808558344841003, -0.05529974400997162, -0.15851294994354248, -0.08346706628799438, 0.1521596610546112, -0.18944668769836426, -0.028299806639552116, -0.05618184804916382, -0.09710235148668289, 0.0037293804343789816, -0.008404060266911983, 0.03182541951537132, -0.07882797718048096, 0.0665598213672638, 0.043969154357910156, -0.10211209207773209, 0.030298128724098206, -0.098295658826828, 0.0318603552877903, 0.04577059671282768, 0.10769763588905334, -0.18933817744255066, 0.02917896769940853, 0.11676040291786194, -0.054048165678977966, -0.11540859192609787, -0.013460037298500538, -0.1840081810951233, -0.14505095779895782, -0.0023369770497083664, 0.24782222509384155, 0.15237222611904144, 0.07475146651268005, 0.036880459636449814, -0.023539142683148384, 0.11652633547782898, 0.08962416648864746, -0.06000521406531334, 0.03905420005321503, -0.03891235962510109, -0.14619845151901245, 0.12723968923091888, 0.19006246328353882, -0.07103151828050613, -0.03035116381943226, -0.01584981195628643, -0.1432589292526245, -0.036423757672309875, -0.08962303400039673, -0.1541210412979126, 0.07067547738552094, -0.07518287003040314, 0.048430584371089935, -0.09832488745450974, -0.004318566992878914, -0.12439623475074768, 0.14262782037258148, -0.28209975361824036, -0.16215772926807404, 0.04241660237312317, 0.08405530452728271, -0.012608413584530354, -0.08381915837526321, -0.17014677822589874, -0.13375543057918549, -0.1412002444267273, 0.18435174226760864, 0.0867939293384552, 0.016933638602495193, -0.07757622003555298, 0.12920795381069183, 0.12321871519088745, -0.1618724763393402, 0.21845488250255585, -0.21270684897899628, -0.08549504727125168, -0.10186229646205902, 0.018992191180586815, 0.45445314049720764, -0.47145500779151917, 0.7650124430656433, -0.694743275642395, -0.007190147414803505, 0.8910924196243286, 0.9404802322387695, -0.5296042561531067, 0.20170858502388, 0.1034993976354599, -0.46619266271591187, -0.5452620387077332, 0.24019694328308105, -0.7157488465309143, 0.15350106358528137, 0.47882455587387085, -0.25314849615097046, 0.1358243077993393, -0.10806392878293991, 0.024204792454838753, 0.2744988203048706, -0.09176430851221085, 0.09966930001974106, 0.10401817411184311, -0.0394844152033329, 0.0069527714513242245, 0.07812463492155075, -0.4645015299320221, -0.006527518387883902, 0.0536406934261322, 0.1683700531721115, -0.021044259890913963, 0.3063143789768219, -0.15687206387519836, -0.08604120463132858, 0.08328607678413391, 0.19105714559555054, 0.04881467670202255, -0.0698864534497261, -0.27253592014312744, -0.017139974981546402, 0.1091349646449089, -0.21948666870594025, -0.3923318386077881, 0.07100699841976166, -0.14336007833480835, -0.010659772902727127, 0.2649528980255127, 0.13825631141662598, 0.14203429222106934, -0.02038610354065895, 0.27128666639328003, -0.028640449047088623, -0.1903349757194519, 0.058108460158109665, -0.28889063000679016, -0.10038041323423386, -0.2104429453611374, 0.1260216385126114, -0.09844541549682617, 0.11166254431009293, 0.32799622416496277, 0.015201438218355179, -0.053077396005392075, 0.27054890990257263, -0.012170678935945034, -0.19272498786449432, -0.027147412300109863, 0.17671941220760345, -0.07263893634080887, -0.14120563864707947, -0.09392988681793213, -0.354763001203537, -0.1282816082239151, -0.1359175145626068, 0.11531314253807068, 0.0019954259041696787, 0.3668305277824402, -0.3416847586631775, -0.17349572479724884, 0.04610200598835945, -0.4274858832359314, -0.20114533603191376, 0.07215144485235214, 0.23846735060214996, 0.2758670151233673, 0.17400361597537994, -0.343700647354126, 0.1684374213218689, 0.3481953740119934, -0.3454744517803192, 0.5401222109794617, -0.120069220662117, 0.03826715424656868, -0.15864892303943634, 0.17148403823375702, -0.23015572130680084, -0.10414140671491623, 0.16149932146072388, -0.02617739699780941, 0.13321173191070557, 0.3298923671245575, 0.31699585914611816, 0.10906750708818436, 0.2763475179672241, 0.0673074945807457, -0.19548958539962769, -0.3696122169494629, 0.04796800762414932, -0.23853661119937897, 0.18127743899822235, 0.1619051694869995, 0.47367385029792786, 0.25522586703300476, 0.1236119270324707, 0.32953691482543945, -0.04467541351914406, -0.3402925133705139, -0.08834967762231827, -0.10191541910171509, -0.11320597678422928, -0.5123854875564575, -0.32677164673805237, 0.23835217952728271, 0.05079592391848564, -0.03799161687493324, -0.05612923949956894, -0.324562668800354, 0.19295762479305267, -0.02136106602847576, 0.37194740772247314, -0.3376409709453583, -0.3674725294113159, 0.27647891640663147, 0.35209038853645325, 0.1824229508638382, 0.26704373955726624, -0.08854745328426361, 0.2570578157901764, -0.22413234412670135, 0.18878689408302307, -0.27450111508369446, 0.04210369661450386, 0.16073861718177795, -0.092373326420784, 0.00868423655629158, -0.3199954926967621, -0.1707860827445984, 0.24946780502796173, -0.14724229276180267, -0.24882055819034576, -0.1516503393650055, -0.26612618565559387, -0.3036707639694214, 0.035979654639959335, 0.03937109187245369, -0.06988955289125443, -0.06365663558244705, -0.05687303468585014, -0.043945614248514175, -0.12632010877132416, 0.008611520752310753, 0.30079400539398193, -0.2663734555244446, -0.3432168662548065, 0.07410115748643875, 0.24238432943820953, -0.1609041541814804, 0.09801239520311356, 0.21941626071929932, 0.1427186280488968, -0.11408814042806625, 0.30675894021987915, 0.09587466716766357, -0.10029829293489456, 0.05977204069495201, 0.1874794214963913, 0.3302934169769287, -0.37742915749549866, 0.25592607259750366, 0.08144930750131607, -0.3516516089439392, -0.08174356073141098, -0.17247723042964935, -0.08589357137680054, -0.2999960482120514, -0.2678249776363373, 0.08816693723201752, -0.23607583343982697, 0.2737712264060974, -0.1272893100976944, 0.07877204567193985, 0.07893108576536179, 0.011992428451776505, 0.008528647944331169, 0.10466833412647247, 0.22321203351020813, -0.1952345222234726, -0.15506938099861145, -0.12953317165374756, -0.12614460289478302, -0.32417210936546326, -0.1302943229675293, -0.04078083857893944, -0.2140216827392578, 0.26609185338020325, -0.3456994593143463, -0.29982703924179077, -0.13674627244472504, -0.19529640674591064, 0.15977436304092407, -0.04808984696865082, 0.21018409729003906, 0.1344885230064392, 0.07926169037818909, -0.13591116666793823, 0.38727331161499023, 0.03789582848548889, -0.34861981868743896, -0.5220807790756226, 0.2016415148973465, -0.36200740933418274, -0.2619026303291321, 0.4151342809200287, 0.024812567979097366, -0.254263311624527, -0.11766106635332108, 0.0869436115026474, -0.034746021032333374, 0.22070077061653137, 0.20410896837711334, -0.025827189907431602, -0.005459444131702185, -0.09992428123950958, -0.06233525648713112, -0.3360497057437897, -0.1358867734670639, -0.07190129160881042, -0.20547722280025482, 0.22099269926548004, -0.07170989364385605, 0.30072128772735596, -0.11631211638450623, -0.06794268637895584, 0.20849056541919708, -0.022040825337171555, 0.1164226308465004, -0.002741130767390132, -0.306385338306427, 0.08278970420360565, -0.13447031378746033, 0.04086815193295479, 0.0854903981089592, 0.24391718208789825, -0.2791958153247833, -0.0997784435749054, 0.3238164186477661, 0.09297072142362595, 0.32175111770629883, -0.038164135068655014, -0.15613986551761627, 0.23971892893314362, 0.057970330119132996, 0.06295712292194366, -0.1439506709575653, -0.24776671826839447, -0.03203358128666878, -1.080242395401001, 0.23304501175880432, 0.18776154518127441, 0.05099533870816231, 0.10143790394067764, 0.036936186254024506, -0.16634559631347656, 0.19440238177776337, -0.29437392950057983, -0.08834148943424225, 0.022142667323350906, 0.249834343791008, 0.17168906331062317, 0.002399224089458585, -0.1878664791584015, 0.039507295936346054, -0.05079161375761032, 0.08803000301122665, -0.04798739403486252, 0.2177271544933319, -0.0965467020869255, -0.1796669214963913, -0.027255015447735786, -0.2683411240577698, 0.0023537403903901577, 0.016052784398198128, -0.15334393084049225, -0.05714716762304306, -0.039649590849876404, 0.14222529530525208, -0.13385866582393646, -0.03584800660610199, 0.07884886115789413, -0.04581570625305176, -0.1249365285038948, -0.029003623872995377, 0.09261179715394974, -0.055601634085178375, -0.022441977635025978, -0.06602434068918228, -0.12612797319889069, 0.16736261546611786, 0.037109266966581345, 0.007302816957235336, -0.20754927396774292, -0.05276568606495857, 0.007879162207245827, -0.06373130530118942, -0.1598290652036667, 0.06216706708073616, -0.13823197782039642, -0.10767372697591782, -0.08809752017259598, 0.046089574694633484, -0.15007108449935913, -0.1650679111480713, 0.038579970598220825, -0.18516658246517181, 0.020783204585313797, -0.07171390950679779, -0.28257882595062256, 0.08701077103614807, -0.27704983949661255, -0.13093504309654236, 0.024084215983748436, 0.1274539828300476, -0.09404376894235611, 0.08254925161600113, -0.2531779706478119, -0.05596834048628807, -0.09497816115617752, 0.32959383726119995, 0.1795443594455719, -0.3212036192417145, -0.03180548548698425, -0.1312379688024521, -0.0705670416355133, 0.38184717297554016, -0.20344531536102295, 0.0054731955751776695, 0.09567748755216599, 0.283928781747818, -0.39490509033203125, -0.09686797112226486, -0.013159679248929024, -0.09763166308403015, -0.21452659368515015, -0.015195049345493317, -0.13754567503929138, 0.17264792323112488, 0.23597942292690277, 0.006814504973590374, -0.2051979899406433, -0.2241877019405365, -0.0976986289024353, 0.1423623263835907, 0.16065263748168945, 0.12657392024993896, -0.28127390146255493, -0.046818118542432785, -0.06302965432405472, 0.1729632169008255, -0.1387215107679367, -0.14809824526309967, 0.32070496678352356, -0.08435468375682831, -0.006806381046772003, 0.3994576632976532, 0.12938189506530762, 0.25267186760902405, 0.3804027736186981, -0.1871194839477539, -0.1692889779806137, 0.22697512805461884, 0.5947179794311523, -0.07943376898765564, -0.22743290662765503, -0.08545302599668503, -0.23278743028640747, 0.14071500301361084, 0.4212079644203186, -0.004137317184358835, -0.046128932386636734, -0.06111952289938927, -0.011754770763218403, 0.11162053048610687, 0.13716217875480652, -0.055141936987638474, -0.03545864298939705, 0.15894873440265656, 0.006220459006726742, 0.0081126494333148, -0.045740075409412384, 0.09530036151409149, 0.09984669089317322, 0.1527678668498993, -0.19272452592849731, -0.02383178472518921, -0.032268226146698, -0.008401861414313316, 0.11129345744848251, 0.010993702337145805, -0.15832017362117767, -0.005826257169246674, -0.09851240366697311, 0.1512925922870636, -0.138473242521286, -0.11798886209726334, -0.22628962993621826, 0.09630705416202545, 0.11802132427692413, -0.16155463457107544, 0.10283534973859787, -0.06956344097852707, -0.12022088468074799, 0.10098225623369217, 0.01673734374344349, -0.16086792945861816, 0.28120651841163635, -0.11606557667255402, 0.007442115340381861, 0.17067046463489532, 0.029095463454723358, 0.009024037048220634, 0.18208809196949005, -0.22889147698879242, -0.17145992815494537, -0.21316716074943542, -0.18529891967773438, 0.17717157304286957, 0.12973062694072723, 0.10577820241451263, -0.16638575494289398, -0.3135908544063568, 0.05977717041969299, 0.056421808898448944, -0.18589633703231812, 0.04347747191786766, 0.1415984332561493, 0.2582082152366638, -0.098725825548172, 0.06200307607650757, -0.019615842029452324, 0.13525943458080292, 0.10987845808267593, -0.016259895637631416, -0.21277737617492676, -0.021714050322771072, 0.09258627891540527, 0.09037289768457413, -0.12317786365747452, 0.03407246991991997, 0.1692529171705246, -0.16417497396469116, -0.0197271928191185, 0.13349725306034088, -0.025266997516155243, 0.033792346715927124, 0.04654460772871971, 0.14460361003875732, 0.1366158425807953, -0.05624237284064293, 0.10426923632621765, -0.3719363808631897, 0.04127274826169014, -0.1986212432384491, -0.31427836418151855, 0.025953304022550583, -0.0325893759727478, -0.01010234747081995, -0.2130824476480484, 0.055377159267663956, -0.09682226926088333, -0.14885000884532928, 0.08464670181274414, 0.1765454262495041, 0.05649467185139656, 0.16754977405071259, 0.09213586896657944, -0.11394712328910828, 0.04311031848192215, 0.013303580693900585, -0.1482539176940918, 0.018769195303320885, 0.14436447620391846, -0.14351028203964233, -0.09414057433605194, -0.33458203077316284, -0.09274979680776596, 0.13538858294487, -0.09762312471866608, 0.11778300255537033, -0.14901277422904968, 0.10435421019792557, 0.07524817436933517, 0.1821841299533844, 0.10900459438562393, 0.06520559638738632, -0.008595407009124756, -0.002558870008215308, -0.05560434237122536, -0.026166116818785667, -0.019577015191316605, 0.09265952557325363, -0.11733964085578918, 0.02815891243517399, -0.1393280029296875, -0.030375676229596138, 0.1467452496290207, -0.27628830075263977, -0.07804249227046967, 0.04758971929550171, -0.07270285487174988, -0.0049606976099312305, 0.13177244365215302, -0.05932045355439186, -0.14564131200313568, -0.04245523735880852, 0.09908229112625122, 0.1577707678079605, 0.060215454548597336, -0.13432034850120544, -0.144637331366539, -0.054644230753183365, -0.22314752638339996, 0.16553989052772522, 0.08886636048555374, -0.07387125492095947, -0.13550862669944763, -0.09387742727994919, 0.04430815204977989, 0.08694003522396088, 0.03156992793083191, -0.08444157242774963, 0.05102350935339928, 0.19966848194599152, 0.054743215441703796, -0.03595111519098282, 0.0461144894361496, 0.07558169215917587, -0.2467433512210846, -0.1511387676000595, 0.035319190472364426, -0.10128699243068695, 0.18347319960594177, 0.14240553975105286, 0.09786035865545273, -0.1080513671040535, 0.1396578848361969, -0.02325974404811859, 0.03171028569340706, 0.09694448113441467, 0.02561255916953087, 0.025118427351117134, 0.19067011773586273, -0.0630008652806282, 0.04819892346858978, -0.07070279121398926, 0.06381693482398987, 0.029679926112294197, -0.18893781304359436, -0.19383317232131958, 0.003710035700351, -0.08308865875005722, 0.01963852532207966, -0.28039541840553284, -0.1501500904560089, 0.012582934461534023, -0.07467544078826904, 0.19374798238277435, -0.1591159850358963, 0.088461734354496, 0.3053034543991089, -0.033825330436229706, 0.013012833893299103, -0.022820746526122093, -0.017139842733740807, 0.26105156540870667, 0.086522176861763, 0.019610850140452385, 0.014559363946318626, 0.024142907932400703, 0.18583159148693085, -0.04016267508268356, 0.2167055904865265, 0.030127335339784622, 0.059113312512636185, 0.1401754468679428, 0.058240775018930435, 0.19381743669509888, 0.04788939654827118, 0.09344054013490677, -0.06172653287649155, -0.027101147919893265, -0.08090950548648834, -0.0455297976732254, 0.043903328478336334, 0.002494066720828414, -0.05266539752483368, 0.0445704385638237, -0.07185135036706924, 0.11606002599000931, -0.09566619247198105, 0.009160823188722134, 0.047857075929641724, 0.32588478922843933, 0.01610763557255268, 0.2046341896057129, 0.2213618904352188, -0.004181832540780306, 0.04552758112549782, -0.1235184520483017, 0.04696567729115486, 0.10171768069267273, 0.2847568690776825, -0.24305607378482819, 0.14352847635746002, -0.34496572613716125, 0.09745371341705322, -0.07396624237298965, -0.009495028294622898, 0.10450872778892517, -0.16912680864334106, -0.15086379647254944, 0.027693750336766243, 0.16973984241485596, -0.060657937079668045, -0.03458690270781517, -0.002957618562504649, -0.06730028241872787, -0.23063969612121582, -0.2553062438964844, 0.12563350796699524, -0.10868807882070541, -0.10571221262216568, -0.03378206118941307, -0.07195580005645752, 0.046584200114011765, 0.08528496325016022, -0.06612082570791245, -0.061502788215875626, -0.035313911736011505, -0.120183564722538, 0.1537836790084839, 0.15383242070674896, 0.09914457052946091, -0.048465266823768616, 0.05237504467368126, -0.10051312297582626, 0.018339835107326508, -0.06399808824062347, -0.02672000601887703, 0.09726142138242722, -0.07890138775110245, 0.037562593817710876, -0.012599837966263294, -0.22683444619178772, 0.15811580419540405, -0.08078676462173462, 0.026219576597213745, 0.05505704879760742, 0.16511081159114838, -0.16550542414188385, 0.16800369322299957, -0.03085114061832428, -0.01836315169930458, 0.15874724090099335, -0.25124409794807434, 0.04195248335599899, -0.19712382555007935, -0.33790114521980286, 0.22087498009204865, -0.15214915573596954, 0.2668096721172333, 0.2518637180328369, -0.2471005767583847, -0.03901360556483269, 0.15367348492145538, 0.04044875130057335, -0.10872743278741837, -0.29427769780158997, 0.37131935358047485, -0.11016523838043213, 0.23146779835224152, -0.18666858971118927, 0.13224820792675018, -0.2436017394065857, 0.1915312558412552, -0.0002800879592541605, 0.1581258624792099, -0.3400244414806366, 0.2282056212425232, -0.2074582427740097, 0.33119380474090576, -0.14027555286884308, 0.2104230523109436, -0.3255541920661926, -0.007680963259190321, 0.15570524334907532, -0.29291409254074097, 0.14648713171482086, -0.6527047157287598, 0.503193199634552, 0.21642351150512695, -0.13109715282917023, 0.09125552326440811, -0.1641913652420044, 0.08128784596920013, -0.28493034839630127, 0.10227302461862564, 0.0841696485877037, 0.04946529120206833, -0.16221308708190918, 0.12923592329025269, 0.22979234158992767, -0.06711417436599731, -0.3157385587692261, 0.17965294420719147, 0.1229260116815567, -0.060074277222156525, -0.01366074476391077, -0.06164870038628578, -0.007423134054988623, 0.12653279304504395, -0.06884490698575974, 0.012137273326516151, -0.06749942898750305, 0.050548285245895386, -0.11107619106769562, -0.01226816140115261, 0.071580670773983, 0.12250521034002304, -0.008552741259336472, 0.09374737739562988, -0.15998989343643188, 0.041448500007390976, 0.14036259055137634, -0.0044461265206336975, 0.10984846949577332, -0.02985767275094986, -0.1155167892575264, -0.07568351924419403, 0.06769201904535294, -0.045458342880010605, 0.04041411727666855, 0.12496347725391388, 0.05303044244647026, -0.004271303303539753, 0.006997935939580202, 0.012457760982215405, 0.0720142275094986, -0.05140708386898041, -0.07191827893257141, 0.19865752756595612, -0.03674129396677017, -0.027674010023474693, -0.16976697742938995, -0.018457233905792236, -0.13012877106666565, 0.17455601692199707, -0.09636987745761871, -0.01069472637027502, -0.35335201025009155, -0.4267159700393677, 0.05491204559803009, -0.27753669023513794, -0.12276887893676758, 0.12169041484594345, 0.03593750670552254, -0.1123555451631546, -0.08950675278902054, -0.0665108859539032, -0.20749205350875854, 0.4412706196308136, 0.48775526881217957, 0.6865901947021484, -0.030660215765237808, -0.009712821803987026, 0.164529949426651, 0.10514842718839645, 0.2063509076833725, -0.019666923210024834, -0.17161130905151367, -0.020402632653713226, 0.1951136589050293, 0.09922194480895996, 0.06584295630455017, 0.007501348853111267, -0.29020336270332336, -0.35811561346054077, -0.055245500057935715, 0.2302016317844391, 0.022663773968815804, -0.2076973021030426, 0.2210233211517334, 0.07521864026784897, -0.20790493488311768, 0.13225425779819489, 0.1410008668899536, 0.1518336534500122, 0.28070443868637085, -0.16387319564819336, 0.07354402542114258, 0.2587412893772125, 0.1658007800579071, -0.1642100065946579, -0.08502264320850372, -0.7154451608657837, -0.2589879035949707, 0.17998959124088287, -0.06447549164295197, -0.1464613378047943, 0.2362668216228485, -0.04581832140684128, -0.15688762068748474, -0.15727877616882324, -0.04272587224841118, 0.14298751950263977, 0.0776425153017044, -0.04424409195780754, 0.06358493119478226, 0.22121068835258484, 0.10607156902551651, -0.08284628391265869, 0.014081486500799656, 0.25061866641044617, -0.04811062663793564, -0.08235576748847961, -0.254169762134552, 0.08118367940187454, 0.15083305537700653, 0.2717501223087311, -0.0250400397926569, 0.1261608600616455, -0.25732535123825073, -0.0368051752448082, -0.1981024146080017, 0.2289980947971344, -0.047308407723903656, -0.06919010728597641, -0.12914907932281494, -0.022126805037260056, -0.07211779803037643, -0.11932038515806198, 0.05040855333209038, -0.19967997074127197, -0.20848476886749268, -0.021716367453336716, 0.18298104405403137, -0.043858759105205536, -0.08779747039079666, 0.04326893761754036, -0.14243604242801666, -0.11279409378767014, 0.042258866131305695, -0.06991154700517654, 0.09999438375234604, -0.010656910948455334, 0.032124362885951996, -0.15687717497348785, 0.16536423563957214, -0.03665833920240402, -0.13827617466449738, 0.14540252089500427, 0.04426532983779907, -0.06914366781711578, 0.033307697623968124, 0.011218360625207424, -0.01909610629081726, 0.235873281955719, -0.03400648385286331, 0.06690852344036102, -0.0763435959815979, -0.07828695327043533, 0.10380055010318756, -0.06752241402864456, -0.15635459125041962, -0.018058976158499718, -0.16926400363445282, -0.08313387632369995, 0.02450621873140335, -0.06953851878643036, 0.04779161140322685, 0.11704178899526596, -0.047713905572891235, 0.059449102729558945, -0.14870108664035797, 0.1582789123058319, 0.11584874242544174, 0.05644344538450241, 0.16732345521450043, -0.1743118315935135, -0.012644702568650246, 0.12951749563217163, 0.025418385863304138, 0.015035944059491158, 0.07572303712368011, 0.025123225525021553, -0.15779639780521393, 0.12076801061630249, -0.11536195874214172, -0.016386140137910843, 0.14923088252544403, -0.08355551958084106, -0.22591528296470642, -0.04555436968803406, -0.02477278746664524, 0.06227795034646988, -0.09151653945446014, -0.01633334346115589, 0.046920157968997955, 0.11770674586296082, -0.09355849772691727, 0.16241195797920227, -0.08269082754850388, -0.053906116634607315, 0.03246689960360527, -0.08445332944393158, -0.0025574767496436834, 0.0313117578625679, -0.08948592841625214, 0.021563872694969177, -0.19706209003925323, 0.036164894700050354, 0.10552377253770828, 0.07643093913793564, 0.17901381850242615, 0.10788234323263168, -0.048569221049547195, -0.007956021465361118, -0.09765350073575974, 0.15969279408454895, 0.06950262188911438, -0.10012416541576385, 0.06708282232284546, -0.02809750847518444, -0.0066428291611373425, 0.0313396081328392, -0.0595400296151638, -0.0030957222916185856, -0.007540650200098753, 0.07648301124572754, 0.040282994508743286, 0.005510096903890371, 0.16163858771324158, 0.15204712748527527, 0.03745879605412483, -0.0370243638753891, -0.06946656107902527, -0.0894077718257904, -0.09947171062231064, -0.03855108097195625, 0.21628664433956146, -0.09998061507940292, -0.06388169527053833, -0.011784566566348076, -0.02993195690214634, 0.12654702365398407, 0.0971842035651207, -0.16398152709007263, 0.050866685807704926, 0.06643666326999664, -0.12643687427043915, -0.11371387541294098, -0.012062519788742065, 0.05629704147577286, 0.2888045608997345, -0.016160866245627403, 0.21640706062316895, -0.012054311111569405, -0.052376072853803635, -0.031126489862799644, 0.05674320459365845, 0.1332077980041504, 0.15973302721977234, 0.10881709307432175, -0.0657026618719101, 0.003515122924000025, -0.15490633249282837, -0.006610926240682602, -0.06118133291602135, -0.060097258538007736, 0.10847152024507523, -0.09826742857694626, 0.009830845519900322, 0.11688170582056046, -0.0073301480151712894, -0.03883074223995209, -0.018526272848248482, 0.11506075412034988, -0.0009130451362580061, 0.12878885865211487, -0.045927632600069046, -0.06099511310458183, 0.1368037611246109, -0.2114812284708023, -0.01780550554394722, -0.07520522177219391, 0.07625402510166168, 0.03426159918308258, 0.22173093259334564, -0.022505369037389755, -0.12810461223125458, -0.10699448734521866, 0.4268651306629181, 0.11543215811252594, 0.15193292498588562, 0.10008992999792099, 0.10349008440971375, 0.09268692135810852, 0.2618221938610077, 0.2674594521522522, 0.022188518196344376, -0.20753178000450134, -0.22445714473724365, -0.15206053853034973, -0.13906915485858917, -0.2466825246810913, -0.06333144754171371, 0.11106441915035248, 0.14047592878341675, -0.21564733982086182, -0.036212626844644547, -0.2144336998462677, -0.16064925491809845, -0.04706333577632904, -0.022312084212899208, -0.027827063575387, -0.11650996655225754, 0.15385092794895172, 0.2347848117351532, 0.10501804202795029, 0.16472728550434113, -0.0787772536277771, 0.07702011615037918, 0.05676434934139252, 0.029786694794893265, -0.4315183162689209, -0.5865253210067749, -0.11520451307296753, 0.10996022075414658, -0.21836423873901367, -0.2114826887845993, 0.02214794047176838, -0.1345682591199875, -0.06559163331985474, 0.34116801619529724, 0.22286397218704224, 0.3097098171710968, 0.1091623455286026, 0.08142410218715668, -0.01219975296407938, 0.1615128368139267, -0.1768946498632431, 0.042271003127098083, 0.19962245225906372, 0.08820920437574387, -0.07002966105937958, -0.09428121149539948, 0.36421024799346924, 0.051344286650419235, 0.13843078911304474, 0.10877471417188644, 0.06935606896877289, -0.33125317096710205, -0.5959506034851074, -0.2075735628604889, 0.24994851648807526, -0.19474917650222778, 0.1884724199771881, -0.6216368675231934, -0.45950207114219666, -0.5674226880073547, 0.5609520673751831, -0.8814717531204224, -0.42243391275405884, -1.088636040687561, 0.18478110432624817, -0.8693008422851562, 0.25446298718452454, -0.8115574717521667, -0.16563808917999268, -0.1477062702178955, -0.035636261105537415, 0.5099245309829712, 0.10542479902505875, -0.04592090845108032, -0.23416055738925934, -0.09868427366018295, 0.2272099256515503, 0.14059200882911682, 0.3047073185443878, -0.13796605169773102, 0.4700486660003662, -0.1109500378370285, -0.39009782671928406, 0.12863397598266602, -0.4044856131076813, -0.29260316491127014, -0.0897834524512291, 0.08480654656887054, -0.455707848072052, 0.34621286392211914, -0.12968461215496063, -0.6162431240081787, -0.6223839521408081, -0.09476867318153381, 0.13904522359371185, 0.069972924888134, 0.08233164995908737, -0.17539282143115997, -0.0005543713341467083, 0.3094840347766876, -0.20474740862846375, -0.4705677628517151, -0.05581294372677803, 0.34550410509109497, 0.047005001455545425, 0.25796470046043396, -0.24199935793876648, -0.16206516325473785, -0.16590261459350586, 0.12411684542894363, -0.09133944660425186, -0.3125493824481964, 0.016655324026942253, -0.1712580919265747, 0.04224366694688797, 0.025021659210324287, 0.07463637739419937, 0.13489985466003418, -0.19783267378807068, -0.1453593224287033, -0.18908517062664032, 0.024141404777765274, -0.1419542133808136, -0.07471154630184174, -0.09474264085292816, 0.0915277972817421, 0.2581852972507477, 0.3081514835357666, 0.1973540484905243, -0.10146050900220871, 0.013846520334482193, 0.07896298170089722, 0.3995361328125, 0.03207153454422951, -0.1797086000442505, -0.12820987403392792, 0.3113972544670105, -0.18915961682796478, -0.15028050541877747, 0.44036781787872314, 0.4166751503944397, -0.06454185396432877, -0.38978177309036255, 0.15874525904655457, -0.4005504548549652, 0.3460398316383362, 0.04659705609083176, -0.33844229578971863, -0.18393510580062866, -0.1376255452632904, -0.3101784288883209, -0.06149180606007576, -0.005641967989504337, -0.13214336335659027, -0.06223540008068085, -0.11490970104932785, -0.04906072840094566, 0.1958538293838501, -0.11031463742256165, -0.26353970170021057, -0.17713375389575958, -0.07747232168912888, 0.04503684490919113, 0.0017931420588865876, 0.08604780584573746, 0.07797005772590637, 0.060554489493370056, -0.015130054205656052, -0.004148772917687893, 0.26366087794303894, -0.3162640929222107, -0.12490606307983398, 0.5023135542869568, 0.07195227593183517, -0.11614133417606354, 0.13145144283771515, -0.0012573671992868185, -0.08125736564397812, -0.1137363538146019, 0.30312347412109375, 0.14133034646511078, 0.13458691537380219, 0.07045988738536835, 0.03571169450879097, 0.14279402792453766, -0.16175240278244019, 0.0063790627755224705, 0.1300325095653534, 0.05554736405611038, 0.21999067068099976, -0.2703413963317871, 0.05461455509066582, -0.13811630010604858, 0.11559852957725525, 0.15768931806087494, -0.0031996748875826597, -0.1953168511390686, 0.04954247176647186, -0.16767504811286926, -0.05321235954761505, -0.26222681999206543, -0.096580870449543, -0.03188665211200714, -0.21417498588562012, 0.07484474778175354, 0.0589602030813694, 0.39239054918289185, -0.1522318571805954, 0.009770751930773258, -0.03819924220442772, -0.1176987886428833, 0.39307886362075806, -0.12475953996181488, -0.003972361795604229, -0.13813430070877075, 0.13890324532985687, -0.019322631880640984, -0.0386255718767643, 0.06450224667787552, -0.08482889831066132, -0.04387286305427551, 0.06992881000041962, 0.09611038118600845, 0.1276882439851761, 0.1891903281211853, -0.04379255697131157, 0.051010627299547195, -0.0037438927683979273, -0.22078312933444977, -0.18494172394275665, -0.18217431008815765, 0.21450966596603394, -0.010385307483375072, -0.0023792204447090626, -0.09433425962924957, -0.12462460994720459, 0.06640391796827316, 0.2619094252586365, 0.009500001557171345, 0.09943833947181702, 0.11968044936656952, -0.09281659126281738, -0.0833120197057724, 0.1657441258430481, 0.10156218707561493, 0.3361626863479614, -0.3352372944355011, -0.027423791587352753, -0.2209998369216919, -0.03259796276688576, -0.02423679642379284, 0.16583256423473358, -0.4631209969520569, 0.2093767523765564, 0.35160672664642334, -0.09502780437469482, 0.008323927409946918, -0.08902221918106079, 0.05639949068427086, 0.0005950291524641216, -0.3206508159637451, -0.3145692050457001, -0.36239132285118103, 0.15144364535808563, -0.20826996862888336, 0.12307094782590866, -0.24203598499298096, -0.11653762310743332, -0.3665545582771301, 0.03259512037038803, -0.1941503882408142, -0.3599061965942383, 0.3790237009525299, -0.308315247297287, -0.12219943851232529, 0.35109221935272217, -0.0012526039499789476, 0.05794457346200943, -0.4606872498989105, 0.3320697247982025, -0.5335384607315063, 0.17792659997940063, -0.19157342612743378, -0.08576760441064835, -0.0015765652060508728, 0.5071972012519836, 0.3846662938594818, -0.18264321982860565, 0.47604188323020935, -0.10747817158699036, -0.18096081912517548, 0.3626728355884552, 0.1086416244506836, 0.20790593326091766, 0.16543197631835938, -0.11217445135116577, -0.03696173429489136, -0.2232896089553833, 0.19557756185531616, 0.09674353152513504, -0.0692010149359703, -0.02106105163693428, -0.2655445337295532, 0.10559108108282089, -0.2803579270839691, 0.3307245671749115, 0.3250754773616791, -0.004563642665743828, 0.11356661468744278, -0.52939373254776, -0.3715575039386749, 0.1385863721370697, -0.44530317187309265, 0.24010069668293, -0.36652401089668274, 0.07070980966091156, -0.5087548494338989, -0.050806064158678055, 0.3483487069606781, -0.14269156754016876, -0.044352203607559204, 0.04111158847808838, -0.30187976360321045, -0.02683928981423378, -0.2319987714290619, 0.04124785587191582, 0.046618226915597916, -0.08388099074363708, -0.04911467805504799, 0.015487907454371452, 0.26209691166877747, 0.29294392466545105, 0.004450052976608276, 0.06318113952875137, 0.0035670683719217777, -0.23356416821479797, -0.04431623965501785, -0.43568867444992065, 0.06212863326072693, -0.08770818263292313, 0.06657061725854874, 0.01580873318016529, -0.1342807561159134, -0.05341390520334244, -0.1341991424560547, -0.00369681091979146, 0.05746582895517349, 0.11856161057949066, -0.07389412075281143, 0.08002110570669174, -0.16800159215927124, -0.024780524894595146, 0.18082542717456818, 0.08249416202306747, -0.07474640011787415, 0.06753882765769958, 0.11527470499277115, -0.03527230769395828, -0.10977695137262344, -0.0945548415184021, 0.05328555032610893, -0.024843832477927208, 0.04996401071548462, -0.1487068086862564, -0.2003362625837326, -0.0142053896561265, 0.015591645613312721, -0.07708480209112167, -0.038271863013505936, -0.07072430849075317, -0.0969664677977562, 0.05645430088043213, -0.0544293075799942, -0.151631161570549, -0.11905091255903244, 0.061166055500507355, -0.0387502945959568, -0.08088630437850952, 0.013673314824700356, -0.204254612326622, -0.05420391261577606, -0.0797516405582428, 0.1797676533460617, 0.018756985664367676, -0.06998111307621002, 0.04386206716299057, -0.2124476432800293, -0.11019948869943619, 0.025064267218112946, 0.09333161264657974, -0.22449380159378052, -0.2506594657897949, 0.5863382816314697, -0.7639623880386353, 0.3056294620037079, 0.2417624294757843, 0.055740341544151306, 0.03452026844024658, -0.2167210429906845, 0.03241117298603058, 0.13056650757789612, -0.20976528525352478, 0.2685048580169678, -0.13832128047943115, 0.2694203853607178, -0.4181400239467621, 0.12774650752544403, -0.21407556533813477, 0.07724093645811081, -0.15671898424625397, -0.017761388793587685, -0.05673147737979889, 0.08558361232280731, -0.07784216850996017, -0.19541794061660767, -0.03440520167350769, 0.19353123009204865, -0.15589328110218048, 0.2129124402999878, -0.05132614076137543, -0.047716788947582245, 0.016696108505129814, -0.19342489540576935, 0.14307038486003876, 0.047235410660505295, 0.30850863456726074, -0.2983993887901306, -0.002441214630380273, 0.02132769674062729, -0.3690890967845917, -0.12122879922389984, -0.26001107692718506, 0.9253606200218201, 0.09911887347698212, 0.36942920088768005, -0.2916422188282013, 0.035918816924095154, 0.014608686789870262, 0.15059331059455872, 0.25342896580696106, 0.018919117748737335, -0.06502807885408401, 0.06152193248271942, -0.02560614049434662, 0.05237400531768799, -0.25422003865242004, -0.11751015484333038, -0.010266377590596676, -0.05210365355014801, -0.19012665748596191, -0.18425889313220978, 0.27416133880615234, 0.050936564803123474, 0.024703117087483406, -0.05780946463346481, 0.20265008509159088, 0.07915902137756348, 0.06624576449394226, 0.16826175153255463, 0.08751417696475983, 0.04019952192902565, 0.028602363541722298, 0.03865237534046173, 0.08834987878799438, 0.1467660814523697, 0.03457402437925339, -0.2107558697462082, 0.08177366852760315, -0.030888313427567482, -0.008531851693987846, -0.08622514456510544, -0.09938248246908188, 0.13112151622772217, 0.060431111603975296, 0.199320986866951, -0.028798677027225494, 0.05205749347805977, 0.1991473287343979, 0.1110362708568573, -0.24161779880523682, -0.26679372787475586, -0.03288095071911812, -0.04290539771318436, 0.14835025370121002, 0.013374460861086845, 0.02626015618443489, -0.06142542511224747, -0.07640248537063599, 0.5437514185905457, -0.19997894763946533, 0.14521509408950806, 0.1638658046722412, -0.2553054690361023, 0.1824585348367691, -0.06527742743492126, -0.20004622638225555, -0.08459089696407318, -0.20746679604053497, 0.04697006568312645, -0.07658381015062332, 0.14801335334777832, 0.18878237903118134, 0.29749253392219543, 0.024005215615034103, -0.183566614985466, -0.06562983989715576, 0.09928550571203232, 0.25406041741371155, 0.12549512088298798, 0.03541898727416992, -0.07413815706968307, -0.1526392251253128, 0.066454216837883, 0.010530694387853146, 0.0504273846745491, -0.05898979306221008, -0.21119743585586548, 0.23725785315036774, -0.12968282401561737, -0.17308153212070465, 0.1249530240893364, 0.08476283401250839, -0.17925994098186493, 0.23710671067237854, 0.03980173543095589, -0.060631848871707916, -0.1640367954969406, -0.5040549039840698, 0.39516156911849976, 0.0014075224753469229, 0.26034247875213623, -0.07586997002363205, 0.06997203081846237, -0.12718188762664795, -0.08938593417406082, -0.140779048204422, 0.06463678926229477, 0.001144666806794703, 0.09606935828924179, 0.18280531466007233, 0.01884140446782112, 0.10708773136138916, 0.28667834401130676, -0.09231706708669662, -0.09280169010162354, 0.03873123973608017, 0.008263777941465378, -0.05571752041578293, 0.1319337785243988, 0.031048297882080078, -0.171844482421875, -0.0473686158657074, -0.038544971495866776, -0.16195747256278992, -0.1982758641242981, 0.02959565632045269, 0.025613779202103615, -0.0884718969464302, 0.055681418627500534, -0.0040976000018417835, 0.015793345868587494, 0.027094833552837372, -0.028766512870788574, 0.002907352987676859, 0.014644009061157703, 0.10026437044143677, 0.2518795132637024, -0.08340451866388321, -0.06764496862888336, 0.12465041875839233, -0.006193456705659628, -0.04976900666952133, -0.04337337985634804, 0.04237465560436249, 0.037718839943408966, -0.10367271304130554, 0.22407230734825134, 0.11463497579097748, 0.022421827539801598, -0.003175805788487196, 0.10144242644309998, -0.1401515156030655, -0.2594887912273407, -0.04757239297032356, 0.006853268947452307, 0.0758342519402504, -0.09958022832870483, -0.1420353800058365, -0.051718469709157944, 0.05587662383913994, -0.08437341451644897, 0.07546000182628632, -0.08431587368249893, 0.028895990923047066, 0.25087761878967285, -0.48024463653564453, -0.1291135549545288, 0.08263307064771652, -0.005367574281990528, 0.15883855521678925, 0.0651329755783081, -0.23902972042560577, -0.13137565553188324, 0.07872269302606583, 0.1465091109275818, 0.04515505209565163, -0.1086738184094429, -0.10744988918304443, -0.08413366973400116, -0.1338452249765396, 0.09014741331338882, 0.031945742666721344, -0.017473939806222916, 0.06705355644226074, 0.25125980377197266, 0.07059592008590698, 0.07615334540605545, -0.1740310788154602, -0.10640859603881836, -0.03451349213719368, -0.02429302968084812, -0.1111409068107605, 0.0067344605922698975, 0.1775638610124588, 0.19457972049713135, -0.06346680223941803, -0.008002685382962227, 0.0049589769914746284, -0.1624610871076584, -0.033884793519973755, 0.11966525763273239, -0.0437428280711174, -0.06802067160606384, -0.12138824164867401, 0.041206274181604385, 0.002252347767353058, -0.11515659838914871, -0.057035841047763824, 0.12151765078306198, 0.0536293163895607, 0.04506858065724373, -0.10148400813341141, -0.033602043986320496, -0.09750864654779434, 0.08718323707580566, -0.00015942247409839183, -0.04640975221991539, -0.00801916979253292, -0.03889884799718857, 0.19549396634101868, 0.043640490621328354, -0.1376071572303772, -0.1992216259241104, -0.049762073904275894, 0.11224351078271866, 0.02327517792582512, 0.1413123905658722, 0.0014846782432869077, -0.1986987143754959, 0.11515367031097412, -0.009509485214948654, -0.0836624801158905, -0.10375416278839111, -0.053043149411678314, -0.14346452057361603, -0.0003699558146763593, 0.1058904305100441, -0.0005194428958930075, 0.042064324021339417, 0.20139949023723602, -0.23002970218658447, -0.16437461972236633, -0.35464346408843994, 0.058901503682136536, -0.013348265551030636, -0.15392746031284332, 0.08829540014266968, 0.09905871748924255, -0.12103179097175598, 0.11899331212043762, 0.14798946678638458, 0.015336398966610432, -0.0017188299680128694, 0.11076386272907257, -0.011751379817724228, -0.14217357337474823, 0.0648166835308075, 0.0868569016456604, -0.05382995307445526, 0.13430605828762054, -0.008435450494289398, 0.10234877467155457, 0.13473299145698547, 0.036113955080509186, -0.16633842885494232, -0.047689229249954224, -0.008791401982307434, -0.13174301385879517, 0.027987685054540634, -0.05095451697707176, -0.024868009611964226, 0.11683184653520584, -0.12328257411718369, -0.07809422165155411, -0.007063788361847401, -0.13906992971897125, 0.11847550421953201, -0.10208814591169357, -0.06243100389838219, 0.01826568692922592, 0.16998152434825897, -0.1035168245434761, 0.0814661905169487, 0.13181078433990479, 0.16943971812725067, -0.08703315258026123, 0.00802098773419857, -0.017780600115656853, 0.02432459034025669, -0.07073625922203064, 0.017152490094304085, -0.03577154502272606, -0.0117716109380126, 0.06494122743606567, -0.05598925054073334, -0.2286887764930725, -0.2288835644721985, 0.09241544455289841, 0.0050444272346794605, 0.04723944887518883, 0.04735065996646881, -0.012505040504038334, -0.05967075005173683, 0.06613493710756302, 0.17122018337249756, 0.07408985495567322, -0.2527810037136078, 0.035085294395685196, 0.1592545360326767, -0.2594764530658722, -0.08532337844371796, -0.10840753465890884, 0.16208523511886597, -0.03790026530623436, -0.09377676248550415, -0.12371456623077393, -0.08341372013092041, 0.028447527438402176, 0.2064228504896164, 0.05564228072762489, 0.0926203653216362, -0.013971050269901752, 0.08664102852344513, 0.0481109693646431, 0.10214971005916595, -0.07453171908855438, -0.21936070919036865, 0.11798929423093796, 0.35681959986686707, 0.019944995641708374, -0.13882173597812653, 0.07822612673044205, -0.0958750769495964, 0.04689096286892891, -0.032567620277404785, -0.06918187439441681, 0.17407196760177612, 0.11206632852554321, 0.23776201903820038, 0.08712884783744812, 0.06727337837219238, 0.14552977681159973, -0.22846801578998566, -0.12879101932048798, -0.05764362961053848, -0.0037776113022118807, 0.033575113862752914, 0.254341721534729, -0.02962208166718483, 0.02188083343207836, 0.2273588478565216, -0.09554765373468399, -0.029519569128751755, -0.04069066792726517, 0.024476202204823494, 0.04995938763022423, -0.03927813470363617, -0.06676800549030304, -0.07112472504377365, -0.19138170778751373, -0.20994478464126587, -0.02683776430785656, -0.08900278806686401, 0.07396083325147629, -0.16885170340538025, -0.2217215597629547, -0.10928255319595337, -0.18209026753902435, 0.1896834671497345, 0.12433849275112152, -0.10903359204530716, -0.09208954870700836, 0.026463190093636513, 0.07870889455080032, 0.12572099268436432, -0.16063378751277924, 0.11815289407968521, -0.017056554555892944, -0.09191387891769409, -0.02352524921298027, 0.0686144158244133, -0.1472349464893341, -0.18741333484649658, 0.11506681889295578, 0.020995432510972023, 0.327379435300827, -0.18108737468719482, -0.0018491053488105536, -0.04656923934817314, 0.0018594496650621295, 0.009999430738389492, -0.017302971333265305, 0.13898098468780518, 0.07584752887487411, 0.013972610235214233, 0.09403863549232483, -0.012494470924139023, -0.022444667294621468, 0.1425199955701828, 0.015499921515583992, 0.0015611863927915692, 0.12170444428920746, 0.08116284012794495, -0.07632483541965485, 0.020996849983930588, 0.04597357288002968, -0.023879501968622208, -0.1003844290971756, 0.1336151659488678, 0.13778145611286163, 0.039683207869529724, 0.1289689838886261, 0.1582876443862915, -0.04785138741135597, -0.00920384842902422, 0.046931251883506775, 0.0380558967590332, 0.06063434109091759, 0.0578731968998909, 0.0436394177377224, 0.01482227724045515, -0.00789643544703722, 0.16518239676952362, -0.023236358538269997, -0.24471181631088257, 0.0050863842479884624, 0.1032099798321724, -0.07923482358455658, -0.015963474288582802, 0.15611620247364044, -0.14738798141479492, 0.05541367456316948, -0.2128835767507553, 0.040518347173929214, -0.30732133984565735, -0.01231903675943613, -0.2281975895166397, -0.0937906950712204, -0.11764495819807053, -0.22042231261730194, 0.2253822684288025, -0.016201430931687355, -0.5812564492225647, -0.07459469884634018, -0.03335149958729744, -0.06459073722362518, 0.28752151131629944, -0.1908707171678543, 0.05208158865571022, 0.2379806488752365, 0.13013601303100586, 0.13259649276733398, -0.055369578301906586, -0.025532707571983337, -0.24336114525794983, -0.2293349802494049, -0.12029927223920822, 0.07246427237987518, 0.22672031819820404, 0.20031529664993286, -0.06559915840625763, -0.29473233222961426, -0.25604504346847534, -0.014879655092954636, 0.028707411140203476, -0.048252981156110764, -0.08969174325466156, -0.3208011984825134, -0.18933700025081635, -0.09822741150856018, 0.15827283263206482, 0.0033617254812270403, -0.08366114646196365, 0.2904820144176483, -0.1168551817536354, -0.197642520070076, 0.07931258529424667, -0.27056530117988586, -0.28323039412498474, 0.271525502204895, 0.1518118530511856, 0.3170503079891205, 0.15407685935497284, -0.11610162258148193, -0.3723476231098175, -0.09406781196594238, -0.1687360554933548, 0.20667727291584015, 0.1043081134557724, -0.22936591506004333, 0.1874328851699829, -0.1889965534210205, -0.08043129742145538, 0.03626471757888794, -0.06638368219137192, -0.05801987648010254, -0.01944509893655777, -0.18940390646457672, 0.3591926097869873, -0.05500641465187073, 0.08203158527612686, -0.13867197930812836, -0.108220674097538, 0.10375051200389862, -0.24311603605747223, 0.12040544301271439, -0.31252309679985046, 0.05737210437655449, -0.2187742441892624, 0.10567829757928848, 0.021188704296946526, -0.045461807399988174, -0.09210886061191559, -0.3707066476345062, -0.15457604825496674, 0.12200276553630829, 0.0873255804181099, 0.21118879318237305, -0.17794756591320038, 0.08687078952789307, 0.035944487899541855, -0.034359026700258255, -0.2762766182422638, 0.2721194624900818, -0.16514751315116882, -0.1377301961183548, 0.14696048200130463, -0.13727004826068878, 0.2765668034553528, -0.2666627764701843, -0.16645194590091705, -0.07424229383468628, 0.338450163602829, -0.034508924931287766, 0.02970878593623638, -0.015566036105155945, -0.011514699086546898, 0.0002940610866062343, -0.3006827235221863, 0.07434064894914627, 0.1500433385372162, -0.020743118599057198, -0.0942230299115181, 0.12792032957077026, -0.15360823273658752, 0.1484350562095642, -0.1869920939207077, 0.2209767997264862, 0.168160542845726, -0.2436390519142151, -0.07669427245855331, -0.03963036090135574, 0.15999656915664673, -0.0802585706114769, -0.03532836213707924, -0.1072014719247818, 0.10812783241271973, -0.05716700851917267, 0.12805962562561035, -0.09626539796590805, -0.04697810113430023, -0.05416393280029297, 0.004124392755329609, 0.10760475695133209, 0.1272524893283844, -0.009411540813744068, -0.09488366544246674, 0.1576988399028778, -0.2176019698381424, 0.02369278110563755, -0.05239875242114067, -0.178224578499794, -0.0973757952451706, 0.16758295893669128, -0.018295733258128166, -0.09308602660894394, -0.008579476736485958, -0.0761784240603447, -0.04139992594718933, -0.05480482056736946, -0.2474159151315689, 0.033521268516778946, 0.0007925849058665335, 0.22506217658519745, 0.1640191674232483, -0.014799690805375576, -0.15058401226997375, -0.08567725121974945, -0.07278446853160858, 0.05001223832368851, -0.010232255794107914, -0.29876193404197693, -0.2555844783782959, -0.05300925299525261, 0.025690658017992973, -0.2199162095785141, -0.2141564041376114, 0.11779192835092545, -0.09917767345905304, -0.14116990566253662, -0.21236132085323334, -0.1035279780626297, -0.07553166151046753, 0.1421699970960617, -0.04520131275057793, 0.06001759693026543, 0.023926643654704094, -0.09404613822698593, 0.09160270541906357, 0.0389334075152874, -0.005480400286614895, 0.09321888536214828, -0.14940515160560608, 0.01721832901239395, 0.013124286197125912, -0.05986732989549637, -0.034873805940151215, -0.1556926816701889, -0.12358205020427704, -0.04515839368104935, -0.07374511659145355, -0.14999403059482574, -0.11458487063646317, 0.09203124046325684, 0.05576394870877266, -0.29343700408935547, -0.15565313398838043, 0.18102586269378662, 0.06354902684688568, 0.0011542750289663672, 0.021197253838181496, -0.024981863796710968, 0.03940919414162636, -0.12882299721240997, -0.05532125011086464, 0.22578558325767517, 0.058523450046777725, 0.14101628959178925, 0.0846032127737999, -0.15535195171833038, 0.13840676844120026, 0.03430597856640816, 0.14840763807296753, 0.1444634050130844, 0.09930098056793213, 0.10093406587839127, -0.0495893768966198, -0.014925719238817692, 0.07094500213861465, -0.058133456856012344, -0.12699177861213684, 0.017786087468266487, -0.008768875151872635, 0.1276080310344696, -0.002050139242783189, 0.0024741131346672773, -0.04033742472529411, -0.16521130502223969, -0.03663787618279457, 0.0965174064040184, 0.05613633245229721, -0.10609687119722366, 0.006863937247544527, -0.2319381684064865, 0.1864408701658249, 0.013074338436126709, -0.155454620718956, 0.22448629140853882, -0.13464245200157166, -0.052857208997011185, 0.12260638177394867, -0.05220188945531845, 0.0903216078877449, 0.3160194158554077, -0.09823092818260193, -0.16880689561367035, -0.01507945079356432, 0.17345300316810608, -0.0824560821056366, 0.06655307114124298, 0.08972370624542236, -0.05642996355891228, 0.053812045603990555, 0.11676637828350067, -0.11593988537788391, -0.11163966357707977, 0.2881716191768646, 0.03877939283847809, 0.021031226962804794, 0.031740546226501465, -0.06865789741277695, -0.06558793783187866, 0.2302773892879486, 0.03556668013334274, -0.30848556756973267, -0.8987470865249634, 0.7616230845451355, 0.46338680386543274, -0.37296560406684875, 0.23858028650283813, -0.21104216575622559, -0.15118205547332764, 0.514370858669281, -0.9828600883483887, 0.8870516419410706, 0.37722262740135193, 0.009059968404471874, -0.0760243609547615, 0.07736633718013763, -0.7538296580314636, -0.03883833810687065, -0.16073724627494812, -0.056695450097322464, -0.12336229532957077, 0.341103196144104, 0.26700735092163086, 0.03266632929444313, 0.16515760123729706, 0.2957918643951416, -0.04138732701539993, 0.04020605608820915, 0.14046579599380493, -0.2928560972213745, -0.12191668152809143, -0.3130582273006439, -0.17182263731956482, 0.3117508590221405, -0.00014512943744193763, 0.09243444353342056, 0.042343299835920334, -0.03049824945628643, -0.029780475422739983, 0.28646543622016907, -0.40706899762153625, -0.4334762692451477, 0.6057654619216919, -0.09390345215797424, 0.10739271342754364, 0.28976312279701233, 0.05112399160861969, 0.27420857548713684, 0.043616246432065964, 0.15011940896511078, -0.31621506810188293, 0.08356650173664093, -0.2886745035648346, 0.04384136199951172, -0.2814464271068573, 0.13106459379196167, -0.2822795510292053, -0.3122316896915436, 0.18149709701538086, 0.010433806106448174, 0.29744094610214233, 0.11208262294530869, -0.0704035684466362, 0.09319090843200684, 0.15075738728046417, 0.30367615818977356, 0.13553281128406525, 0.10877034068107605, -0.02638973295688629, -0.16137686371803284, 0.19246584177017212, -0.24258829653263092, 0.21483111381530762, 0.23412562906742096, -0.045785535126924515, 0.20244701206684113, 0.2761138081550598, 0.13053655624389648, 0.3382589817047119, 0.1852428913116455, -0.42447057366371155, 0.13461482524871826, -0.0656018927693367, 0.37074926495552063, -0.20391979813575745, 0.002072985051199794, -0.22697879374027252, 0.2851332426071167, -0.06911884248256683, 0.04916254058480263, 0.16269059479236603, -0.05962846055626869, 0.21198058128356934, -0.34331774711608887, -0.21118763089179993, 0.14575038850307465, -0.08103970438241959, -0.08667181432247162, -0.023193681612610817, 0.11046042293310165, -0.09836409240961075, -0.15420609712600708, -0.2167038470506668, 0.19921040534973145, 0.1347542256116867, -0.269293874502182, -0.04030468314886093, 0.10470415651798248, 0.23747386038303375, -0.10182186216115952, 0.16600288450717926, 0.38041266798973083, 0.053648941218853, 0.14089417457580566, 0.5117128491401672, -0.21978940069675446, 0.09628435969352722, 0.11190296709537506, -0.24132855236530304, 0.1256944239139557, -0.11740147322416306, -0.34889018535614014, 0.24124859273433685, 0.11483967304229736, -0.02079390361905098, 0.06191083416342735, 0.2812557816505432, 0.22780132293701172, 0.09196539968252182, 0.23312577605247498, 0.01755800098180771, -0.2003362625837326, -0.13340871036052704, 0.06338891386985779, -0.08656340837478638, 0.11940967291593552, -0.19238163530826569, 0.025863276794552803, 0.2502867877483368, 0.10412329435348511, 0.201336070895195, -0.08258317410945892, 0.1938173919916153, 0.03626428544521332, -0.1232551783323288, -0.20720654726028442, 0.11144031584262848, -0.14296454191207886, 0.12022893130779266, 0.22964462637901306, 0.0007710012141615152, -0.26923561096191406, 0.11823350191116333, -0.020468566566705704, 0.04498433694243431, -0.1703934669494629, 0.2751968801021576, -0.17342594265937805, -0.15301910042762756, 0.03760784491896629, 0.044002823531627655, 0.27929675579071045, -0.10464981198310852, -0.16898056864738464, 0.12963950634002686, 0.006556332111358643, 0.13322500884532928, -0.0819232389330864, -0.26477551460266113, -0.16324754059314728, 0.11375226080417633, 0.15439610183238983, -0.12653377652168274, -0.05530673637986183, 0.00445597106590867, 0.18540680408477783, -0.03325607627630234, 0.3111831545829773, -0.000558484869543463, -0.15917904675006866, -0.11924359947443008, 0.14189426600933075, -0.22368364036083221, 0.1347135603427887, -0.10626908391714096, 0.19277574121952057, 0.07310905307531357, -0.2108713537454605, 0.10435501486063004, 0.0942264199256897, -0.3373415768146515, 0.12147631496191025, 0.221354141831398, 0.1718727946281433, 0.008718113414943218, -0.04892006516456604, 0.06662879884243011, -0.23913441598415375, 0.16326408088207245, 0.40129542350769043, -0.007426911499351263, -0.2802378237247467, 0.02539963088929653, -0.04172443971037865, 0.2945912778377533, -0.1503121554851532, -0.2191726714372635, 0.07414064556360245, 0.16503849625587463, -0.24328398704528809, -0.19071000814437866, -0.13150347769260406, -0.0490294024348259, 0.1359308809041977, 0.04168408364057541, -0.2172994464635849, -0.21165324747562408, 0.07895848900079727, -0.05483533442020416, -0.04205339029431343, 0.05459839850664139, 0.18750320374965668, 0.2101658433675766, 0.022621719166636467, -0.09159035980701447, -0.2900236248970032, 0.23937998712062836, -0.28003954887390137, -0.023589931428432465, 0.10073179751634598, 0.05140385404229164, 0.006076309364289045, -0.043154168874025345, 0.218820258975029, -0.06139317527413368, 0.08207660168409348, -0.2522675395011902, -0.022007150575518608, 0.21555554866790771, -0.22128234803676605, -0.1648990958929062, 0.13283728063106537, 0.2852073311805725, 0.04017141833901405, -0.07335561513900757, -0.20553718507289886, -0.45071306824684143, 0.3200947046279907, -0.33672046661376953, -0.14212393760681152, 0.47761863470077515, 0.10016005486249924, 0.38177138566970825, 0.023420793935656548, 0.04439900442957878, 0.3374815285205841, -0.05991966649889946, -0.12135680764913559, -0.32297125458717346, 0.009693366475403309, -0.5262319445610046, -0.1902516484260559, 0.06517932564020157, 0.07910899817943573, -0.20661969482898712, -0.15137863159179688, 0.37465932965278625, 0.3705935478210449, 0.607387125492096, -0.3554418087005615, 0.23265281319618225, -0.17432156205177307, -0.15674644708633423, 0.011624864302575588, 0.07221084088087082, 0.13958333432674408, 0.05812806263566017, -0.01633325032889843, 0.15948890149593353, 0.17948496341705322, 0.061760276556015015, -0.16013112664222717, -0.1376095861196518, 0.0052890898659825325, 0.046936821192502975, 0.056544914841651917, -0.0266609787940979, 0.10749933868646622, -0.020568300038576126, 0.2864554226398468, -0.012924021109938622, -0.07762524485588074, -0.28365281224250793, -0.03574477136135101, 0.22593164443969727, 0.15699204802513123, 0.10689748078584671, 0.07975135743618011, 0.06067993864417076, -0.055833593010902405, -0.04326169192790985, -0.14179116487503052, -0.14364507794380188, 0.009476682171225548, -0.09760566055774689, -0.007899269461631775, 0.20849108695983887, 0.0050634173676371574, 0.05485297739505768, 0.06986110657453537, -0.31368404626846313, 0.07826896011829376, 0.2307358682155609, 0.1544376164674759, -0.1420813649892807, -0.23118185997009277, -0.16935791075229645, 0.10348667949438095, 0.07599003612995148, -0.0051840986125171185, -0.12808562815189362, -0.021352943032979965, 0.18361452221870422, -0.1853490173816681, -0.20952309668064117, 0.05799701064825058, 0.0515274740755558, -0.19637419283390045, 0.20366890728473663, -0.005254589952528477, -0.2690231204032898, -0.3384222984313965, -0.18127433955669403, 0.09795074909925461, 0.12968792021274567, 0.007583642844110727, -0.036291249096393585, 0.05599937215447426, 0.10890422016382217, -0.08152599632740021, 0.21585774421691895, 0.13806802034378052, 0.11040150374174118, -0.143146812915802, -0.15587535500526428, -0.09409746527671814, -0.1274154782295227, 0.1554396003484726, 0.5428758859634399, 0.07303223758935928, -0.19482655823230743, -0.11441760510206223, 0.19964373111724854, -0.13705624639987946, -0.0700656995177269, -0.8146647214889526, 0.3502621054649353, 0.09990014135837555, -0.052855584770441055, -0.33361390233039856, -0.2700493633747101, -0.13148899376392365, -0.02013101987540722, -0.0998457744717598, 0.05747811868786812, 0.24006037414073944, 0.03150664642453194, -0.23700138926506042, 0.12104753404855728, 0.05970187112689018, -0.14046119153499603, -0.11044241487979889, -0.14354141056537628, -0.1819095015525818, 0.008023468777537346, -0.032865073531866074, -0.1443716585636139, 0.285359263420105, -0.07920850068330765, -0.029386786743998528, -0.044869206845760345, 0.03631320223212242, -0.00669446587562561, -0.14061421155929565, -0.25239500403404236, -0.07463900744915009, -0.11611448973417282, 0.18091385066509247, 0.0706600546836853, -0.0608673058450222, -0.4688718318939209, -0.26564937829971313, -0.15092580020427704, -0.01352333091199398, -0.21633245050907135, -0.09383703023195267, -0.05259133130311966, 0.16678974032402039, -0.10222310572862625, -0.02577335759997368, -0.042113710194826126, -0.07491414248943329, -0.0527203269302845, -0.1585218608379364, 0.10244139283895493, -0.17116612195968628, 0.10979966819286346, 0.05191699042916298, 0.05930101498961449, -0.1326049268245697, -0.019177651032805443, 0.09730744361877441, 0.09697267413139343, -0.10006479173898697, -0.11872899532318115, -0.14417612552642822, -0.07368645071983337, -0.147236630320549, -0.15246351063251495, -0.17710666358470917, -0.004156219772994518, -0.044129833579063416, 0.08196824789047241, 0.05065710097551346, -0.1214047521352768, 0.00046814302913844585, 0.05253956839442253, 0.011518407613039017, -0.2112194150686264, -0.23856942355632782, -0.011310698464512825, 0.08026816695928574, 0.1417541354894638, 0.11682522296905518, 0.2371903657913208, -0.1455693542957306, -0.11120937764644623, 0.06926562637090683, 0.2556833326816559, 0.1303948312997818, 0.29157698154449463, -0.11025370657444, 0.12313048541545868, 0.04416927322745323, -0.1671973019838333, -0.04083029553294182, 0.17013834416866302, -0.005272297188639641, -0.14219693839550018, -0.09221895039081573, 0.1280762404203415, 0.032779760658741, 0.2108655720949173, -0.04875357449054718, -0.03456978127360344, 0.04994594678282738, 0.2498500496149063, 0.11550065875053406, -0.10721713304519653, -0.2337549477815628, -0.2151956856250763, 0.023282025009393692, 0.18852351605892181, 0.012454777024686337, 0.2483980357646942, -0.12096375226974487, 0.09479901194572449, 0.20393915474414825, -0.02816110849380493, 0.07149490714073181, 0.16847573220729828, -0.20795924961566925, 0.14320756494998932, 0.11104249954223633, -0.22495727241039276, -0.2028292566537857, 0.09674834460020065, 0.09376055747270584, -0.039014723151922226, 0.23437882959842682, -0.21288298070430756, 0.05244586244225502, 0.016659585759043694, -0.12136369943618774, 0.18135109543800354, 0.09586843103170395, -0.05104277282953262, 0.10651101917028427, 0.24309463798999786, -0.03210459277033806, 0.2960189878940582, -0.1178637146949768, 0.17454630136489868, 0.09271541982889175, -0.3084048628807068, 0.029286125674843788, -0.11284968256950378, 0.04783247783780098, 0.1423903852701187, 0.38968250155448914, 0.31819912791252136, 0.0378863699734211, 0.05327409878373146, -0.121490478515625, 0.04288475215435028, -0.11183945089578629, 0.1980484127998352, -0.14833062887191772, -0.13662070035934448, -0.12274041771888733, 0.00488060899078846, 0.2279384434223175, 0.3232157826423645, -0.07858510315418243, 0.05498466640710831, 0.12303943932056427, -0.033412571996450424, -0.09691572189331055, 0.10628049075603485, -0.10234273225069046, -0.12229301035404205, 0.10014767944812775, -0.14505888521671295, 0.04013604670763016, -0.16406118869781494, 0.1609480232000351, 0.05886773765087128, -0.17703939974308014, 0.03633583337068558, -0.26737943291664124, 0.07256971299648285, -0.03173650801181793, 0.2696678340435028, 0.09123046696186066, -0.2072877585887909, 0.1598651111125946, 1.1655757427215576, -0.008835752494633198, -0.19617287814617157, 0.151068776845932, -0.22976647317409515, 0.371355801820755, -0.038255780935287476, -0.15172934532165527, 0.07454421371221542, -0.11296533048152924, -0.06836523860692978, 0.20715093612670898, 0.35078325867652893, -0.2325628399848938, 0.16172316670417786, -0.09799210727214813, -0.2023288756608963, -0.299826443195343, 0.19527313113212585, -0.04156322777271271, 0.09973811358213425, -0.07530036568641663, -0.15074297785758972, -0.07900790870189667, 0.3484638035297394, -0.07613503187894821, 0.08312549442052841, 0.3770710527896881, 0.13641813397407532, -0.1751817911863327, 0.14830416440963745, -0.07658974826335907, -0.1754802167415619, 0.07852088660001755, -0.010211480781435966, 0.2960570752620697, 0.11420215666294098, -0.16743528842926025, 0.06974206119775772, 0.8538160920143127, 0.026275871321558952, 0.38050606846809387, 0.11751463264226913, -0.34713664650917053, -0.33731043338775635, -0.14289188385009766, 0.1444532871246338, 0.19197937846183777, 0.28033220767974854, -0.530678927898407, 0.1305222362279892, -0.1713557243347168, -0.43812108039855957, -0.33548101782798767, 0.014353136532008648, 0.018867917358875275, -0.37359383702278137, -0.14366696774959564, 0.16987015306949615, 0.1399604231119156, 0.19067972898483276, -0.04638488218188286, -0.08097633719444275, -0.029558584094047546, 0.14236262440681458, 0.14466552436351776, 0.12971878051757812, -0.20648525655269623, -0.19780518114566803, 0.025494586676359177, 0.2070242017507553, 0.28475436568260193, 0.05032942444086075, -0.2857206463813782, 0.2205754667520523, -0.15415668487548828, -0.320848286151886, 0.3890991806983948, -0.03537968173623085, -0.2848941385746002, 0.12720192968845367, 0.04680149257183075, -0.3195357918739319, -0.2872192859649658, 0.07506947219371796, 0.2362152487039566, 0.14890579879283905, -0.03359754756093025, -0.7322179675102234, 0.16681815683841705, -0.07322712987661362, -0.08028264343738556, -0.19876620173454285, 0.016181839630007744, 0.34876471757888794, -0.16526566445827484, -0.2644786834716797, 0.5395246744155884, -0.03221321478486061, 0.07189899682998657, -0.0721132829785347, -0.16630098223686218, 0.13745860755443573, 0.06446059048175812, -0.25760120153427124, -0.11668048053979874, 0.024276643991470337, 0.3362576961517334, 0.08054447919130325, 0.03692084923386574, -0.1707720309495926, 0.09053719788789749, 0.0906878113746643, 0.2261488437652588, -0.017581110820174217, -0.029003771021962166, -0.16929921507835388, -0.04339848831295967, 0.11702094972133636, -0.014509530737996101, -0.18369528651237488, -0.15866875648498535, 0.0931115671992302, -0.22727353870868683, -0.01638610288500786, 0.15931227803230286, -0.02042798139154911, 0.09909699857234955, 0.23706382513046265, -0.14648346602916718, -0.15186776220798492, -0.1820346862077713, -0.11822836846113205, 0.10798228532075882, 0.00513271801173687, -0.15243645012378693, 0.3186987638473511, 0.12564614415168762, 0.2175385057926178, 0.2163723260164261, 0.06522682309150696, 0.12058395147323608, 0.0887637510895729, -0.14716510474681854, -0.31952834129333496, -0.06236715614795685, -0.06900904327630997, -0.04981115087866783, 0.04714348167181015, -0.30059489607810974, 0.05447522550821304, 0.007506450638175011, -0.134538933634758, 0.21285480260849, -0.01138926949352026, -0.015930550172924995, -0.3529190421104431, 0.4241154193878174, 0.042711932212114334, 0.1095350980758667, -0.0038668587803840637, 0.016254017129540443, -0.05777638405561447, -0.08444789052009583, 0.1477363109588623, 0.25602987408638, 0.13253214955329895, 0.06704027950763702, -0.2379521280527115, 0.01219398807734251, -0.09757005423307419, -0.11971200257539749, -0.11182264238595963, 0.2570505738258362, -0.075222447514534, -0.13946446776390076, -0.03213337063789368, 0.029041970148682594, -0.017583219334483147, -0.1411115825176239, 0.13647431135177612, -0.11342592537403107, 0.26774510741233826, 0.3751232326030731, 0.274239182472229, 0.04096681997179985, 0.17575496435165405, 0.10127393901348114, -0.13539889454841614, -0.31220051646232605, -0.06541142612695694, 0.20027393102645874, -0.17205017805099487, 0.08005116879940033, -0.17910902202129364, -0.35611310601234436, -0.11948616802692413, 0.0789085179567337, 0.03483029454946518, 0.04003269225358963, -0.22222372889518738, -0.08346226811408997, -0.17140178382396698, -0.2806590795516968, -0.33890780806541443, 0.1463702768087387, 0.0025267116725444794, 0.07668425887823105, 0.11511228233575821, 0.13625462353229523, 0.0834883376955986, 0.03310064971446991, -0.18800108134746552, 0.11198115348815918, 0.02097417414188385, 0.019086673855781555, -0.0022225952707231045, 0.011764761060476303, -0.1455080658197403, -0.21556000411510468, -0.19592919945716858, -0.01153920404613018, -0.10334756970405579, -0.09919767826795578, -0.17536897957324982, 0.07793698459863663, -0.08830492943525314, 0.025674618780612946, -0.029723092913627625, -0.17054614424705505, 0.16397781670093536, -0.08785682916641235, 0.15079428255558014, 0.10545220226049423, -0.10153897851705551, -0.12563003599643707, 0.02806929312646389, -0.0195988267660141, 0.35458359122276306, -0.1763361692428589, 0.18880875408649445, 0.22879554331302643, 0.3822753429412842, 0.030392317101359367, -0.0499531514942646, -0.1536208689212799, -0.08697433769702911, 0.17149204015731812, -0.018591633066534996, -0.03487587347626686, 0.07764564454555511, -0.15393708646297455, 0.06886185705661774, 0.07088184356689453, -0.12478041648864746, -0.09295126050710678, 0.17676642537117004, 0.08314812928438187, 0.12571680545806885, 0.04368508979678154, -0.08375292271375656, 0.12905152142047882, 0.09982141852378845, 0.0928678810596466, 0.3051774501800537, 0.03766070306301117, -0.013708402402698994, 0.144491508603096, -0.12675143778324127, 0.06141834706068039, -0.044474098831415176, -0.06460251659154892, 0.09362496435642242, 0.014490080066025257, -0.08580116927623749, 0.02303152158856392, 0.0651073157787323, 0.44058680534362793, 0.06907663494348526, 0.05159671977162361, -0.08060469478368759, 0.08312305063009262, 0.11303563416004181, -0.004098065663129091, -0.15475521981716156, 0.06645429879426956, -0.018876928836107254, -0.103350929915905, 0.09623616188764572, 0.15886878967285156, 0.008226687088608742, -0.325025737285614, -0.07089319825172424, -0.22349834442138672, -0.12002912908792496, 0.23423419892787933, -0.13151384890079498, -0.10057379305362701, 0.07032743096351624, -0.06190870702266693, -0.34624171257019043, -0.1747702807188034, -0.004716441035270691, 0.02913825400173664, 0.27384576201438904, 0.005664472933858633, -0.11675058305263519, -0.10739286988973618, -0.20040057599544525, 0.1770077794790268, 0.20805136859416962, 0.1552550494670868, -0.1642233431339264, -0.05994824320077896, 0.22275978326797485, -0.18676355481147766, -0.01892188750207424, 0.13934700191020966, 0.1276300847530365, -0.2348870038986206, 0.25857046246528625, -0.06309432536363602, -0.055435918271541595, -0.2046082317829132, -0.21303828060626984, 0.01632069982588291, 0.13785269856452942, 0.00011301556514808908, 0.2838258445262909, -0.12121954560279846, 0.04273701831698418, 0.07271911203861237, 0.017038661986589432, -0.08229286223649979, -0.11819514632225037, 0.06458160281181335, -0.17452144622802734, -0.20802244544029236, -0.3051133453845978, -0.13631142675876617, -0.11468037962913513, 0.16669629514217377, -0.004372366238385439, -0.15828624367713928, 0.15724550187587738, -0.06395234912633896, -0.08904505521059036, -0.06896161288022995, 0.04729078337550163, 0.01273904275149107, 0.2270115613937378, 0.04682068154215813, 0.038902923464775085, -0.24860019981861115, 0.036788687109947205, -0.13902121782302856, -0.02279510535299778, 0.06297517567873001, -0.01415964961051941, -0.062047503888607025, -0.07741405814886093, -0.21022453904151917, -0.027332767844200134, -0.12612885236740112, 0.16296252608299255, -0.1032882034778595, 0.10457965731620789, 0.09553451091051102, -0.05186355859041214, -0.039143774658441544, 0.18399961292743683, 0.12326151132583618, -0.10812917351722717, -0.15304024517536163, 0.03566237539052963, 0.033359672874212265, 0.07535754144191742, -0.03262656182050705, -0.10949219018220901, 0.28919517993927, 0.223927304148674, 0.25649523735046387, -0.06564327329397202, -0.1095094233751297, 0.11323333531618118, 0.5067676901817322, -0.02857852354645729, -0.021346135064959526, 0.4479070007801056, 0.1706085354089737, 0.048424333333969116, 0.2118620127439499, 0.24019798636436462, 0.2891595959663391, 0.05964783951640129, -0.11031711846590042, -0.05885925889015198, 0.839533269405365, 0.004440838471055031, 0.06275026500225067, -0.141131192445755, -0.15018872916698456, -0.11906149238348007, 0.24835194647312164, 0.06820283830165863, 0.010604451410472393, -0.04043569043278694, 0.01877771131694317, -0.20063520967960358, 0.46804502606391907, -0.024641932919621468, -0.16702644526958466, 0.33968284726142883, -0.06497205048799515, -0.06711933016777039, -0.0027428343892097473, -0.1796533316373825, -0.19784118235111237, 0.17968890070915222, 0.06404606252908707, 0.00901686493307352, 0.19225333631038666, 0.008672349154949188, 0.22613224387168884, 0.6049442291259766, -0.23076443374156952, -0.05539562925696373, 0.1576312780380249, 0.18774178624153137, 0.01056815404444933, 0.007998069748282433, 0.1655707061290741, 0.07890115678310394, 0.1301504224538803, -0.15139710903167725, 0.03801661357283592, 0.17519603669643402, 0.022448500618338585, -0.07146614044904709, -0.18364045023918152, 0.2713773548603058, -0.09969934076070786, -0.10205996781587601, 0.3511817157268524, -0.39274242520332336, 0.25167950987815857, -0.04370862990617752, -0.012488414533436298, -0.13055036962032318, -0.13760654628276825, 0.01207575760781765, 0.18179123103618622, -0.02862236462533474, 0.03166864439845085, -0.08318817615509033, 0.07954695075750351, -0.12452536821365356, 0.11325282603502274, 0.1512290984392166, -0.2044944018125534, -0.054274603724479675, -0.22628861665725708, 0.030123719945549965, 0.04609207063913345, -0.0927753672003746, 0.12333851307630539, 0.05995436757802963, 0.08379492908716202, 0.01888168789446354, -0.1517271250486374, -0.06901348382234573, 0.0467643216252327, -0.013573095202445984, -0.07460721582174301, 0.17267118394374847, 0.22289980947971344, -0.14083604514598846, -0.013432353734970093, -0.29217424988746643, -0.1520879715681076, -0.15732379257678986, -0.24748483300209045, -0.13198056817054749, -0.11562682688236237, -0.0009133066632784903, 0.008195317350327969, 0.13746142387390137, -0.03883381560444832, -0.024896178394556046, 0.026788342744112015, -0.009903986006975174, -0.03619249537587166, 0.11835868656635284, 0.14073911309242249, 0.05469690263271332, 0.2525368630886078, -0.0851837694644928, 0.0004599039093591273, -0.11519679427146912, 0.023871498182415962, -0.08926922082901001, -0.06293817609548569, 0.013551578857004642, -0.1842278689146042, 0.009856660850346088, -0.18072642385959625, -0.07232370227575302, -0.1566494256258011, -0.10823696851730347, -0.10914380848407745, -0.018084712326526642, 0.1275937855243683, -0.198812797665596, -0.037783339619636536, 0.1588691771030426, 0.07822597026824951, 0.06540507078170776, -0.14997993409633636, 0.02472216635942459, 0.0872291550040245, 0.18106089532375336, 0.07032429426908493, -0.05823426693677902, 0.0446288175880909, -0.02992934174835682, 0.07026411592960358, 0.09754317253828049, -0.005263621918857098, -0.038366351276636124, -0.03260981664061546, 0.0978960245847702, 0.07503512501716614, -0.02395779639482498, 0.1039171814918518, 0.09103971719741821, 0.03011537715792656, 0.060990456491708755, 0.9184845685958862, 0.2696925103664398, 0.4540904760360718, -0.6852450966835022, -0.6457892060279846, -0.26833391189575195, 0.5700305104255676, 0.09233379364013672, 0.39069369435310364, 0.5300390720367432, -0.9379504919052124, 0.6009094715118408, -0.10455147176980972, -1.03746497631073, -0.2512418031692505, -0.2569097876548767, -0.1347910314798355, -0.16582244634628296, 0.39507779479026794, -0.2438633292913437, 0.08089706301689148, 0.28341859579086304, -0.07826834917068481, -0.15847250819206238, -0.19889003038406372, -0.0369904451072216, -0.2674330174922943, -0.007961660623550415, 0.19490860402584076, -0.048828136175870895, 0.3545425236225128, 0.08560830354690552, -0.19898974895477295, -0.16431599855422974, 0.5103147029876709, -0.11979418247938156, 0.15408867597579956, -0.021714860573410988, 0.11649719625711441, -0.22290906310081482, -0.28424787521362305, -0.19893482327461243, -0.4522014558315277, 0.008894797414541245, 0.2659256160259247, 0.052730169147253036, 0.31653738021850586, 0.3881743550300598, -0.35369426012039185, 0.030719591304659843, 0.09534797072410583, -0.19730718433856964, -0.0008615871774964035, -0.08312071859836578, -0.6927935481071472, -0.02559840679168701, 0.10309930145740509, -0.004971738904714584, -0.3543086647987366, -0.34034639596939087, 0.2508876323699951, 0.1317824423313141, -0.09885469079017639, 0.2123008668422699, -0.0440409779548645, 0.04076560214161873, -0.26497137546539307, 0.3057309687137604, 0.17791204154491425, 0.21893538534641266, 0.3703150749206543, 0.0823005810379982, -0.006680342834442854, -0.1487436145544052, 0.1744360476732254, -0.007689864840358496, 0.349854052066803, -0.0034807531628757715, 0.16278250515460968, -0.06055542081594467, 0.14283940196037292, -0.061937395483255386, -0.07460521161556244, 0.2064175009727478, -0.011766771785914898, -0.12482132017612457, 0.13296765089035034, -0.33132749795913696, 0.40481215715408325, 0.07858958840370178, 0.022869553416967392, 0.06974302977323532, -0.1865357756614685, -0.13057443499565125, -0.12064487487077713, 0.04702918976545334, -0.15920579433441162, 0.05181330442428589, 0.09138026088476181, 0.08069513738155365, -0.018623437732458115, 0.1550084799528122, 0.006277918815612793, 0.007273171562701464, 0.11794066429138184, 0.0849122628569603, -0.14333423972129822, 0.3057146668434143, -0.08422565460205078, 0.032090041786432266, -0.2973932921886444, -0.11828029900789261, -0.04605894163250923, -0.08204081654548645, -0.1152254045009613, 0.029405059292912483, 0.0449504517018795, -0.4194631278514862, -0.02140800654888153, 0.11310774087905884, -0.5577284693717957, -0.16082540154457092, -0.2589559257030487, -0.11437486112117767, 0.2895743250846863, -0.04232931137084961, 0.11805732548236847, -0.37158048152923584, 0.012656674720346928, 0.34187307953834534, 0.08112193644046783, 0.10332843661308289, 0.149617537856102, -0.16332216560840607, -0.0772574171423912, 0.1686112880706787, -0.11115153133869171, -0.09969544410705566, -0.27149713039398193, 0.2760046720504761, -0.0113146947696805, -0.024144798517227173, 0.2613162100315094, 0.10037610679864883, -0.3746985197067261, 0.32921311259269714, 0.03514798358082771, -0.21359674632549286, 0.13439778983592987, 0.08556226640939713, -0.3500831723213196, -0.07904559373855591, -0.0897398516535759, -0.28701674938201904, 0.027737757191061974, -0.2863138020038605, 0.17647165060043335, 0.21642139554023743, 0.04473216086626053, -0.03613036498427391, -0.013513658195734024, 0.40861937403678894, 0.18154041469097137, -0.12022370100021362, -0.12451625615358353, 0.20446577668190002, -0.245325967669487, -0.003779512830078602, -0.3352212905883789, -0.2026648372411728, -0.12618446350097656, -0.20897115767002106, 0.5324681997299194, -0.18237783014774323, 0.34566760063171387, 0.15088766813278198, -0.2031099945306778, 0.07977192103862762, -0.09026505053043365, -0.23492155969142914, -0.1659010499715805, 0.06409197300672531, -0.13327142596244812, -0.08487794548273087, 0.09450628608465195, -0.06274406611919403, -0.1758459061384201, -0.18375076353549957, 0.06050313264131546, 0.11106883734464645, 0.07342434674501419, -0.011297173798084259, 0.26889801025390625, 0.02685115672647953, -0.4604513645172119, -0.030205724760890007, -0.24693751335144043, -0.3434649705886841, 0.11443667858839035, 0.09139426797628403, 0.04433082416653633, 0.3899673819541931, 0.4080377519130707, 0.279996395111084, -0.13507570326328278, 0.4841376543045044, 0.025918330997228622, 0.05645594745874405, 0.08377841114997864, 0.14105580747127533, 0.19188392162322998, 0.2630981504917145, -0.25018852949142456, 0.07117398083209991, -0.24714283645153046, 0.12576326727867126, 0.0010606570867821574, -0.005754825659096241, -0.30223268270492554, -0.1130785420536995, -0.13493207097053528, 0.2573116421699524, -0.01587766967713833, -0.09661919623613358, -0.01688763126730919, 0.19777138531208038, 0.004086443223059177, 0.2437729388475418, 0.13989894092082977, -0.03248577564954758, -0.09642878919839859, 0.08105074614286423, -0.14805498719215393, 0.2346990406513214, 0.2618131935596466, -0.08923029899597168, -0.2764950096607208, -0.2127017229795456, -0.08083897829055786, 0.07045730948448181, 0.22245420515537262, -0.033909138292074203, 0.23733146488666534, 0.1841743439435959, -0.20017632842063904, -0.16555002331733704, 0.10496240109205246, 0.0926852747797966, 0.08918370306491852, -0.008810734376311302, -0.3115233778953552, 0.004872122313827276, 0.06326854228973389, 0.04485825449228287, 0.021136213093996048, 0.3114871382713318, 0.24391843378543854, 0.1527392417192459, -0.6910866498947144, 0.37605020403862, -0.14508657157421112, -0.407603919506073, 0.2586374282836914, 0.06925110518932343, -0.14291733503341675, 0.025714414194226265, -0.004250853788107634, 0.2118692845106125, -0.056729719042778015, 0.045995913445949554, 0.17685773968696594, 0.03678210824728012, -0.16780929267406464, 0.016988955438137054, 0.02041447162628174, -0.06927651911973953, 0.03831688314676285, 0.0367867648601532, 0.01911112107336521, 0.10017739236354828, -0.0857912227511406, 0.09217771142721176, 0.040674593299627304, -0.02961907908320427, 0.0018585193902254105, -0.20284463465213776, -0.019387874752283096, 0.009057085029780865, 0.03387943655252457, -0.026759140193462372, 0.029897291213274002, -0.006811171304434538, 0.10490263253450394, 0.02905074879527092, -0.10260306298732758, -0.05300324410200119, -0.17406663298606873, 0.08333664387464523, 0.19164004921913147, -0.5450160503387451, -0.025971269235014915, 0.07739076763391495, -0.052358388900756836, 0.035644859075546265, -0.0917583629488945, 0.10399983823299408, -0.05282335355877876, 0.07648242264986038, 0.10268513113260269, 0.15466782450675964, 0.13215197622776031, 0.0675976499915123, 0.015401751734316349, -0.0507936030626297, 0.14893673360347748, 0.1520434319972992, -0.11678069084882736, 0.08608869463205338, 0.1062307357788086, 0.12192356586456299, -0.18969549238681793, -0.04123588651418686, 0.03255791589617729, -0.22397133708000183, 0.07481584697961807, 0.0531015582382679, 0.05968674644827843, -0.08890213817358017, -0.007361346390098333, -0.3046710789203644, 0.13350267708301544, -0.1531546413898468, 0.17504051327705383, -0.0057394420728087425, 0.10587704926729202, -0.030757034197449684, -0.18532928824424744, -0.047490429133176804, 0.2991662919521332, 0.09077293425798416, -0.016333622857928276, -0.17105363309383392, -0.004189792089164257, -0.1680029332637787, 0.29163429141044617, -0.30169689655303955, -0.0740623027086258, 0.042220503091812134, 0.19450335204601288, 0.11231754720211029, -0.3226335644721985, 0.20129287242889404, -0.043524786829948425, -0.2882515490055084, -0.2848697006702423, 0.07938367873430252, 0.3555302023887634, 0.011934190057218075, -0.004166971426457167, -0.251027911901474, -0.14079280197620392, -0.007478822488337755, 0.35431867837905884, 0.21664689481258392, 0.03663448244333267, -0.04338233545422554, 0.009965733624994755, -0.2562294602394104, 0.22875091433525085, -0.2993261218070984, -0.2242751568555832, 0.1439037322998047, -0.06688793748617172, -0.24186156690120697, 0.23831020295619965, -0.18237121403217316, -0.1254163682460785, 0.24131081998348236, 0.25813090801239014, 0.044704824686050415, -0.21796484291553497, -0.2232784628868103, -0.06543245166540146, 0.019114257767796516, -0.16503912210464478, -0.010867542587220669, 0.1604979932308197, 0.1733987182378769, 0.1661480963230133, -0.014337817206978798, 0.0351199209690094, 0.01361763570457697, -0.36163121461868286, -0.08941145986318588, 0.03831135854125023, -0.15353815257549286, -0.019196433946490288, -0.08580877631902695, -0.1501210629940033, 0.1249319463968277, 0.06554196774959564, -0.004443364217877388, -0.0584615021944046, -0.033540207892656326, -0.024673277512192726, 0.1398870050907135, -0.04584240913391113, -0.1535380482673645, 0.022539056837558746, -0.13297201693058014, -0.08331025391817093, 0.323139488697052, -0.13485553860664368, -0.1179257407784462, 0.02782343700528145, 0.13282303512096405, -0.13776563107967377, -0.08684765547513962, 0.04661310091614723, 0.014221700839698315, -0.1424914002418518, 0.02799987979233265, 0.11571548879146576, -0.14970681071281433, 0.05641695111989975, 0.1538155972957611, 0.2626911699771881, 0.008629587478935719, 0.012641792185604572, 0.04497956484556198, -0.16979137063026428, 0.11994369328022003, -0.006112327799201012, 0.055304884910583496, 0.15699057281017303, -0.12298459559679031, -0.1933148056268692, -0.12031727284193039, -0.12708735466003418, -0.09166085720062256, 0.08048585057258606, -0.10402573645114899, -0.06917969882488251, -0.15706685185432434, 0.086970753967762, -0.09477954357862473, -0.09324681758880615, -0.08007539808750153, -0.07605578750371933, 0.21420274674892426, -0.16205337643623352, 0.18919697403907776, 0.35506436228752136, 0.08716921508312225, -0.0584125891327858, 0.03635457158088684, -0.05746057629585266, -0.07163681834936142, 0.020647889003157616, -0.1472289115190506, -0.022794906049966812, 0.13617877662181854, 0.004808242432773113, 0.07242369651794434, -0.031503017991781235, 0.01673842966556549, -0.10612630099058151, -0.224749356508255, 0.07841256260871887, 0.11112134903669357, -0.04225584492087364, 0.0050237360410392284, 0.09212992340326309, -0.22494208812713623, -0.11001961678266525, -0.08163616061210632, 0.08984744548797607, 0.0955902710556984, 0.11065758019685745, 0.11208388209342957, 0.1517316848039627, 0.1705196648836136, 0.08634339272975922, 0.01145767793059349, -0.025568945333361626, 0.3292964696884155, 0.3516988456249237, -0.13734816014766693, 0.22302192449569702, 0.35106396675109863, 0.13506102561950684, 0.060870297253131866, -0.18285734951496124, -0.1863468438386917, 0.2478448450565338, -0.1339908391237259, 0.006574820261448622, 0.0035208826884627342, -0.1663106083869934, -0.10515101999044418, -0.13828952610492706, -0.07166833430528641, 0.2719840407371521, 0.18869447708129883, 0.27567020058631897, 0.081300288438797, 0.056883104145526886, 0.19495642185211182, 0.19272150099277496, 0.330145925283432, 0.2129160463809967, 0.012694021686911583, -0.1336497962474823, 0.25309428572654724, 0.03795717656612396, -0.35324549674987793, -0.23711258172988892, 0.1560281366109848, -0.12007416039705276, 0.072612464427948, 0.0504341684281826, -0.16067780554294586, -0.27118390798568726, -0.09298780560493469, 0.07043115049600601, -0.33225032687187195, -0.07695648074150085, 0.3999199867248535, -0.10391991585493088, -0.11164072155952454, -0.18001708388328552, 0.030491728335618973, 0.04458726942539215, -0.07473929226398468, 0.18863296508789062, 0.00035868119448423386, -0.18418288230895996, 0.12832379341125488, -0.056629788130521774, 0.05905832350254059, -0.05663198605179787, 0.004542489070445299, -0.026812924072146416, -0.051098667085170746, 0.06953273713588715, -0.026128320023417473, 0.2578217089176178, -0.059723518788814545, -0.036460328847169876, -0.01182308979332447, 0.10658251494169235, -0.09410267323255539, -0.08228688687086105, -0.15989091992378235, -0.004475411027669907, 0.09583914279937744, 0.10322371870279312, -0.2019289880990982, 0.02575758285820484, -0.04436604306101799, -0.012071569450199604, -0.2107943296432495, -0.010371943935751915, 0.13729645311832428, 0.013145686127245426, -0.08275102823972702, 0.016039665788412094, -0.20102496445178986, -0.03214593976736069, 0.21695682406425476, 0.18118761479854584, 0.14636430144309998, -0.19988104701042175, 0.09579753875732422, -0.0067543829791247845, 0.12480846047401428, -0.22300191223621368, -0.038663167506456375, 0.16201503574848175, 0.1612635850906372, -0.029440218582749367, -0.1969454437494278, 0.0726618841290474, -0.04819078370928764, 0.042759835720062256, -0.4496484398841858, -0.13593612611293793, 0.18031005561351776, 0.26091501116752625, 0.2789214551448822, -0.2908249497413635, 0.3100878596305847, 0.13873152434825897, -0.042319197207689285, 0.019634297117590904, 0.03411373496055603, -0.05283093452453613, 0.12283270061016083, -0.07140625268220901, 